
-0.0672426 0.345803 0.301623 0.358274 0.148039 -0.360828 -0.285051 -0.00948612 0.310423 0.298699 0.243654 0.103233 -0.400073 -0.201631 0.394344 0.167714 -0.119766 0.134448 -0.415869 0.210496 0.000329554 0.34931 0.43552 -0.298772 -0.157902 -0.441528 0.160591 0.153733 -0.314365 0.418406 -0.230694 -0.341768 0.290838 -0.225072 0.0474947 0.0960655 0.367567 0.118703 0.447173 0.494138 -0.41676 0.468203 -0.440174 0.423271 0.156226 0.100322 0.101928 -0.248727 
0.0814618 -0.16295 -0.150514 -0.154264 -0.385669 -0.053696 -0.255206 -0.256164 -0.330793 -0.00150052 0.491783 0.394973 0.281701 0.458143 0.0416731 -0.203999 0.0347537 0.352502 0.229292 0.00697879 0.11908 -0.466112 -0.0493694 -0.449255 -0.165488 0.190924 -0.364713 0.236565 0.299324 0.452286 -0.300671 -0.0657881 -0.0155805 0.168487 0.11758 -0.116634 0.220633 0.327564 -0.351815 0.448969 0.0304797 -0.385057 0.135777 0.241065 0.456879 -0.299842 -0.36871 0.234582 -0.083851 0.168639 -0.109017 -0.00277108 0.287672 0.201658 -0.360492 0.339609 -0.392759 0.237009 -0.101534 0.185199 -0.247081 0.349156 -0.089784 -0.16737 -0.0118391 0.203121 0.447835 0.134453 0.145997 -0.237509 -0.112005 -0.296878 0.188837 0.250835 0.248506 -0.299759 -0.338422 0.0940042 0.270414 0.319756 -0.418398 -0.248698 0.116534 0.188522 0.131098 -0.0209385 -0.365363 -0.421309 -0.375278 -0.448856 -0.0147569 0.45394 0.0535445 0.481803 0.142302 0.354406 
-0.0860351 -0.295683 -0.0519071 0.447402 0.268898 0.143662 -0.418585 0.0896395 0.145586 -0.219284 -0.221442 -0.097425 -0.0942522 0.389516 -0.125133 0.0985628 -0.280471 0.346784 -0.267111 0.243211 -0.236834 0.469239 0.296154 0.162871 0.0370383 0.243922 -0.46135 -0.355303 0.117994 0.168986 0.146853 0.447529 0.151161 -0.35782 0.0650519 -0.193467 -0.346428 0.0552065 0.184236 -0.0745866 -0.239704 0.0984283 -0.447399 0.337045 0.0461341 0.461119 0.284581 -0.346682 -0.105348 0.0726628 0.487741 0.190628 0.24419 0.302446 0.370154 0.143975 0.0809665 0.497783 -0.12732 -0.272471 0.136711 0.191189 0.2723 -0.369828 0.322304 -0.118111 0.21487 0.35332 -0.378326 0.213176 -0.248979 0.0130512 0.0368323 -0.362285 -0.205725 -0.307225 0.26832 0.435327 0.18039 -0.133688 -0.363827 0.182018 0.298093 -0.495962 0.461581 0.461085 -0.418 -0.119296 -0.0792678 -0.0655097 0.0519147 0.312453 -0.150343 -0.0572468 0.465437 0.256648 -0.00204856 0.422295 -0.0524077 0.427811 0.0356614 -0.295619 -0.327356 0.386742 0.0842659 0.12942 -0.307255 0.0767009 0.449322 0.151714 0.326191 -0.31685 0.00214703 -0.47587 -0.367119 0.310236 0.222337 0.170282 0.102148 -0.0521626 0.276509 -0.17513 -0.230104 -0.1903 -0.249469 -0.442299 -0.205682 0.0999179 0.459133 -0.272017 0.229578 0.214416 -0.256403 0.344489 0.0945111 -0.381523 0.235036 0.267341 -0.230946 -0.00774611 0.0204303 0.17432 0.0637289 -0.0910771 


0.322202 -0.327058 0.311285 0.429442 0.318939 0.392886 -0.0170134 -0.182562 0.426774 -0.348526 0.0175962 0.163783 