0.113767 0.857542 -0.0308724 0.19066 -0.476697 -0.676581 -0.695654 0.165892 0.249764 -0.0310676 0.0379842 0.518974 -0.567635 0.603793 0.280636 0.187408 -0.16928 -0.162407 -0.031485 0.317664 0.0863612 0.394213 0.419285 0.00191598 0.063394 -0.746831 0.149011 0.224978 -0.278682 0.952713 -0.940961 -0.62085 0.255785 -0.307258 0.152023 0.253972 0.587249 -0.258315 0.465092 0.361438 -0.411238 0.88836 -0.604401 0.535938 0.103228 -0.0718727 0.161067 -0.544131 
0.0209053 -0.391593 -0.107256 -0.263171 -0.424855 -0.0298322 0.112936 -0.153897 -0.443296 0.0019932 0.522677 0.51596 0.203835 0.363979 -0.0294008 -0.127315 0.102807 0.272044 -0.0102363 0.0299194 0.108091 -0.338471 -0.311355 -0.306455 -0.136438 0.271281 -0.396059 0.254859 0.38285 0.38914 -0.242244 -0.280513 -0.0139011 0.19643 0.133 -0.0864452 0.309664 0.315001 -0.305478 0.395616 0.0132829 -0.448881 0.154486 0.291536 0.486649 -0.350668 -0.273147 0.47326 -0.0931401 0.24529 -0.050742 -0.0217134 0.184428 0.00489573 -0.626823 0.43685 -0.256793 0.168184 -0.164117 0.147365 -0.248881 0.0119575 0.012524 -0.3795 -0.181356 0.158278 0.663267 0.251873 0.192695 -0.363402 -0.137082 -0.278728 0.168309 0.190466 0.381489 -0.510789 -0.51936 -0.0660671 0.502227 0.496537 -0.376428 -0.34805 0.277317 0.341866 0.229362 0.293552 -0.423362 -0.278581 -0.263574 -0.47368 -0.308673 0.257146 0.126428 0.493731 0.199644 0.334761 
-0.411442 -0.464175 -0.220433 0.426418 0.470722 0.411223 -0.476823 0.128781 0.438597 -0.163842 -0.0209419 -0.304843 -0.0333504 0.26629 0.031425 0.0413109 -0.279296 0.0994427 -0.211024 -0.128008 -0.44392 0.356862 -0.0753138 0.458665 -0.662864 0.164419 -0.276343 -0.375129 0.0932605 0.103809 0.424895 0.83818 0.234642 -0.460436 0.262686 0.00309579 -0.464225 0.214827 0.00200304 -0.0173233 -0.199312 0.107301 -0.6917 0.155381 0.0947198 0.556925 0.129517 -0.622262 -0.105348 0.0726628 0.487741 0.190628 0.24419 0.302446 0.370154 0.143975 0.0809665 0.497783 -0.12732 -0.272471 0.136711 0.191189 0.2723 -0.369828 0.322304 -0.118111 0.21487 0.35332 -0.378326 0.213176 -0.248979 0.0130512 0.0368323 -0.362285 -0.205725 -0.307225 0.26832 0.435327 0.18039 -0.133688 -0.363827 0.182018 0.298093 -0.495962 0.461581 0.461085 -0.418 -0.119296 -0.0792678 -0.0655097 0.0519147 0.312453 -0.150343 -0.0572468 0.465437 0.256648 -0.00204856 0.422295 -0.0524077 0.427811 0.0356614 -0.295619 -0.327356 0.386742 0.0842659 0.12942 -0.307255 0.0767009 0.449322 0.151714 0.326191 -0.31685 0.00214703 -0.47587 -0.367119 0.310236 0.222337 0.170282 0.102148 -0.0521626 0.276509 -0.17513 -0.230104 -0.1903 -0.249469 -0.442299 -0.205682 0.0999179 0.459133 -0.272017 0.229578 0.214416 -0.256403 0.344489 0.0945111 -0.381523 0.235036 0.267341 -0.230946 -0.00774611 0.0204303 0.17432 0.0637289 -0.0910771 
0.322202 -0.327058 0.311285 0.429442 0.318939 0.392886 -0.0170134 -0.182562 0.426774 -0.348526 0.0175962 0.163783 
