
0.432836 0.843394 -0.324283 -0.179928 -0.209439 0.129993 -0.999735 0.26668 0.577242 -0.185386 0.0669036 -0.131541 0.635748 0.676415 0.6408 0.449388 -0.969815 -0.39349 0.823868 -0.000856617 0.613953 0.0391801 0.128727 -0.0290367 -0.475902 0.436031 0.880594 0.867981 0.755374 -0.87559 -0.952567 -0.0392917 0.790035 -0.571391 -0.663879 0.566031 -0.946579 0.529809 0.853906 0.276869 -0.560151 0.299627 -0.889616 0.587379 0.919579 -0.823721 0.329641 0.384019 0.699516 0.50357 0.451801 0.209148 -0.205316 0.194456 -0.947988 -0.818922 -0.635589 -0.696427 -0.0847382 0.739351 0.505263 0.554224 0.503096 0.935242 -0.832796 -0.513075 -0.888936 -0.651357 0.722645 -0.0632473 0.364385 0.94318 0.100454 0.808515 0.827636 0.606996 -0.552733 -0.664869 0.56039 -0.648653 0.400633 -0.0329513 0.58746 0.604745 0.845947 -0.195979 0.952226 0.514629 -0.227698 0.474534 0.0231287 0.516117 0.874054 -0.943796 0.441434 0.0427737 -0.849045 -0.300484 0.420636 0.490332 0.886976 0.65902 -0.234259 0.67668 -0.0925199 0.0266304 -0.155201 0.673414 -0.307673 -0.365108 0.290368 -0.32002 -0.421885 0.00114813 0.130608 0.259899 -0.120263 0.481934 -0.205446 0.253136 
-0.465965 0.504999 -0.493853 -0.647906 -0.466828 -0.586234 0.293503 -0.191868 0.723394 0.847804 0.10094 -0.0678095 -0.631814 0.856193 -0.219769 -0.0358311 0.100333 0.54007 0.735181 -0.275153 0.189047 -0.284759 -0.502114 0.0610795 0.535429 -0.275043 -0.00592717 -0.789241 0.856948 -0.295056 0.0619942 -0.743549 -0.219452 0.911156 -0.284822 0.0795889 -0.0524304 -0.570496 0.201806 -0.058843 0.475193 -0.0198087 0.486338 0.838432 -0.628396 -0.21463 -0.921126 -0.112994 -0.3896 -0.541797 0.559143 -0.508666 -0.14048 -0.284287 0.495945 -0.539886 0.560446 0.100517 -0.164302 0.560545 0.831251 0.435996 0.488007 -0.0759619 -0.816063 -0.863836 -0.560263 -0.804889 -0.0103343 -0.5358 0.526194 0.782645 -0.436807 -0.52565 0.189527 -0.730884 0.216686 0.64619 -0.152004 0.789153 0.264345 -0.755463 0.730875 0.569307 0.940911 -0.273718 -0.194845 0.692161 -0.697439 -0.239235 
-0.505903 0.464834 0.670762 0.303161 0.284185 0.90298 -0.532329 0.0509093 -0.850668 -0.337854 0.0402806 0.159914 -0.0556652 -0.666623 0.557339 0.089744 -0.0468208 -0.23687 0.030812 0.269416 0.292233 -0.431445 -0.39812 0.100211 -0.655901 -0.785932 -0.715438 -0.208143 0.427612 0.740669 -0.250408 -0.188758 0.733854 -0.440771 -0.657467 -0.224491 -0.654035 0.399739 0.850904 0.306427 -0.399315 -0.398198 0.557867 0.211374 0.690005 0.102275 0.456703 -0.569873 -0.332386 0.734365 0.357181 -0.0881242 0.997936 -0.112603 0.783942 0.616947 0.0574917 -0.929569 -0.171206 -0.863644 -0.680092 -0.997021 0.0237995 0.88242 0.970354 -0.510983 0.839194 0.530996 0.303448 0.576886 -0.280618 0.587513 -0.277643 0.850811 0.571279 -0.846746 -0.146759 0.948232 -0.853148 -0.365175 0.0610652 -0.573343 -0.265858 -0.0692998 0.668715 -0.0893601 0.435606 0.767728 0.709699 -0.877939 0.758442 0.96272 -0.613525 0.244072 -0.721742 0.00349612 -0.229768 0.545006 0.614166 -0.667093 -0.656559 -0.555901 -0.152686 -0.198953 -0.391752 0.239076 0.615325 0.803411 -0.809274 -0.786249 0.625609 -0.874106 0.691624 -0.94661 0.107229 0.24488 0.553978 -0.91591 0.996167 -0.65745 
-0.865708 0.0918356 -0.0938409 -0.408989 -0.143796 -0.980646 -0.628314 -0.675931 -0.965826 -0.884154 -0.942246 0.399836 0.234503 0.12601 0.0220051 -0.351235 0.7436 0.253857 0.497696 0.346074 -0.0351255 0.859446 0.311611 -0.102469 0.287893 -0.909116 -0.118548 0.960376 -0.9123 -0.45825 0.58858 -0.772474 -0.251184 0.947146 0.853361 -0.513889 -0.043392 -0.1603 -0.171402 0.813737 0.194929 0.498358 -0.57172 0.0561233 -0.0371156 0.142075 0.351719 -0.0856086 -0.426445 0.802585 0.970673 0.165457 -0.894431 -0.928086 -0.769135 0.0267964 -0.792235 0.247644 0.423633 0.145256 -0.141883 -0.98965 0.218317 -0.41091 0.163061 -0.0699696 -0.758785 -0.754886 0.643371 -0.589295 -0.646337 0.386471 -0.587906 0.653721 0.629022 -0.0572471 0.954918 0.342125 0.894935 0.874136 0.713802 -0.634377 0.695788 0.281406 -0.820177 0.367522 0.994645 -0.361459 -0.960993 0.521948 0.262457 0.868781 0.141414 -0.59537 0.217736 -0.456136 0.00861644 -0.491064 -0.600725 0.856277 0.748707 -0.469436 0.771393 -0.731943 0.137581 -0.846663 0.7483 -0.684743 -0.250714 0.646517 -0.447388 0.604577 0.885063 0.27985 0.41791 -0.179331 0.259642 -0.961601 0.0281501 0.733167 -0.367273 -0.263982 -0.517875 -0.674641 0.41168 0.26398 -0.118189 -0.456034 -0.942765 -0.797809 0.331299 -0.142439 -0.967437 -0.206746 -0.315684 0.656658 -0.939555 0.296543 0.675065 0.228282 0.40331 -0.737364 -0.372159 -0.467375 -0.0699058 -0.803437 -0.0530478 -0.715501 -0.979179 -0.773363 0.871628 -0.824766 0.630835 -0.716543 -0.145522 -0.595747 0.416205 0.827398 0.23041 0.138978 0.834558 0.642842 0.699026 0.405644 -0.313042 -0.881984 -0.502679 -0.896721 -0.669403 -0.485644 0.348425 0.636298 1.49361e-05 0.973439 -0.786618 -0.245931 0.713755 0.118031 -0.529241 -0.683339 0.475853 -0.771889 -0.533544 -0.892942 0.589104 0.449292 -0.558507 0.220525 0.958868 -0.292865 0.920052 -0.241846 -0.137676 -0.81302 0.173591 -0.972891 -0.468143 -0.688384 -0.371527 -0.605884 0.833005 0.238992 -0.768332 0.386627 -0.856269 -0.980016 -0.587417 -0.741223 0.170398 -0.544653 -0.351543 -0.193301 0.701786 -0.590609 -0.312985 -0.964915 -0.312405 0.72177 -0.178026 -0.0542079 0.0266754 0.142942 -0.629772 0.628673 0.969843 0.436066 0.829957 -0.594687 0.0028514 0.691613 -0.74196 -0.224251 -0.368747 -0.854207 -0.938159 0.886713 -0.209489 -0.932681 0.97575 -0.532846 

