
0.89763 -0.876796 -0.851882 0.538897 -0.62294 -0.681441 -0.481626 0.4719 0.601304 -0.943044 -0.785672 0.95464 0.699083 -0.945455 -0.270605 0.958503 -0.0713012 -0.354628 -0.655802 0.371634 -0.500028 0.143839 0.607218 0.968164 -0.206001 -0.223807 -0.963781 0.251117 -0.707739 0.0464017 0.770547 0.5793 -0.282398 0.976792 0.290421 0.893693 0.828049 0.830757 -0.522344 0.496726 0.977848 -0.591338 -0.839147 -0.0986533 -0.872254 -0.548957 0.148646 -0.63365 -0.0370281 -0.660881 -0.757508 0.479471 0.517121 0.645354 -0.590157 0.0732466 -0.0880022 -0.950232 0.566931 0.433043 -0.583702 0.918905 -0.104187 -0.363581 -0.56534 0.289392 0.736635 -0.938642 0.577821 0.0820354 0.772243 0.726193 0.611954 -0.608889 -0.610316 0.570824 0.284315 0.190729 -0.387074 -0.369462 0.0883601 0.127437 -0.925471 0.125528 0.882518 -0.700928 0.41923 -0.52143 -0.694394 0.309334 -0.791708 0.357527 0.567169 0.972968 0.280255 -0.626531 0.816765 0.369529 0.724508 -0.794926 0.753225 -0.6683 -0.982358 -0.42708 -0.798705 0.559807 -0.014345 -0.1403 -0.701162 0.0707176 -0.445483 0.873234 0.565721 -0.103137 0.439371 0.120392 0.407853 0.751089 0.4361 -0.346381 
-0.0498356 -0.0816715 0.815191 0.697709 -0.229044 -0.192826 -0.784973 -0.306403 -0.739472 0.30693 0.960549 -0.820111 0.524758 0.279469 0.810373 0.46167 -0.467803 0.652492 0.0650481 0.913704 -0.928305 0.613549 -0.815379 -0.421091 -0.764214 0.454324 0.146519 -0.43651 0.456324 -0.869373 0.383864 0.0292175 0.823217 0.262588 0.56166 -0.526342 0.724775 0.475863 0.781469 0.214512 -0.835323 0.0830051 -0.101804 -0.404094 0.366861 -0.825964 -0.610937 0.08266 0.343188 -0.349882 -0.389333 -0.209444 -0.684686 0.594783 0.405156 -0.133174 0.399022 0.0515142 -0.883438 -0.969733 -0.78066 0.344868 0.754711 -0.469095 0.651296 0.0705269 0.120295 0.412556 -0.151344 -0.84201 0.541854 -0.428928 -0.605711 0.656877 0.218537 0.692196 0.416971 -0.107166 -0.325697 0.888815 -0.946508 0.136497 -0.965306 -0.369401 0.997461 -0.828504 -0.439441 0.643219 -0.0135933 0.636525 
-0.980557 0.71551 0.353062 0.874725 -0.830849 -0.381151 -0.752541 0.466111 0.919153 -0.84467 -0.987953 -0.271338 -0.970936 -0.59312 0.428126 0.922392 0.876177 -0.293799 0.0248381 -0.194627 -0.833384 -0.042564 0.905825 0.874635 0.59787 -0.843026 0.318354 0.991314 -0.548582 -0.758862 -0.898039 0.037748 0.244126 -0.285173 0.219826 -0.39576 0.335484 0.817192 0.117582 -0.232079 -0.986165 -0.190763 0.80264 -0.907358 -0.8948 -0.241405 0.93828 0.0110033 0.996136 -0.636023 -0.135206 0.800625 0.11604 0.65959 0.145971 0.322218 0.627337 0.586624 -0.559486 0.959262 -0.752808 0.209432 -0.52096 -0.646999 -0.956318 0.87916 0.786925 -0.12961 0.558489 0.534795 -0.543763 0.758958 -0.786518 -0.681725 0.888205 -0.620209 0.476209 0.539899 -0.394981 -0.348688 0.482349 0.227835 0.279799 0.669762 0.782319 0.022318 -0.0646879 -0.0418358 -0.268573 0.794416 -0.927065 0.900131 -0.0521552 0.872186 0.31567 0.670363 0.233866 0.485554 0.634664 0.508392 0.886772 -0.102188 -0.352088 -0.345661 -0.105763 0.841545 -0.968493 -0.281753 0.7535 -0.165563 -0.426504 -0.614438 0.828217 0.750812 -0.695929 0.181812 -0.876273 -0.842069 0.408854 -0.853037 
0.0753026 0.0341489 -0.839288 0.917655 0.0742151 0.200638 -0.71639 0.493046 0.975181 0.380539 -0.771359 0.0902206 -0.050062 0.00932952 0.541251 -0.853704 -0.266195 -0.849424 0.292939 0.0342969 0.644943 -0.885656 -0.620783 -0.61684 -0.29925 -0.345727 0.655595 -0.474487 -0.668324 -0.148673 0.947212 -0.310108 -0.209086 -0.55398 0.230543 -0.669628 -0.51693 0.445187 -0.898385 0.756056 -0.364254 0.334396 0.392399 -0.208492 -0.0521115 0.0817663 -0.43506 0.722771 0.805288 -0.606925 0.183382 -0.679004 0.658064 0.139684 0.785474 0.974889 -0.870299 -0.260169 0.704624 0.508244 0.123642 -0.477224 0.923212 -0.974381 0.285401 -0.736674 -0.69175 0.898101 0.065013 -0.974768 0.96795 0.816494 0.247369 0.587789 0.948444 0.99357 0.276716 0.510695 0.896039 0.846546 -0.348363 0.301948 0.478645 0.712533 -0.794467 -0.760574 0.250392 0.472215 0.434646 0.716229 -0.864535 0.0969375 0.103054 -0.263406 0.194874 0.847998 -0.353953 0.34248 0.986986 -0.332911 -0.833927 -0.637724 0.477945 0.0839231 -0.488092 -0.097333 0.55715 0.325943 -0.112815 0.854388 -0.110347 -0.775762 -0.874664 0.249461 0.332334 0.973576 -0.693676 0.0280025 -0.193389 -0.341724 0.0308491 0.42686 0.466705 0.685337 0.891231 -0.946329 0.251401 0.601035 -0.848678 -0.567778 0.323536 0.662211 -0.87893 0.578182 0.898927 0.00887271 -0.962473 -0.825259 -0.170417 0.499962 0.185619 -0.530251 0.498277 -0.508206 -0.49577 -0.236199 -0.631324 -0.492851 -0.436961 -0.321029 0.593384 0.868638 0.875511 0.0327881 -0.822753 -0.914822 -0.165398 -0.360688 0.401464 -0.315603 -0.680905 0.513572 -0.767304 0.270102 -0.332981 0.351883 0.690819 -0.682126 -0.442628 0.306331 -0.246653 -0.624784 -0.359909 -0.929055 0.539028 -0.976551 -0.358092 0.991974 0.761764 0.856901 -0.934383 0.94824 -0.254679 -0.86302 -0.33429 -0.863439 0.487267 -0.23123 -0.45999 -0.342315 0.898325 0.344169 0.882111 -0.511751 0.403006 -0.964695 -0.34072 -0.981328 0.975516 -0.828224 -0.613445 0.316964 0.916997 0.319685 0.594644 -0.125196 -0.28003 0.952302 -0.868505 0.613316 -0.149679 -0.108254 0.483493 0.448459 0.530313 -0.829994 0.442641 -0.641703 -0.831571 0.482615 -0.201416 0.0559567 0.208618 0.0601756 -0.432584 -0.752957 -0.413731 0.378623 -0.231416 -0.074287 -0.584528 -0.931115 0.022822 0.824541 -0.865669 0.475648 -0.459008 0.269865 -0.58919 0.512954 

