
0.211176 0.887759 -0.728863 -0.0313375 0.489146 0.820491 -1.32308 0.0545633 0.236988 -0.0989383 0.0645324 -0.538497 0.420342 0.421495 0.439849 -0.165122 -1.04081 -0.134867 0.58622 0.299568 1.34964 -0.0174479 -0.400072 -0.481429 -0.570573 0.877072 2.99198 0.803815 0.829128 -0.758663 -0.89111 -0.163531 0.670906 -0.675206 -1.54308 1.40474 -1.40097 0.737381 1.61734 0.0560464 -0.705169 0.357856 -0.720632 0.581567 1.13258 -1.17929 0.177124 0.491311 0.951692 0.599952 -0.0287362 0.305373 -0.208235 0.416009 -1.21878 -0.460159 -1.03185 -0.567072 0.0733015 0.788763 0.44747 0.174911 -0.141741 0.841415 -1.04704 -1.05273 -0.805797 -0.780914 1.73779 0.318656 0.549235 1.42693 0.316646 0.677237 1.05285 1.89999 -0.651284 -1.03088 0.486279 -0.233782 -0.0242793 0.161572 0.504471 0.640704 0.399979 -0.156553 0.816351 0.279765 -0.28898 0.353117 -0.487301 -0.0755242 0.42644 -0.971218 2.03572 0.809995 -0.258197 -0.393593 0.0869318 1.39063 0.900896 1.9373 -0.377819 0.357041 0.276733 0.162902 -0.346796 0.563546 -0.292436 0.376837 1.73177 -0.155995 0.145304 -1.09114 0.21177 0.280311 -0.393161 0.634193 -0.283009 0.336383 
-0.488677 0.151883 -0.36318 -0.880068 -0.0521806 -0.0273719 -0.0538601 -0.249443 0.0182845 0.109519 -0.112754 0.0243794 -0.427047 0.487563 0.12785 -0.0269244 0.0564452 0.207953 0.661475 -0.360441 -0.0373645 -0.0238625 -0.434486 -0.0150668 0.0348114 -0.366743 0.0186452 -0.947884 0.873709 -0.414575 -0.650829 -0.647509 -0.487176 1.08673 0.0228459 0.00718058 0.127721 0.106156 -0.00467997 -0.0485792 0.668531 0.0205083 0.473511 0.569094 -0.670043 0.0108592 -0.43688 -0.318045 0.0758663 -0.505227 -0.116761 -0.12199 -0.0479471 -0.240474 0.0673247 -0.0625156 4.93535e-05 -0.0831796 0.031854 0.443533 0.582683 0.312547 0.40706 -0.251801 -0.0439157 0.0185914 0.2354 -0.156948 0.00554751 -0.126432 -0.120581 0.0280768 -0.113529 -0.566374 0.311051 0.0125157 0.224956 0.284005 -0.373529 0.419341 -0.0100753 -0.451986 0.267114 -0.311735 0.113258 0.229134 0.0149204 0.622974 -0.617343 -0.31469 
-0.238548 0.61751 0.487634 0.43689 -0.44674 0.421614 -0.404058 -0.00607563 -0.275564 0.462452 -0.222059 -0.398539 -0.345763 -0.618854 0.171084 0.329138 -0.147707 -0.0811736 0.143394 0.0930276 -0.423036 -0.204769 -0.534195 -0.159161 -0.403249 -0.273651 -0.244986 0.0701066 0.56232 0.504209 -0.315695 0.253088 0.636189 -0.168654 0.185768 0.165905 -0.669843 0.424335 0.248667 0.912127 -0.583797 -0.100117 0.249483 0.168665 0.652936 0.290746 0.396597 -0.144249 -0.245321 0.800092 0.431971 -0.552433 0.758148 -0.432956 0.696448 0.985301 0.284745 -0.311405 -0.308382 -0.756285 -0.820387 -0.717926 -0.203569 0.886028 0.182912 -0.581418 0.406157 0.710027 0.299715 -0.118666 -0.218424 0.59786 -0.186596 0.757896 0.502235 -0.477209 -0.182401 0.893188 -0.64393 -0.054696 -0.664436 -0.955554 -0.28328 0.162667 0.135926 0.0239154 0.23362 0.771456 0.546962 -0.84536 0.510464 0.990391 -0.361263 0.244788 0.0272806 0.248909 -0.123045 0.613614 0.0398908 -0.362705 -0.730502 0.169072 -0.000367373 -0.0922304 0.32828 0.408081 0.396258 0.71428 -0.777228 -0.480848 0.24957 -1.64394 0.436245 -0.978848 -0.0678721 0.171387 0.170877 -0.311484 0.662291 -0.664407 
-0.123975 -0.181201 0.0723627 0.188377 -0.0534445 -0.117891 -0.162071 -0.190679 -0.868598 -0.149838 -0.247953 0.470547 -0.0142453 0.0401116 -0.0217687 -0.257505 0.0238473 -0.207381 -0.0326623 0.746075 0.543634 0.700209 -0.256506 0.617631 -0.0754849 -0.0575303 0.00824499 0.328069 0.217267 0.0313212 0.255531 -0.443826 -0.0909249 0.927809 0.560544 -0.0452028 -0.0724671 -0.0848141 0.0463934 0.644368 -0.00944173 0.0312936 -0.0130648 -0.397174 -0.0838329 -0.109182 0.0266623 0.620543 0.073374 -0.0460327 0.0728459 0.368859 -0.145027 -0.145766 0.0693243 0.320637 0.0609695 0.124127 0.180658 0.201995 -0.211063 -0.449903 0.826938 0.185723 -0.0276649 0.0316251 -0.0708996 -0.73989 0.075838 -0.0479346 0.0513171 0.593771 -0.301501 0.171083 -0.00756106 -0.318918 0.845105 0.186757 0.232418 -0.2706 0.129685 -0.133509 0.0666175 0.386605 0.300911 -0.107127 0.146551 -0.423517 -0.608547 0.432281 0.293466 0.355809 -0.181867 0.0258534 -0.17518 -0.560594 -0.394715 -0.079867 -0.313459 -0.440629 0.300917 -0.268287 -0.312938 -0.788764 1.18377 -0.298087 0.247681 -0.125526 0.297688 -0.032995 0.124858 0.241722 0.289143 -0.0273509 0.133833 0.124187 0.0810197 -0.0346806 0.0601174 0.305169 -0.367273 -0.263982 -0.517875 -0.674641 0.41168 0.26398 -0.118189 -0.456034 -0.942765 -0.797809 0.331299 -0.142439 -0.967437 -0.206746 -0.315684 0.656658 -0.939555 0.296543 0.675065 0.228282 0.40331 -0.737364 -0.372159 -0.467375 -0.0699058 -0.803437 -0.0530478 -0.715501 -0.979179 -0.773363 0.871628 -0.824766 0.630835 -0.716543 -0.145522 -0.595747 0.416205 0.827398 0.23041 0.138978 0.834558 0.642842 0.699026 0.405644 -0.313042 -0.881984 -0.502679 -0.896721 -0.669403 -0.485644 0.348425 0.636298 1.49361e-05 0.973439 -0.786618 -0.245931 0.713755 0.118031 -0.529241 -0.683339 0.475853 -0.771889 -0.533544 -0.892942 0.589104 0.449292 -0.558507 0.220525 0.958868 -0.292865 0.920052 -0.241846 -0.137676 -0.81302 0.173591 -0.972891 -0.468143 -0.688384 -0.371527 -0.605884 0.833005 0.238992 -0.768332 0.386627 -0.856269 -0.980016 -0.587417 -0.741223 0.170398 -0.544653 -0.351543 -0.193301 0.701786 -0.590609 -0.312985 -0.964915 -0.312405 0.72177 -0.178026 -0.0542079 0.0266754 0.142942 -0.629772 0.628673 0.969843 0.436066 0.829957 -0.594687 0.0028514 0.691613 -0.74196 -0.224251 -0.368747 -0.854207 -0.938159 0.886713 -0.209489 -0.932681 0.97575 -0.532846 

