0.0100543 -0.0974645 -0.415914 -0.387785 -0.113574 0.349071 0.101846 0.494301 0.174686 0.159391 -0.483225 -0.168623 0.441337 0.30432 0.423951 0.396105 -0.0636657 0.331806 0.0871473 -0.0742898 0.325356 0.182971 0.482053 -0.470489 0.242434 0.351657 0.456805 -0.16735 -0.224303 -0.372513 0.0401649 -0.257653 0.479623 -0.00107405 -0.428341 0.411223 0.023021 -0.365479 -0.0829557 -0.462848 0.332451 0.369678 0.393098 -0.09907 0.261584 -0.48071 0.294654 0.254696 0.0560322 0.432258 -0.217959 -0.27953 -0.489779 0.44778 -0.403039 -0.0992269 -0.0996078 0.493656 0.407018 0.323525 -0.127868 0.165104 0.225767 -0.347152 0.438412 0.255217 0.198569 -0.455088 -0.127953 -0.393316 0.21683 0.454686 0.145713 -0.436986 0.474378 -0.0773935 0.148012 0.339203 0.477571 0.136327 -0.342545 -0.464157 0.0251732 -0.0510508 0.0615705 -0.0771792 -0.142671 0.249563 0.287682 0.065589 0.367693 -0.470537 0.473352 0.325696 0.427911 -0.227393 0.0682108 0.00435494 -0.422779 0.243477 -0.37101 0.217803 0.290408 -0.093833 0.418252 0.0707908 -0.404275 0.348581 0.418524 -0.132953 0.129676 0.106922 0.378158 -0.0341547 0.0742397 -0.0611954 -0.117485 -0.341994 0.458667 -0.390459 
0.333746 0.363257 -0.170898 0.390673 -0.208554 -0.251749 0.130766 -0.119671 -0.212653 -0.085166 0.0243747 0.0120739 0.448722 -0.0176682 0.367599 0.19167 0.373071 -0.451873 -0.0011191 0.408302 0.383312 0.449084 -0.446602 0.438688 -0.320807 -0.302265 -0.105295 -0.397246 -0.0201133 -0.186215 -0.409238 -0.461458 0.280976 -0.144784 0.278036 -0.321572 0.0110784 0.169084 -0.0432341 -0.219709 -0.385963 0.477294 -0.193604 -0.302932 -0.0114863 0.236764 -0.132469 0.24786 -0.464794 -0.0499596 0.474415 -0.013511 -0.0647888 0.417543 0.285142 -0.0231882 -0.150117 -0.10199 0.396891 0.305193 0.487699 -0.0633517 0.0336096 -0.114733 0.324072 -0.318599 -0.324943 -0.0492465 -0.0905792 0.47501 -0.434228 -0.395686 0.38529 -0.259495 -0.481458 -0.30303 0.208049 -0.122867 0.333899 -0.38581 -0.271774 -0.29448 0.0119155 0.208984 -0.302503 0.434262 -0.198208 -0.450348 -0.415141 0.0348989 
-0.072025 0.129673 0.460393 -0.314419 0.117267 0.424014 0.349057 0.119952 0.0525471 -0.217893 0.399315 -0.301995 0.332216 -0.141981 0.032687 0.25419 0.274944 0.478794 0.356862 0.352277 -0.357964 -0.40979 -0.0552207 -0.315101 0.355429 0.455649 0.164196 0.484256 -0.495964 -0.47738 0.188504 -0.151443 0.0161719 0.225708 0.207238 -0.325127 -0.387355 0.17827 0.232255 -0.245552 0.00492197 0.063081 0.00956386 -0.352859 -0.229486 0.382288 0.266817 -0.263196 0.345857 0.114251 -0.33971 0.413179 0.201854 0.287658 0.489433 0.356305 0.118639 -0.278194 0.130503 -0.334744 0.00931405 -0.41738 0.00406092 0.248991 -0.0297299 0.210556 -0.0645371 0.26943 -0.416456 0.0791916 -0.225786 -0.00522382 0.0582065 -0.311969 0.358219 -0.0804101 -0.381935 -0.410826 -0.0462224 -0.401209 0.345214 0.309972 0.245019 -0.116801 -0.390911 -0.314943 -0.0438062 -0.183447 0.159897 -0.401276 0.156201 0.308867 -0.141597 0.194896 0.199888 -0.0719255 0.0980483 -0.409778 -0.236896 0.21757 0.168745 -0.218452 -0.0885927 0.132233 -0.472537 -0.187604 0.462975 0.337013 -0.223548 0.470342 -0.26879 0.0439875 0.0435702 -0.469887 0.165401 0.200668 -0.452605 -0.406655 -0.310908 -0.021186 0.137588 -0.366301 0.065824 -0.118091 0.0161048 0.0332763 0.30754 -0.121843 -0.339671 0.352496 0.0951437 0.326185 -0.272867 0.315886 0.0520627 -0.206305 -0.100949 -0.235733 -0.341747 0.0772264 0.497303 -0.310369 0.172196 -0.481132 0.0334204 -0.100124 0.148752 0.387207 -0.168829 -0.28735 0.495803 -0.219882 0.483948 -0.113421 0.103969 -0.22362 0.317372 -0.214465 0.11682 -0.113268 0.152371 0.155106 -0.0892975 0.283175 0.184404 0.146723 0.433951 0.141237 0.247473 -0.00215845 -0.390519 0.468225 -0.177755 -0.119498 -0.20128 0.357252 -0.0249379 0.349973 -0.440228 0.247476 0.361721 -0.493398 -0.244706 0.190699 0.480005 -0.0879779 0.484627 0.194191 0.039484 0.0349416 0.45428 0.398368 0.298139 -0.215395 0.182569 0.223099 0.24615 0.021417 0.423175 0.404293 0.372447 -0.208539 -0.458588 -0.360406 0.133626 -0.477087 -0.0721027 -0.107935 -0.453656 0.453876 0.190986 0.110511 0.150683 -0.25637 0.0227066 0.288571 -0.00176131 -0.141837 0.0723516 0.337123 -0.210666 -0.134331 0.262075 0.270166 -0.049569 -0.408166 0.183655 0.446836 0.381352 -0.176623 0.0187205 -0.387194 0.0764886 0.391315 0.324881 -0.0587127 0.288345 0.0208328 -0.145915 0.140548 -0.0689857 -0.285621 -0.202267 -0.422435 -0.28552 0.427063 -0.438997 0.308241 -0.0946096 0.38497 -0.489466 -0.272543 -0.252174 -0.427491 -0.449928 -0.0912017 0.204117 -0.408332 0.339307 -0.318503 -0.443683 0.349577 0.145622 0.399223 -0.088474 -0.0662593 -0.133623 0.174854 0.00105972 0.0358217 -0.126363 -0.098693 -0.439513 -0.378287 -0.305615 0.209755 -0.437808 0.40867 -0.0334529 0.0959442 0.262521 -0.196241 0.183109 -0.204862 0.410026 0.470924 0.31866 0.0714895 -0.168027 0.10841 0.464114 -0.369232 -0.277091 -0.30409 -0.0167971 0.168536 -0.17288 0.303591 -0.0199149 -0.179747 
0.30908 -0.256606 0.468563 0.393708 0.0976402 0.177183 0.221597 -0.374831 0.349314 0.42378 0.454135 0.499748 0.172145 0.120586 0.070158 -0.354791 -0.412542 -0.42182 -0.190933 0.361756 -0.0604481 0.275933 -0.438338 0.375434 -0.0894317 0.491857 -0.339729 0.294568 0.24636 -0.406351 -0.0310234 0.182946 0.244495 0.45537 -0.0269256 -0.412248 0.213454 -0.21456 0.143883 0.17014 -0.356772 -0.031275 -0.144909 -0.134919 0.0255277 0.118283 -0.324791 0.291633 0.0945068 0.00563849 0.270723 0.41916 0.030387 -0.269474 0.27565 0.0173849 0.278554 0.469778 0.0379933 0.188156 0.028749 -0.0463309 0.163655 -0.0142433 0.2036 0.363401 -0.269161 -0.436006 0.11366 -0.291867 -0.310428 0.497474 0.308761 -0.471263 -0.488716 -0.178117 -0.461389 -0.477528 0.158501 -0.380701 -0.375192 -0.391268 0.027861 -0.460714 0.304387 0.0286693 -0.399563 -0.491612 0.0604652 -0.153343 -0.470191 0.0784769 0.272388 -0.486382 0.242886 0.167788 0.259508 -0.335569 0.122048 0.268598 0.169657 -0.472717 -0.112762 0.301124 -0.475098 -0.43523 0.206399 0.28198 0.322932 0.241347 -0.352572 0.278389 0.0551438 -0.0734762 0.105511 0.0535714 -0.334793 0.214787 -0.157555 -0.330411 -0.304936 0.225905 0.0507767 0.0687615 -0.33059 -0.226701 -0.186921 -0.170361 -0.163164 -0.388957 0.268381 -0.277653 -0.386858 -0.148099 0.0936637 -0.26582 0.479698 -0.404941 -0.347429 -0.421817 0.126242 0.0467706 0.277491 0.0396662 0.457412 -0.352765 -0.100612 0.194485 -0.062496 -0.17784 -0.0922852 -0.147853 -0.402453 -0.153748 0.209077 -0.269289 -0.0396856 0.229026 -0.468679 0.0485471 0.0158578 0.130062 -0.0347107 -0.0505516 0.439916 0.443257 -0.289591 0.0553735 0.381597 -0.390497 0.0801181 -0.437372 -0.0924473 -0.495044 -0.0931395 -0.412849 -0.157356 0.404894 0.492877 -0.296243 -0.451738 0.432265 -0.339824 0.253805 0.214032 0.137572 0.0474656 -0.42833 0.436215 0.0414246 -0.44832 0.178324 -0.102446 0.109624 0.193721 0.157289 0.347981 -0.397161 0.453267 -0.454282 0.400371 -0.385692 -0.414123 -0.0974902 -0.483515 0.280872 0.499933 0.252875 -0.404284 -0.342976 -0.48407 0.332636 -0.225516 0.339682 -0.383458 0.154056 -0.171662 -0.428397 0.18909 0.137141 0.0717572 0.194255 -0.269809 0.384108 0.0334035 0.273831 0.00203701 -0.068823 -0.475129 0.234808 -0.0575689 0.186065 0.280132 0.132701 0.400592 -0.185724 0.273764 -0.245088 0.0268935 -0.318105 -0.199849 -0.224933 0.460549 0.119814 0.249242 0.0546486 0.142614 0.345367 0.444002 -0.335966 -0.31482 0.494406 0.0052582 0.344656 -0.346783 0.023073 -0.443314 -0.426209 0.370238 0.17881 0.371698 0.371245 0.274537 -0.362041 0.245249 -0.0325068 -0.203163 -0.188402 0.100684 -0.447867 -0.0656545 -0.353235 0.331794 -0.105649 0.387201 -0.200103 -0.389893 -0.357796 -0.244401 0.264719 -0.309331 -0.0712487 0.152023 0.17645 0.0475687 -0.0897258 -0.143417 -0.316102 -0.487558 0.434409 0.321797 -0.438086 -0.296711 0.289982 -0.0783008 -0.484938 0.207111 0.168181 0.284582 -0.435426 0.0493011 0.328895 -0.017299 0.147388 0.358189 0.32127 0.198918 0.363489 0.42633 0.232234 0.432615 -0.0929649 0.14295 0.255225 -0.285065 0.0800035 0.0283285 -0.0357795 -0.0458568 -0.421576 -0.0680312 -0.239438 -0.103164 0.361178 -0.168893 -0.312806 -0.0245025 0.476839 0.236462 0.295327 0.141337 0.0539212 0.0512674 0.497024 -0.307837 0.00251516 0.177763 0.238461 -0.0274785 -0.330998 0.00505972 -0.0269095 -0.120202 -0.473557 -0.207385 0.00208371 0.165254 0.382313 0.347352 -0.468924 0.474605 0.334256 0.116103 -0.179557 -0.0891261 -0.498952 -0.129203 -0.381813 0.485696 -0.206813 -0.330488 -0.098127 -0.407208 0.319952 -0.33535 -0.0100452 0.312747 -0.40616 -0.0196994 -0.217163 -0.0243488 -0.394066 -0.126732 0.382174 -0.124372 -0.204396 0.206075 0.363223 0.19492 -0.0305321 0.0260188 0.488911 -0.161125 0.300854 0.0302925 -0.0918076 -0.135461 0.134478 -0.156784 -0.106484 -0.396887 0.334007 -0.239173 -0.167873 0.23239 0.403967 0.212187 0.169019 0.196666 -0.133132 0.00725004 -0.394297 0.272132 0.0306731 0.439636 0.339377 0.338093 0.176099 0.26432 0.108656 0.0360426 -0.295038 -0.228031 0.370023 -0.119212 -0.433284 0.374045 -0.388655 0.208117 -0.443113 
0 0 0.467668 0 0 0 0 0 0 0 0 0 0.0200777 0 0 0 0 0 0 0 0 0 0.0420596 0 0 0 0 0 0 0 0 0 -0.215779 0 0 0 0 0 0 0 0 0 0.113423 0 0 0 0 0 0 0 0 0 -0.0707333 0 0 0 0 0 0 0 0 0 -0.365806 0 0 0 0 0 0 0 0 0 -0.494512 0 0 0 0 0 0 0 0 0 0.4501 0 0 0 0 0 0 0 0 0 0.309049 0 0 0 0 0 0 0 
