0.0153964 -0.147352 -0.353282 -0.503729 -0.0340132 0.332888 -0.242638 1.98594 -0.0697576 0.166125 -0.431874 -0.235359 0.430966 0.345357 0.441009 0.282175 -1.27845 0.365783 0.120937 0.158125 0.255333 0.0962295 0.301242 -0.527984 0.27666 0.501432 1.73643 0.0476591 -0.178679 -0.314243 0.0400677 -0.254923 0.482234 0.311419 -0.434452 0.411849 -0.210836 -0.145143 0.370896 -0.437244 0.329325 0.373465 0.391226 -0.100309 0.0819757 -0.479852 0.328086 0.253419 0.0532689 0.47219 -0.214181 -0.306201 -0.450257 0.449759 -0.403042 -0.142696 -0.108592 0.531635 0.404491 0.32153 -0.127514 0.159306 0.222745 -0.621709 0.450418 0.254502 0.370804 -0.60954 -0.575153 -0.411895 0.222798 0.446621 0.149989 -0.437561 0.689578 -0.077445 0.142496 0.341519 0.483144 0.111286 -0.351831 -0.470177 0.00768326 -0.0563477 0.0608496 -0.0616436 0.041761 0.240019 0.29268 0.0750093 0.369157 -0.481525 0.478901 0.170363 0.447527 -0.232613 0.333119 0.0179608 -0.901044 0.211037 -0.36001 0.199436 0.296358 -0.121641 0.588311 0.0597051 -0.704567 0.350454 0.429833 -0.196026 0.108546 0.127411 0.49105 -0.0466827 0.0758982 -0.0964527 0.228288 -0.357846 0.469785 -0.379101 
0.340257 0.330754 -0.132005 0.287529 -0.111098 -0.337765 -0.0425843 0.0447996 -0.0937192 0.115763 0.10518 -0.0567946 0.397838 0.296526 0.13383 -0.0257138 0.00507513 -0.53264 0.0121412 0.173444 0.285727 0.664188 -0.245452 0.319327 -0.287135 -0.077412 0.00792439 -0.169452 -0.0111808 0.0333019 -0.4885 -0.384434 0.184299 -0.000831899 0.344877 -0.389942 0.00317867 -0.00637268 -0.0023696 -0.0190371 -0.336043 0.470275 -0.30978 -0.406201 -0.0828161 0.239852 -0.00882978 0.353169 -0.417863 0.0103833 0.701167 0.000633509 -0.0170883 0.259791 0.307604 -0.0247335 -0.00658803 -0.000210577 0.410262 0.260744 0.474606 -0.0864069 -0.0846534 -0.0806541 0.404985 -0.296422 -0.0358144 -0.00961183 0.0246008 0.617773 -0.405688 -0.413435 0.389553 -0.116852 -0.713003 -0.207959 0.0223985 -0.158242 0.366992 -0.170614 -0.281938 -0.161191 0.0908888 0.242157 -0.289499 0.226977 0.0441563 -0.968662 -0.392478 -0.0214057 
-0.0712531 0.12914 0.475437 -0.31341 0.11825 0.424153 0.351102 0.112359 0.0692067 -0.220674 0.40039 -0.304925 0.329302 -0.140955 0.0101944 0.245015 0.22551 0.477783 0.356785 0.359129 -0.358991 -0.406438 -0.0648616 -0.316179 0.359886 0.48711 0.10083 0.463588 -0.495297 -0.473818 0.158525 -0.149635 0.0135078 0.23565 0.172856 -0.347483 -0.398684 0.269155 0.162779 -0.171235 0.00301469 0.0827905 0.0202024 -0.293139 -0.158861 0.366582 0.225776 -0.246406 0.297273 0.218747 -0.322824 0.482876 0.170661 0.27845 0.482654 0.388995 0.0960928 -0.236087 0.0920964 -0.34473 0.0297171 -0.465611 0.0487282 0.360604 0.0822575 0.214131 -0.126283 0.173293 -0.160144 -0.061861 -0.167695 -0.0839882 0.0611097 -0.320009 0.11391 -0.15394 -0.294472 -0.400476 0.0165261 -0.46325 0.258518 0.0767792 0.0399518 -0.180289 -0.365974 -0.275314 -0.0196066 -0.237584 0.22459 -0.287476 0.156088 0.30847 -0.142128 0.192202 0.200543 -0.07079 0.0913342 -0.399224 -0.238169 0.217921 0.169074 -0.218547 -0.0875307 0.131814 -0.467049 -0.186713 0.46359 0.336848 -0.223462 0.469429 -0.269223 0.0429122 0.0480586 -0.469112 0.165103 0.197083 -0.437816 -0.40144 -0.311097 -0.0204451 0.159659 -0.359958 0.0533509 -0.16753 0.0347688 0.0531413 0.162364 -0.0895717 -0.206688 0.326127 0.0913079 0.318973 -0.271521 0.259774 0.0818049 -0.169336 0.0767622 -0.255007 -0.309204 0.0316911 0.491491 -0.383141 0.168016 -0.469347 0.0297561 -0.20278 0.415255 0.439361 -0.146939 -0.286511 0.511514 -0.217111 0.476011 -0.0998024 0.117249 -0.212298 0.254286 -0.26104 0.232883 -0.132501 0.147057 0.146975 -0.0959193 0.249756 0.148329 0.157191 0.527838 0.131842 0.272604 -0.0442521 -0.393493 0.421953 -0.171658 -0.112087 -0.196407 0.298762 0.0639741 0.357973 -0.421063 0.245787 0.361643 -0.494855 -0.247604 0.197184 0.481539 -0.0883233 0.478631 0.174115 0.05064 0.0379535 0.454556 0.397118 0.297667 -0.21413 0.181835 0.222413 0.258745 0.0231127 0.424622 0.404028 0.371175 -0.215276 -0.4607 -0.360173 0.134162 -0.484471 -0.0714416 -0.10844 -0.451892 0.452995 0.247177 0.130268 0.172136 -0.27953 0.0696452 0.333959 -0.123465 -0.127246 0.361506 0.145899 -0.198822 -0.142418 0.251478 0.140697 -0.185718 -0.372238 0.292627 0.383437 0.444224 -0.296921 -0.00368559 -0.580186 0.0434596 0.369232 0.315153 -0.0381955 0.468641 -0.0127328 -0.106292 0.205482 -0.0783889 -0.284086 -0.174795 -0.402863 -0.300902 0.415664 -0.393124 0.364847 -0.110909 0.405294 -0.490608 -0.268515 -0.260473 -0.397428 -0.515763 -0.120182 0.0522162 -0.401688 0.319357 -0.26881 -0.434981 0.395091 0.0980731 0.392284 -0.0811624 0.0349888 -0.308939 0.127407 -0.0118661 0.0332065 -0.126344 -0.0995725 -0.388387 -0.257482 -0.312136 0.204113 -0.400247 0.640848 0.0876679 0.087215 0.264488 -0.199314 0.151915 -0.167983 0.124574 0.412006 0.0094665 0.0796402 -0.177155 0.180108 0.468217 -0.359897 -0.39849 -0.315137 0.00451214 0.3928 -0.400644 0.188063 -0.0184423 -0.183359 
0.460831 0.0739614 0.485512 0.448365 0.311824 -0.165132 0.23613 -0.346925 0.445034 0.485744 0.604002 0.849742 0.182463 0.174185 0.319217 -0.677769 -0.393709 -0.350741 -0.108628 0.419338 -0.127792 0.0733185 -0.464435 0.357639 -0.267137 0.611895 -0.346848 0.404541 0.26956 -0.417982 0.023087 0.39572 0.28539 0.494628 0.0176241 -0.603203 0.223242 -0.107806 0.275025 0.107053 -0.424457 -0.240278 -0.175517 -0.152347 -0.155611 0.237532 -0.332661 0.395114 0.119252 -0.00890774 0.405704 0.664324 0.0301053 -0.219747 0.457771 -0.255876 0.295259 0.632483 0.111622 0.278924 0.0889781 0.0425939 0.117938 0.0152982 0.221434 0.192996 -0.263288 -0.363813 0.220397 -0.280811 -0.279593 0.502509 0.303153 -0.462979 -0.570279 -0.277613 -0.468853 -0.371672 0.199833 -0.26325 -0.311397 -0.292889 0.0400286 -0.443737 0.428029 -0.0989363 -0.391284 -0.501783 0.128438 -0.134801 -0.400993 0.332897 0.267477 -0.471775 0.521168 0.0225719 0.263841 -0.30927 0.195733 0.264769 0.320369 -0.124484 -0.0990506 0.354371 -0.227038 -0.761151 0.224565 0.347033 0.407024 0.302812 -0.420456 0.0729765 0.0301703 -0.0921397 -0.0643507 0.180801 -0.341454 0.332916 -0.137448 -0.340285 -0.153542 0.555613 0.0720782 0.123066 -0.11935 -0.567948 -0.17207 -0.143036 -0.0665531 -0.327384 0.418182 0.0288965 -0.369548 -0.0978654 0.300366 -0.590513 0.494472 -0.330996 -0.258089 -0.345013 0.217043 0.503952 0.338924 0.0637135 0.69558 -0.687661 -0.0946789 0.470788 0.161674 -0.277689 -0.155891 -0.307622 -0.429437 -0.171126 0.0775316 -0.154937 -0.0443873 0.294439 -0.44771 0.0221844 0.0918409 0.33875 -0.0172339 -0.0311669 0.657956 0.291509 -0.274387 0.151606 0.478619 -0.439508 0.0127485 -0.644079 -0.118639 -0.512713 -0.27966 -0.293867 -0.165592 0.514556 0.517332 -0.306041 -0.301336 0.770615 -0.325626 0.308181 0.43671 -0.197737 0.0638059 -0.38163 0.527205 0.100638 -0.425979 0.332932 -0.150922 0.149556 0.0775843 -0.033838 0.353191 -0.393258 0.554003 -0.543913 0.334505 -0.610867 -0.431455 -0.115322 -0.68727 0.390321 0.489221 0.320288 -0.371045 -0.349006 -0.450974 0.552228 -0.265836 0.386647 -0.490059 -0.067118 -0.163432 -0.325664 0.302173 0.0246435 0.170124 0.311315 -0.210213 0.38325 0.209995 0.104031 0.00946918 0.106975 -0.420415 0.348275 -0.108273 0.0937067 0.266979 0.118379 0.279624 -0.123604 0.267825 -0.21158 0.0629629 -0.364864 -0.268846 -0.417948 0.429814 0.100708 0.0899155 0.188233 0.137637 0.477406 0.45867 -0.349208 -0.201472 0.746523 0.014535 0.366671 -0.082105 -0.194432 -0.437039 -0.407037 0.458146 0.218508 0.415887 0.365637 0.295873 -0.343148 0.176737 -0.188552 -0.212239 -0.175328 0.173297 -0.343326 -0.0202413 -0.618996 0.310266 -0.0905652 0.0893649 -0.292083 -0.396224 -0.365113 -0.217841 0.469189 -0.378394 -0.270223 0.125722 0.157736 -0.117623 0.0415912 -0.148558 -0.188497 -0.469396 0.419934 0.257426 -0.609817 -0.321442 0.276496 -0.230898 -0.376864 0.200508 0.231291 0.309186 -0.457716 -0.147107 0.340448 -0.0545348 0.158199 0.238637 0.218257 0.181011 0.421025 0.352423 0.0723218 0.424414 0.136554 -0.270598 0.346577 -0.389745 -0.0588095 -0.225799 -0.0510694 -0.174613 -0.231598 -0.20642 -0.314444 0.0362138 0.512121 -0.174234 -0.434755 0.102755 0.408581 1.23509 0.209898 -0.264533 -0.183469 -0.127 0.539047 -0.636455 -0.611773 -0.0115302 0.121183 -0.161896 -0.0707373 -0.00362232 -0.0838113 -0.0407731 -0.427031 -0.221037 -0.10356 0.179492 0.466569 0.206927 -0.486921 0.412393 0.261863 -0.100676 -0.25705 -0.0815473 -0.449867 -0.0963416 -0.113723 0.102914 0.0620088 -0.200245 -0.0364956 -0.359651 0.2068 -0.802318 0.159939 0.0222193 -0.415423 -0.182217 -0.273262 0.0909427 -0.283305 -0.348506 0.339131 -0.15241 -0.176807 0.177896 0.109764 0.129455 -0.345499 0.0329091 0.446382 -0.0980654 0.263857 0.0439509 -0.142747 0.0566861 0.207355 0.23587 0.055525 -0.129613 0.53344 -0.174874 -0.256842 0.053981 0.370206 0.0995313 0.113252 0.267366 -0.0163589 -0.0522922 -0.349682 0.49526 -0.226175 1.01204 0.24951 0.105182 0.0253215 0.0560989 0.0548979 -0.0826628 -0.0842478 -0.196954 0.232051 -0.101177 -0.372596 0.336122 -0.476724 0.132792 -0.195691 
0.339134 0 0.467668 0 0 0 0 0 0 0 0 -0.826873 0.0200777 0 0 0 0 0 0 0 0 0 -0.224205 0 0 0 0 0 0 0 0 0 -0.215779 0.00449749 0 0 0 0 0 0 0 0 0.113423 0 0.784516 0 0 0 0 0 0 0 -0.0707333 0 0 -0.612874 0 0 0 0 0 0 -0.365806 0 0 0 -0.161434 0 0 0 0 0 -0.494512 0 0 0 0 -1.13334 0 0 0 0 0.4501 0 0 0 0 0 -0.32665 0 0 0 0.309049 0 0 0 0 0 0 0.392567 
