-0.269545 0.531555 0.229945 0.472321 0.201308 -0.376868 0.0426744 0.148199 0.298598 -0.435628 -0.537766 0.171145 0.379609 0.0394196 -0.215716 -0.335203 0.383541 0.477511 -0.30313 0.366698 0.529578 0.236038 -0.155624 0.515057 -0.313139 0.365364 0.404447 0.450031 0.403382 0.539908 -0.25026 -0.38146 -0.2428 0.453298 0.124019 -0.417444 0.593931 -0.0725893 -0.093248 0.529661 0.512066 -0.319572 0.267475 0.409451 0.0124968 0.442988 -0.311121 0.411136 -0.566587 0.0502753 0.473158 0.474896 -0.359956 0.440247 -0.393215 0.478653 0.230153 0.394318 0.534555 -0.227548 -0.597259 -0.517906 0.532482 0.563395 
-0.0945987 0.0697737 -0.135909 -0.468433 0.581598 0.361207 0.363949 0.206936 0.556676 -0.378527 -0.415132 0.378415 0.25239 -0.0691884 0.380378 0.00239716 0.323202 0.0885666 0.150801 0.0853553 -0.105194 -0.301812 0.337607 0.419701 -0.49142 -0.272879 0.232522 -0.297704 0.166387 0.297954 0.279552 0.0407587 0.193547 0.473975 0.278422 -0.150433 0.222019 -0.365484 -0.425577 -0.0412928 -0.10881 -0.297674 -0.574472 0.114094 -0.335105 0.35025 -0.354944 -0.0567564 
0.236913 -0.588356 -0.390867 0.563559 -0.446925 -0.562542 0.118326 0.119052 -0.139571 0.0880284 -0.401422 0.404846 0.27326 0.0224792 -0.383682 -0.483186 -0.195293 -0.499448 0.261233 -0.225339 -0.128929 0.368076 -0.483345 -0.544278 -0.0125237 -0.0626555 0.0301856 -0.197811 0.254404 -0.500337 -0.538908 -0.389188 -0.319149 -0.229957 -0.410207 -0.431225 0.103181 -0.263724 0.014963 -0.293375 -0.432699 -0.159607 -0.366586 -0.448777 0.363386 0.0461293 0.504187 -0.508666 0.411336 0.56832 -0.0637468 0.589086 0.405465 0.335411 0.363382 -0.244035 -0.127927 0.297161 -0.437864 0.557921 0.310718 -0.459195 0.335369 -0.0227571 0.318422 -0.566212 0.149889 -0.33427 0.43919 -0.120768 0.425667 0.250769 0.291237 -0.0113366 -0.198864 -0.270991 -0.155998 -0.263698 -0.333407 -0.445018 
0.19598 -0.0542893 -0.256638 0.489252 -0.310292 0.0491889 -0.0913124 0.375238 0.583478 -0.0743957 -0.362096 0.224443 0.394557 0.162028 -0.536745 -0.000466769 0.319894 0.110281 0.12558 -0.394971 -0.383108 -0.170209 -0.405402 -0.478159 0.556694 -0.102602 0.187995 -0.373372 0.12474 0.227095 -0.455338 0.245632 0.0190817 0.0406036 -0.297486 0.110573 -0.492084 -0.0112683 -0.329343 -0.169034 0.0826614 -0.395662 -0.162997 0.484525 -0.307658 -0.361108 -0.535166 -0.24206 0.36232 0.247367 0.116704 -0.11538 -0.153952 -0.546346 -0.159937 -0.190266 -0.59694 -0.0747906 -0.150367 0.201286 -0.215201 -0.156653 -0.537585 0.227982 
0 0 0.198289 0 0 0 -0.341365 0 0 0 0.449316 0 0 0 -0.313683 0 
