0.37532 0.434695 0.446039 -0.571717 -0.148658 0.286028 0.10394 -0.189068 0.362605 -0.169971 0.361895 -0.230289 -0.276403 -0.310038 0.0437359 -0.115394 -0.495371 -0.10347 0.232393 -0.529819 0.0294099 0.314335 0.120736 0.257975 0.533498 -0.470498 -0.30047 0.294187 -0.0243729 0.523 0.22663 0.535006 -0.322869 0.267786 0.170505 0.486163 0.375997 -0.362515 -0.143201 0.256367 -0.138284 0.129026 0.408024 0.19963 0.285516 -0.230169 -0.321361 -0.55908 -0.324535 0.531727 0.131956 0.409452 -0.535537 -0.239794 -0.115263 -0.413748 0.197299 -0.323932 0.390178 0.221053 -0.590375 0.393902 0.454668 -0.35279 
0.468504 -0.301467 -0.0253991 -0.217375 -0.523188 -0.19959 -0.189965 0.179866 -0.193504 0.291102 0.538312 0.382822 -0.243643 -0.570578 -0.527801 0.336028 -0.097364 0.0321381 -0.205967 -0.415789 0.383841 -0.240532 0.0494302 -0.156668 0.12197 0.0569761 -0.0745197 0.224013 -0.401386 -0.0187607 0.0580517 0.458461 0.444509 -0.0264648 0.273065 -0.557224 0.263829 -0.050655 -0.127655 0.516081 0.370749 0.411669 -0.285695 0.346443 -0.459524 -0.275313 -0.491472 -0.132003 
-0.314627 0.517427 0.448363 0.0737996 0.482729 0.545961 -0.343782 0.465185 0.267095 -0.283034 0.287813 -0.547126 0.182129 0.327104 0.4611 -0.441346 -0.331504 0.157718 -0.239242 -0.345141 -0.155451 -0.0602951 0.484273 -0.0294773 0.0891986 -0.576548 -0.142558 -0.330948 -0.474928 0.290657 0.185565 -0.453527 
0.454061 -0.386344 0.131209 -0.137408 -0.52392 0.166247 -0.0322249 -0.579606 0.304192 0.0780633 -0.360325 0.186471 0.302424 0.501469 0.568048 -0.113719 -0.163161 -0.576312 0.345766 0.151331 -0.222009 0.130937 -0.403042 0.356992 0.557283 -0.429479 -0.312385 -0.507902 -0.280432 0.205817 -0.0316933 -0.19266 0.22254 0.25601 -0.499798 0.254617 0.503244 0.497625 0.546888 -0.0114272 0.259273 -0.103525 -0.152935 0.52445 0.478758 0.11711 0.487719 -0.262193 0.387517 0.0831901 0.0713455 -0.556299 0.124458 0.0551284 0.296346 0.188034 -0.150719 0.263583 -0.0576697 0.275058 0.0546117 -0.0627486 0.285002 0.17491 -0.444191 0.0623358 0.514734 0.320279 0.142958 -0.237835 0.501575 -0.386334 -0.488308 0.0772709 0.430573 -0.145736 -0.130118 0.0210067 -0.388107 -0.268112 0.377461 0.442836 0.316947 -0.0545429 -0.500388 0.0696948 -0.151194 0.486538 0.0132923 -0.466509 0.0419423 -0.255247 -0.466192 0.0614474 0.475885 -0.3107 

