1.05772 -0.0592677 0.474403 -0.422714 0.241324 0.00111247 0.356052 -0.575491 0.222328 0.10278 0.68796 -0.0821181 -0.175146 0.131199 0.0852912 0.0728745 -0.444152 0.747092 0.274383 -0.378086 -0.0899596 -0.678276 -0.567321 -0.190895 1.28292 -0.130689 -0.298233 -0.186154 0.542085 0.468898 0.159163 0.76891 -0.564124 -0.08512 0.246408 0.277224 -0.26195 -1.00582 -0.387145 0.0973235 -0.658435 0.343946 0.318822 0.156794 -0.0255972 -0.738342 -0.809544 0.298845 0.00801498 0.45171 0.0148861 0.0840755 0.211754 -0.140245 -0.0905647 -0.881568 0.438889 -1.01132 0.210712 0.660602 0.187292 1.47486 0.528404 -0.36347 
0.145522 0.026022 0.0543381 -0.178404 -0.259576 0.0202955 -0.115712 -0.153473 -0.178089 0.0531721 0.0172171 0.223423 -0.221335 -0.0791302 -0.0999454 0.137037 0.0354641 -0.0849057 0.0446669 -0.274654 -0.0870272 -0.0068081 -0.0557984 -0.241005 -0.0885274 0.0770016 -0.0446405 0.247828 -0.195209 -0.115859 -0.188823 0.254525 0.0497343 -0.120859 0.0325315 -0.0942832 -0.014021 0.02996 -0.0561674 0.0712848 -0.0279922 0.097888 0.00269456 0.181705 -0.119078 -0.182656 -0.242886 -0.054508 
0.0866345 0.564957 0.508091 0.174198 0.797125 -0.0116945 -0.221844 0.386447 0.360795 -0.0955888 0.00427368 -0.474937 0.232655 0.137914 0.302719 -0.696673 -0.620357 0.16644 -0.109195 -0.00469888 0.291267 0.156799 0.302664 0.259298 0.0545694 -0.0569245 0.0714546 -0.23387 -0.14374 -0.139646 -0.180457 -0.133862 
0.104166 -0.161512 0.0625684 -0.392944 -0.132728 0.027121 0.273175 -0.654353 0.69872 0.133309 -0.56633 0.0584975 0.0487118 -0.0228726 0.258669 0.0458774 -0.341689 -0.343157 0.550274 -0.183818 -0.219257 -0.131022 -0.876333 -0.134649 0.834499 -0.0805936 -0.244187 -0.519676 0.0404148 0.00776073 0.0713398 -0.379502 0.339812 0.548699 -0.279813 0.183617 0.174281 0.245349 0.586899 -0.177515 0.42174 0.0344009 0.458539 0.187336 0.060319 -0.0932928 0.156695 -0.509583 -0.083995 -0.125619 -0.402496 -0.681088 0.0810579 0.0972625 0.238751 0.732529 0.0145253 -0.0336299 0.0632306 -0.348484 0.0204971 -0.011626 0.114716 -0.463097 -0.444191 0.0623358 0.514734 0.320279 0.142958 -0.237835 0.501575 -0.386334 -0.488308 0.0772709 0.430573 -0.145736 -0.130118 0.0210067 -0.388107 -0.268112 0.377461 0.442836 0.316947 -0.0545429 -0.500388 0.0696948 -0.151194 0.486538 0.0132923 -0.466509 0.0419423 -0.255247 -0.466192 0.0614474 0.475885 -0.3107 

