-0.265718 0.59409 0.319692 0.566574 0.150456 -0.342998 -0.0388361 0.0454846 0.31251 -0.37824 -0.574384 0.298046 0.375157 0.0628183 -0.140554 -0.2595 0.478309 0.551719 -0.23861 0.423786 0.494733 0.246603 -0.172351 0.316037 -0.286348 0.419686 0.3732 0.548153 0.434494 0.58708 -0.164043 -0.386507 -0.146879 0.534842 0.18007 -0.389963 0.56355 -0.0615041 -0.109439 0.306415 0.54141 -0.279286 0.24933 0.512274 0.0218274 0.500374 -0.222789 0.391242 -0.933529 0.128547 0.659902 0.703196 -0.470289 0.599133 -0.818147 0.71728 0.218498 0.384603 0.489777 0.0699168 -0.828019 -0.524143 0.604572 0.92745 
-0.0212664 0.048653 -0.0154804 -0.190186 0.553729 0.209131 -0.0225351 0.0301487 0.579064 -0.342856 -0.40968 0.577322 -0.0908324 0.170601 0.484151 0.00952039 0.0826964 0.429363 0.19882 0.0147085 -0.261886 -0.131053 -0.00282431 0.0104039 -0.367314 -0.0401209 -0.0499252 -0.25912 0.114747 0.129421 0.321502 0.111537 0.0942842 0.283859 0.385116 -0.0964729 0.0979331 -0.263892 -0.0256578 0.0474697 -0.288284 -0.336352 -0.572735 0.0157922 -0.0928489 0.464245 -0.413968 0.0545489 
0.239821 -0.588851 -0.391785 0.56193 -0.446235 -0.56379 0.120928 0.11502 -0.139606 0.0884659 -0.401246 0.402643 0.275642 0.0229096 -0.383291 -0.486091 -0.19502 -0.50041 0.258601 -0.230456 -0.126583 0.365105 -0.480671 -0.55199 -0.0131567 -0.0622645 0.0299458 -0.206868 0.256098 -0.500591 -0.538925 -0.393926 -0.601692 -0.191654 -0.368493 -0.220943 0.046042 -0.0473077 -0.236737 0.32469 -0.372536 -0.254806 -0.366417 -0.147114 0.0786045 0.0213189 0.408631 -0.163227 0.410513 0.56789 -0.0636812 0.588846 0.40514 0.335916 0.362685 -0.244807 -0.127903 0.296996 -0.437916 0.558017 0.310222 -0.45934 0.335169 -0.0227613 0.301512 -0.569119 0.135005 -0.34569 0.445176 -0.116069 0.404192 0.234912 -0.840819 -0.840611 -0.836467 -0.834537 -0.165517 -0.268084 -0.330038 -0.433631 
0.19989 -0.0162389 0.931963 0.50538 -0.325399 0.00531051 0.224447 0.371357 0.575496 -0.0844335 -0.465866 0.227911 0.390196 0.164107 -0.617336 -0.00212094 0.325247 0.0789095 0.30586 -0.381869 -0.379828 -0.176577 -0.365216 -0.475678 0.563266 -0.0792516 0.694238 -0.359999 0.112701 0.178274 -0.96064 0.234961 0.0275839 0.0362022 0.146334 0.120554 -0.483931 0.0210159 0.0551573 -0.158034 0.0825996 -0.376658 0.220228 0.48516 -0.308608 -0.387568 -0.495673 -0.24328 0.361935 0.253723 0.512368 -0.108667 -0.160161 -0.553997 0.30947 -0.18381 -0.596827 -0.0667166 0.138496 0.208277 -0.220009 -0.167822 -0.839469 0.226863 
-0.00619588 0 0.198289 0 0 -0.00368723 -0.341365 0 0 0 1.29268 0 0 0 -0.313683 -0.00549924 
