-0.39075 0.261258 0.0168367 0.365032 0.454475 -0.384935 -0.0883165 0.472734 0.141739 0.495776 -0.4747 0.282706 0.231164 0.267278 0.386226 0.430054 -0.0674409 0.112235 0.0857286 -0.494256 -0.163956 0.268825 -0.387538 -0.444758 -0.243167 -0.44399 0.490032 0.189256 -0.48612 0.118701 0.212036 0.129392 0.374044 -0.0574726 0.422979 0.0631283 0.292389 0.20722 -0.0744575 0.471538 -0.242924 -0.187018 0.322738 -0.302358 0.482036 0.0883378 0.147164 -0.0450402 -0.18359 -0.448694 -0.255115 0.440943 0.474791 0.440947 0.400053 -0.31466 -0.365449 0.0646277 0.079229 -0.294923 -0.434076 -0.418017 -0.0970026 0.0126122 0.390332 0.237181 0.346229 -0.321039 0.358959 0.0717931 -0.0716654 0.137535 
0.0770086 -0.140286 -0.403105 -0.0866945 -0.457302 0.428923 0.287883 0.228826 0.151804 -0.235961 0.401574 -0.070559 -0.0877322 -0.392869 0.0692711 -0.289627 -0.40364 -0.075125 0.0881104 -0.293188 0.437975 0.284204 0.33551 0.209554 0.139608 -0.288599 -0.313809 0.24932 -0.173672 0.186042 0.282938 -0.303757 -0.261059 -0.332135 0.455747 0.184573 0.027867 0.482827 0.194863 -0.0378594 0.141102 0.385987 -0.171485 0.261074 -0.310592 -0.369645 0.218465 0.425277 0.363252 0.147456 -0.0170337 -0.30748 0.332127 -0.456472 
-0.314051 -0.194633 -0.0491702 -0.164351 -0.145906 -0.457096 -0.0382206 0.259871 -0.335887 0.0526083 0.386539 -0.418711 0.0852465 0.0581251 -0.419813 -0.101306 -0.355292 -0.110648 -0.163623 -0.275823 0.470591 -0.173166 -0.0589755 -0.112067 0.365229 -0.118148 0.262254 -0.473551 0.169265 0.250688 0.442696 0.106356 0.205908 -0.0815833 0.23243 0.356278 -0.27028 0.431432 0.160163 -0.166856 -0.186985 0.216841 -0.297437 0.0117841 0.208174 0.316244 0.150728 -0.126246 -0.277932 0.44422 -0.0908986 0.467491 0.492883 0.397994 -0.124643 0.49141 -0.479899 -0.332223 0.454511 -0.307641 0.171311 0.0115807 0.0841771 -0.21576 0.394897 -0.0191422 -0.333773 -0.424237 -0.317511 0.372471 -0.247921 -0.482982 0.100416 -0.350545 -0.290468 0.251709 -0.0799364 0.231632 -0.491642 -0.100431 0.0809806 0.0176376 -0.397698 -0.0262227 -0.392629 0.127666 -0.0946554 -0.25859 -0.235894 -0.2328 0.479039 -0.156301 -0.356871 -0.482283 0.318727 -0.00881148 -0.0669631 0.223089 -0.335324 -0.47869 0.199436 0.322993 0.0316761 -0.0890779 0.148006 -0.297988 0.282995 0.453174 0.00571203 0.274348 -0.269526 -0.288695 -0.0434987 -0.294934 -0.451292 -0.0507613 -0.190392 -0.0332977 -0.261096 -0.265479 0.290112 -0.44482 -0.455337 0.0103621 0.412058 0.0312223 0.0019905 -0.487293 -0.122603 0.437658 0.225431 -0.317538 -0.155993 0.253663 0.123885 0.479417 0.362173 0.137891 0.159979 0.0142046 -0.0133669 0.326656 0.322231 -0.152613 
0.159082 -0.382651 0.104687 -0.489914 0.440324 -0.133607 -0.185641 -0.0488173 0.0298764 0.3369 -0.209832 -0.236558 -0.435574 -0.470593 0.0976432 -0.246645 0.0883294 -0.311376 0.332909 0.104067 0.0745391 -0.273748 -0.350337 -0.196766 0.0510594 0.385685 0.332009 -0.472153 0.487023 -0.413382 0.0534719 -0.395661 0.492956 -0.256731 0.0195195 -0.497893 0.0185503 -0.347115 0.39303 0.242662 0.359495 -0.460208 -0.081258 -0.365512 -0.265635 0.274491 0.121806 0.265407 0.220562 0.000271897 0.446935 -0.454194 -0.130143 0.198873 0.0360909 0.239175 -0.438979 0.214815 0.488199 -0.420234 0.36527 -0.469852 0.283834 -0.164026 -0.397713 0.2633 0.0654978 -0.163182 -0.446095 -0.196855 -0.323176 0.412675 -0.014363 -0.141338 -0.0303457 0.283124 -0.243319 -0.0463264 0.42878 -0.100492 -0.331173 -0.416087 -0.173888 0.134296 0.281022 0.200248 0.425258 -0.290082 -0.0338526 -0.353932 0.096023 -0.469703 0.132443 0.00999237 -0.200089 -0.22408 -0.494843 -0.139231 0.390635 0.302854 -0.0519587 -0.113681 -0.00273675 -0.0336052 -0.438143 0.326575 0.441275 0.340238 -0.404205 -0.114975 0.452066 -0.31406 0.384889 -0.219445 -0.111351 -0.261347 -0.0788676 -0.446387 -0.245223 0.300987 0.126963 -0.373824 0.377113 -0.340597 0.195468 -0.481886 0.0738665 -0.0628088 -0.491209 0.372382 0.233261 0.458855 -0.047703 0.157035 -0.36321 -0.438856 -0.0790197 -0.48027 -0.30864 0.432646 0.0684833 -0.433113 0.492767 0.0827354 0.115162 -0.294058 -0.185227 0.184778 -0.473192 0.476022 -0.215234 -0.31099 0.292626 -0.291644 0.288689 0.0436203 0.454866 0.0250673 -0.148189 0.0687919 0.486478 -0.143452 -0.252573 0.131795 -0.423397 0.470796 0.033612 0.312525 0.291986 -0.381382 -0.143498 -0.22799 -0.315276 0.375204 0.335902 -0.463377 0.302712 0.193993 -0.352649 -0.486725 0.23799 0.281748 0.305484 -0.00242817 -0.0623392 0.0253751 -0.16866 0.457908 0.210899 0.251818 -0.26614 0.237783 -0.444572 0.0847649 0.00256916 0.368032 -0.284979 0.00764755 -0.154105 -0.163466 -0.443933 0.199149 0.00811991 0.403909 0.0408448 -0.27021 -0.308196 0.494835 -0.458272 0.0872318 -0.342085 0.399182 0.051137 0.347614 0.118885 0.189849 

