-0.0314737 0.505895 1.27376 -2.03678 -0.571319 1.23911 -0.314953 -0.0526295 0.196329 -0.257747 0.668847 -1.4205 1.10377 -0.0267292 -1.0762 1.56803 0.373903 -0.0123199 0.0370553 1.20804 -0.842147 -2.04335 -2.11311 0.180314 0.882691 2.47835 -1.84798 0.0142464 0.870057 -0.611343 0.246296 -0.367195 1.02067 -0.611866 1.1719 -0.115759 0.145161 0.724813 -0.233561 0.512929 -1.13321 -0.02634 -0.588642 -0.0297434 0.0402899 0.55818 -1.61993 1.30092 
0.00489593 0.0495346 -0.00372976 -0.00442142 -0.0200561 -0.00150633 0.0747729 -0.0254596 -0.00188455 -0.00221167 -0.0188649 -0.0121885 -0.0131577 0.222125 0.00552125 0.0311874 -0.0651574 -0.00421421 0.114208 -0.0595672 0.00108942 -0.0105395 -0.0598156 0.0368958 0.00015402 0.0668447 0.00410326 0.00423316 -0.00422186 0.000621552 -0.00861038 -0.004987 -0.00450802 -0.00123847 -0.00400106 -0.00262083 
-0.233337 -0.132999 -0.255132 0.251549 -0.328349 -0.247341 -0.519031 0.00258968 0.596695 0.0127863 0.122615 -0.230478 0.995191 0.160357 0.190325 1.70603 -0.187558 0.204286 0.0703645 -0.132555 -0.189518 0.0689511 -0.238645 0.976081 
0.22045 0.0369707 0.375182 0.363838 -0.0942936 0.041967 -0.117767 -0.14627 0.0405376 -0.0261643 -0.292865 -0.268272 -0.214903 -0.0394668 -0.176261 -0.356398 -0.116533 -0.0548129 0.0920035 -0.457025 0.616942 -0.052127 0.0443533 0.0213281 -0.119708 0.0173151 -0.139126 -0.264195 -0.26921 0.263771 -0.573776 -0.0070203 0.312002 -0.0988309 0.386753 0.352943 -0.172606 -0.278569 -0.151027 0.186773 -0.0547176 -0.115638 0.0350544 -0.287691 -0.0783102 -0.0184203 0.110896 0.269875 0.466261 -0.471485 0.0182909 0.470917 -0.123093 0.301291 0.0433811 -0.490173 0.479317 -0.336786 -0.346548 0.0441051 0.130707 0.427962 0.438086 0.241799 -0.184158 0.234398 0.131092 -0.494755 -0.460392 0.110508 -0.0766246 -0.257469 

