-0.236357 -0.0677584 0.369438 0.413014 0.269425 0.173402 0.33904 -0.373481 -0.257272 0.262608 0.0636972 -0.247778 0.297048 0.466329 -0.26373 -0.301493 -0.150951 -0.393679 0.190998 0.389732 -0.281893 -0.142723 0.157077 0.431916 0.0952818 -0.134791 -0.108831 -0.494811 0.0525861 0.291506 -0.465297 -0.180164 -0.156628 0.0134108 -0.337838 -0.264939 -0.032714 -0.291976 -0.0572284 -0.279674 0.238811 0.134886 0.231268 0.268984 0.490483 0.406277 0.385996 0.452187 -0.245154 -0.0131612 0.0882932 0.166595 -0.474361 0.209286 -0.0869773 -0.363677 0.0183505 0.464293 -0.375088 -0.102462 0.0723277 -0.412719 0.402828 -0.376258 -0.108841 -0.354443 -0.0188822 0.370444 -0.366955 0.335983 0.0111439 -0.159891 0.123427 0.00936469 -0.464167 0.252951 -0.383796 0.243702 -0.353271 0.464866 -0.34277 0.489805 0.456335 -0.203181 -0.107379 -0.128379 0.499427 0.467682 -0.0922673 0.00340927 0.242882 -0.338987 0.379098 0.363398 0.10178 -0.461085 -0.269536 -0.109838 0.174969 0.132046 -0.0232889 -0.478353 -0.0295502 0.305369 -0.137211 -0.0587653 -0.388344 0.170018 0.44322 0.18678 -0.315564 0.0935464 0.355584 -0.219035 0.201603 -0.443793 -0.219099 -0.276704 0.409863 -0.0514166 
-0.0768232 -0.330244 0.415888 -0.0635202 0.285156 0.222161 -0.389293 0.0946913 0.380453 -0.14543 0.372187 -0.162574 0.45044 0.409082 -0.393032 0.13365 -0.275218 0.227466 0.271273 0.297181 -0.149415 0.248602 0.49482 -0.0871186 0.289505 -0.359708 -0.338121 -0.0889704 0.481688 0.404106 -0.0402555 0.31282 -0.483756 -0.242268 -0.145477 0.25547 -0.422293 0.153587 0.485944 0.482684 0.336578 -0.0956303 -0.0333481 0.215911 -0.247631 0.2157 0.307788 -0.497283 0.462797 -0.438863 -0.455146 0.496873 0.337614 -0.297528 0.183113 -0.464923 0.498876 0.201982 -0.284764 0.270494 -0.195832 0.324748 0.057448 -0.0119532 -0.298578 -0.377081 0.31218 -0.413786 -0.0585006 0.022716 0.234155 -0.0946825 0.0561393 0.162484 0.202328 -0.366356 -0.201071 0.0638574 -0.0440808 -0.161133 -0.494899 0.0247364 -0.0362672 0.0118203 -0.324085 0.461564 -0.184299 -0.171601 -0.0253541 0.203931 -0.144907 -0.0260768 0.240636 0.493928 -0.226797 0.423583 -0.266374 -0.0931289 0.466667 0.296069 -0.105097 -0.428419 -0.144242 -0.0347785 0.269453 -0.164022 -0.141574 -0.473606 -0.16487 -0.246899 0.189452 0.253703 0.0195561 0.376614 -0.198675 -0.183793 -0.376558 0.226731 -0.189913 -0.121248 -0.330969 -0.332087 -0.00983321 0.498367 -0.151549 -0.471327 -0.49871 0.387213 -0.107185 0.449351 0.132647 0.299273 0.0382327 -0.428331 0.21759 -0.0148476 -0.356234 -0.138857 0.489191 -0.103733 -0.202045 0.186326 0.0913171 0.222028 0.0597271 -0.163598 -0.184917 0.325424 0.441967 -0.41942 0.100986 0.493778 0.225361 0.478214 -0.300211 -0.02863 0.340853 -0.412496 -0.171288 0.415531 0.183505 -0.462035 -0.144588 -0.299283 0.273997 0.351234 0.284081 0.207624 0.317062 -0.171942 -0.0986314 0.322691 -0.349941 -0.396863 0.397943 0.0212907 0.152104 0.143482 -0.19993 0.145898 0.136058 -0.425091 0.234414 0.219289 -0.248583 -0.376628 0.204996 -0.252276 -0.44583 -0.375219 -0.189566 0.255086 -0.106277 0.320633 0.47017 -0.390025 -0.29034 0.310475 -0.457246 -0.429838 -0.48249 -0.344929 -0.157753 -0.473327 -0.0955377 -0.285851 0.144733 -0.121165 0.453568 0.178822 0.264312 0.303971 0.0650763 0.232781 -0.43226 -0.21991 -0.375338 0.0922087 0.14054 -0.496479 0.257429 -0.390293 -0.206681 -0.0346079 0.0382235 -0.0446779 -0.246258 0.0708027 0.299666 -0.0609786 -0.131883 0.203836 0.246388 -0.435725 0.0863998 0.240865 0.0292326 -0.0298427 -0.179198 -0.465852 -0.485991 0.258091 0.0293317 0.0432899 0.432571 0.0391099 -0.379057 -0.287834 0.420921 0.0560711 0.187027 0.295393 -0.0348813 -0.00596406 -0.26061 -0.110542 -0.260597 0.461365 -0.112135 -0.372276 0.34039 -0.309192 0.353895 0.349526 0.462218 -0.392309 -0.107032 -0.327286 0.270227 0.4667 -0.471321 -0.411082 -0.00749517 -0.251379 0.294707 -0.444057 -0.255894 -0.131333 -0.233664 -0.454297 0.366505 -0.0578873 -0.310884 -0.214248 -0.0357944 -0.150635 0.0991179 -0.450122 -0.495881 -0.041973 -0.354766 0.495461 0.0330556 0.380567 -0.246012 -0.323633 0.252424 0.271803 -0.373718 -0.0509508 -0.0340847 0.332649 0.153995 -0.274714 -0.183639 -0.425203 -0.319395 0.336314 -0.490793 -0.230143 0.303131 0.476212 0.235432 0.154508 0.323976 0.419528 0.103106 -0.330079 0.349545 -0.0568593 0.326144 0.349071 0.24185 0.0973309 -0.0330327 0.494853 0.2056 -0.277419 -0.407395 -0.339569 -0.120782 -0.275994 -0.138019 -0.302715 -0.342143 0.35547 -0.30426 -0.107229 0.257235 0.065278 0.456884 0.0985242 -0.0586691 -0.270532 0.393897 -0.286567 -0.341069 0.0644715 0.0577852 0.477269 -0.216469 -0.483048 0.202965 0.0913756 0.0595489 0.0746578 -0.112179 0.378314 0.492808 -0.440695 -0.334998 -0.0318631 0.216511 0.110602 0.491991 -0.2862 -0.400424 0.0644071 0.159107 0.302938 -0.0682166 -0.101004 0.28764 0.227083 0.193673 -0.256738 0.312551 -0.291191 0.0685908 -0.484188 -0.377497 -0.221008 0.0500081 0.0835326 0.345364 0.235916 -0.172919 -0.340376 -0.495403 -0.0581426 0.337536 0.497651 -0.377868 0.441797 0.426962 -0.433212 -0.105595 0.43589 0.073614 0.428964 0.106069 -0.0920044 -0.365572 -0.057852 0.0510585 0.113201 0.346368 0.482472 -0.441646 -0.488269 0.341956 0.471573 -0.479158 -0.352661 -0.4495 0.340216 -0.0584839 0.0496623 -0.247771 -0.334973 -0.0645745 -0.438457 -0.140368 -0.180584 -0.400346 0.282433 -0.237472 0.287175 0.193126 -0.361108 0.385847 -0.295407 0.349327 -0.136104 -0.163955 0.264492 0.272132 -0.08916 0.0402571 -0.464378 -0.204738 0.358909 0.174539 0.112217 0.206888 0.125158 -0.271962 -0.18017 0.0424705 -0.188466 0.0561713 0.403562 0.278054 0.470234 -0.188592 -0.186547 0.382009 0.326935 -0.0537181 -0.00393616 0.0706753 -0.215156 0.492233 0.0764095 -0.442431 0.0793076 0.077043 0.480941 0.479431 0.0560692 -0.341875 0.0742543 -0.0910832 -0.241929 -0.0424189 -0.0571959 0.452239 -0.112338 -0.175573 0.484328 -0.144113 0.0538225 -0.474306 0.219851 0.397196 -0.121804 0.207858 0.317899 -0.0994509 -0.124754 -0.397867 0.478671 -0.0807282 -0.0656187 -0.372532 0.17077 -0.0743239 0.0595149 -0.460705 0.491162 -0.101974 -0.370301 0.0950962 0.0562559 -0.191429 -0.202202 0.38432 0.00190136 0.139891 -0.0105458 -0.0651478 -0.0825704 0.413455 -0.15489 0.319504 0.179629 0.140724 -0.00496669 0.0110248 0.039441 -0.238907 -0.193274 0.327997 0.283167 0.270427 0.39196 -0.0570987 0.336516 -0.400228 -0.425083 -0.213576 -0.243066 0.304238 -0.292686 -0.236856 0.433729 0.0258352 -0.29585 -0.455628 0.451424 0.337073 -0.161585 -0.304517 0.383688 0.156518 -0.367042 0.0616371 -0.0323413 0.441315 -0.492911 -0.389884 0.0459369 -0.201041 -0.095593 0.340736 -0.150266 -0.0309972 -0.0761578 0.315947 0.155841 -0.266957 0.360679 0.165851 -0.437691 0.164895 0.205948 0.385968 0.413497 0.0285772 -0.4713 -0.138924 -0.109105 -0.135891 0.415334 0.280884 -0.465287 0.340816 -0.120464 0.368208 -0.183439 -0.390778 -0.411213 0.465209 0.233341 0.031875 0.0115057 0.27541 -0.471482 -0.036863 0.307109 -0.446133 -0.137258 -0.0442251 -0.277893 -0.12912 0.462692 0.0902681 -0.112131 0.0533876 -0.481969 -0.100855 0.278506 -0.19565 0.209219 0.234838 -0.0394871 0.175437 -0.164151 0.390561 -0.0923512 0.077654 -0.0840523 0.416785 0.248376 0.00376743 -0.0761652 0.454407 0.111926 -0.37171 0.0380542 -0.406467 -0.189199 -0.333021 0.163089 -0.0147492 -0.195391 -0.0114725 0.294419 -0.0677588 0.0048118 0.304754 0.23756 0.473989 -0.311962 -0.134263 0.367796 -0.47785 -0.356904 -0.222836 0.39765 0.0177651 -0.376409 0.214907 -0.178808 0.0891121 0.353502 0.392838 -0.121751 -0.0721268 0.284131 0.271097 0.454212 0.476652 -0.270712 -0.172017 -0.308801 -0.309423 -0.0979755 -0.177004 -0.0390591 0.0843728 -0.30435 -0.398332 0.389323 0.468923 -0.0995496 0.208612 -0.0983139 -0.488697 0.0937254 -0.493129 0.106552 -0.4112 -0.0517521 0.353067 -0.399382 0.128912 0.421355 0.341386 -0.265018 0.337997 -0.366162 -0.090013 -0.301241 0.100168 -0.209324 0.281467 0.0784465 0.455412 -0.158973 0.451731 -0.137121 -4.20259e-07 0.310887 0.124162 -0.0705645 -0.424113 -0.455539 -0.207753 -0.0810478 -0.328621 -0.0771812 0.0233372 0.337176 0.452015 -0.223098 -0.444975 -0.259162 -0.450355 -0.12056 -0.171484 -0.351202 -0.199182 -0.426924 0.18401 0.404777 0.279203 0.0758854 -0.489312 -0.0397762 0.429666 0.189291 -0.163132 0.188038 -0.323376 -0.00804212 -0.0484145 -0.281017 -0.178374 -0.310103 0.436717 -0.20503 -0.362274 0.344529 -0.0737123 0.305517 -0.330261 -0.0667261 0.168712 0.333776 -0.349463 -0.217272 -0.37455 0.0301057 -0.098941 0.375209 -0.404646 -0.318772 0.398881 -0.0283714 0.492105 -0.374684 0.290959 -0.273809 0.156961 0.0770746 -0.29943 0.353272 -0.269713 0.415351 -0.303232 0.0432697 -0.11623 0.0859738 0.197596 0.0269055 -0.065571 -0.408906 -0.22534 0.403694 0.171773 -0.215624 0.192715 -0.17579 -0.369726 0.191735 0.156675 0.173801 -0.36336 -0.260092 0.361594 -0.145016 0.125315 0.101847 0.350353 -0.413604 0.152962 -0.254969 -0.354481 0.149239 -0.413269 0.119587 -0.433393 -0.279054 0.0379891 0.474497 0.0819302 0.175267 -0.359261 0.1541 -0.26779 0.320571 0.0851931 0.26579 -0.491781 -0.464949 -0.029062 -0.267439 0.184489 0.0968636 0.221172 0.0508847 0.191852 -0.186647 0.278471 -0.157689 0.0379815 0.371945 0.0666574 -0.164585 0.085956 -0.118299 0.257313 0.411136 0.147233 -0.156494 -0.355763 -0.484796 -0.156021 0.474515 0.304637 0.0149374 0.446022 -0.384701 -0.333151 0.383428 -0.369594 0.152166 -0.368558 -0.343883 -0.110357 0.346488 -0.158156 0.418043 0.470314 -0.144455 0.0428807 -0.108747 -0.397768 -0.0179914 0.0321829 -0.370774 0.265471 -0.156714 0.108732 -0.325861 0.277935 -0.264669 -0.210136 -0.252327 0.146288 -0.410987 -0.292348 -0.229769 -0.254427 0.358584 0.0401032 0.304207 0.288806 -0.12865 -0.134997 0.244628 -0.0281968 0.44369 0.268396 -0.44329 -0.491493 0.287912 0.0367716 0.25147 0.0687394 -0.34823 -0.304168 0.486417 0.381276 0.0832289 0.256069 -0.0467976 -0.12393 0.443964 -0.0201177 -0.0331406 0.174206 0.473443 -0.221549 -0.219376 -0.170478 0.272664 -0.0113048 -0.114331 
-0.201968 0.231677 0.231037 0.147523 -0.474641 -0.101516 -0.339943 0.283074 0.433608 -0.354398 0.313525 -0.208874 0.129608 0.165284 0.376639 -0.0389515 -0.0873052 -0.471908 0.325341 0.159713 -0.247186 0.0582972 0.341617 -0.383532 0.115392 0.418099 -0.0650637 -0.197334 -0.463226 0.143484 0.24344 -0.405351 0.0666634 0.0950709 -0.0148991 0.359908 0.434206 -0.015238 -0.469993 0.287766 0.431744 0.0776897 -0.271798 -0.375344 0.341855 0.0268145 -0.437209 -0.41189 -0.464902 -0.173383 0.0568217 0.350557 -0.241965 0.112788 0.0548187 0.181478 -0.362307 0.28485 0.175579 0.142928 -0.140073 -0.0356902 -0.158328 0.0261354 -0.319323 0.472715 -0.480871 -0.476851 0.265712 0.465527 0.148294 0.162057 0.39302 -0.269978 -0.192802 -0.325571 -0.310879 0.365735 -0.250849 -0.169652 0.177336 -0.345353 0.0140286 0.411208 0.163076 0.407358 -0.0381543 0.188458 -0.1986 0.0288113 -0.343491 0.292193 -0.122623 -0.0439524 -0.45716 -0.432284 -0.368963 -0.215265 0.417893 0.231297 0.358541 0.159849 -0.0587563 0.210087 -0.173942 -0.185411 0.202689 0.00895985 0.268532 0.110793 -0.267518 -0.0660138 -0.399548 -0.0716194 -0.447963 0.442569 -0.379756 -0.0849588 -0.368931 0.0609967 

0.144812 -0.343837 0.154208 0.494642 -0.229109 0.282079 -0.479353 0.0963492 -0.291736 -0.216395 -0.396165 0.197905 -0.251359 0.18477 -0.17435 -0.268827 -0.168424 -0.180793 0.124079 -0.181186 -0.224809 -0.173708 -0.175171 0.128019 -0.491556 0.270057 0.200041 0.0571411 0.137494 0.294185 -0.224544 -0.151256 -0.263257 -0.16697 0.461342 -0.0686781 -0.276064 -0.167819 -0.414197 -0.263036 0.288417 -0.0551381 -0.330467 0.345504 -0.44388 0.470463 -0.112664 0.485784 -0.186151 0.39497 -0.399107 -0.204162 0.422641 0.0330928 0.411624 -0.387721 -0.0320389 0.448681 -0.258089 0.463145 
