0.192649 0.0610346 0.475709 0.407911 0.485529 0.344569 0.195253 -0.365836 0.394062 0.0556814 0.305908 -0.351925 -0.281459 -0.444781 -0.0342885 -0.0601843 0.127056 0.0666028 0.0336243 -0.19486 -0.440568 -0.0997411 -0.190253 0.0450055 -0.208736 0.32003 -0.240239 0.33463 -0.344577 -0.00383959 0.103069 0.427277 -0.26481 -0.294049 0.105185 -0.0283661 -0.429558 0.430555 -0.122137 0.0540125 0.455929 0.352407 -0.0385104 -0.236458 0.267506 0.113939 0.129351 -0.300507 0.143754 -0.35842 0.163735 -0.0323164 0.0920117 0.475834 -0.22786 -0.0733113 0.288975 0.214128 -0.413671 0.315303 0.31694 0.186483 -0.367655 0.253865 -0.0415922 0.412724 0.0216677 0.326813 -0.044903 0.0313901 0.213818 -0.366396 -0.43689 0.250473 0.0998754 -0.166122 -0.317262 -0.12749 0.181699 0.0236811 
0 0 0 0.242586 0 0 0 0 0 0 0 0 0 0 0 0 0 0 0 0 0 0 0 -0.113499 0 0 0 0 0 0 0 0 0 0 0 0 0 0 0 0 
0.350991 -0.00581965 -0.410182 -0.216984 0.483679 0.469827 0.497882 0.25741 0.303615 -0.436832 -0.312843 0.311784 0.439204 0.0462338 0.127241 0.366198 -0.149676 0.233933 0.00982521 -0.0566021 -0.0299302 -0.172857 -0.47824 -0.165211 0.483706 -0.284197 -0.11139 0.0869957 -0.162137 0.241159 -0.160159 -0.0891499 0.209334 0.15493 0.213128 -0.071979 -0.366236 -0.498882 0.239732 -0.354307 0.494127 -0.333562 -0.389219 -0.337679 -0.293974 0.0312531 -0.100963 -0.128633 -0.46695 -0.461849 0.0760014 -0.271225 0.266915 0.10353 -0.0465652 0.358763 -0.0759075 -0.0248684 -0.196641 -0.379816 -0.310341 0.109277 -0.311207 -0.222857 -0.349883 -0.419393 -0.339797 0.463435 -0.165132 -0.0377953 0.0585244 0.344834 0.477355 -0.377765 0.356017 0.133113 0.453854 -0.312632 -0.131412 0.36749 0.0756108 0.021801 0.177825 0.0244479 0.0929834 -0.0954034 0.165753 0.237113 -0.0815294 0.401361 -0.196724 0.245718 -0.328461 -0.286546 0.0579614 -0.0946243 -0.244001 0.357134 -0.127155 -0.400452 0.43563 -0.0931085 -0.000157656 0.237932 0.227827 -0.290922 0.423484 0.464351 -0.0623538 0.203904 -0.186886 0.147246 0.168277 0.406806 -0.300847 -0.469698 0.137547 -0.466907 0.208734 -0.123817 -0.344616 0.310703 0.401034 -0.287227 0.0570085 0.0804497 0.398135 0.191262 0.0439461 -0.114311 0.0228752 -0.21752 0.181259 -0.0646507 0.00326242 -0.19861 0.36066 -0.113479 -0.10111 0.00503727 0.251594 -0.101842 0.396516 0.179832 -0.096314 -0.19437 0.378527 -0.205879 0.49892 0.299496 0.494538 -0.210336 0.0572282 0.236329 0.340441 -0.413365 0.191348 -0.139603 0.174235 0.460208 0.166109 0.452485 -0.0162018 -0.0104739 -0.374015 -0.394406 0.103317 -0.131963 0.243277 0.0824309 0.107235 0.146166 -0.0322272 0.401344 -0.0111831 0.0875301 -0.126124 0.373534 0.295369 -0.432468 -0.196153 0.0661406 0.192251 0.378883 0.00949349 -0.435752 -0.112339 0.317247 0.14954 0.489006 0.390912 -0.474243 -0.23631 -0.457415 -0.350571 0.269163 0.262004 0.375338 0.48642 0.378914 
0.222212 -0.138714 0.0175636 0.384202 -0.00484205 -0.265409 0.0318183 -0.156929 -0.283073 0.131628 0.301465 -0.165818 -0.158474 -0.203216 -0.470861 -0.196329 -0.22734 -0.382068 0.315364 0.267927 0.380031 -0.296154 0.407769 0.473165 0.435656 0.447477 0.198949 -0.259077 0.183465 0.222211 -0.302657 -0.0185304 -0.138733 0.110851 -0.202062 0.493284 0.342154 0.33239 -0.0264427 0.287555 0.488833 -0.298328 0.395575 0.262438 -0.0505037 -0.0229213 -0.0935768 0.40358 -0.180653 -0.488166 0.237165 -0.196607 0.383744 -0.343679 -0.462979 -0.103779 -0.30996 -0.0432001 0.418804 -0.42875 -0.269564 0.357653 0.0778149 -0.173668 -0.19761 0.147552 0.414928 0.271205 -0.292733 -0.150095 -0.124647 0.206709 -0.341641 0.465258 -0.326753 0.0342306 0.196508 0.22625 -0.280449 -0.0542185 -0.402438 -0.236399 -0.241391 0.0699143 0.496039 -0.0772194 -0.492536 0.475067 0.301695 -0.164783 -0.396029 0.425184 -0.0314014 -0.0828327 -0.486448 -0.0398202 0.45296 0.383267 -0.0247936 0.108763 -0.249309 0.0856228 -0.283488 -0.234361 -0.339402 0.349992 0.0565063 0.0449584 0.0425361 0.387192 0.107387 0.485813 0.119895 -0.412522 0.38024 0.417939 -0.257945 0.00688494 -0.355234 0.0521436 0.343703 0.226649 0.30278 0.258693 -0.189664 -0.0106811 -0.243369 -0.344073 0.0931383 -0.0758726 0.0540495 -0.034346 -0.0796427 -0.326592 -0.366237 0.285649 0.00398301 -0.256093 0.283459 0.0706578 0.475975 -0.316843 -0.398635 -0.0512555 -0.00890873 -0.284123 -0.264661 -0.150961 0.477156 -0.474299 -0.283452 0.215482 -0.495548 0.154268 -0.427226 0.438815 0.233709 0.0623502 -0.00328125 0.243475 -0.237216 -0.297181 0.22375 -0.442848 -0.209916 0.32267 0.400204 -0.0660529 -0.259741 -0.010538 -0.125135 -0.086407 0.459017 -0.473441 0.317424 0.0182668 0.382891 -0.236033 0.248361 -0.267032 0.390784 -0.409165 0.211161 0.312627 -0.461968 -0.387938 -0.23206 -0.241142 -0.277031 0.463026 -0.441847 -0.199619 0.487352 -0.184239 0.359999 0.318708 -0.177015 -0.0585892 -0.284674 -0.208843 0.208174 0.005562 -0.0640761 -0.198688 -0.210979 -0.0869198 0.298031 0.0292806 -0.338558 -0.479 0.244606 0.29307 0.288927 -0.0331827 0.080625 0.300761 0.0380671 0.43053 -0.253457 0.373284 
0 0 0.0392937 0 0 0 0 0 0 0 0 0 -0.366265 0 0 0 0 0 0 0 0 0 -0.0745724 0 0 0 0 0 0 0 0 0 0.463421 0 0 0 0 0 0 0 0 0 0.204393 0 0 0 0 0 0 0 0 0 -0.0488714 0 0 0 0 0 0 0 0 0 0.206896 0 0 0 0 0 0 0 0 0 -0.306145 0 0 0 0 0 0 0 0 0 0.184096 0 0 0 0 0 0 0 0 0 0.169922 0 0 0 0 0 0 0 
