0.434149 -0.0902052 1.12908 0.680016 0.51192 0.513111 0.947474 -0.413026 0.159498 -0.407938 1.20448 0.286684 0.133322 -1.04532 -0.0352055 0.79513 0.431949 1.10816 -0.408925 0.422478 -0.580893 -0.0522463 -0.292088 0.0684424 -0.2164 0.289146 -0.4049 0.459039 -0.311794 0.170083 -0.104411 0.556259 -0.199888 0.0458382 0.0686271 -0.0786193 -0.392099 0.526666 -0.132826 0.101245 0.62114 0.352942 -0.256981 -0.320801 0.276625 0.106016 0.0426922 -0.324703 0.199858 -0.28074 -0.0139377 -0.288047 -0.0344699 0.37428 -0.234663 -0.133907 0.231503 0.187948 -0.346307 0.162136 0.532978 0.118994 -0.340922 0.265378 -0.0170466 0.398351 0.0646817 0.20913 -0.0542649 -0.0916857 0.159923 -0.468648 -0.4826 -0.139447 0.103922 -0.0186932 -0.314104 -0.156791 0.24401 -0.0129591 



-0.148368 -0.0122695 -0.223498 0.261238 0.00384143 -0.0247218 -0.237524 0.0107411 0.0227249 0.0145382 -0.240689 0.0310137 0.0179415 -0.359607 0.00303656 0.0729938 0.0103084 -0.211891 0.10296 0.0198958 -0.170842 0.0146508 0.151818 -0.0918085 0.0202866 0.00326665 0.0120655 0.0603713 0.0334719 0.031232 0.0559015 0.0375592 0.0526762 0.109878 -0.0293777 0.0982849 0.0449142 -0.110607 0.0689236 0.0777092 
0.35091 -0.00585883 -0.409429 -0.217053 0.483624 0.46978 0.498448 0.257291 0.303442 -0.437026 -0.31258 0.311492 0.439026 0.0459978 0.127288 0.365732 -0.149874 0.233742 0.00989542 -0.0567897 -0.0404623 -0.165391 -0.500333 -0.166148 0.485704 -0.285571 -0.135868 0.10397 -0.149059 0.268028 -0.180302 -0.0797277 0.217831 0.198452 0.207995 -0.0714017 -0.358564 -0.512859 0.247161 -0.349216 0.485295 -0.345106 -0.325039 -0.364205 -0.342645 -0.0492598 -0.0901981 -0.117868 -0.558619 -0.442967 -0.0117115 -0.34649 0.147322 0.190575 -0.00283034 0.0506694 -0.199688 -0.195416 -0.1368 -0.533105 -0.311027 0.109654 -0.312824 -0.222802 -0.349924 -0.419978 -0.340492 0.46446 -0.164707 -0.0362855 0.0564424 0.345365 0.477593 -0.375346 0.355648 0.131777 0.453985 -0.315452 -0.130162 0.367471 0.0910517 0.0104664 0.236452 0.0231596 0.0961801 -0.0782936 0.20162 0.210853 -0.0903864 0.364168 -0.123209 0.237786 -0.324752 -0.354368 0.0616391 -0.0419654 -0.237278 0.440512 -0.156603 -0.386503 0.438396 -0.0467338 -0.0946096 0.252927 0.298432 -0.174576 0.377237 0.559133 0.112353 0.317229 -0.0751987 0.281737 0.393656 0.446474 -0.383804 -0.0130308 0.348423 -0.209037 0.123312 0.120259 -0.344962 0.311135 0.400152 -0.287543 0.0569384 0.0802505 0.39717 0.192127 0.0444789 -0.112925 0.0218017 -0.217366 0.181422 -0.0631754 0.00318239 -0.199264 0.360705 -0.11464 -0.1004 0.00491864 0.251561 -0.10181 0.396661 0.179798 -0.0962508 -0.19427 0.378413 -0.205727 0.499095 0.299762 0.494787 -0.210311 0.0573847 0.236475 0.340338 -0.412951 0.191529 -0.139254 0.174177 0.46036 0.166173 0.45256 -0.0159935 -0.0105675 -0.373866 -0.394057 0.10289 -0.131787 0.243667 0.0828096 0.108015 0.146514 -0.0317274 0.401532 -0.0113347 0.0888186 -0.125593 0.374866 0.294933 -0.431884 -0.195783 0.0660664 0.192858 0.378759 0.00949774 -0.435487 -0.112048 0.317033 0.149471 0.488668 0.391799 -0.474399 -0.236275 -0.458108 -0.350445 0.269811 0.262025 0.37647 0.485929 0.378992 
0.216078 0.028621 0.0915997 0.383333 0.098544 0.527103 0.032104 -0.155133 -0.287626 0.125406 0.297165 -0.0485787 -0.11881 -0.203688 -0.394029 0.348099 -0.227161 -0.380845 0.31228 0.263219 0.371513 -0.0458508 0.55763 0.471055 0.568271 1.58937 0.199024 -0.256818 0.17663 0.214601 -0.311044 0.219803 -0.015469 0.109349 -0.0698241 1.58486 0.342369 0.334513 -0.0327941 0.279965 0.48139 -0.0864758 0.495625 0.261173 0.0750265 0.957995 -0.0933611 0.405682 -0.18651 -0.495517 0.232075 -0.052567 0.476844 -0.344676 -0.395661 0.536798 -0.309809 -0.0420464 0.415077 -0.432485 -0.278037 0.598129 0.206586 -0.175278 -0.0677262 1.2437 0.415145 0.27345 -0.299305 -0.157582 -0.12953 0.344666 -0.300011 0.464788 -0.215217 0.722006 0.196655 0.22797 -0.284239 -0.0610678 -0.408192 -0.0729857 -0.179485 0.0690733 0.607431 0.703904 -0.492322 0.476886 0.297229 -0.171527 -0.400874 0.559685 0.0061748 -0.0831911 -0.375916 0.636193 0.453103 0.385014 -0.0285373 0.101996 -0.256822 0.306708 -0.147541 -0.236185 -0.222863 1.37609 0.0566674 0.0469246 0.0365695 0.380453 0.100959 0.678049 0.207757 -0.41381 0.510327 1.32129 -0.25795 0.00899065 -0.360663 0.0443961 0.339244 0.361568 0.356553 0.257647 -0.0924072 0.617439 -0.243332 -0.342384 0.0893657 -0.0818517 0.0528623 -0.0121882 -0.129113 -0.325914 -0.311391 0.442957 0.00417778 -0.255263 0.282849 0.0666628 0.472747 -0.23551 -0.328517 -0.0517455 0.0103999 0.0202846 -0.264636 -0.150436 0.475286 -0.475022 -0.288038 0.35815 -0.408558 0.152784 -0.342889 1.08066 0.233752 0.0638693 -0.00707344 0.238526 -0.243549 -0.114105 0.299647 -0.443957 -0.0898553 1.18125 0.400357 -0.0640321 -0.264843 -0.0177249 -0.131444 0.109784 0.589897 -0.475496 0.418622 0.899074 0.382873 -0.234317 0.242933 -0.27285 0.386156 -0.287241 0.261496 0.312299 -0.383083 0.178451 -0.231884 -0.239833 -0.280129 0.458406 -0.44794 -0.0210317 0.561252 -0.18534 0.479588 1.16291 -0.17688 -0.0566842 -0.28959 -0.216069 0.671654 -0.113509 0.642031 -0.0234138 0.0802493 0.247784 0.721898 -0.522451 -0.174317 -0.764866 0.805569 -0.116034 0.0217934 -1.1119 0.262536 0.58451 0.0789997 1.03149 -0.462276 0.142222 
-0.00375606 0 0.0392937 0 0 0 0 0 0 0 0 0.0290732 -0.366265 0 0 0 0 0 0 0 0 0 -0.471366 0 0 0 0 0 0 0 0 0 0.463421 -0.0180528 0 0 0 0 0 0 0 0 0.204393 0 -0.219152 0 0 0 0 0 0 0 -0.0488714 0 0 0.425046 0 0 0 0 0 0 0.206896 0 0 0 0.00651976 0 0 0 0 0 -0.306145 0 0 0 0 0.0146519 0 0 0 0 0.184096 0 0 0 0 0 -0.00876833 0 0 0 0.169922 0 0 0 0 0 0 0.0146764 
