0.514779 -0.178067 0.571399 0.323029 -0.274844 -0.0240678 -0.230666 -0.179984 -0.111078 0.17667 0.0197727 -0.0891862 -0.575122 0.0710426 -0.482135 0.432163 -0.262922 -0.2382 0.489106 -0.575787 0.071809 -0.216969 0.368011 -0.448156 -0.18513 0.130667 -0.1134 -0.0469306 -0.311989 -0.250147 0.280319 0.375604 0.27432 0.526614 0.59616 0.0964224 0.18205 0.477418 0.407948 0.14055 0.204053 -0.10956 0.456647 0.105961 -0.127565 0.472371 -0.364946 0.272677 -0.130743 0.179585 -0.291422 -0.236841 0.236465 -0.128439 -0.205323 -0.265204 0.310855 0.148069 -0.257198 0.23597 0.000810552 0.440377 -0.0621186 -0.278915 
-0.409526 0.367144 -0.0847863 -0.228139 0.32493 0.349808 -0.249381 -0.37701 0.50331 0.335473 -0.543443 -0.511503 0.0108769 -0.180143 0.139651 0.0954151 -0.12327 -0.592603 0.0271695 0.369971 -0.124067 0.163944 -0.365013 -0.524637 -0.289583 -0.513979 -0.323505 -0.55636 -0.0411466 0.330714 0.0556442 -0.194547 -0.56806 -0.0776202 0.40898 -0.280206 0.555764 -0.171801 0.178053 0.295918 -0.366201 0.506476 -0.216793 -0.209397 0.417773 0.187744 -0.536323 0.227621 
0.523615 0.462608 0.379062 -0.202415 -0.351612 0.0178438 -0.0621389 0.0109045 0.162898 -0.488329 -0.586603 -0.00636773 0.117188 -0.200244 0.228698 -0.191513 0.156072 0.101668 0.537971 0.282371 0.0313847 -0.265591 0.0744013 0.321068 0.0545441 -0.426225 0.529444 0.344112 -0.466717 0.180866 0.205208 0.152313 
-0.23872 0.257312 -0.43937 0.164297 -0.328905 -0.146449 0.413539 -0.170879 -0.34602 0.251631 0.521407 0.549803 -0.459659 0.27071 -0.230304 0.547292 -0.390934 -0.217005 -0.134896 0.074385 0.0515659 -0.354736 0.344119 -0.0353761 0.422713 0.0148211 0.22715 0.447475 -0.142546 0.500183 -0.0519449 0.452932 -0.517049 -0.221453 -0.415324 -0.220799 -0.159444 0.414577 -0.180987 -0.0714766 0.191863 0.0810486 0.568867 0.460177 0.0208118 -0.592755 -0.500366 0.398986 0.514958 0.0197853 0.0217812 -0.181941 -0.397232 0.489535 -0.289254 0.0197353 -0.258121 0.159558 0.17749 0.180051 0.0778562 0.381065 -0.320907 -0.0213111 -0.166726 0.136498 0.101458 0.0452253 0.348385 -0.562365 0.298378 -0.389117 -0.154422 -0.590151 -0.0244652 0.48511 -0.353567 -0.536185 0.0302534 -0.21095 0.394548 -0.186367 -0.3847 0.523992 0.129887 -0.411964 -0.183671 0.231692 -0.0739533 -0.0562722 -0.292623 0.368088 0.0954226 -0.389619 -0.509656 0.377002 

