0.133389 -0.542684 0.428769 0.447977 -0.42624 0.347301 0.142958 -0.369679 -0.618048 -0.0317369 -0.240904 -0.24094 -0.355492 -0.175738 -0.707622 0.483215 0.322907 -0.382848 0.659333 -0.599871 -0.0695263 -0.364593 0.611657 0.054626 -0.211627 0.305586 0.427053 -0.398029 -0.346555 -0.0637275 0.258307 1.08824 0.278994 0.412962 0.898809 0.137363 0.366074 0.501273 0.0872588 0.166795 0.0575398 -0.519509 0.768855 -0.0780371 -0.121104 0.352887 0.478729 0.372808 -0.217802 0.0990565 0.101736 0.23415 0.224566 -0.133564 1.20288 0.354144 0.157005 0.574135 0.308997 1.13915 -0.682489 0.883967 -0.284772 -0.263054 
-0.292376 -0.0125163 0.00109715 -0.167301 0.32902 0.0581083 -0.00746755 -0.361748 0.116967 0.186886 -0.0542033 -0.268252 0.0118219 0.132248 -0.0295178 0.115292 -0.150607 -0.233463 -0.104148 0.180812 0.0987581 -0.0125343 0.0391535 -0.163782 -0.0185927 -0.114429 0.0515779 -0.185544 -0.0704515 0.0106812 0.0539433 -0.0319835 -0.299599 -0.0797299 -0.054995 0.0260457 0.452062 0.00653621 -0.116303 -0.0247206 0.0454213 0.116619 -0.0914659 0.0045935 0.222889 -0.0400252 -0.00251809 0.00737999 
0.516658 0.416969 0.552012 0.235247 -0.15739 -0.104122 0.073566 0.0736848 0.397589 -0.4561 -0.0639693 0.240133 -0.10342 -0.335399 -0.151474 -0.00104304 0.19593 0.0660391 -0.105196 0.276062 -0.180345 -0.303078 0.197166 -0.0867044 0.0333716 -0.323803 0.0742014 0.203636 -0.167104 -0.168943 -0.251826 -0.180309 
-0.0861003 -0.0742047 -0.585085 -0.237047 -0.240731 0.0877096 0.409129 0.259129 0.16897 0.0443755 0.764333 0.296744 -0.151306 0.127346 0.164124 0.425859 -0.0474094 -0.0345035 -0.235197 -0.190719 0.544901 -0.702677 0.289288 0.180959 0.113475 0.210773 0.0632312 0.692561 -0.231723 0.233307 0.14876 -0.423986 -0.353978 -0.082016 -0.428527 -0.300796 -0.140321 -0.0110066 0.167324 0.556331 0.324463 -0.214352 0.736641 -0.292431 0.22347 -0.201871 -0.344739 0.385132 0.167163 0.10696 0.22581 0.0360797 -0.321013 0.188174 -0.202571 -0.346602 -0.690811 0.165258 0.0124799 0.834549 0.0521704 0.679223 -0.519919 -0.215803 -0.166726 0.136498 0.101458 0.0452253 0.348385 -0.562365 0.298378 -0.389117 -0.154422 -0.590151 -0.0244652 0.48511 -0.353567 -0.536185 0.0302534 -0.21095 0.394548 -0.186367 -0.3847 0.523992 0.129887 -0.411964 -0.183671 0.231692 -0.0739533 -0.0562722 -0.292623 0.368088 0.0954226 -0.389619 -0.509656 0.377002 

