0.185297 -0.674613 0.116403 -0.469007 -0.120918 -0.792665 -0.867071 -0.872945 0.213429 -0.513847 0.115838 0.950572 0.322054 0.0920259 -0.580066 0.365087 0.115835 0.437682 -0.824997 0.531967 -0.468125 0.924266 -0.669017 -0.398514 -0.527992 0.120868 -0.646272 0.165837 -0.485239 0.886037 -0.225941 -0.575054 -0.420401 -0.0639731 0.933417 0.416415 0.368213 0.399634 -0.495483 0.619962 0.0624265 -0.366246 0.797014 0.11794 0.716204 0.446055 0.702092 -0.970401 0.786181 0.568073 0.997895 0.721478 -0.271052 0.829875 -0.497724 -0.861915 -0.23709 -0.396409 -0.24947 -0.60808 -0.476147 -0.336438 -0.623324 0.123127 -0.829532 0.674416 -0.812322 -0.587826 0.269856 -0.582216 -0.125219 0.854066 -0.165559 0.0767616 0.727675 -0.396675 0.188574 -0.756841 0.862138 -0.388385 -0.374669 -0.698075 0.182856 -0.6205 0.754736 0.859341 -0.882667 0.204544 -0.799649 -0.0447705 -0.61659 -0.151145 -0.108811 -0.725413 0.319308 -0.536789 0.421446 -0.260284 0.321613 -0.216773 0.913091 0.0928657 -0.193355 -0.0036624 0.175449 -0.450214 0.0727983 0.0227742 -0.344906 -0.646799 -0.149889 -0.470218 0.312352 0.538816 0.602556 0.646831 -0.170346 0.529389 0.224954 -0.453011 -0.421483 0.601988 -0.44648 -0.874425 -0.145979 0.623901 -0.6558 0.696071 0.71732 0.909691 0.295871 0.885695 0.697712 -0.560973 -0.78298 0.375545 -0.103045 0.700467 0.289755 0.0992547 
-0.205541 -0.79411 0.604292 0.552511 -0.125162 0.212648 -0.642115 -0.0761578 -0.673592 0.566422 -0.153946 0.951142 -0.461339 0.166951 -0.218002 -0.704829 0.62143 -0.444925 -0.275935 0.993194 -0.54229 -0.726878 -0.711385 -0.0490422 -0.63791 0.419253 -0.0935297 0.0710693 0.375237 0.999343 -0.0996319 -0.237488 0.370944 0.887166 0.30654 0.915165 0.0544394 -0.481479 -0.211769 0.684223 0.797624 0.530291 -0.73477 -0.410542 0.154548 0.350812 -0.198982 -0.821864 0.199866 -0.640257 -0.22749 -0.754293 0.0278801 0.166266 0.240066 0.843509 0.0228695 -0.921987 -0.0781827 -0.841424 -0.146161 0.93897 -0.635204 0.304142 -0.0860835 0.542304 -0.953521 0.564768 0.416728 0.859383 -0.203033 -0.561347 -0.830526 0.222709 -0.517669 0.190104 0.86362 0.345883 -0.680213 0.0977616 0.408528 0.34078 -0.715528 0.300551 0.481037 -0.274971 -0.198845 -0.249532 -0.643932 -0.81466 -0.557392 0.232262 -0.881832 -0.57359 0.920691 -0.0927903 -0.722097 0.74319 0.796259 0.444744 -0.340993 -0.527053 -0.0914412 0.604597 0.802306 0.30922 -0.369164 0.537709 0.841559 -0.181469 -0.527263 0.776382 0.446877 0.344727 0.270696 0.150221 -0.573155 -0.531369 -0.0167237 0.994877 -0.62495 -0.158734 0.398755 0.162884 0.737676 -0.778359 0.737717 0.248084 0.824036 0.665992 -0.535644 0.57132 -0.568033 0.427916 -0.577287 0.5497 0.370719 0.44579 -0.683622 0.739827 0.0382918 0.242118 -0.0636955 0.319705 -0.981341 0.231555 -0.12639 -0.867046 -0.416715 -0.926124 0.447132 -0.652611 -0.482353 -0.794403 0.233663 -0.287407 -0.0306264 -0.406016 -0.631123 0.129596 0.328621 0.631324 0.544301 0.976051 -0.484397 -0.902016 -0.762776 -0.417546 -0.431367 -0.297899 0.78668 0.781028 -0.330356 0.510003 0.520277 -0.88142 0.531519 0.344924 -0.635942 -0.995486 -0.769912 -0.979949 -0.493457 -0.0545882 0.664741 0.226868 -0.941669 -0.270933 -0.581182 -0.334455 0.238953 0.384739 -0.00857822 0.218888 0.931589 0.706813 -0.936164 0.201594 0.64198 0.282884 0.130861 -0.735206 0.795493 -0.330763 0.71005 0.125069 0.51937 0.113697 -0.805571 -0.99461 0.748247 0.527791 -0.363036 -0.0953335 0.69825 -0.228882 -0.563003 -0.0937832 0.682751 -0.0063716 -0.314057 0.776158 -0.468444 0.382887 0.281632 0.902061 -0.591508 -0.239917 0.8073 -0.28418 -0.301834 -0.828314 -0.198463 0.0659915 -0.90051 -0.16192 0.867494 0.337166 0.456646 0.361685 -0.702984 -0.783851 -0.89691 0.314223 -0.124785 -0.0756716 0.821716 0.730764 0.525595 0.622951 -0.215934 0.748448 0.345603 -0.0588305 -0.0022823 0.77354 0.913811 0.363702 -0.843261 0.772323 0.879544 0.751372 -0.110845 0.990307 0.684671 -0.947314 0.624518 -0.997989 -0.750827 -0.195782 0.0489423 -0.400686 -0.998293 0.475103 0.773171 0.161917 0.780371 0.570012 -0.727485 -0.108779 -0.710952 0.943693 0.260089 0.418497 -0.476965 0.018319 0.704274 -0.695833 -0.524297 0.92997 0.816326 0.212879 -0.920121 0.219837 -0.156319 -0.561181 0.744482 0.763932 0.464595 -0.0405309 -0.126922 0.303902 0.0451031 -0.33515 0.360898 -0.947321 -0.57663 -0.350668 -0.391793 -0.925154 -0.570788 -0.566713 -0.344 -0.759092 0.570158 -0.468526 -0.665564 0.433931 0.343319 0.867725 0.993827 -0.0806722 -0.90368 0.546371 -0.660489 0.00573052 -0.12608 0.940083 -0.276333 0.566104 0.202612 0.88953 0.485112 -0.391546 0.466288 0.0542338 -0.642974 0.244145 -0.701746 -0.782342 0.26449 0.788185 -0.755624 0.734549 0.104876 -0.906725 0.660894 -0.237903 0.78717 0.783774 0.141349 0.522183 0.0399843 -0.843568 0.16066 -0.374376 -0.433021 0.81834 -0.282449 -0.555405 0.118267 0.184507 -0.486077 -0.416416 -0.759046 -0.13718 0.746249 0.264205 -0.168426 0.0834258 0.21557 0.362193 -0.776348 0.98689 -0.947698 -0.127022 -0.734694 -0.533937 0.046423 -0.794862 -0.410167 -0.796917 0.119712 0.643233 -0.662989 0.0631076 -0.12028 -0.701619 -0.339385 0.45934 -0.661976 0.722932 0.535722 0.349313 -0.937075 -0.60039 0.286755 0.527011 0.567226 0.361328 -0.355584 -0.0218555 -0.523476 -0.566031 0.553453 0.241955 -0.566502 -0.626276 -0.703826 -0.094801 -0.97127 -0.0610274 -0.252684 -0.154569 -0.3427 -0.00215556 0.135388 -0.55732 -0.978064 -0.760198 
0.648987 -0.338023 0.525216 0.0805109 -0.553901 -0.533518 -0.963682 0.46528 -0.80482 0.215895 -0.928293 -0.443081 -0.733487 0.25518 0.903458 -0.045399 -0.498391 0.643325 -0.535873 0.666926 0.432444 -0.252993 -0.177534 -0.703368 0.01281 0.997998 -0.871808 -0.434953 -0.406797 -0.621758 0.87409 0.187707 0.176843 -0.572191 -0.798354 -0.212563 0.531112 -0.249241 0.739713 0.962375 -0.257182 -0.775266 0.610446 -0.0452094 -0.265083 0.409963 0.520781 -0.968346 0.680801 0.37918 -0.509195 0.74124 -0.247239 0.61152 0.397328 -0.631955 0.846493 0.736356 0.767084 0.557785 -0.0178453 0.319135 0.244217 0.062619 -0.371579 -0.248908 0.778865 0.715056 0.386786 0.786882 0.413254 0.0801002 -0.673607 -0.753698 0.526131 -0.23463 0.939956 -0.246588 0.321379 -0.067603 0.139572 -0.618463 0.347011 -0.241033 -0.949474 0.646171 0.522315 0.88353 -0.0728331 -0.718086 0.702751 -0.776847 -0.99768 0.542514 0.217341 0.256364 -0.405345 0.933757 0.678867 -0.116418 0.399869 0.996184 0.11816 -0.196781 0.528502 -0.618628 0.290756 0.82747 0.160977 0.87033 -0.502604 0.408851 -0.712414 -0.843448 5.2039e-05 0.419603 0.714269 0.41541 -0.419934 -0.529717 -0.161142 -0.926585 -0.428894 0.837578 0.936573 -0.181471 -0.474731 -0.499886 -0.839631 0.881892 -0.383616 0.935562 0.0340377 0.289311 -0.357187 -0.605503 -0.796915 -0.926291 -0.571273 0.454715 

-0.102529 0.809814 0.202198 0.996151 -0.653746 0.405742 0.795177 -0.871229 -0.492865 -0.941979 0.631387 0.553502 0.865717 -0.957115 -0.787508 0.675677 -0.180004 -0.336566 -0.584984 0.111558 -0.739668 -0.382474 0.237264 -0.908406 -0.481698 0.558074 -0.990057 0.301353 0.540294 0.311535 0.724133 -0.137252 -0.527298 -0.433677 -0.814233 -0.559899 0.553471 -0.0704745 0.089364 0.600748 0.856257 -0.280035 -0.963915 0.772005 0.813675 0.860328 0.151664 -0.571282 0.435875 -0.620105 0.109963 0.48549 -0.977806 -0.340415 -0.238731 -0.4827 -0.944491 -0.253703 0.744399 -0.850385 -0.850311 0.111576 0.87566 0.344238 0.752786 -0.0127886 -0.455871 0.526182 -0.112283 0.67788 