-0.367814 -0.138905 -0.469575 0.125242 0.047852 -0.383676 0.200211 0.409581 -0.250956 -0.486574 0.199725 0.286337 0.0556896 0.236418 0.491493 -0.0887488 -0.271092 -0.260444 0.332889 0.282023 0.159577 0.41308 -0.272624 0.291616 -0.129387 0.0971115 -0.0526346 0.314306 0.284481 0.453865 0.0645958 -0.343726 0.188149 -0.31136 0.0002024 0.267125 -0.490678 -0.139233 -0.240914 -0.416912 0.188131 0.214037 -0.417709 0.481203 0.171986 -0.422551 0.360254 0.0609127 -0.200611 0.117434 0.305134 0.383703 0.158968 -0.368761 0.350338 0.429519 0.122122 -0.472245 0.39832 -0.499392 0.281841 -0.122962 0.362096 0.24849 0.0693569 0.0490457 0.313697 -0.49736 0.0768267 0.202499 -0.0922169 -0.381208 0.139595 0.186505 0.264486 -0.067505 0.158267 0.351303 0.464296 0.15831 -0.100657 0.438154 -0.452187 -0.22843 0.422607 -0.197188 -0.0169738 0.400046 0.17928 0.257321 0.112133 0.236361 0.328427 -0.132688 -0.470527 0.442842 -0.229566 -0.213813 -0.235752 0.453414 -0.490274 0.332623 0.305648 -0.201077 -0.237141 0.0494498 -0.450775 0.0671009 0.369877 0.102135 0.319869 -0.123264 -0.362945 0.21526 0.365394 0.288391 -0.250832 -0.355573 -0.218426 0.442246 0.137512 -0.352818 0.0682811 -0.0886058 -0.00576177 0.195299 0.0928446 -0.458232 0.110139 -0.456148 -0.175033 -0.165811 0.172013 -0.0633712 0.401075 0.160295 -0.257665 0.439281 0.119225 -0.162287 -0.104006 0.404574 0.138628 -0.479476 0.110169 -0.07 -0.270612 -0.0261175 0.197561 -0.318759 -0.143789 0.0268862 -0.21474 0.136006 -0.185492 0.0516065 0.463186 0.425363 -0.0846405 0.271237 
-0.202096 -0.079561 0.00167075 -0.315751 0.482976 -0.14502 -0.129321 -0.42791 0.295363 -0.292483 -0.373289 -0.160605 0.118251 0.095215 -0.355103 0.383364 0.478997 -0.230876 -0.340361 -0.445666 0.333731 -0.252683 0.323902 -0.266859 0.249364 0.0832006 0.031815 -0.413716 -0.425023 -0.0246993 -0.0519517 -0.217816 0.488604 0.0997415 -0.494878 0.268457 -0.299607 -0.217009 0.42569 -0.299773 -0.420699 -0.131093 0.0948779 -0.339814 -0.108723 -0.128924 0.212169 0.165353 -0.266747 -0.122597 -0.0742246 0.331693 -0.389555 -0.109048 0.474448 -0.330784 -0.179856 0.347407 -0.0618093 0.151499 0.0280737 0.383167 0.168204 0.090829 0.325251 0.499288 0.247037 -0.369293 0.372613 0.207194 0.46946 0.366773 -0.452353 -0.417921 -0.496639 -0.462875 0.296472 -0.374606 0.409194 -0.393531 -0.443503 0.354974 0.129891 0.183251 -0.452209 0.260252 0.174773 -0.0766478 0.0608944 -0.373646 0.0554799 0.149334 0.489823 -0.253985 0.48949 0.169613 -0.276098 0.345794 0.403494 0.259667 0.227471 -0.0338237 0.264902 -0.165179 0.354849 0.200576 -0.129588 -0.313018 0.227141 -0.492858 -0.372944 -0.216806 -0.236077 0.453103 0.217872 0.160191 -0.0840257 0.259999 0.199601 0.0445084 -0.0134557 -0.0702393 0.0847587 0.220492 0.438421 -0.493583 -0.496645 -0.471937 0.253437 -0.228104 0.43622 -0.199233 0.422358 -0.306459 0.385833 -0.0124855 -0.471243 -0.285421 -0.41814 -0.126011 -0.156706 0.159068 0.063215 -0.177922 -0.426085 -0.0545071 -0.352254 0.129953 0.204996 -0.176113 0.278682 0.393264 0.27308 -0.492206 -0.153265 0.13609 0.305488 -0.333565 -0.44096 -0.204769 0.265806 -0.472825 -0.246812 -0.35187 0.428651 0.283568 0.0910028 -0.0518037 -0.159836 -0.411602 -0.0767491 -0.133893 0.298724 -0.0188565 0.453944 -0.100642 -0.398491 0.0523965 -0.300879 -0.414386 -0.343555 0.0922924 -0.338412 0.246538 0.257247 0.0816832 0.323349 -0.12031 0.171664 0.418013 -0.494753 -0.181262 -0.335651 0.000220227 -0.161804 -0.398572 -0.332825 0.495679 -0.128734 0.0536616 0.271757 -0.395858 0.0721364 -0.236232 -0.138905 0.297888 0.173102 -0.0615671 -0.250797 0.138755 -0.134927 -0.136467 -0.321625 -0.281933 0.33501 0.0312683 -0.154792 -0.159652 -0.408393 0.391906 0.150746 0.173052 -0.165782 0.232764 0.375465 -0.46081 -0.476665 -0.168654 0.364043 0.153769 0.0354393 0.134419 0.398173 0.238322 0.335798 -0.448729 -0.408357 0.359878 -0.0914368 -0.436459 -0.37745 -0.107053 -0.144005 -0.47614 -0.347047 -0.0763399 0.163204 -0.262776 0.359641 -0.235074 0.0292971 0.353142 0.174662 -0.367969 0.215167 0.0149153 -0.0553762 0.458758 -0.0147767 0.147589 -0.247785 -0.327671 0.354924 0.110135 -0.0159201 -0.0357702 -0.14403 -0.16479 -0.418447 0.42972 0.191 -0.172307 0.437246 -0.412491 0.106361 0.00896891 0.229321 -0.285771 0.192611 0.228431 -0.233992 -0.112059 0.0510916 0.068569 -0.0696781 0.467817 0.0739791 0.303176 0.210844 -0.339511 -0.281386 0.0736236 0.425435 0.320539 0.0721947 0.494573 -0.253594 -0.064239 -0.321881 -0.145263 -0.183916 0.146626 0.495319 0.493855 0.0811488 0.314824 0.0727125 0.46289 -0.296521 -0.495703 -0.419777 0.294039 0.112397 0.282404 -0.173201 0.201169 -0.327702 0.264136 0.0716594 0.336653 0.0362426 0.455445 0.151437 0.132675 0.455973 0.458074 -0.435621 0.309509 0.461372 -0.195892 0.0983256 0.240936 0.10415 -0.45024 0.445455 0.42222 -0.180344 0.00956317 -0.0882485 0.239313 -0.411063 -0.175449 0.362292 0.115931 0.0436692 0.130019 0.348586 -0.169366 0.11108 0.284476 -0.0919479 -0.158387 0.367633 0.105095 0.383444 -0.36665 -0.404996 0.397004 -0.294965 -0.311064 0.487944 0.0373745 -0.0875078 0.378834 0.282843 -0.393088 0.210995 0.497475 0.0344141 0.188278 -0.409808 0.479496 -0.269858 0.281365 0.20499 0.26093 -0.0658858 0.128371 0.209126 -0.00661641 -0.344291 0.431995 0.082395 -0.423688 -0.251018 0.299051 -0.289181 -0.464213 -0.0480344 -0.383297 -0.0818591 -0.165165 -0.435698 -0.129296 0.370284 -0.0379285 -0.052807 0.37442 -0.391415 -0.0115699 0.0805165 -0.186696 -0.462364 0.49833 -0.484919 0.188309 0.0124005 0.309593 0.214199 -0.311448 0.472052 0.345519 0.361655 -0.378694 -0.00544685 -0.311887 -0.36776 0.423275 -0.293124 0.0693162 -0.102057 -0.479385 -0.161386 0.152923 -0.355636 -0.363098 0.146628 -0.0916169 -0.148775 0.13425 0.285219 -0.382074 -0.10892 0.175668 -0.400121 0.208963 0.0190331 -0.0997745 -0.122852 -0.496912 -0.196632 -0.285469 -0.0827568 0.15985 -0.29084 -0.393796 0.49303 0.0930771 0.0523749 0.252304 0.43849 0.329334 -0.472599 -0.0841332 0.244179 -0.0966362 -0.2264 0.408921 0.0132605 -0.20829 -0.211942 -0.0898351 -0.481263 -0.291777 0.205257 -0.123443 0.105833 0.412317 -0.065571 -0.335834 -0.420284 -0.240374 0.372879 0.423833 -0.452206 0.13357 -0.0668003 0.498431 -0.127789 -0.315385 
-0.0988784 -0.114477 0.0785616 0.36401 -0.396459 0.233286 0.283031 -0.355151 -0.280078 -0.458052 0.240424 0.182948 -0.416521 -0.00928215 0.272705 0.47515 0.182356 0.0749995 0.38937 -0.228065 -0.481567 -0.367349 0.145524 -0.336664 -0.19696 -0.188129 0.0907054 0.16843 -0.137277 0.308957 -0.347574 0.0952243 0.39197 0.357603 0.10437 -0.153209 -0.25126 -0.442538 0.316922 -0.249793 0.133072 0.362506 0.264624 -0.248499 0.343621 0.121399 0.0148109 -0.166471 -0.394806 -0.305857 -0.38886 0.418807 0.341713 -0.393661 -0.372915 0.126289 -0.409297 0.4051 -0.0196125 0.356834 0.321153 0.318001 0.19328 0.21618 -0.266043 -0.236944 -0.17671 -0.289694 0.224952 0.458846 -0.316545 -0.00829255 0.245592 -0.273783 0.081777 0.274974 -0.446451 0.112198 0.156277 -0.184578 0.263796 0.410441 0.486737 -0.452895 -0.363319 -0.205782 0.168601 0.452794 -0.256167 -0.137539 -0.125212 0.4991 -0.216299 0.465577 0.0233055 -0.114466 0.123857 0.0821406 0.297372 0.371038 -0.343284 -0.303796 0.0840168 -0.044517 -0.446253 0.203068 0.134873 0.113334 -0.0917838 0.388497 -0.441206 -0.065195 -0.150858 -0.167013 -0.394884 0.00257111 0.451595 0.303282 0.0553979 0.493559 -0.431999 -0.413176 -0.32218 0.102943 0.250264 0.218511 0.183678 -0.133419 -0.444864 0.0365682 -0.161571 -0.361592 -0.212077 -0.371229 0.418244 -0.214109 0.333743 -0.290771 -0.0436173 -0.158269 0.237491 -0.388432 -0.272201 -0.0896573 -0.193644 -0.238578 0.0637675 -0.050773 -0.363217 0.0210994 -0.452912 -0.489839 -0.399786 0.420525 -0.119775 -0.494433 -0.301673 -0.380975 -0.331863 0.296018 

-0.151691 0.44875 -0.408263 -0.256256 -0.24183 -0.423533 -0.148092 -0.298904 0.377663 0.429153 0.184712 -0.126878 0.0372033 -0.424974 0.0899826 0.410754 -0.204569 -0.316396 -0.29152 -0.0954055 -0.129308 -0.403913 -0.24986 -0.220458 0.375426 -0.294307 0.182358 0.298511 0.180367 0.4457 0.451651 -0.291359 0.215958 0.134249 0.319592 -0.108911 0.0199055 0.412883 0.284359 0.397848 -0.282683 -0.254688 -0.151024 -0.482573 0.443344 0.129436 0.269078 0.0569428 0.0782432 -0.42211 -0.0263382 -0.261627 -0.398447 0.226139 -0.421886 0.438291 0.359504 -0.112833 -0.0726525 -0.0333493 -0.0189381 0.2226 -0.202817 -0.372197 -0.291304 0.0601376 0.0788145 -0.280439 0.373537 -0.22965 0.356454 -0.252918 -0.107756 0.424439 -0.461156 -0.309716 -0.0128237 0.270045 -0.307574 0.159785 
