2.21393 -1.06466 1.70595 -2.33338 0.231739 3.22353 -1.31704 7.00947 -1.68603 2.87175 -3.21651 -0.672423 -2.7816 -5.7491 -2.1469 -3.05892 -2.11104 2.59072 2.48446 -0.531412 3.69599 -0.766465 5.65609 -0.536212 0.997752 -4.09564 2.15086 -4.94259 -3.68097 -4.5965 -0.0530744 2.52311 1.33798 0.556737 2.17374 -5.02296 0.328687 13.9766 8.38981 6.46863 -1.10957 -5.69444 -4.91522 4.35882 3.20396 2.18792 -3.23386 -0.73828 4.75838 7.69339 8.37308 2.78374 -1.32827 1.87737 -0.149528 -2.02991 3.7167 -2.15858 4.29336 -0.334821 11.5787 -3.94753 -1.29263 1.81227 -1.55351 0.802341 0.696468 -25.9765 -1.07339 6.49587 -1.60388 -1.71259 0.750498 -0.251992 -3.52402 0.886826 4.16585 -5.26584 1.22191 -2.12565 -1.00543 -1.55979 -0.473478 0.60181 0.0338556 -6.21656 -3.32842 2.15525 2.98143 1.01289 -3.46915 -3.18335 3.33858 -1.99444 -1.98777 -1.23382 2.16543 -1.91112 -6.12651 -3.04847 -0.149918 -3.08487 -2.57918 5.46016 -4.48083 -2.16387 -1.75582 -3.08177 1.0835 -3.22881 -0.834797 -1.31542 -0.58135 -1.07615 -5.14083 0.11652 1.09101 -3.84455 1.4514 -1.65003 
0.388911 0.0716132 -0.0142083 -0.280885 -0.271748 -0.23047 -0.731585 -0.392883 0.268007 0.109676 -0.130863 0.401522 -0.12224 -0.565383 -0.0935498 0.165479 -0.494483 -0.221974 -0.0465965 0.129177 -0.460619 0.170636 -0.562316 -0.0402145 -0.0213464 0.512531 -0.0722789 0.177963 0.181372 -0.0542791 0.0443841 0.209808 -0.546439 0.447484 -0.192236 -0.14129 0.00879237 0.209198 0.489582 -0.206185 0.279169 -0.22638 0.4632 -0.394284 -0.394318 -0.0367882 -0.683708 -0.117451 -0.525277 0.468966 -0.118845 0.305251 0.00392508 -0.174403 0.199213 0.166399 0.387702 0.381984 -0.532609 -0.54519 0.252248 -0.0939719 -0.169928 0.586644 -0.452439 0.11997 -0.189355 -0.0526173 -0.318075 -0.372926 -0.306366 0.235399 -0.278574 -0.514088 0.385906 -0.0885698 -0.213688 0.153986 -0.714808 0.251402 -0.0123968 -0.400196 0.121912 0.511715 -0.299402 -0.129601 0.171179 -0.104797 -0.493671 -0.292497 0.521996 0.0669226 -0.638169 -0.0352681 0.502689 -0.531522 0.151208 -0.464491 0.61467 -0.40561 -0.164357 -0.377914 -0.322947 -0.583561 -0.227758 -0.0788093 -0.31494 -0.324412 -0.271724 -0.136666 0.264733 -0.47799 0.128918 0.237572 -0.514093 0.536477 0.197103 -0.341823 -0.262173 -0.190547 -0.203936 -0.105983 -0.516601 0.0496317 -0.296507 -0.746317 -0.0286601 0.437491 0.450024 0.118474 0.324605 0.104773 0.636916 0.135478 -0.198887 0.10503 0.106494 -0.321336 -0.110867 -0.319563 -0.648945 0.223584 -0.0204986 0.270081 0.115683 -0.341969 0.228096 -0.14036 -0.532429 -0.594167 0.293588 -0.282304 -0.320033 -0.156073 0.3437 -0.183594 -0.640053 -0.223306 -0.000791214 -0.369574 -0.513973 0.150542 0.487504 0.0790343 -0.469463 -0.131251 -0.220635 -0.223809 -0.638501 -0.07293 0.219481 0.160837 -0.357067 -0.00612605 0.170405 -0.128386 -0.394648 -0.33451 -0.309969 -0.0169078 -0.279506 0.210454 0.168128 0.227462 0.267088 -0.708976 -0.539905 -0.405636 0.307946 0.266666 -0.158375 -0.353077 0.459146 -0.772087 0.170864 -0.371909 -0.523546 -0.427479 -0.541561 -0.0600247 -0.42429 -0.212382 0.00416961 0.270333 0.0498587 -0.37078 0.191256 -0.0999891 0.0334333 0.312635 -0.266456 0.190666 0.199844 0.653322 0.336348 -0.730221 -0.816339 -0.00718677 0.551373 0.270901 -0.0277598 -0.371194 0.132637 0.0440773 0.0413279 0.35946 -0.445685 0.324738 -0.79761 -0.0361831 0.1703 -0.270978 -0.763377 -0.0580941 0.335485 0.0868857 -0.269485 -0.237654 -0.0693061 0.0510257 -0.0819174 0.242359 0.0518848 0.585812 0.444324 -0.439129 -0.34822 0.421196 -0.159065 0.384935 0.355238 0.358714 0.393257 -0.640269 0.356192 0.294277 -0.0735833 0.219998 -0.514468 0.314972 -0.439955 0.00606459 -0.758172 -0.199687 -0.043552 0.16628 0.328331 0.222065 -0.386865 -0.167694 0.274613 0.363652 -0.25209 0.665567 -0.255776 0.174649 -0.508275 -0.499874 -0.0484754 -0.240641 -0.0968214 -0.311646 -0.220636 -0.0296109 0.254745 -0.0661847 -0.596269 -0.0354533 0.0524917 0.599315 -0.273257 0.415282 -0.290486 0.371325 -0.0461107 -0.389995 0.415621 0.160586 -0.259986 -0.324932 -0.0702516 0.264061 0.0493738 0.252322 0.345242 -0.468508 -0.829582 0.247083 0.535515 0.351721 -0.0334612 -0.362446 0.594864 0.17324 0.0808352 -0.404288 -0.132073 -0.273476 -0.304809 0.144759 -0.235582 -0.031382 -0.780903 -0.034896 0.246521 -0.206474 -0.259812 -0.311001 -0.336802 0.176433 -0.0648043 0.232322 0.175483 0.0119064 -0.425214 -0.0925165 -0.160658 -0.539328 -0.354791 0.367736 0.18489 -0.108455 0.344446 -0.028419 0.355563 0.249568 -0.7311 -0.194376 -0.600233 0.49899 -0.68498 0.0627637 -0.689375 0.525085 -0.281932 -0.0945696 -0.03222 0.270272 -0.623368 0.159176 
-0.0904707 -0.0876311 0.333264 -0.32754 -0.326915 0.167202 0.101664 0.435146 0.063363 -0.234041 0.114059 0.638427 -0.0304276 0.530601 0.135607 -0.419677 -0.198869 -0.472353 -0.0186786 0.23516 0.505568 -0.235732 0.246555 0.590675 -0.190209 0.178747 -0.0362545 0.644093 0.176649 0.576872 0.433734 0.24173 -0.612076 0.386069 -0.7826 0.297414 0.029422 0.169947 -0.00407187 -0.378862 -0.149235 -0.85637 -0.325657 0.318337 -0.338819 -0.203798 -0.254368 -0.154157 -0.0693808 -0.127089 -0.373815 -0.173132 0.078707 -0.125963 0.130474 0.331529 -0.278793 0.271792 -0.363184 0.0167436 0.38807 -0.389266 -0.313037 -0.0916995 0.0116778 -0.259224 0.548747 0.208901 -0.088497 0.366027 -0.26735 -0.253161 0.315441 0.286311 0.22484 0.272431 -0.9516 -0.128674 -0.395796 0.544983 0.22798 0.0504887 -0.104491 -0.538276 -0.430937 0.124022 0.128742 0.659933 0.362797 -0.375056 0.166907 0.418855 -0.0171033 0.0674874 0.270613 -0.214139 0.172599 0.0512451 0.205042 -0.237363 -0.374115 0.242528 0.536183 -0.48303 0.266817 0.227459 -0.603003 -0.0459792 0.441866 0.31375 -0.131742 -0.0419957 -0.0716209 -0.113178 0.290746 0.312282 -0.282565 -0.157692 -0.261149 0.648394 




-0.0489313 -0.467968 0.31477 0.377865 -0.136114 -0.349563 -0.00930608 -0.321382 -0.159648 0.396929 0.148141 -0.117913 0.374085 -0.108439 0.156352 -0.347872 -0.101771 -0.252216 -0.127579 0.417374 -0.281922 -0.224002 0.459915 0.0208349 -0.495333 -0.270379 0.165475 -0.149937 0.449711 0.389231 -0.313046 -0.359636 -0.311739 0.204376 -0.407571 0.0396906 0.392104 0.312063 0.0500508 0.429353 -0.252288 0.197255 -0.161997 -0.150328 -0.288726 -0.392579 -0.31584 -0.287001 -0.37435 0.236307 -0.432189 0.208772 -0.0453838 -0.199733 -0.0822365 0.152809 0.111708 0.0395598 0.241624 0.106063 