-1.68606 -2.52046 0.890285 -6.17373 -0.988041 -4.43747 -1.47474 -1.46153 3.1036 -1.27431 -0.0941738 -2.04315 -5.113 -1.66601 1.2286 1.34147 -4.19088 -0.73574 -0.777837 -1.69643 -3.78687 -1.33615 -1.50677 -2.49709 -5.29771 -1.52094 -0.942732 -0.571365 -3.41816 0.0577247 -6.80825 -3.67302 -1.3245 -2.43407 -2.64484 -0.0126872 -1.84932 -1.25794 -1.84438 0.248807 -0.290448 2.30771 -3.02095 6.79844 1.90746 -2.24378 1.57835 1.11972 9.46037 -4.5352 2.52989 1.73321 -0.510143 -2.44341 6.26257 1.85514 2.42691 5.69605 8.98841 1.58831 -0.721022 -0.358321 1.7403 1.33557 -1.45665 1.55486 0.765527 -0.99765 1.83914 1.90927 7.25791 -1.12445 1.50499 1.66663 3.466 -0.617947 2.99942 2.29407 1.9265 3.90137 2.51245 3.40075 -0.486463 3.20612 0.669029 -1.91692 -0.223862 -0.0718488 -2.03884 -0.749868 -1.86473 0.520774 -4.669 0.10866 -29.3722 -0.623991 0.55025 -5.17288 -0.644934 0.677291 -2.331 2.34184 0.186923 1.14651 -1.88601 -0.00577506 -0.883575 -0.79974 1.3303 2.37157 3.75809 -0.901123 -0.359542 -2.13827 0.215548 -2.53488 -0.17342 -0.419749 -0.232793 -0.859891 -0.463896 -1.30582 -0.0675773 2.93427 -0.716108 2.07913 -2.01104 -0.235148 -0.934428 -0.446248 -0.798247 -0.284417 4.41908 -1.38228 0.21949 -0.85615 1.07682 1.27501 -6.64054 -0.456068 -0.594916 -0.878918 1.77114 -0.758989 -0.346671 -0.0873759 -0.00153744 -1.00441 0.0802232 1.74787 -0.173883 -2.31257 0.0276878 -1.35691 0.605422 0.251479 0.487711 0.173113 0.348323 3.20942 
-0.202096 -0.079561 0.00167075 -0.315751 0.482976 -0.14502 -0.129321 -0.42791 0.295363 -0.292483 -0.373289 -0.160605 0.118251 0.095215 -0.355103 0.383364 0.478997 -0.230876 -0.340361 -0.445666 0.333731 -0.252683 0.323902 -0.266859 0.249364 0.0832006 0.031815 -0.413716 -0.425023 -0.0246993 -0.0519517 -0.217816 0.488604 0.0997415 -0.494878 0.268457 -0.299607 -0.217009 0.42569 -0.299773 -0.420699 -0.131093 0.0948779 -0.339814 -0.108723 -0.128924 0.212169 0.165353 -0.266747 -0.122597 -0.0742246 0.331693 -0.389555 -0.109048 0.474448 -0.330784 -0.179856 0.347407 -0.0618093 0.151499 0.0280737 0.383167 0.168204 0.090829 0.325251 0.499288 0.247037 -0.369293 0.372613 0.207194 0.46946 0.366773 -0.452353 -0.417921 -0.496639 -0.462875 0.296472 -0.374606 0.409194 -0.393531 -0.443503 0.354974 0.129891 0.183251 -0.452209 0.260252 0.174773 -0.0766478 0.0608944 -0.373646 0.0554799 0.149334 0.489823 -0.253985 0.48949 0.169613 -0.276098 0.345794 0.403494 0.259667 0.227471 -0.0338237 0.264902 -0.165179 0.354849 0.200576 -0.129588 -0.313018 0.227141 -0.492858 -0.372944 -0.216806 -0.236077 0.453103 0.217872 0.160191 -0.0840257 0.259999 0.199601 0.0445084 -0.0134557 -0.0702393 0.0847587 0.220492 0.438421 -0.493583 -0.496645 -0.471937 0.253437 -0.228104 0.43622 -0.199233 0.422358 -0.306459 0.385833 -0.0124855 -0.471243 -0.285421 -0.41814 -0.126011 -0.156706 0.159068 0.063215 -0.177922 -0.426085 -0.0545071 -0.352254 0.129953 0.204996 -0.176113 0.278682 0.393264 0.27308 -0.492206 -0.153265 0.13609 0.305488 -0.333565 -0.44096 -0.204769 0.265806 -0.472825 -0.246812 -0.35187 0.428651 0.283568 0.0910028 -0.0518037 -0.159836 -0.411602 -0.0767491 -0.133893 0.298724 -0.0188565 0.453944 -0.100642 -0.398491 0.0523965 -0.300879 -0.414386 -0.343555 0.0922924 -0.338412 0.246538 0.257247 0.0816832 0.323349 -0.12031 0.171664 0.418013 -0.494753 -0.181262 -0.335651 0.000220227 -0.161804 -0.398572 -0.332825 0.495679 -0.128734 0.0536616 0.271757 -0.395858 0.0721364 -0.236232 -0.138905 0.297888 0.173102 -0.0615671 -0.250797 0.138755 -0.134927 -0.136467 -0.321625 -0.281933 0.33501 0.0312683 -0.154792 -0.159652 -0.408393 0.391906 0.150746 0.173052 -0.165782 0.232764 0.375465 -0.46081 -0.476665 -0.168654 0.364043 0.153769 0.0354393 0.134419 0.398173 0.238322 0.335798 -0.448729 -0.408357 0.359878 -0.0914368 -0.436459 -0.37745 -0.107053 -0.144005 -0.47614 -0.347047 -0.0763399 0.163204 -0.262776 0.359641 -0.235074 0.0292971 0.353142 0.174662 -0.367969 0.215167 0.0149153 -0.0553762 0.458758 -0.0147767 0.147589 -0.247785 -0.327671 0.354924 0.110135 -0.0159201 -0.0357702 -0.14403 -0.16479 -0.418447 0.42972 0.191 -0.172307 0.437246 -0.412491 0.106361 0.00896891 0.229321 -0.285771 0.192611 0.228431 -0.233992 -0.112059 0.0510916 0.068569 -0.0696781 0.467817 0.0739791 0.303176 0.210844 -0.339511 -0.281386 0.0736236 0.425435 0.320539 0.0721947 0.494573 -0.253594 -0.064239 -0.321881 -0.145263 -0.183916 0.146626 0.495319 0.493855 0.0811488 0.314824 0.0727125 0.46289 -0.296521 -0.495703 -0.419777 0.294039 0.112397 0.282404 -0.173201 0.201169 -0.327702 0.264136 0.0716594 0.336653 0.0362426 0.455445 0.151437 0.132675 0.455973 0.458074 -0.435621 0.309509 0.461372 -0.195892 0.0983256 0.240936 0.10415 -0.45024 0.445455 0.42222 -0.180344 0.00956317 -0.0882485 0.239313 -0.411063 -0.175449 0.362292 0.115931 0.0436692 0.130019 0.348586 -0.169366 0.11108 0.284476 -0.0919479 -0.158387 0.367633 0.105095 0.383444 -0.36665 -0.404996 0.397004 -0.294965 -0.311064 0.487944 0.0373745 -0.0875078 0.378834 0.282843 -0.393088 0.210995 0.497475 0.0344141 0.188278 -0.409808 0.479496 -0.269858 0.281365 0.20499 0.26093 -0.0658858 0.128371 0.209126 -0.00661641 -0.344291 0.431995 0.082395 -0.423688 -0.251018 0.299051 -0.289181 -0.464213 -0.0480344 -0.383297 -0.0818591 -0.165165 -0.435698 -0.129296 0.370284 -0.0379285 -0.052807 0.37442 -0.391415 -0.0115699 0.0805165 -0.186696 -0.462364 0.49833 -0.484919 0.188309 0.0124005 0.309593 0.214199 -0.311448 0.472052 0.345519 0.361655 -0.378694 -0.00544685 -0.311887 -0.36776 0.423275 -0.293124 0.0693162 -0.102057 -0.479385 -0.161386 0.152923 -0.355636 -0.363098 0.146628 -0.0916169 -0.148775 0.13425 0.285219 -0.382074 -0.10892 0.175668 -0.400121 0.208963 0.0190331 -0.0997745 -0.122852 -0.496912 -0.196632 -0.285469 -0.0827568 0.15985 -0.29084 -0.393796 0.49303 0.0930771 0.0523749 0.252304 0.43849 0.329334 -0.472599 -0.0841332 0.244179 -0.0966362 -0.2264 0.408921 0.0132605 -0.20829 -0.211942 -0.0898351 -0.481263 -0.291777 0.205257 -0.123443 0.105833 0.412317 -0.065571 -0.335834 -0.420284 -0.240374 0.372879 0.423833 -0.452206 0.13357 -0.0668003 0.498431 -0.127789 -0.315385 
-0.440224 0.151741 0.734558 0.296995 0.346408 0.0898124 0.370217 -0.227324 0.55592 -0.18891 -0.140925 0.575494 0.226341 -0.176068 0.453571 0.554192 -0.028472 0.38172 0.239785 -0.360917 -0.33843 -0.0511195 0.019622 -0.689554 0.323971 -0.412831 -0.0501931 0.93581 0.0443707 0.370645 -0.546992 -0.118074 0.41577 0.168007 -0.0223116 -0.474098 -0.0615514 -0.45436 0.232895 -0.186096 -0.970599 0.0465948 -0.256189 0.94822 0.159114 0.206242 -0.412356 -0.406578 0.120638 -0.0553472 0.0244457 0.96262 -0.245041 -0.858705 -0.346712 -0.055524 0.774069 2.16977 2.18698 -0.00395757 0.428639 0.105692 0.33217 -0.64219 -0.0961736 0.164197 -0.489775 -0.610159 -0.320569 -0.368231 -0.570632 0.710555 -1.7853 -0.291552 -1.6427 1.11135 -0.0952421 0.161083 -0.0934706 -0.49613 -0.56886 0.166941 0.431491 0.654545 -0.266672 -0.217315 0.205877 0.276195 -0.0524366 0.282057 0.102526 0.450204 0.336546 0.507135 -0.43049 -0.353202 0.0839528 -0.312075 0.352253 0.429795 -0.0830297 0.0343882 -0.312222 -0.304203 -0.641532 0.418533 -0.19309 -0.224514 -0.459134 0.222435 -0.644728 -0.0225182 -0.523756 -0.00507546 -0.541497 -0.429979 1.10835 -0.39779 0.768343 0.223067 0.0440542 -0.497034 0.443368 1.42368 0.608506 0.0169844 -0.00309224 -0.598389 -0.406206 0.21482 -0.185155 -0.422068 0.0905992 -0.566812 0.556245 0.064197 0.391748 -0.000613662 -0.282523 -0.962023 0.0275439 0.184229 -0.483946 0.102298 -0.0116605 0.127309 -0.168846 -0.654146 -0.56823 0.266823 -0.193607 -0.557549 -0.322138 0.418066 -0.104939 -0.477656 -0.104755 -0.174073 -0.150003 1.05365 




-0.151691 0.44875 -0.408263 -0.256256 -0.24183 -0.423533 -0.148092 -0.298904 0.377663 0.429153 0.184712 -0.126878 0.0372033 -0.424974 0.0899826 0.410754 -0.204569 -0.316396 -0.29152 -0.0954055 -0.129308 -0.403913 -0.24986 -0.220458 0.375426 -0.294307 0.182358 0.298511 0.180367 0.4457 0.451651 -0.291359 0.215958 0.134249 0.319592 -0.108911 0.0199055 0.412883 0.284359 0.397848 -0.282683 -0.254688 -0.151024 -0.482573 0.443344 0.129436 0.269078 0.0569428 0.0782432 -0.42211 -0.0263382 -0.261627 -0.398447 0.226139 -0.421886 0.438291 0.359504 -0.112833 -0.0726525 -0.0333493 -0.0189381 0.2226 -0.202817 -0.372197 -0.291304 0.0601376 0.0788145 -0.280439 0.373537 -0.22965 0.356454 -0.252918 -0.107756 0.424439 -0.461156 -0.309716 -0.0128237 0.270045 -0.307574 0.159785 
