-0.464945 0.0854706 0.0434455 0.404314 0.0677703 0.127061 -0.194462 -0.0553721 0.0312899 -0.57087 0.477578 -0.577619 -0.468361 -0.447488 0.0705202 0.417516 0.32773 0.486399 -0.131182 -0.138273 -0.186221 -0.285857 -0.545695 0.550304 0.152885 0.34947 0.428014 0.00161391 -0.441223 -0.450305 -0.117005 -0.0479607 0.0535567 -0.525266 -0.350579 0.216841 0.233595 -0.108782 0.424318 0.577733 0.554396 0.228157 -0.19446 -0.101956 0.261295 0.246202 0.439782 0.373334 -0.341758 -0.536722 0.563682 0.152484 0.0679411 -0.385477 -0.42303 -0.105357 0.286192 0.464331 0.44913 0.0908363 0.535173 -0.293975 -0.542604 -0.203553 -0.166309 -0.535254 0.307828 0.363799 0.15468 -0.440389 0.477326 0.120705 0.163411 0.0977121 0.134246 -0.493385 0.0865914 0.562456 -0.347371 0.0948313 -0.0344341 -0.170564 0.0458689 0.58135 -0.347934 0.524341 0.399812 -0.279374 0.0348949 -0.196739 0.109487 0.283106 -0.218316 -0.342416 -0.524179 -0.488667 -0.516272 -0.0190484 -0.53833 -0.175277 0.59644 -0.296244 0.294579 0.0796831 -0.48324 0.0725758 0.281892 0.090151 0.2587 -0.0419499 -0.584852 -0.151195 0.356861 0.363977 -0.108801 -0.00663389 -0.033709 0.384664 0.471821 0.278034 0.0392844 -0.381712 -0.31026 0.415393 -0.127079 -0.395999 -0.166701 -0.495075 
-0.517361 0.43211 -0.549602 0.159884 -0.34928 -0.190502 0.282418 0.540003 0.597399 -0.0505616 0.054363 -0.401428 -0.453958 0.542643 -0.259143 -0.0455363 0.549754 0.251069 0.435379 -0.147013 0.581929 -0.3429 0.542829 -0.532868 0.319748 0.383783 -0.405589 0.501326 -0.29147 -0.308157 -0.352288 -0.341221 0.146228 0.0105594 -0.161427 0.128313 -0.18858 -0.253408 -0.103712 0.100288 0.176109 0.572557 -0.544804 0.487306 0.537703 0.0975875 0.348308 -0.442194 0.440224 0.380227 0.377626 -0.272936 0.381427 0.579999 -0.473958 -0.531316 -0.190459 0.364005 0.313759 -0.0351724 -0.199794 0.253194 0.235123 0.492222 0.144209 0.54747 0.3966 -0.201786 -0.386393 -0.0047097 0.301315 -0.41569 0.0176087 0.128942 -0.32483 0.28573 -0.475697 0.252616 -0.535965 -0.189372 0.306915 -0.192796 0.583313 0.55587 -0.588934 0.498372 0.436075 -0.0663374 -0.31803 -0.160224 -0.32 -0.539773 0.437853 -0.435082 0.546345 0.526344 
-0.44285 -0.547614 0.502184 -0.0731119 -0.0693888 0.00571442 -0.551365 -0.591625 0.101451 -0.211138 0.373408 -0.498177 -0.208368 -0.338275 0.00831445 -0.335678 0.588999 0.15869 -0.162222 0.113114 0.294437 -0.536995 0.318954 -0.528294 0.0445819 -0.369615 0.087283 0.444592 0.0817446 -0.383107 -0.339736 0.255524 0.435052 0.593226 -0.47893 0.221931 0.208859 -0.305384 0.200125 -0.271365 -0.0267978 0.409981 -0.373285 0.026602 -0.250464 -0.262023 -0.446053 0.165465 -0.283292 0.491183 -0.514422 0.368389 -0.481172 0.343072 -0.52862 -0.179595 -0.139432 -0.18201 -0.267791 0.478916 -0.493683 -0.509941 -0.118785 -0.350736 
0.197922 -0.484117 -0.365508 -0.259801 -0.185786 -0.19807 0.104279 0.0432458 -0.459554 -0.432496 -0.317102 -0.492921 -0.5643 0.0156756 -0.310018 0.416072 -0.100207 -0.54451 0.0758732 -0.0639509 0.25356 0.571594 0.492803 -0.375061 0.404089 0.209905 -0.48214 -0.269367 -0.40577 0.427879 -0.0854388 0.576059 0.372389 0.438688 0.0400099 0.26202 0.467094 0.147207 0.0370809 0.0223564 0.537301 -0.0807793 -0.308277 -0.427717 0.0913421 0.377162 -0.403776 0.130068 0.538474 0.156214 0.468048 -0.525702 -0.590993 -0.169032 0.0519411 -0.205704 0.511747 -0.239782 -0.377987 0.571217 -0.0169442 -0.57421 -0.158852 0.287503 -0.130424 -0.0269003 0.213205 -0.0010419 -0.457868 -0.438736 -0.395338 -0.340195 0.401046 0.582648 -0.311411 -0.29239 0.556859 0.447441 0.0201075 0.022042 -0.125659 0.406902 -0.576916 -0.24808 0.245638 0.418422 -0.507885 -0.113424 0.435774 0.403526 -0.421034 -0.0837848 0.556086 0.158858 0.494173 -0.306294 0.351956 0.471089 0.541786 -0.36338 -0.547333 0.449671 0.350044 0.215359 -0.553855 0.171078 -0.300856 0.386832 -0.58778 -0.195029 0.0931254 0.419225 -0.0661183 0.151339 0.182606 -0.148721 0.301669 0.432562 0.235919 -0.45282 -0.338516 -0.0632249 -0.239652 0.236322 -0.468196 0.267222 0.417097 0.191477 0.190425 -0.247907 0.343401 -0.328007 0.00754921 0.287988 -0.473525 -0.279566 0.56834 -0.589825 0.338182 0.390522 -0.497466 0.550794 0.23036 -0.229286 -0.239461 -0.534662 -0.325184 -0.288777 -0.239571 0.20555 -0.165164 0.134451 0.0691129 0.0428679 -0.268355 0.327889 -0.477661 0.202522 -0.531929 -0.565682 -0.00854947 -0.442162 -0.170051 -0.307365 0.090113 0.377689 0.343371 0.474363 0.316525 -0.301036 -0.593672 0.414767 -0.562923 0.427508 0.553145 0.520651 0.221688 0.238676 0.423909 0.199877 0.37237 0.593617 -0.527034 0.209764 0.571089 -0.39143 0.00869214 0.258061 0.264443 -0.228722 0.161514 -0.039337 

