-0.424475 -0.0664611 -0.14576 0.40458 0.0688687 0.13087 -0.107934 0.00347528 0.162314 -0.476981 0.674193 -0.401406 -0.0853056 -0.557405 0.0693228 0.264378 0.256816 0.223673 0.0701927 -0.0105322 -0.132068 -0.248233 -0.319098 0.387759 0.218378 0.071906 0.0751704 0.0368148 -0.499279 -0.0646065 -0.0160368 -0.0288244 0.0354542 -0.594452 -0.246906 0.243233 0.240907 -0.0929855 0.362859 0.677935 0.460991 0.147353 -0.226708 0.067114 0.23354 0.158419 0.296738 0.237457 -0.457603 -0.299963 0.624804 0.236716 0.119245 -0.42815 -0.343233 -0.24767 0.193422 0.427273 0.488168 0.120319 0.582727 -0.113072 -0.569953 -0.184277 -0.318923 -0.518053 0.218435 0.238825 0.368641 -0.224625 0.17035 0.0900313 0.149324 0.0933696 -0.00434043 -0.683964 0.229994 0.561971 -0.229551 -0.0541179 0.198182 -0.244913 0.0127167 0.40073 -0.561303 0.600908 0.396126 0.0599117 0.237671 -0.197165 -0.021578 0.549249 -0.114515 -0.2627 -0.535179 -0.233759 -0.615478 -0.037234 -0.659158 -0.0811849 0.511546 -0.215165 0.10897 0.308157 -0.376427 0.0671687 0.0655885 0.0332613 -0.0654236 -0.156349 -0.29208 -0.140324 0.386493 0.310562 -0.175912 -0.059398 -0.120256 0.421943 0.618782 0.147746 -0.0895437 -0.434055 -0.0395397 0.568319 -0.0983863 -0.499676 -0.093892 -0.412005 
-0.0658802 0.372457 0.111886 0.192579 -0.184139 0.0348414 0.388719 0.252038 0.294319 0.0889858 -0.00834094 -0.0949589 -0.355147 0.217335 -0.244127 0.0149502 0.543625 0.333314 0.367306 0.12608 0.245369 -0.238879 0.479926 0.0520636 -0.0187456 0.149016 -0.336625 0.294529 -0.252505 -0.216347 -0.332543 -0.256039 0.298623 0.238023 -0.0956826 -0.103076 -0.0625073 -0.216923 -0.0987613 -0.0975686 0.129041 0.382128 -0.208244 0.128568 0.35001 -0.0778533 0.237974 -0.162541 0.196113 0.214827 0.178473 -0.145618 -0.154945 0.185495 -0.306852 0.00963183 -0.0137757 0.222991 0.330351 -0.0370011 -0.0544632 0.120134 0.0711218 0.0890765 0.108132 0.559902 0.00556144 -0.323302 -0.217064 -0.0438872 0.241993 -0.163505 0.00570412 0.111904 -0.0966826 0.0145478 -0.271719 0.116907 -0.282841 -0.127081 0.27582 -0.0295449 0.41209 0.268596 -0.0939926 0.132226 0.438458 0.0081247 -0.0928483 -0.0853938 -0.257124 -0.450416 0.156598 -0.345704 0.460487 0.411698 
-0.475992 -0.494487 0.290542 0.136105 -0.257305 -0.045869 -0.19725 -0.526414 0.248448 -0.296297 0.402135 -0.374093 -0.00796186 -0.0886868 -0.314208 -0.239653 0.31475 0.0861745 -0.035614 0.369647 0.463429 -0.495211 0.124531 -0.449791 0.0547138 -0.217448 -0.0386741 0.415597 0.0105729 -0.296494 -0.180347 0.168318 0.421472 0.396478 -0.397405 0.179362 0.140901 -0.0186255 0.142513 -0.1463 0.0449146 0.370733 -0.3177 0.0500872 -0.187169 -0.35828 -0.451853 -0.0608001 -0.348286 0.41177 -0.204323 0.410582 -0.237607 0.552765 -0.352629 -0.158542 0.0444479 -0.156611 -0.21763 0.52832 -0.338863 -0.310643 -0.175244 -0.152542 
0.0180294 -0.389418 -0.238014 -0.276088 -0.067853 -0.144741 0.121865 -0.0443673 -0.352482 -0.40511 -0.100559 -0.509631 -0.410726 0.0468838 -0.242862 0.216255 0.00475638 -0.100933 0.269038 0.135107 0.32636 0.414775 0.20178 -0.345611 0.204223 0.107961 -0.116566 -0.0440047 -0.369367 0.225462 -0.0203498 0.119925 0.491809 0.246213 0.0564055 -0.0889113 0.28183 0.10688 0.0599327 -0.16852 0.577645 -0.123393 -0.377599 -0.477505 -0.101755 0.283153 -0.373999 0.15995 0.259495 0.0117434 0.407406 -0.244652 -0.69342 -0.162897 0.240152 0.0814681 0.520126 -0.102329 -0.416582 0.286094 0.0380697 -0.430754 -0.165364 0.115399 -0.000358727 -0.147627 0.190186 0.299486 -0.0262237 -0.231505 -0.341723 -0.216564 0.192046 0.288257 -0.203722 -0.17399 0.411581 0.445256 -0.0287421 -0.0863458 -0.0090188 0.300357 -0.452893 -0.171078 0.012763 0.235838 -0.168983 -0.300239 0.143812 0.0876834 -0.0727851 0.110047 0.653063 0.185221 0.364072 0.00622874 0.503575 0.356156 0.508338 -0.507659 -0.359446 0.243556 0.310224 -0.104344 -0.409899 0.22614 -0.353623 0.260957 -0.546818 -0.0295182 0.0934984 0.457544 -0.167641 0.13768 -0.0366941 -0.132236 0.225019 0.34865 0.188963 -0.318542 -0.333624 -0.0237058 -0.258568 0.36822 -0.453296 0.0407652 0.314548 0.220065 0.190425 -0.247907 0.343401 -0.328007 0.00754921 0.287988 -0.473525 -0.279566 0.56834 -0.589825 0.338182 0.390522 -0.497466 0.550794 0.23036 -0.229286 -0.239461 -0.534662 -0.325184 -0.288777 -0.239571 0.20555 -0.165164 0.134451 0.0691129 0.0428679 -0.268355 0.327889 -0.477661 0.202522 -0.531929 -0.565682 -0.00854947 -0.442162 -0.170051 -0.307365 0.090113 0.377689 0.343371 0.474363 0.316525 -0.301036 -0.593672 0.414767 -0.562923 0.427508 0.553145 0.520651 0.221688 0.238676 0.423909 0.199877 0.37237 0.593617 -0.527034 0.209764 0.571089 -0.39143 0.00869214 0.258061 0.264443 -0.228722 0.161514 -0.039337 

