-0.0218846 -0.0344608 -0.0530075 -0.0707941 0.056702 -0.0640347 -0.0469011 0.0854354 0.0252988 0.0679773 -0.092732 0.00425638 -0.0705181 0.0977823 -0.0520425 -0.0516515 0.0755762 0.00455456 -0.0752398 0.0990696 -0.00266328 0.0734155 -0.017941 0.0941542 0.0537857 -0.0789857 0.0694077 0.0518689 -0.0347936 -0.0288876 0.089985 -0.0335293 -0.0438264 0.0389605 0.0672188 -0.0374806 0.064902 -0.0970575 0.0411034 -0.0396018 0.0789244 -0.013105 0.00478932 -0.0680296 0.0280129 0.033855 0.0749825 0.0463744 -0.0189177 0.00247873 -0.0277141 0.00146897 -0.0360728 -0.0270249 0.00197416 -0.00550614 -0.0979242 0.0524743 -0.00239938 -0.0665905 0.000440367 0.0800848 -0.000339661 0.0517098 -0.03146 -0.0281929 0.0184594 0.064766 -0.00897241 -0.00967531 0.0147609 0.0876336 -0.0328466 -0.0512406 -0.00224663 -0.0261256 0.0126178 -0.0736574 -0.0272354 0.0309363 0.0402486 0.0973467 -0.015703 0.0623916 0.0788142 0.0625097 -0.0841119 0.0408336 0.005132 0.087989 0.0390773 -0.014887 0.0104654 -0.0139139 0.0536602 -0.00305616 0.0644853 0.0585233 0.0482965 0.089975 -0.00600124 0.0460001 -0.045234 0.00405474 0.0132838 0.0701628 0.074791 0.0970288 0.0443246 -0.0400051 -0.0164212 0.0538696 -0.0214034 0.0229623 -0.0231545 0.0682932 0.0663477 0.0891857 0.0770668 -0.0721695 -0.0584189 0.097151 0.0241075 -0.051361 -0.0504931 -0.0793612 0.00277907 -0.0364492 0.090838 -0.0850302 -0.0635261 -0.0390416 -0.0345527 -0.0491189 -0.066607 0.0736473 0.0435535 0.0118226 0.0290166 -0.0714485 -0.00488103 -0.078627 0.0304075 0.0697304 -0.0416598 -0.0542255 0.0684773 -0.0507944 -0.0613781 0.0531714 0.0841392 -0.0797437 -0.0228121 0.00836822 0.0190876 0.0277258 -0.0639856 0.0929275 -0.0924259 0.0165718 
0 0 0 0.0609318 0 0 0 0 0 0 0 0 0 0 0 0 0 0 0 0 0 0 0 0 0 0 0 0 0 0 0 0 0 0 0 0 0 0 0 0 0 0 0 0.0153678 0 0 0 0 0 0 0 0 0 0 0 0 0 0 0 0 0 0 0 0 0 0 0 0 0 0 0 0 0 0 0 0 0 0 0 0 
0.0134249 0.0144558 0.0975918 0.0200113 0.0302536 0.0987449 0.0670054 -0.0397594 -0.0471604 -0.0320132 0.0139299 -0.00337683 0.0700941 -0.0224596 -0.0652402 0.071043 -0.0275663 0.0138712 0.035977 -0.0432592 -0.0366646 0.0599057 -0.00486924 0.0912005 -0.053006 0.051221 -0.0116615 0.0114814 -0.0264365 -0.0699144 -0.0997652 -0.0285131 -0.0540777 0.0549031 -0.0528388 -0.099323 0.045167 -0.00622292 0.0461361 -0.00790009 0.0406964 -0.0173738 -0.095763 -0.0990595 0.0696247 -0.0211931 -0.0754753 -0.0770551 0.0988579 0.0838337 0.0381495 0.029794 -0.0435576 -0.075617 -0.0266747 -0.096386 -0.08007 -0.0223142 -0.0030987 -0.0709056 0.0258094 0.0468354 -0.0598581 0.0952715 -0.000632149 -0.0519313 0.0408761 0.0847573 -0.0570433 -0.0870768 0.0810132 0.0665807 0.0395793 0.0549974 -0.0174143 0.0912652 0.0477377 0.0266955 -0.0698819 -0.0801215 0.0264939 -0.0600779 -0.0194541 0.0106715 0.0886726 -0.012162 -0.0269418 0.00150409 0.0964176 0.0440009 -0.0571965 0.025576 0.0489868 -0.0565777 -0.0486452 0.0251099 -0.0311011 -0.0953907 -0.0399697 -0.0612022 -0.0826209 -0.0615278 -0.0201997 -0.094527 -0.00271732 -0.012226 -0.0958537 0.0338205 0.0809282 -0.0928584 -0.0768466 0.0765258 0.0518063 0.00432236 0.00715507 -0.0840393 0.034367 0.0349088 0.0309242 0.0880626 0.082998 -0.0590502 -0.0624861 -0.0994428 -0.059075 0.0874175 -0.0451565 0.0332988 0.0543436 -0.0355956 -0.0420692 0.0394267 -0.00432994 -0.0734728 -0.0218179 -0.0776022 0.0975436 0.0827701 0.0405863 0.0167711 0.00213324 0.0772848 0.0336029 -0.0289992 -0.047533 -0.0514963 0.0761125 0.0156276 -0.092616 -0.0889863 -0.0926236 -0.00535971 -0.0775519 0.0067094 0.0514836 0.00783207 0.0611276 -0.0718559 -0.0189551 -0.0769759 0.0159368 -0.0343757 -0.0548133 -0.0615456 0.070182 0.019732 -0.0880578 -0.0222116 0.0321567 0.0381773 -0.0974461 0.0877249 0.0958691 0.020053 -0.000147465 -0.0182039 -0.0576721 -0.0247706 -0.0203286 0.0696807 -0.0574195 -0.0510314 -0.0825733 0.0288745 0.0703686 0.000535685 0.0893798 0.0608698 0.0585843 -0.0796928 0.0920269 0.073957 -0.0657804 0.0774455 0.0892951 0.0427488 -0.0444302 -0.0121769 -0.0417378 0.000923426 -0.0238657 0.055859 0.0461702 0.0558582 -0.072873 -0.04198 0.0927901 0.0134463 -0.025794 -0.0238424 0.0809808 0.0281298 0.0367117 -0.0607086 0.0714079 -0.0750376 0.050695 -0.0530628 0.0352597 0.0184692 0.0870598 -0.0189474 0.028769 -0.0771003 -0.0738429 -0.0418574 0.00468198 0.0232003 0.041798 0.0657259 -0.0565394 0.0685527 0.0257633 0.038542 -0.0153994 -0.0947442 -0.0228842 0.0904786 -0.0812527 -0.0536752 0.0115762 0.0170841 0.0933729 0.0467274 0.0967832 -0.0854555 0.0128635 0.0260889 -0.0322101 0.0386104 0.0340884 0.0204075 -0.0762001 0.0632389 0.0174735 0.0938057 -0.077494 0.0334651 0.0875235 -0.0479693 -0.0793975 0.0643446 -0.0853444 0.0997697 -0.0246333 -0.0253392 -0.065745 -0.0796904 0.0305843 0.0528117 0.0731023 0.0381009 0.0910008 -0.0675273 -0.00997446 0.0924327 0.0663835 0.00525992 -0.0284765 -0.0582286 0.0865178 0.0772004 0.0622708 -0.0681727 0.0169094 0.0165152 -0.0735133 0.0906519 -0.0417544 -0.0940327 0.0411643 0.0218133 0.0162765 0.0438529 -0.0369086 0.0992696 -0.0638664 -0.00226465 -0.0868635 0.0572042 -0.00538877 -0.0304289 0.0817714 0.04353 0.0701384 0.0759024 -0.0359594 0.0951248 0.078894 0.0508915 0.0448386 0.0470594 0.0723205 0.0684463 -0.0782322 -0.0672257 -0.0519975 -0.0457934 0.0635221 0.0724469 0.071863 0.0423768 0.0233706 0.018129 -0.0410457 0.0749294 0.00930533 0.039933 -0.0351421 0.0344032 0.0869481 -0.0307059 -0.041475 0.0555679 0.0152608 -0.0119462 0.0499646 -0.0169292 -0.067005 0.0316058 0.0442641 0.0756639 0.09834 -0.0953289 0.0696872 -0.071719 -0.0194156 0.0872409 0.0369228 0.0446199 0.0943521 0.0133913 -0.0271773 0.0108624 -0.0469531 -0.0729764 0.00989015 -0.061519 -0.0270461 -0.0901531 0.0595575 -0.0110529 0.0357497 -0.0299019 0.0149122 -0.0265012 -0.0122071 -0.0646057 -0.0922771 -0.0965318 -0.0315083 0.00735552 -0.006906 -0.0782362 -0.0269586 0.0090665 0.0105598 -0.0165703 -0.0294057 -0.0149742 0.0522082 0.00860869 0.0903195 0.0981098 -0.0199622 -0.055652 -0.037464 0.000893979 0.0178252 -0.0102655 0.0177222 0.032453 0.00439209 0.00529537 -0.099112 -0.0545204 0.0934071 -0.0848499 0.0100045 0.0147253 -0.0166242 0.0367579 -0.0487821 0.0675769 0.0870075 -0.0685726 -1.45224e-05 -0.0215552 -0.0063601 -0.0863098 0.0446325 0.090305 -0.076368 -0.0630531 -0.0151447 -0.027689 0.0452001 -0.0917048 -0.00343372 -0.0722014 0.079637 -0.0782207 -0.00961993 0.0338495 0.0682481 -0.0440598 0.00838858 -0.0423392 -0.0202121 -0.0312833 -0.0654269 -0.0352184 0.00477347 -0.0271616 0.0270632 -0.0663377 -0.00651793 -0.0523863 0.0786722 -0.0175485 -0.0584894 -0.0742474 -0.0398715 0.0693468 -0.0734688 0.061937 0.0407327 -0.0600815 0.0433027 -0.0719569 -0.0993618 -0.0860734 -0.05117 0.0791999 0.0522077 0.0729091 -0.0777244 -0.0717291 -0.0587098 -0.071828 0.0720626 0.0553009 -0.0798807 -0.00494881 0.00353665 0.0965291 0.0365246 -0.00437054 0.0945836 -0.0755922 -0.0369312 0.0479643 0.0376043 -0.0843641 0.0258854 0.0540869 0.0435525 0.0319631 0.0205676 0.0885191 -0.0564864 0.0304577 0.0615022 0.0302266 -0.015741 2.99816e-05 -0.0502701 0.076127 -0.0523586 0.0467709 -0.00346519 0.00799374 0.0070206 -0.0294062 -0.0477587 -0.0387258 -0.0165311 0.00570531 -0.00113482 0.0263159 0.0803803 -0.0193287 0.0456203 -0.0817709 0.075089 0.0478846 -0.0409349 -0.0625815 -0.0865453 -0.0156819 0.04213 0.0955218 -0.0476436 -0.0571004 -0.0834761 0.071365 0.047494 0.0587025 -0.0580324 -0.0647071 -0.0953996 0.0802715 0.0816755 0.0290791 0.0172341 0.0156863 -0.0999845 0.0281747 -0.0302331 -0.0386685 -0.00859655 -0.0131602 0.0316258 0.0439675 0.0554491 0.0245523 -0.0935257 -0.00823593 -0.0977284 0.0266637 0.00595292 -0.0978404 0.0710514 -0.0205302 0.0864772 -0.0689708 -0.0437268 0.016726 0.0172065 -0.0178286 0.0188911 -0.0930884 0.00029526 0.0251949 0.0699628 -0.0498138 -0.0351529 0.0951076 0.0373747 0.0244191 0.091504 -0.069647 -0.0596 0.0510223 0.0556103 -0.0208289 -0.043581 -0.0600661 -0.0285226 -0.00219001 -0.0380303 0.00533005 0.0356698 0.0108257 -0.00382476 0.0283582 0.0468279 -0.0652548 0.0330542 -0.0695564 -0.00127365 -0.0387462 -0.0777211 -0.0338974 0.0830065 0.0830063 0.0675538 0.0519027 0.0113096 0.0416143 0.0452402 -0.0331445 0.0445159 0.0159312 -0.0489198 0.0240497 0.0937387 0.0968101 0.0156752 0.0258938 0.0572043 0.0219617 0.0918552 0.0706266 -0.0647187 -0.0443597 0.028901 -0.067454 -0.0124247 -0.0817517 0.0943448 0.0699635 -0.0876493 -0.0937364 0.0630671 0.0574495 -0.0881729 -0.0474668 0.0336103 -0.0406298 -0.0891761 0.0793977 -0.0931259 -0.059492 -0.0588084 0.0308911 -0.0579285 -0.0950277 0.0653573 0.0956277 -0.0162557 0.0407619 0.0192119 0.0874155 0.0324551 -0.0775548 -0.0284564 0.0524412 -0.0612222 0.0509681 -0.012758 0.0374758 0.0036372 0.0209344 -0.0121392 0.0509677 -0.0443442 -0.0429243 0.00231284 0.0489068 0.0096518 -0.0188154 0.00158927 0.0563182 0.0617126 -0.0123806 0.0639238 0.00359114 -0.0451952 -0.0397259 0.0653231 -0.0870166 0.050449 -0.013656 -0.0730148 -0.0277792 0.0871643 0.0587974 0.0221788 -0.0524713 0.0145188 -0.00934403 -0.0589428 -0.0555932 0.0573783 0.0826412 -0.0127077 -0.0333487 -0.0101841 0.0631968 0.0770296 0.017595 0.0778758 -0.0453405 -0.0234553 0.0670319 -0.0926133 -0.0044103 0.0285531 -0.0998772 -0.0891235 -0.0850182 -0.0831456 -0.087585 -0.0475066 -0.00992921 -0.0655528 0.0986689 -0.0633546 -0.0147516 0.0590004 -0.0734231 -0.0647377 -0.0834484 -0.0306496 -0.0900084 -0.0602254 0.039067 -0.029893 -0.0362069 0.0927689 0.0813743 -0.0648282 0.0569884 -0.00451297 -0.018572 0.0763799 -0.0158976 0.0823265 -0.0842903 -0.0826486 -0.0010087 0.00945021 0.0485024 -0.0100591 0.032185 -0.00406718 -0.0600673 0.083165 0.0468014 0.0944676 0.08084 -0.0726675 -0.0768821 0.0754821 -0.0900571 0.00189787 -0.0130196 0.0322793 -0.00398447 -0.00392771 0.0383981 -0.066549 -0.0242297 -0.0422569 -0.0997585 -0.047937 -0.0552531 0.00442433 -0.0342653 0.0475374 0.0335308 0.000586267 -0.0774126 -0.0105566 0.0179322 0.0529717 0.0288211 0.0228802 0.0332946 0.0767189 0.0548271 -0.0973715 -0.0696154 -0.0636368 -0.0590915 0.0878408 0.0530085 0.0422455 0.0320717 -0.0435468 -0.0243478 -0.0175707 0.0836507 0.0848305 -0.0368986 0.0738666 -0.094511 0.0417852 0.0925533 -0.0386614 0.00905574 -0.0111529 0.019795 0.0027555 0.0299639 0.0874058 -0.0891395 0.0669257 0.051953 0.0802536 -0.0618066 0.074588 0.0449931 0.0799657 -0.0279153 -0.0947755 -0.0803771 -0.081363 -0.013923 0.0204928 -0.0056861 0.0327029 -0.042712 0.00692928 -0.096605 -0.0517048 -0.0165695 -0.0184384 0.0423683 0.0429483 -0.0285649 -0.00749342 -0.00515573 -0.0638559 -0.0250987 -0.00245136 0.0725356 -0.0578656 -0.0729664 0.0515538 -0.0120845 0.0443181 0.00539868 0.0891454 0.0127471 0.0697385 0.0264728 -0.0190325 -0.0692812 0.0447219 0.0616279 -0.0266347 0.0315764 -0.0595199 -0.0386063 -0.0515354 -0.0106731 -0.0980506 -0.0656533 -0.0615697 -0.0805159 -0.0962359 -0.0187946 0.0472289 -0.0608857 -0.000672131 -0.0117721 -0.0334045 -0.071637 0.036836 0.0237882 -0.0012324 0.0156245 -0.0296737 -0.053913 0.0767992 0.084529 0.00481483 0.0381499 0.0231059 -0.0100481 0.0213665 -0.0799116 0.0631418 0.0893869 0.0648101 -0.0855146 -0.0691028 0.0467022 0.0782562 -0.0217473 -0.0377858 -0.00404739 -0.0789802 0.0584123 -0.0856346 0.0772856 -0.0877929 0.035244 0.0952952 0.0932574 -0.0778875 -0.0658513 0.0175686 0.0881374 -0.0730449 -0.0476636 -0.0695266 0.0986672 -0.0151837 -0.0875118 -0.0937825 -0.0175817 0.000455044 0.0334278 -0.0800463 0.0822882 0.0263142 -0.00263182 0.0994885 -0.0678384 0.078799 -0.0588386 0.0228439 -0.00689426 0.0767927 0.0756705 0.0814111 0.0828502 0.0269558 -0.0835504 -0.0471593 -0.0927928 -0.0240817 -0.00689553 0.0636368 -0.0660117 0.0959226 -0.00171585 -0.0366139 -0.0103909 0.0259603 -0.0205994 0.041078 0.0209636 -0.0635673 0.0103857 0.033898 0.0728417 0.0416155 0.0562514 0.00499477 0.00106177 0.0185624 0.0753564 -0.0690236 0.0924892 -0.0755774 0.0533478 -0.051078 -0.012596 0.0764797 -0.0158024 -0.0696932 -0.0644091 -0.0371558 0.00326557 -0.043362 -0.0878701 0.0275721 -0.0114163 -0.0101851 0.0844171 -0.0523127 0.037312 0.041569 -0.0470362 -0.0640622 -0.0697307 -0.00256436 -0.0171298 -0.00662679 -0.0928343 -0.0733705 0.0801923 -0.0797085 0.0246606 0.0769812 0.062261 0.00967769 -0.0345963 -0.044981 -0.0793807 0.0713881 0.0646494 0.0521556 -0.0844946 -0.00269594 0.0625725 -0.0235464 0.0388738 -0.0912295 0.096568 -0.0526605 -0.0803063 -0.099599 -0.0226704 0.0341627 -0.0966597 0.0903861 -0.0941753 0.0507978 0.0857675 -0.0945631 -0.0939004 0.0516774 0.0188547 -0.0348291 0.0711817 0.0391093 -0.00930696 0.00498273 0.0275219 0.0247343 -0.0852331 -0.0928526 -0.0273721 0.055134 0.0756484 -0.0529227 0.0221659 -0.0283788 0.0374373 0.0210743 0.00481588 0.0846031 0.0344438 0.0418196 0.0946722 0.062061 0.00861521 0.0176728 -0.0500681 0.0194119 0.0404452 0.0964864 0.0760715 -0.0412593 0.0170129 0.030296 -0.0931642 -0.0413346 0.0580051 -0.0383142 -0.00145866 0.0697365 0.0856658 0.0147773 0.063455 -0.0845042 -0.0712816 -0.0833466 0.0843833 -0.0314002 -0.0543021 -0.0488004 0.0175331 -0.0934742 0.0279757 0.0172639 -0.0966713 -0.0728394 0.072683 -0.0440003 -0.00356931 0.0357923 0.0770923 0.0588664 -0.00483262 -0.0564058 -0.050535 -0.0149051 -0.0981296 -0.0197613 0.0550028 -0.0967106 -0.000248001 -0.0672904 -0.0291295 -0.055415 -0.0811203 -0.00334935 -0.0569175 -0.0943076 0.0989978 -0.0598896 -0.0772997 -0.0783965 0.0450466 0.0990881 -0.00163398 0.0220916 -0.0761809 -0.0889872 -0.0512079 -0.0340106 0.0758602 -0.00548577 0.0687868 -0.0623466 0.0826676 -0.0416524 -0.0522201 0.0440711 -0.0793509 -0.0514137 0.0512977 -0.0256036 0.0214389 0.071621 0.082468 -0.0417645 -0.0183371 -0.0507901 -6.75994e-05 0.0554038 -0.019381 -0.0660853 -0.0639502 -0.0387433 -0.0495903 0.0696775 -0.0175818 -0.0514806 -0.088208 0.0506753 0.0589651 -0.0121288 0.0927852 0.0692014 -0.0102189 -0.0966512 -0.0503865 0.0485534 -0.0742202 -0.0440605 0.0386172 0.0309941 -0.0298374 -0.0841359 0.0598192 -0.0457111 0.0957849 0.0688542 -0.051113 -0.0947478 0.0830301 -0.00688265 -0.0309314 -0.0165001 -0.0197638 0.000140757 0.0081674 -0.0989252 0.0896551 -0.00358117 0.0314753 0.0393597 0.0509276 0.0663459 -0.0319076 0.00907513 0.0276826 0.044104 0.0470607 0.0815285 0.036341 -0.0262577 -0.0486738 -0.000774269 0.0979197 0.0064345 0.0877321 0.0182133 0.0942512 -0.0230206 0.0734726 0.0451431 -0.0410302 0.0874265 -0.0808072 0.0869799 -0.0730281 -0.0482154 -0.0347151 0.0846793 0.0823445 0.0418965 0.0882847 0.0126628 0.032965 0.0653311 0.00201116 0.0884061 0.0560776 0.0929445 0.0961708 0.0641849 -0.0897698 0.0955126 0.0852256 0.0647431 0.0521576 0.033375 0.0431018 0.0871711 -0.0957712 0.0579445 -0.0812111 
0.0507298 -0.0886832 0.08022 0.059323 0.0300301 -0.0292109 -0.00754393 0.025102 0.099593 -0.0511448 -0.0540188 -0.0669103 0.0731959 0.0552224 -0.0413624 0.0688979 -0.0202472 0.0298059 -0.0834679 -0.0523238 0.0451636 -0.0547091 0.0680575 0.0765197 0.0922634 0.0341792 0.0157015 0.0733342 -0.0311485 -0.0525661 0.0434261 0.0222925 -0.0748948 0.0184837 0.0401409 -0.0374347 -0.0770978 -0.0108952 0.0978575 0.0628394 0.0849833 -0.0955881 0.0551343 -0.0629505 0.0463233 -0.0603697 0.0861751 -0.017037 0.0548373 -0.0821811 -0.00208699 0.07916 0.0238947 -0.0349959 0.0350389 0.0877636 -0.0712478 -0.0519282 -0.0466103 -0.00710586 -0.0613326 -0.0616767 -0.023067 0.00624732 0.00759847 0.0331002 0.0760978 -0.0737663 0.010836 0.0467704 -0.0523989 -0.0621795 0.0413225 -0.0255782 -0.0835586 0.0380265 0.0201925 -0.0233396 -0.0882673 0.0599867 -0.0795553 -0.00599494 0.0618707 0.0990615 0.0564995 0.0559318 -0.0420549 0.0537262 -0.0936011 -0.0838218 0.0387924 0.0948 0.068917 -0.0135249 0.0905376 0.00710295 -0.0734649 -0.0413198 0.0727016 -0.00206721 0.099686 -0.0831132 0.0580385 -0.0722716 -0.0993811 -0.0757584 -0.0337254 0.0362129 0.0929104 -0.0091993 0.0484294 -0.0590556 -0.0460186 -0.0451826 -0.0209697 0.0582808 -0.000504817 0.0687404 0.0857575 0.0518394 0.0664502 -0.0194676 -0.0649056 -0.0937993 -0.0842739 -0.0531768 -0.0399883 -0.0250114 -0.0191811 0.0493431 -0.0288513 0.0138511 0.0321914 0.0152438 -0.0312781 -0.0811443 -0.0318933 -0.00890674 0.0438499 0.0225955 0.0321987 0.0943187 0.047753 0.0654156 0.0216832 0.0208455 0.0418293 -0.0976969 0.0813021 -0.0564157 0.0395908 0.0572316 0.0509182 0.0560538 0.0391106 -0.0689589 0.0057985 -0.0959403 -0.0772183 0.0702474 0.0181816 0.00616697 0.0495173 0.057639 0.0517175 -0.0480358 -0.00513651 0.0756065 0.0502043 -0.018208 -0.0282517 0.0983263 -0.0598115 0.0346223 -0.00834868 0.0979708 -0.00228347 0.0147489 0.0554244 0.0638322 0.0851172 0.004177 0.0473165 -0.0274807 0.0351464 -0.0536775 -0.018333 0.0463675 -0.0742336 -0.0887267 0.0329694 -0.0805483 0.0905454 -0.0162065 -0.00938034 -0.0578768 0.0245307 0.0864329 0.0277635 0.0839326 -0.0518335 0.0775893 -0.013189 -0.0935121 0.0542822 0.00700654 0.0540101 0.0601461 -0.0721575 0.0220814 -0.0917783 0.0897403 0.0940119 0.0182274 0.0427591 -0.00531622 -0.0625155 0.0523668 0.0948889 0.0323827 0.0118392 0.0524943 -0.0580439 0.0655789 0.0475817 -0.0179006 -0.0304224 -0.00443833 -0.0850156 0.092057 -0.0947296 0.0557368 -0.0832083 0.0740015 0.0986199 0.0334917 -0.0468171 -0.0824772 -0.0031557 0.0477748 0.0120378 -0.0606633 -0.0451753 -0.093188 0.0473897 0.0314538 -0.0419822 0.00534158 0.0494381 -0.0759792 0.0456417 0.0484345 -0.0126128 0.0549483 0.088275 0.0423328 0.0637975 0.0558123 0.0496155 -0.0693423 0.0688885 -0.0603726 -0.04369 0.0634242 0.0432076 0.0589327 -0.0122156 -0.0843358 -0.0544949 -0.00586403 0.0949641 -0.0707363 -0.0395347 -0.0507479 0.0939337 -0.000108274 0.000770916 -0.0514237 0.0452522 -0.0448872 0.0308772 -0.0705856 0.0331998 -0.0141476 0.0266973 -0.0940486 0.0033244 0.0729138 -0.0719342 -0.0431156 0.0700717 0.0208394 0.0301595 -0.0714861 0.0465774 -0.0323553 0.0684408 -0.091763 -0.0904128 -0.0731049 0.022947 -0.0677572 -0.00535715 -0.0290834 -0.0278037 0.00500487 -0.0639015 0.0980947 0.0326318 0.0362895 -0.0419283 -0.0760554 -0.0247034 -0.00973276 0.0266843 -0.0486161 0.0633729 0.0385688 -0.0579577 -0.0473149 0.0607463 -0.0169754 -0.08071 0.0659808 -0.086933 -0.0279377 0.0265624 -0.0186671 -0.0519269 -0.0896409 0.0944892 -0.0924811 -0.0600212 -0.0421328 0.0252981 -0.0418209 0.00197994 0.0204485 -0.0912975 0.0610969 0.0297442 0.0948306 -0.096374 -0.08731 -0.0426964 0.0708852 0.0830506 0.0302239 0.0447575 0.0261739 0.0281337 0.0936849 -0.0445369 0.00388069 0.0520386 -0.0154684 0.0972068 -0.0688315 -0.0666691 0.0285989 0.0834832 0.088697 0.027152 -0.0394925 -0.0636862 0.0340791 0.0335782 0.0731086 -0.0509224 0.0537049 0.083797 0.0848426 -0.027494 0.0419813 -0.0446562 0.0865217 -0.093593 0.0763783 -0.0568755 -0.0967343 0.0956536 -0.0140761 -0.0217023 -0.0132331 -0.0758984 0.0837937 0.0954062 0.016906 0.0044054 -0.0772 0.0582399 -0.0900107 -0.012283 -0.0244149 0.0842578 -0.0628905 0.0858838 -0.0170386 0.0865037 -0.0138346 0.00943916 0.0770571 -0.0218057 0.0223986 0.0792254 -0.0180684 -0.0918698 0.0890126 0.00477654 -0.0657143 -0.0848412 -0.0761417 0.000411569 0.0866444 0.0330819 0.0130771 0.0542312 0.0279124 0.0506902 -0.0953285 0.0189083 -0.0260148 -0.0501935 -0.0684879 -0.00205907 0.0297007 0.077826 0.0119457 -0.076523 -0.0294195 -0.0316535 -0.0918053 -0.0167828 0.0352761 0.0139377 0.074671 -0.00105396 0.0384716 0.0218053 -0.0486964 0.00432129 -0.0216822 0.0355608 0.0351518 -0.0579609 -0.0602286 0.0610227 0.0490255 0.047654 0.0152928 0.00937697 0.0783996 0.0860443 0.0446087 0.0392196 -0.0448682 -0.0123127 -0.0469352 0.0133405 0.0332834 -0.097435 -0.0674932 -0.0439348 -0.00999924 -0.0821184 -0.0417438 -0.04978 0.0348531 -0.00686806 -0.000262842 0.0366449 -0.0671704 0.0516704 -0.0247481 0.0487257 -0.0454851 0.0914058 -0.057915 0.0702421 -0.0364779 0.00920794 0.0589175 0.0120267 0.027033 -0.0521394 0.0774728 -0.0226218 0.01407 0.0830397 -0.0593095 -0.0613568 0.00976466 -0.0496649 -0.0211402 -0.0367563 -0.0985291 -0.0955316 -0.0288655 -0.0305384 -0.0269283 0.0614181 -0.0309613 -0.0914142 -0.0230633 -0.0873538 0.0113536 -0.0847803 0.0155422 0.00419053 -0.000547829 -0.0178949 0.00390654 -0.0492419 -0.0917209 0.000412702 0.0522193 0.00128192 0.0266564 -0.0462266 -0.0725399 -0.0577325 0.0378699 0.0973093 -0.0634425 -0.00963138 -0.031066 0.0802058 0.0994112 0.0488657 -0.00285984 -0.0586989 -0.0838785 -0.0711982 -0.0484437 0.0609619 0.0900679 0.000915219 -0.00991929 0.0303037 -0.0434793 0.0250867 0.0131487 0.0767328 -0.0412126 -0.0464308 -0.0808961 0.00220878 0.0194858 -0.0561605 0.0979078 -0.0900373 0.0426544 -0.0979411 -0.0639224 0.0638281 0.0787937 0.0864808 0.00030227 -0.0270483 0.0219051 0.0432501 -0.0566515 -0.077974 0.0922952 0.0606382 -0.0855693 -0.0519092 0.0817448 0.00481373 -0.0361894 -0.0574975 0.000630928 0.0526892 0.0294373 -0.0896789 0.098614 -0.0542721 0.0377429 -0.0960932 0.0462325 -0.0285497 -0.0666594 0.0246884 0.0791025 0.0692845 -0.00620468 -0.0569929 -0.0729421 -0.0393719 0.055476 0.0272878 -0.0975017 0.0919793 -0.0855529 0.0385706 -0.0266205 -0.03619 0.0512288 -0.0374157 -0.0451526 0.0681822 0.0851541 -0.0489447 0.0779084 0.0267253 -0.0560378 -0.0848931 -0.0407356 0.0370761 0.0841025 -0.0536039 0.0162389 -0.0422583 -0.0309714 -0.0714476 -0.0807469 0.0744116 0.095142 -0.00448383 0.0592452 0.0540575 0.0991531 0.0404565 -0.091169 0.0255988 0.00942243 -0.0844957 0.0878258 -0.0655371 0.0698056 0.0594333 -0.0333132 -0.0887446 -0.0576199 -0.0658127 -0.0671927 0.0245324 0.00382545 -0.00140789 -0.0470802 0.0554282 0.0393062 -0.0438711 0.0286465 0.0805704 0.00308261 -0.0965354 -0.0849414 0.0463814 -0.0744181 0.0650845 0.0481382 -0.041747 -0.0224757 0.0161489 -0.0730346 0.00866902 -0.00518184 0.0959048 -0.0606706 0.0777465 0.0930741 -0.0953315 0.0120615 0.0321046 0.0497854 -0.0151332 -0.0461281 0.0498759 -0.0486326 0.0531125 -0.0971023 -0.0678686 -0.0474589 -0.0694523 -0.0552427 -0.0495563 -0.0372658 0.0816006 -0.0455876 0.0408337 -0.0188784 -0.0793364 0.0200149 -0.0589852 -0.0723311 -0.0534205 0.00261701 0.0943123 -0.0209058 -0.0335337 -0.0901723 0.0736449 0.0726429 -0.0284784 -0.024154 0.0914972 -0.0852255 0.00948355 0.0386023 -0.0866359 -0.0204088 0.022586 -0.0433659 -0.0962142 0.0158954 -0.0917523 0.0770478 0.0251297 0.0761876 -0.0153671 -0.0199023 -0.0687289 -0.00999959 0.0552398 0.0638159 0.017857 0.0143231 0.0866939 0.0364802 0.0897026 -0.0411078 -0.0158988 0.00290576 0.0210528 0.0541091 -0.0200439 -0.0357371 0.0795785 -0.0812321 -0.0523358 0.0835591 0.0480194 0.0625378 -0.0282656 -0.056187 0.0584748 -0.0499925 -0.00352857 0.0409914 0.0469057 -0.0266273 0.088485 0.0246241 -0.0292788 0.0959996 0.025179 -0.0341633 -0.0592778 -0.0787528 0.0489282 -0.0756903 -0.0485521 -0.0363973 0.0403633 -0.00850565 -0.0688914 0.096536 0.0545252 0.0292041 0.0327076 0.0721408 0.0564612 -0.0159817 0.0195393 0.0963382 -0.017878 0.064685 -0.061214 0.0462593 -0.0548196 0.00817426 -0.00970767 -0.0204358 0.0982764 -0.0390115 0.0876298 0.0535004 -0.00521929 -0.0109016 -0.0700786 -0.0990484 0.076767 -0.0975282 -0.0774814 0.023456 -0.0852893 -0.0697036 0.0568796 0.073921 0.0296752 0.0140921 0.00128143 0.0764309 -0.00573702 -0.0187402 -0.0390604 -0.0729396 -0.0541634 0.0369798 0.0378037 -0.006759 0.0164045 0.0189228 0.0502965 0.0398925 0.0410552 0.0826497 0.041228 -0.0155431 0.0347492 0.0906885 0.0141786 0.0143496 0.0639721 -0.0854785 -0.033579 0.0304989 -0.0353755 -0.0926023 0.0101476 0.0459937 0.0460769 0.0459465 0.0205375 0.0362609 0.0654492 0.0798198 -0.077832 -0.0933949 -0.0894811 -0.0296444 0.0170433 -0.0880876 0.0599159 -0.0433149 0.0396598 0.0345717 -0.0997116 0.0585894 0.0417134 -0.0593375 -0.0975958 0.0624605 -0.0788588 0.0683497 -0.0763271 -0.0791329 0.00554194 -0.0671929 0.0235759 -0.0256467 0.000242705 0.00604084 -0.00767558 -0.0614613 0.0559234 0.0911665 -0.0175957 0.0658697 0.0334597 0.0833935 0.0375104 0.0259245 0.0620259 -0.0514097 -0.0643134 0.0583938 0.0553953 0.0269451 -0.0187525 -0.0997029 0.0696293 -0.0736874 -0.00825709 0.013825 0.032608 -0.0166973 0.0566424 -0.0958714 0.078369 -0.0395676 -0.0675289 0.0381838 0.0503191 0.0942058 0.0957308 0.0466505 -0.0378949 0.0127564 0.0830316 0.0116546 0.0572747 0.0646369 0.0193546 0.0145891 -0.0022549 0.00415916 0.0132849 0.0292779 0.0535381 -0.0654774 0.0835927 0.0806181 -0.0862967 -0.0776764 0.0843397 -0.0452473 -0.044988 0.0454656 0.0966518 -0.04593 -0.00743117 -0.0832577 0.0242889 -0.0830163 0.0147564 -0.0265704 0.00367678 -0.0781656 0.00478976 -0.0637731 -0.0147709 0.0555108 -0.0874653 -0.0394218 0.0130734 -0.00890891 0.0755189 0.0414367 -0.00755679 -0.0480207 0.0826243 0.0217835 0.0511713 -0.0608611 0.016129 0.0459691 0.00513496 -0.0183378 0.0695571 0.00744302 -0.0265614 -0.0387368 0.050962 -0.0925634 -0.0643237 0.0209725 -0.00106357 -0.086454 -0.0213767 -0.0713157 0.00556787 0.0024442 0.0542894 0.0827695 0.0513882 0.031728 -0.0757532 0.0743791 -0.0753264 0.0225897 0.0947345 0.0447963 -0.0681161 0.0763903 0.0555102 0.0724074 0.0544998 0.066968 0.0633523 -0.0351557 0.0876054 0.0752334 -0.00335763 -0.0661639 0.0819059 -0.0703864 -0.0830576 0.0305754 -0.0190554 -0.00918536 -0.0188306 -0.070359 -0.0456066 0.00235269 0.0264973 0.052231 0.0666746 -0.077828 0.0922055 -0.0271542 -0.0394743 -0.0131345 0.0213018 0.0554238 0.0604375 -0.0190137 0.0658481 -0.00776404 -0.0557471 -0.0081095 -0.0661086 -0.00883593 0.0407304 0.0550102 -0.0650512 0.0500901 0.0154095 0.0818212 0.0252345 0.030232 -0.0529002 0.0545723 0.0690342 -0.08349 0.0710185 -0.0551827 0.0819178 0.0576149 -0.0687644 -0.0532206 0.0515412 -0.0917414 0.041709 0.0462418 0.0426641 -0.0953507 -0.0221634 0.079595 0.0692431 0.0243298 -0.0685228 -0.0110084 0.0515809 -0.0683218 0.00195081 -0.0428146 -0.00815312 0.00434665 -0.0729473 -0.0303713 0.0595493 0.0572616 -0.0666804 0.0410503 -0.0491166 0.000468392 -0.0899958 0.0262184 0.0911239 -0.096878 -0.0701711 0.050997 -0.0523901 -0.0767865 -0.0844782 -0.052604 -0.0646813 0.0163111 -0.065499 0.0786954 0.0197968 -0.00952282 0.0653643 -0.0473082 -0.0499874 0.0207068 0.0607922 -0.0468292 -0.0868567 -0.0148666 -0.0710776 0.0950566 0.0760767 -0.0768018 -0.0316734 0.0545341 0.0479767 -0.0342437 0.0317963 -0.0699226 -0.0885562 -0.0570807 -0.0395876 0.0864649 -0.033764 -0.014954 0.0886298 -0.0375166 0.0624346 0.0980575 0.0834086 -0.0511969 -0.00755212 -0.0930256 0.0298123 0.0256965 -0.0343862 -0.0363868 0.0969829 0.0285583 -0.0127117 -0.0108054 -0.0393145 -0.0855192 -0.031265 0.0595663 0.0373422 0.0214471 -0.0836472 0.0509564 -0.00114222 -0.019222 -0.0231446 0.0925643 -0.0756689 0.0510168 0.00360301 0.0908684 0.00221252 0.0437815 -0.0779775 0.0727851 -0.0577995 -0.0261985 -0.0735185 -0.0563817 -0.0803896 -0.0117207 -0.0247808 -0.0527819 -0.0536397 0.0637495 0.0876018 -0.0519432 -0.0951066 -0.0393855 -0.0621533 -0.0517002 0.0993455 0.0928624 -0.0761592 -0.0307756 0.090369 0.0178973 -0.0469937 0.0997628 -0.0697924 -0.0513062 0.0463402 0.0311897 0.0617529 -0.0439439 0.0129461 0.0347912 0.0195901 -0.0837315 0.0757766 -0.0547721 -0.0815864 -0.0591298 -0.0542859 0.0690581 0.0746966 0.0566899 0.0215095 0.0720569 -0.055179 -0.0864688 -0.056166 -0.0305859 -0.0337315 -0.0502687 -0.0921979 0.0179187 0.0242537 0.0903876 0.0380679 -0.0134958 0.0080763 0.0464919 -0.0292042 -0.0962486 -0.0192771 0.0493072 -0.00639016 -0.0184912 -0.0847707 -0.00572911 0.0658713 0.0681858 0.0435984 -0.0473812 -0.0961069 0.0734136 0.0565194 0.0752304 0.0828473 -0.0844169 -0.024805 0.086931 -0.0285391 -0.0263326 -0.0761097 0.000802825 -0.0909088 0.0593672 0.0441819 -0.0139716 -0.073305 -0.0415407 -0.00200506 -0.0484119 -0.0606229 -0.0420114 -0.0714382 0.0627584 -0.0467193 -0.0631098 -0.0405253 0.00830962 0.0359467 0.0303109 0.0615171 0.0374923 0.0508385 0.0240961 0.0280139 0.0138123 -0.0239333 -0.0337266 0.0159954 -0.0849523 0.0691428 0.0241274 -0.0746724 0.081986 0.0272922 0.0562218 0.0828614 0.0918114 0.0257492 -0.09088 -0.014199 -0.0489363 0.0398143 0.0578503 -0.0353429 0.0679163 0.0843212 0.0545932 -0.0380445 -0.0558105 -0.022477 -0.0476389 -0.0777188 0.0092517 -0.0281484 0.0322823 -0.0140957 0.0114614 -0.0338925 -0.0947614 0.0510539 -0.0772139 -0.0706169 -0.0524151 0.00673809 -0.066804 0.0938165 -0.0898181 -0.0555064 0.0764537 -0.0678743 -0.0835324 -0.0220009 -0.0503175 0.0428466 0.0322835 -0.063984 0.0706715 -0.0662771 0.00536123 0.0859303 -0.042971 0.0983713 -0.096672 -0.0476219 0.0517738 -0.0567589 -0.011557 -0.041812 0.0320373 0.074432 -0.0903682 0.0435452 -0.0182137 -0.0493546 -0.0831166 0.0785966 0.0518601 0.0952237 -0.0160203 0.0239443 0.0219649 -0.0221005 0.067183 -0.0350077 0.0660182 -0.088771 0.0663856 -0.0731036 0.0134635 -0.0153014 -0.0696452 0.0374755 -0.0600937 -0.00482063 -0.099199 -0.0194247 0.0662456 0.0868604 -0.0149694 0.00209137 0.000394507 0.0561595 0.00402224 0.0613658 0.0407092 0.00427055 0.0601682 -0.0752427 -0.047726 -0.0864446 0.0434899 -0.0999137 0.0519826 0.0955366 0.0620109 0.0899275 0.00346752 0.0575512 0.0970584 -0.015768 0.0605837 0.0495022 -0.0261992 0.0616034 -0.0105251 0.0463752 -0.013893 0.0179415 -0.0827202 -0.066382 -0.0366682 -0.0997726 0.0756314 0.018645 0.0979282 
0 0 -0.0576712 0 0 0 0 0 0 0 0 0 0 0 0 0 0 0 0 0 0 0 0 0 0 0 0 0 0 0 0 0 -0.0275483 0 0 0 0 0 0 0 0 0 0 0 0 0 0 0 0 0 0 0 0 0 0 0 0 0 0 0 0 0 0.0557785 0 0 0 0 0 0 0 0 0 0 0 0 0 0 0 0 0 0 0 0 0 0 0 0 0 0 0 0 0 0.096922 0 0 0 0 0 0 0 0 0 0 0 0 0 0 0 0 0 0 0 0 0 0 0 0 0 0 0 0 0 0.0248129 0 0 0 0 0 0 0 0 0 0 0 0 0 0 0 0 0 0 0 0 0 0 0 0 0 0 0 0 0 -0.0119392 0 0 0 0 0 0 0 0 0 0 0 0 0 0 0 0 0 0 0 0 0 0 0 0 0 0 0 0 0 -0.0978394 0 0 0 0 0 0 0 0 0 0 0 0 0 0 0 0 0 0 0 0 0 0 0 0 0 0 0 0 0 0.0723978 0 0 0 0 0 0 0 0 0 0 0 0 0 0 0 0 0 0 0 0 0 0 0 0 0 0 0 0 0 -0.00175729 0 0 0 0 0 0 0 0 0 0 0 0 0 0 0 0 0 0 0 0 0 0 0 0 0 0 0 0 0 -0.0813718 0 0 0 0 0 0 0 0 0 0 0 0 0 0 0 0 0 0 0 0 0 0 0 0 0 0 0 0 0 0.00468128 0 0 0 0 0 0 0 0 0 0 0 0 0 0 0 0 0 0 0 0 0 0 0 0 0 0 0 0 0 -0.0963961 0 0 0 0 0 0 0 0 0 0 0 0 0 0 0 0 0 0 0 0 0 0 0 0 0 0 0 0 0 -0.0780439 0 0 0 0 0 0 0 0 0 0 0 0 0 0 0 0 0 0 0 0 0 0 0 0 0 0 0 0 0 0.0931243 0 0 0 0 0 0 0 0 0 0 0 0 0 0 0 0 0 0 0 0 0 0 0 0 0 0 0 0 0 -0.0867643 0 0 0 0 0 0 0 0 0 0 0 0 0 0 0 0 0 0 0 0 0 0 0 0 0 0 0 0 0 -0.0611604 0 0 0 0 0 0 0 0 0 0 0 0 0 0 0 0 0 0 0 0 0 0 0 0 0 0 0 0 0 -0.022896 0 0 0 0 0 0 0 0 0 0 0 0 0 0 0 0 0 0 0 0 0 0 0 0 0 0 0 0 0 0.0804187 0 0 0 0 0 0 0 0 0 0 0 0 0 0 0 0 0 0 0 0 0 0 0 0 0 0 0 0 0 -0.0947748 0 0 0 0 0 0 0 0 0 0 0 0 0 0 0 0 0 0 0 0 0 0 0 0 0 0 0 0 0 0.00745881 0 0 0 0 0 0 0 0 0 0 0 0 0 0 0 0 0 0 0 0 0 0 0 0 0 0 0 0 0 0.0812197 0 0 0 0 0 0 0 0 0 0 0 0 0 0 0 0 0 0 0 0 0 0 0 0 0 0 0 0 0 -0.00974426 0 0 0 0 0 0 0 0 0 0 0 0 0 0 0 0 0 0 0 0 0 0 0 0 0 0 0 0 0 -0.088519 0 0 0 0 0 0 0 0 0 0 0 0 0 0 0 0 0 0 0 0 0 0 0 0 0 0 0 0 0 0.0413879 0 0 0 0 0 0 0 0 0 0 0 0 0 0 0 0 0 0 0 0 0 0 0 0 0 0 0 0 0 -0.0662544 0 0 0 0 0 0 0 0 0 0 0 0 0 0 0 0 0 0 0 0 0 0 0 0 0 0 0 0 0 0.0734919 0 0 0 0 0 0 0 0 0 0 0 0 0 0 0 0 0 0 0 0 0 0 0 0 0 0 0 0 0 0.0384463 0 0 0 0 0 0 0 0 0 0 0 0 0 0 0 0 0 0 0 0 0 0 0 0 0 0 0 0 0 0.00754641 0 0 0 0 0 0 0 0 0 0 0 0 0 0 0 0 0 0 0 0 0 0 0 0 0 0 0 0 0 -0.0404011 0 0 0 0 0 0 0 0 0 0 0 0 0 0 0 0 0 0 0 0 0 0 0 0 0 0 0 0 0 -0.0982219 0 0 0 0 0 0 0 0 0 0 0 0 0 0 0 0 0 0 0 0 0 0 0 0 0 0 0 
