0.0879972 0.0249432 0.0401661 0.0328498 0.0527218 0.0704164 -0.045183 -0.0412962 0.0232396 -0.0696398 -0.083143 -0.0959835 0.0933603 0.0276772 -0.0366132 0.0697452 -0.023376 -0.00871498 -0.0401296 -0.00145194 -0.0288827 -0.0156654 0.0681437 0.0885665 -0.0525049 0.0423946 0.00731785 -0.0763966 0.0971025 -0.0474521 0.0826636 0.0375742 0.0614952 -0.0417198 -0.0244578 -0.0409162 -0.0773026 0.0621852 -0.0342477 -0.0560288 -0.0774507 -0.0655572 0.0344633 0.0144996 0.052445 0.0753925 -0.0106225 0.000690273 0.0959173 -0.0176063 -0.0104831 -0.0590847 0.0522847 0.0740093 -0.0309451 -0.0192933 -0.0911086 0.0703534 -0.0423672 0.0188325 0.0103253 -0.000911262 0.00785982 -0.0613963 0.0720412 -0.050315 0.00477087 -0.0132229 0.0534592 -0.0251962 -0.00102952 0.089454 -0.0914048 0.0707714 0.0723066 -0.0307618 -0.0126186 0.0667818 -0.0454828 0.0524994 -0.0582182 -0.057706 -0.0396689 -0.0392071 -0.00869903 -0.0156908 -0.0743489 0.0541355 -0.0599003 -0.0708141 0.0801224 -0.0390163 -0.0102999 -0.0565962 0.0265712 0.0687917 0.0411676 -0.0224896 -0.0421512 -0.0793747 -0.0443151 0.0812887 -0.030188 -0.0691264 0.0721746 -0.0530779 -0.0338481 -0.00222577 -0.00648489 -0.0708415 0.0585804 -0.0635794 0.0238493 0.00615476 0.071464 0.0938663 0.0376234 -0.00406316 0.0160789 0.0883957 0.0933986 0.0810031 -0.0904039 0.0112769 0.0329617 -0.0203728 0.0440769 -0.0532989 -0.0518172 0.0705263 0.0497068 0.0567384 0.0637766 0.0824942 0.0220906 -0.00701523 0.00698415 0.00814199 -0.0361131 -0.00809168 0.0987944 0.0477214 0.0378888 -0.0348095 0.0387801 -0.097735 -0.0941341 -0.00527933 -0.0185629 -0.0793085 0.0712301 0.0850692 0.00388977 0.0655981 -0.00085435 -0.0438137 -0.0247547 0.0448488 -0.0966735 -0.0945336 
0 0 0 -0.0638058 0 0 0 0 0 0 0 0 0 0 0 0 0 0 0 0 0 0 0 0 0 0 0 0 0 0 0 0 0 0 0 0 0 0 0 0 0 0 0 0.0828984 0 0 0 0 0 0 0 0 0 0 0 0 0 0 0 0 0 0 0 0 0 0 0 0 0 0 0 0 0 0 0 0 0 0 0 0 
0.0846309 -0.0707635 0.0441127 -0.0288118 -0.0411457 0.0681497 0.0693152 -0.0707165 -0.00175831 0.0806827 0.027887 -0.0758603 -0.0571597 0.0553367 -0.000623791 -0.0563481 -0.052297 0.0622502 -0.0879887 0.0488751 -0.0981056 -0.0792103 -0.0477417 -0.046858 0.0726614 0.032784 -0.0216556 0.0266894 -0.0209977 -0.0592143 0.0998756 0.00520466 -0.0859661 0.0937156 0.0162366 -0.061117 0.0749866 0.00179474 0.000791767 -0.00851399 0.0451194 0.0486696 -0.0506281 -0.0506041 -0.089347 -0.0193142 -0.0644311 -0.0926451 0.0294096 0.00740389 -0.0367126 0.0196662 -0.0541433 0.0670095 -0.0245295 -0.0928889 0.014231 -0.00199793 0.0395354 -0.0722263 0.0403377 -0.0558828 0.0228734 -0.015737 0.0510958 -0.0435468 0.0703299 -0.0108425 -0.0658758 0.066759 -0.0265737 0.0242877 -0.0751176 -0.0322306 0.0806185 -0.035171 0.0628269 0.0568876 0.0442655 -0.0412329 -0.0827147 0.0906193 -0.0463841 0.0231765 -0.0256598 0.0131433 -0.0162129 0.0687109 0.0529698 -0.015466 0.0664308 0.00562268 -0.0158957 -0.0816835 0.0651459 0.0668332 0.0674386 -0.00650533 -0.0255194 -0.0698933 -0.0990873 -0.0181437 -0.013001 0.083517 -0.0501605 0.0484766 0.00345551 0.0957898 -0.0260007 -0.0566043 -0.0292359 -0.0410086 -0.0499546 0.0366025 0.0999115 -0.0158664 0.0574469 -0.0205354 -0.0190147 -0.0917421 -0.0617047 -0.0534782 0.0347319 0.0248041 0.0820308 -0.0575101 -0.0175415 0.0130706 -0.0330474 0.0336525 -0.0875789 0.0905706 0.048463 -0.060559 0.0176927 -0.0912022 -0.0854638 0.0296888 0.00550598 -0.0766443 -0.0679989 -0.0782976 0.0341146 0.0401409 0.0561785 0.0826235 -0.073179 -0.0698551 -0.0252079 0.0147851 -0.0567286 0.0759687 -0.0269747 -0.0562391 -0.047161 -0.0612055 -0.0408798 -0.0407583 0.0802563 0.0724713 0.0592569 0.0869649 -0.00410635 0.0841279 0.035457 -0.0372834 -0.0219412 -0.0101866 -0.0575198 0.0743565 0.0969399 0.0320873 -0.0635728 0.0154725 0.0149115 0.0248039 0.0230288 0.0125383 -0.0307759 0.0332797 0.0636934 -0.0238817 0.0445758 -0.0816223 -0.00876323 -0.0873684 0.0529535 0.0159785 -0.0357309 -0.058449 0.0882114 0.067559 -0.0991488 0.0407947 -0.0756206 0.017668 -0.0983786 -0.0839921 -0.0964928 -0.0609765 0.0249173 0.0498761 -0.0594192 -0.0809298 -0.041532 -0.0513997 0.0465037 -0.0532303 -0.0572168 0.0270143 0.0407873 0.00256257 -0.0838084 -0.0452562 -0.0193816 -0.0182552 -0.00775753 -0.0834766 0.0870189 -0.000669155 0.0341924 -0.0544503 0.0631173 0.0280928 -0.0317828 -0.0602866 0.0160871 0.0487433 0.0899778 0.00766479 0.0123151 -0.0527972 -0.0823956 0.0374536 0.0407062 0.008513 -0.0248851 -0.018914 -0.00300687 -0.0882349 0.0660317 0.0714391 -0.0153919 0.0653849 -0.0988991 0.00095793 0.0310588 -0.0404257 0.0137223 0.0764357 0.0394354 0.0313579 -0.0489744 -0.0443674 0.0724365 -0.0105838 -0.00371901 -0.0780688 0.0220294 -0.0896254 0.0313319 0.0558948 0.0796644 0.00325826 -0.0157287 -0.0491593 -0.0334656 0.046232 -0.0764647 0.00476289 0.0509361 -0.0117161 0.0202281 -0.0386347 0.0902927 0.0795007 0.0676332 0.0343566 -0.0386577 -0.0305356 0.0354593 0.0529966 -0.0326672 -0.0312641 0.00084193 -0.0361824 0.0790167 -0.0791278 0.00205458 -0.0119212 0.0733756 -0.0284773 0.0677852 0.0664981 0.0705442 -0.00275963 -0.0875551 -0.0911807 -0.00884463 -0.0446909 0.0740679 -0.0925497 0.000470569 0.098042 0.094495 -0.00309706 -0.0962058 0.0825129 -0.0894989 -0.0349137 -0.00702573 0.0184952 -0.010865 -0.0389772 -0.0142553 0.00796065 0.0811221 0.0836411 0.0378637 0.000365791 0.00912098 -0.0146646 0.0935775 -0.0135971 0.027204 0.0494423 -0.0896787 -0.0742136 -0.0363446 -0.0709311 -0.0711339 -0.0240618 -0.0122857 -0.0774711 -0.0528834 -0.0477111 0.0894828 -0.0710316 0.0958382 0.0904862 0.0895015 -0.0803823 0.0705676 -0.0714366 -0.0337408 -0.0657916 -0.0870099 0.0525374 0.0724907 0.0181659 0.0774015 0.0401771 0.0360996 -0.0734113 -0.098271 0.0942577 0.0830756 -0.0377919 -0.0193658 0.0496288 -0.0881887 -0.0194399 0.0699435 0.0589624 -0.0124961 -0.0718381 -0.0194989 -0.0301044 0.0395087 -0.0599089 0.0685042 0.060224 0.0269638 0.043347 0.0949654 0.0365327 0.0485699 -0.0885859 0.0509978 -0.0937873 0.0218182 0.0453963 0.099282 -0.0261741 0.0128347 0.0170999 0.000742834 0.0592221 0.0760728 -0.0227464 -0.030898 -0.0343147 -0.0395948 0.0974649 -0.0831187 0.0812297 0.061891 0.0174321 0.0235504 0.0500986 -0.073774 0.064808 0.0478929 -0.0613206 -0.0401957 0.0513214 -0.0928214 0.00137331 0.0719502 -0.0724126 -0.0865333 -0.0599731 0.0280092 -0.00653808 0.0138911 -0.00779419 0.0489777 0.0573892 0.00256944 -0.0936931 0.0802807 0.0292684 -0.0541331 0.097324 -0.0316791 -0.0902624 0.0208941 -0.0167443 0.0697232 -0.0588409 0.0702278 0.0875972 0.0548203 0.021428 -0.0167904 0.024842 0.0623519 0.045532 -0.0447041 -0.0760838 0.058292 0.0115614 0.0583854 -0.0657042 0.0658833 -0.0907534 0.0616427 -0.067035 0.0650287 -0.0989809 -0.0435465 -0.0105951 0.0277412 0.0505381 0.0405785 0.0661801 -0.0183113 0.077946 0.0532274 -0.00694435 0.0958084 0.0998983 -0.000163953 -0.0255697 -0.0364168 0.00252931 -0.0772723 -0.0265685 -0.0442536 -0.0121109 -0.0814394 0.0104049 0.0236968 0.081409 0.023157 -0.0225326 0.00791752 -0.07544 -0.0738338 -0.0950753 0.0811005 -0.0611479 -0.0184952 0.0173478 0.0217996 0.0940452 -0.0102523 -0.0684616 0.0724737 -0.0948802 0.0695233 -0.0833225 -0.0836313 -0.0289119 0.0455036 -0.0228888 0.01475 -0.00689728 0.0289438 0.0594401 -0.0851262 0.0412047 0.0991803 0.0736619 0.087265 0.0806831 -0.0967279 0.0819498 -0.0504957 0.0329999 0.0569911 -0.0157541 0.0708101 0.0211616 0.0982903 0.00438669 -0.0606417 -0.0746504 0.0481104 0.0762648 0.0926517 0.0459085 0.0867449 0.0201842 0.0771521 -0.0268789 -0.0987762 0.091121 -0.0965114 -0.0999389 -0.0814135 -0.0904499 0.0446867 0.00983059 0.0849793 -0.0622906 -0.0739111 -0.0278608 0.0956722 0.0352507 0.0397208 0.0441423 0.0870716 0.0965043 -0.0580172 0.0970026 0.00157717 -0.0134722 0.0516731 -0.00933661 0.00322777 0.0445883 -0.0609338 -0.00776189 -0.0956287 0.0231323 -0.0332615 0.0848904 -0.0193545 0.0720267 0.0846754 0.00421306 0.00429393 -0.0789593 -0.0139324 0.0863987 -0.0652362 -0.0658112 0.0561497 -0.0954924 -0.0434853 0.00799141 0.0372913 -0.00477517 -0.0495909 0.0511594 0.019398 -0.095965 -0.0746334 -0.0112722 0.0310591 0.0396191 -0.0560217 -0.0384982 -0.0399125 0.0445121 -0.0802697 0.0750087 0.0422742 -0.0604378 0.00922395 -0.0863673 -0.0317149 -0.0795248 -0.0846049 -0.0181613 -0.0689502 -0.00870148 -0.0889434 -0.0144298 0.0832554 -0.0764725 0.0857179 -0.0783582 0.0428404 -0.0198872 -0.0238536 -0.0336978 -0.0933375 0.0612695 0.0740309 -0.0268078 0.0243601 -0.0916205 -0.0592716 0.0275203 -0.0340906 -0.0874993 0.0329788 0.0848068 0.00360162 -0.0277362 0.0387994 -0.0823598 -0.0512332 -0.0592294 0.0477842 -0.0983199 -0.075487 -0.0247258 0.0965533 0.0934698 0.0844428 0.0894467 -0.0812345 0.0197818 0.021197 -0.0436006 -0.0605911 0.0873214 -0.0458887 0.0291639 -0.0897276 0.00590214 0.0987939 -0.0840386 -0.0186634 -0.0327327 -0.0302093 -0.0932764 0.079856 0.0835811 -0.0821211 -0.0658093 0.0933588 -0.0215622 0.0536092 0.0380486 -0.0918271 -0.0317705 0.0245276 -0.0522561 -0.0406646 0.0353038 -0.040377 -0.0542306 0.0423478 -0.0656879 0.0533532 0.0151764 0.0785019 0.0411416 -0.067464 -0.0233191 0.093818 0.0418978 0.0865203 0.00608737 0.037045 -0.0885644 -0.0287124 0.0583243 -0.0665422 -0.0686869 0.0919697 0.0851926 -0.0492748 0.0155254 -0.076583 -0.0257016 -0.0367617 -0.0121526 0.0208724 0.0131038 -0.0154003 0.0445181 0.0978358 0.0576442 0.0634152 -0.00309929 0.0992886 -0.0358533 -0.00827783 0.0208372 0.0953913 -0.0958649 -0.0345003 0.0173565 0.0765863 0.0929153 -0.0755997 0.0921346 -0.0905733 -0.0469887 -0.007924 -0.0243433 0.0729476 -0.0221812 0.017144 -0.0773848 -0.0662131 -0.00518492 0.0440422 -0.0449004 0.0741535 -0.0279175 -0.0386611 0.0170274 0.0221879 0.0846865 -0.0516707 0.0364305 -0.0877925 0.0292519 0.0538321 -0.0878799 -0.0895725 -0.0896635 -0.00937704 0.048222 -0.0994977 -0.0284475 -0.0970539 0.00936238 0.069604 -0.063838 0.0519193 -0.0328202 0.0418695 -0.0481395 0.0894686 -0.0821299 0.0765774 0.0988734 -0.0282232 -0.0881422 0.0968536 -0.070653 0.0172278 0.00446541 0.0955777 0.0629508 0.00508751 -0.0500556 -0.0461066 0.0901149 0.0534191 0.0286063 0.0868181 0.0289116 0.0645425 -0.0680897 0.0543094 -0.0536018 0.0226106 -0.0677301 0.0657293 0.0484761 -0.0814906 0.0588525 -0.0272504 -0.0517538 0.0308879 0.0382499 0.0689854 -0.0846266 0.0785098 0.0862314 -0.079467 -0.0429541 -0.0696376 0.0306102 -0.0495938 -0.0467416 0.0926914 -0.0863254 0.0983781 0.00294101 0.066392 0.0286634 0.0766872 0.053902 0.0964086 0.0364007 -0.0580859 -0.060914 -0.0591598 -0.0310555 0.0520233 -0.0388835 0.0921499 -0.0476101 0.0527827 -0.0325868 0.0309979 -0.0328713 -0.0698943 0.0233735 0.0118913 0.0154101 0.0581411 0.0368962 0.0399684 -0.0482749 0.0336412 0.0731205 -0.0191269 -0.0041337 0.0628178 -0.0865517 -0.0185538 -0.077503 0.0400369 0.00341744 0.0453344 -0.031652 0.0866222 -0.0238031 -0.079915 0.0890072 0.0205126 -0.0284977 -0.00205576 -0.0484918 0.0105541 0.0139966 0.000424936 0.0578676 0.0911325 0.0367098 0.00944579 0.0285804 -0.0354026 -0.0179654 -0.0787547 0.043118 -0.0224438 -0.0595578 -0.0860036 -0.0398867 0.0159125 -0.0703064 0.0398423 -0.0506692 -0.0786708 0.0698032 0.0250398 0.0480528 -0.0622642 -0.0853218 -0.0970831 -0.000683658 0.0990745 0.0389102 0.0751942 0.0571921 -0.0347983 -0.0840308 0.0934247 0.0245504 0.073488 -0.0165366 0.0765898 0.0478886 0.00540167 0.000669066 -0.0325843 -0.0709688 0.0446857 0.0200441 0.00125232 0.0413561 -0.0171102 0.0109956 -0.0953548 -0.0464848 0.00884725 -0.0739677 -0.0410484 0.0728489 0.0328629 0.0641587 0.0605815 -0.0219078 -0.0816839 -0.0632974 0.048313 0.0112713 0.0685858 -0.00521834 -0.0549593 0.0335271 0.0497225 -0.0476672 0.0316016 0.0888688 0.0555702 0.0681427 0.0823612 0.0220881 0.0585785 0.0273901 -0.0201279 0.0129904 0.0898027 0.0444877 0.0415092 0.0363602 0.0810545 -0.0941978 0.0121939 0.0536423 -0.00586118 0.050303 -0.0580065 -0.0282261 -0.0163791 -0.0677793 0.0379236 0.0743618 0.03099 -0.0302409 0.00412705 -0.0876934 -0.0882666 0.0914366 0.0175756 -0.0558207 -0.025911 0.0820342 0.0762279 -0.0324623 -0.026436 -0.04686 0.0976672 0.0999496 0.0754909 -0.0682329 0.0882277 0.0713684 -0.0096662 -0.0699193 -0.0746657 0.0313803 -0.0764554 0.00379924 -0.0550874 -0.000623195 0.0274927 0.0177643 0.015248 -0.0592257 -0.0817603 0.0761734 0.0715484 0.0851115 0.0493302 0.0240631 -0.0537829 0.0980369 -0.00972576 0.0606836 -0.0903986 0.0534578 -0.0663642 0.0815366 0.0164765 -0.0343715 -0.0180849 -0.0112327 0.0849511 -0.0244558 -0.0333878 -0.0875257 -0.0716658 0.0548593 -0.0348487 0.0914601 -0.0748082 0.012778 -0.0864825 0.0737972 -0.0933295 0.0732229 -0.063218 0.0242136 0.0712149 -0.0260562 -0.0559375 -0.0524632 -0.0809834 -0.0433959 0.0236642 0.0292353 0.0808186 -0.0749364 -0.00604126 0.0753625 0.0830148 -0.080934 0.0308998 -0.0455671 0.0212651 -0.0123064 0.071774 -0.0296616 0.0298495 -0.0722523 -0.0657857 0.0766967 0.033808 0.0184782 -0.0747333 0.018945 0.0440759 -0.082797 0.0104295 -0.066706 0.0738213 0.0472798 -0.031468 0.0409076 -0.0463307 0.0196609 0.0630256 0.0812697 -0.0342771 0.00757515 -0.0450017 -0.0501352 0.0597307 0.0726589 0.050743 -0.0260328 0.0712288 -0.0474075 0.00868453 0.0261795 0.0132861 0.0573765 0.050056 -0.0993411 0.05856 0.0335717 -0.000573022 0.0632106 0.087914 0.0740288 0.00183678 -0.0837516 0.0529246 -0.0986543 0.0920423 -0.0215933 0.0166122 0.0440255 0.0926939 0.0421966 -0.0784784 0.0451897 -0.0536619 -0.00138723 0.0662419 0.0850496 0.0432055 -0.0331752 -0.0738177 0.0650997 -0.0649321 0.0727626 0.0651128 -0.099495 0.0908986 0.0269163 -0.0544845 0.0563403 -0.0980773 -0.0672523 0.0723966 0.0113231 -0.0523492 0.0107396 -0.0897397 0.0120178 0.0672075 -0.0190364 -0.020313 -0.0464576 -0.0440561 0.0906041 -0.0988005 -0.0715312 -0.0320421 -0.0954835 0.00674086 -0.0285285 -0.0908232 0.084154 0.0673884 0.0342997 0.0640387 -0.0798647 0.00528328 0.0394648 -0.0781684 -0.0325809 -0.0619603 0.000126103 -0.0908378 -0.0173954 0.0917792 -0.0782831 0.0241692 0.0201339 0.00773493 -0.0294209 -0.0497009 0.0772852 -0.0842376 0.0914626 -0.0577771 0.00208368 -0.0679953 -0.00204616 -0.0162083 -0.0624541 -0.0891869 0.00743478 -0.0122433 -0.0673594 0.024412 0.0196778 -0.0462645 0.0869029 0.0485924 0.0239438 0.081901 -0.0575292 0.0579754 0.0146682 -0.0545001 0.00494629 -0.0261953 -0.0750558 0.00249036 -0.0968988 0.033142 0.0456149 0.0551244 -0.040973 -0.0576647 0.0644381 0.0724599 0.0981364 -0.00863731 0.0603275 0.0792637 0.0764785 -0.00942867 0.0731389 0.0415186 -0.0571183 -0.0393564 0.0655765 0.0973808 -0.0529977 -0.0745401 0.0848419 -0.0907284 0.00400513 0.0855651 0.0257577 0.01172 0.0321422 0.00351511 -0.00738207 0.0166377 0.0240976 -0.0360076 0.00316504 
0.0982921 -0.0710304 0.0594663 0.0688089 -0.0822357 -0.0370625 -0.000643664 0.046607 0.00930079 0.0259632 -0.0467524 0.0718825 0.0627346 -0.0352786 -0.0656327 -0.0339628 -0.0697374 -0.0949244 -0.0353039 -0.0877651 0.084065 0.0358781 0.0729624 0.0394624 -0.0149891 -0.0867944 0.0466434 -0.0517139 0.0754317 0.0279694 -0.0938458 -0.0475424 -0.0788769 0.0133675 -0.0564275 0.0449712 -0.0270135 0.0749288 -0.0719659 -0.0217683 -0.059477 0.023684 -0.0211985 -0.0931052 -0.0854374 -0.0640433 -0.0597723 0.00443877 0.0587927 0.016091 0.0541226 -0.042669 -0.0851346 -0.0589202 -0.042286 -0.0545052 0.0589449 0.0582913 -0.0211296 0.03285 0.0619322 -0.0207687 -0.0489105 -0.0287682 0.00884919 -0.0699593 -0.0542865 0.0753288 -0.0483121 0.0883831 0.0815424 0.0343377 0.00436327 0.0718497 0.0365333 0.0583965 -0.000621126 -0.0240265 0.0458201 0.0212783 -0.00219291 0.0912891 -0.0461733 0.0149076 -0.0218798 0.00149038 -0.00175103 -0.00981203 -0.0138668 0.016504 -0.09345 -0.0981618 0.0708589 0.0611578 0.0536341 -0.0491572 -0.0779468 0.0500123 0.0673266 -0.02892 0.0956602 0.0268763 0.0189992 0.0462426 0.0536381 -0.0796021 0.00313625 0.0514996 0.0608118 0.0552921 0.0163126 0.0250793 0.010163 0.0495384 -0.0582044 0.0196992 -0.0967934 0.0370094 -0.0108409 0.0991916 0.0786255 -0.073089 -0.0331602 0.0399602 -0.0284959 0.0154096 -0.0765791 0.065647 0.0482273 -0.0792856 0.0641081 -0.0214254 0.023445 0.0251287 -0.0671294 0.00298973 0.0632402 -0.0956717 0.0798037 -0.0964379 0.0789153 0.0214037 -0.0210696 -0.0682777 0.0711427 -0.0658174 -0.0690574 0.0389221 0.0315068 -0.00294228 -0.0990444 0.0764956 0.0330996 -0.0590922 0.037291 -0.0888063 -0.083997 -0.0235437 -0.0826647 0.0471622 -0.0519774 -0.0549633 -0.0541513 -0.0266337 0.055069 0.068537 0.0920768 -0.0187324 -0.00956507 0.0962863 0.0675639 0.0139717 0.0876002 -0.036009 -0.0254984 -0.0425523 0.0406478 0.0803319 -0.010958 -0.0434785 -0.0816849 -0.0397228 -0.0763188 0.0344491 0.0508581 -0.0418086 -0.0876109 -0.0943533 -0.0976043 0.0456858 -0.0154085 -0.0329956 -0.0371789 0.0368447 0.0479776 -0.0534959 0.0280266 -0.0290815 -0.0408555 -0.0793395 0.0483498 0.0385546 -0.0721357 -0.0452544 0.0843831 0.0362993 0.0203568 0.0995847 0.0424179 -0.0908535 -0.0519101 0.0886858 -0.0838749 -0.0674225 -0.0670196 0.0921551 0.0853557 0.0711912 0.0256586 0.0239994 -0.0193868 -0.0321351 0.05262 -0.0712906 -0.0640449 -0.02025 0.063719 -0.0720852 -0.0432405 0.0781879 -0.0677379 0.0894481 0.0170948 0.0581256 0.0744284 0.0169694 -0.0358175 0.0295679 -0.0505294 -0.0921112 0.00132143 -0.0148045 0.0218409 -0.0455427 -0.0944635 0.0876805 -0.0542575 0.0183059 -0.0511446 -0.0192477 0.00721647 -0.0237144 0.0202311 -0.0135829 -0.00506885 0.0562711 0.0654911 -0.0996164 0.0991113 -0.0580172 0.0281653 -0.0908335 -0.0295612 0.0419185 -0.0738469 -0.0146464 0.0849881 0.0601481 -0.0654275 0.0463411 0.067944 0.0413313 -0.0368772 0.0413553 -0.0472284 0.00239267 0.0586065 -0.0417681 -0.0970487 0.053107 0.053711 0.0934532 0.0661084 -0.0217816 -0.00356105 -0.0959719 -0.038529 -0.0935568 -0.0592245 -0.0795535 0.0494328 -0.0487556 -0.0831026 0.0246004 0.0803635 -0.0654178 -0.0993094 0.0963328 -0.0852072 0.0807852 0.0981885 -0.045074 -0.0967213 -0.0477553 0.0461364 -0.0191064 -0.0647999 -0.0982726 0.0572916 0.0760874 -0.0588929 -0.0854332 -0.0335329 0.0358083 0.0930978 -0.0351495 0.097813 0.0447967 -0.0841056 0.0835729 0.0724159 -0.0670764 -0.00702278 -0.093265 0.0892893 -0.0835797 -0.0809251 0.0630708 0.0448231 0.0129386 0.0252377 0.0225588 0.0319816 0.0661494 -0.0202173 -0.0304101 0.0262598 -0.00028745 0.0383412 0.028882 0.0854306 0.0490246 0.0919461 -0.00642117 -0.0796455 -0.0379735 -0.00162401 -0.0238196 -0.0527736 0.0649934 0.0936073 0.0770701 -0.0271077 -0.0663951 0.0150165 0.0333107 -0.0177512 -0.0141578 -0.0347506 0.0251791 0.0728687 -0.0886074 0.0923488 0.0358698 0.0879052 0.0226969 -0.0965947 -0.0419742 0.0451168 0.0424126 0.0549939 0.0562646 -0.0184788 0.0192708 0.0543607 -0.0271263 0.046424 -0.00388422 0.0430572 0.0322476 0.0892012 0.0372006 -0.089924 0.0567847 0.0064936 -0.0434367 -0.0112766 0.0137273 -0.0287778 0.022047 0.0744534 -0.0542834 -0.0734073 -0.0720684 0.0704384 0.0504343 0.0907182 0.0201932 0.0424827 0.0235852 0.0548906 -0.0553565 0.0182339 -0.0816921 -0.0329669 0.0230125 -0.000110507 -0.0789889 -0.0125289 -0.0752073 -0.0359273 -0.035935 0.0906425 0.0134286 0.0886878 -0.0280023 0.0806308 -0.0473637 0.0642077 -0.0395068 -0.00273569 -0.0179899 0.069676 -0.0715582 0.0811529 0.0702895 0.0011275 0.0656474 0.0587791 -0.0335198 0.010699 0.0414854 0.00151661 -0.0814643 -0.0898595 -0.00730206 -0.0947059 0.0446148 -0.0249919 -0.0302432 0.0226826 0.0337734 0.0490834 0.0963814 0.0559573 -0.0576012 -0.00985606 -0.0970912 0.0400176 0.0513268 -0.0415611 -0.0471777 0.0732914 0.097224 -0.0926514 0.0903359 -0.0443655 -0.0649309 -0.0253942 -0.0110687 0.040128 0.0438219 0.0906021 0.0943395 -0.0738938 -0.0751097 0.0194189 -0.0016673 -0.0346316 -0.0679628 -0.0865247 0.0177013 0.00520719 0.0425875 -0.0834 0.0171501 -0.0374247 -0.0467412 -0.0900451 0.0231199 0.0617748 0.0492853 -0.00738278 0.0614763 -0.0232546 0.0619348 -0.0944558 0.0774313 0.00328507 0.0165051 0.0892903 -0.070825 0.00358069 -0.0969154 0.0767603 -0.0995212 -0.0764134 -0.0230442 0.0746258 -0.0466532 -0.0319556 -0.0618356 0.0264033 -0.0967143 -0.0172131 -0.0667602 0.0906458 0.0179638 0.010831 0.0875622 0.0086999 0.0887413 -0.0864505 -0.0317545 0.0764868 -0.0702605 -0.0581504 -0.0684799 0.0335901 -0.0408061 -0.0687511 -0.0256176 -0.0869492 0.0398622 0.0877341 0.0734143 0.019116 0.00867636 -0.0543036 0.0606014 -0.00480518 -0.0171614 -0.0220726 0.0516515 -0.0720941 -0.0556597 0.0798162 0.0455305 -0.0101804 0.0637062 -0.0189459 -0.0605584 -0.0930939 0.00191347 -0.0557987 0.0462174 -0.0474148 -0.0994445 -0.0925788 -0.0308805 0.0264488 0.00328722 0.0413737 0.0484613 0.0575241 0.0334444 0.0355247 0.081631 0.099786 -0.098917 0.0126898 0.0890331 -0.0301452 0.0959805 -0.00171708 -0.0196662 0.096748 -0.0276251 0.0716387 0.0643356 -0.0337598 0.0871536 -0.0803327 0.013156 -0.0112614 -0.0501556 -0.0694638 -0.068367 -0.0479121 0.0604939 0.0467019 0.0138471 0.00709891 0.0571426 0.0851005 -0.065906 0.0168819 0.0591349 -0.094615 0.0401538 -0.0565245 0.0758824 -0.0513906 -0.0851391 -0.000549087 0.0548925 -0.0664971 -0.00464746 0.00504982 -0.0062699 -0.0626367 -0.0898593 0.0116921 -0.0257537 -0.0180905 -0.0194827 0.0814066 -0.0105142 -0.0518703 -0.0217859 -0.027261 -0.028285 -0.0928382 0.0254233 0.00575539 0.0328849 -0.0242032 -0.0518848 0.0230106 -0.034558 0.0679036 -0.0975464 -0.00831354 -0.0111366 -0.0520429 -0.00273929 0.025694 -0.0693231 0.078838 -0.00811469 -0.0299387 0.029226 0.0945145 0.0351337 -0.0796958 -0.0552013 0.0997939 0.0421655 0.0893056 -0.0987171 0.0628115 0.0154129 -0.0589476 -0.0420782 -0.0311545 -0.015047 -0.0103274 0.00228167 0.0118011 -0.0602316 -0.0140438 0.0931786 -0.0678157 0.0261301 -0.0780189 -0.0119672 0.0173946 -0.0435707 0.0412618 -0.0941576 0.0907906 -0.076686 0.0756869 -0.075698 -0.0304593 0.0555182 0.0184658 0.0851911 0.0474978 0.0137835 -0.0699233 -0.0482332 -0.0175004 -0.0260647 -0.0418379 0.00207648 -0.0237856 -0.0284233 -0.0587802 -0.00834319 -0.0688586 -0.00233471 0.00669359 0.0993985 -0.0444227 0.0615559 -0.0104344 -0.0806154 0.0475547 0.0753298 0.0594513 -0.0623056 -0.0377076 0.00137018 0.000699602 0.0748677 -0.0340651 -0.0795621 0.0375982 0.0252684 0.0924608 0.0095705 0.0249568 0.089786 -0.0693285 0.00691812 -0.0315657 -0.0722184 0.00476345 0.0290753 0.0567034 -0.0238089 0.0627764 -0.0590592 0.0090881 -0.0921048 0.0170666 -0.0252318 -0.0738523 -0.00106517 -0.0585703 0.0809426 -0.0386458 -0.0805566 -0.032361 -0.0477708 0.0770433 0.029489 0.0465187 0.0851342 0.0875573 0.00908091 -0.0249312 -0.0282545 0.0520167 0.0729949 -0.0977831 0.0223112 -0.000210361 -0.075726 0.0805008 -0.00486884 0.0858028 0.0101064 -0.0394131 0.0738519 0.0395315 0.0387327 -0.0989272 0.0334825 0.00356865 -0.0339755 0.0335447 0.00630701 -0.0884995 -0.085174 -0.0427619 0.0608024 0.0929199 -0.0656003 0.0845315 0.0853467 0.0847766 0.0097272 -0.0225337 0.0236971 -0.0440553 -0.0128453 -0.0714459 -0.0960283 0.0740994 0.0357608 -0.0101429 -0.0059009 0.0612422 -0.089985 -0.0346725 0.0466233 0.0270689 0.0460885 0.00673118 -0.0561265 -0.0601963 0.0953339 -0.04055 0.0407221 -0.0341273 0.074811 0.0927136 0.02055 0.032897 0.0115341 0.0213265 0.0775936 -0.0192837 0.0138219 0.0640616 0.0706884 -0.0091554 0.0725123 0.0490652 0.028844 0.0552701 -0.0280514 -0.0980585 -0.0103277 0.0426218 0.049802 -0.0876206 -0.0625089 0.0866194 -0.0663852 0.00468945 -0.0631473 0.0558815 0.0969507 0.0654864 0.0328154 0.0801881 0.0863207 0.0594653 0.0507716 0.0541218 0.0314179 0.0085541 -0.0838942 -0.0167017 0.0344176 0.0690458 -0.000785442 -0.0286683 0.0646476 -0.046607 -0.0183171 0.0631837 0.0341727 -0.0808839 0.0616839 -0.0587842 0.0501645 -0.0621317 0.02705 0.0516797 -0.0880068 -0.0120905 -0.075008 -0.0457983 0.0488029 -0.0560112 0.0574116 -0.0153279 -0.0964818 0.0540581 -0.0916598 -0.0663848 -0.0067047 -0.0178208 -0.0692408 -0.013193 0.0754311 0.0377179 0.0222061 -0.0884248 -0.083336 0.0216526 -0.0571429 0.0773887 0.0942188 0.00616792 -0.0407349 -0.0786006 -0.00185736 -0.0939992 0.00542266 -0.0492222 0.039557 -0.0420344 0.0145397 -0.0809798 -0.0585099 0.0973326 0.094111 0.0855612 0.0180213 0.0594706 0.0566808 0.0394388 -0.0226859 0.00484058 -0.0272912 0.0196149 -0.086241 0.0372119 -0.0799488 -0.0470796 0.0458778 -0.0148537 -0.0109816 0.0281791 -0.0744821 -0.0102156 0.0876084 -0.0667798 0.0761029 -0.00141869 0.0472087 0.04161 0.0818844 0.0321634 -0.0636373 -0.0878743 -0.000321315 0.00946044 0.0113215 0.0515086 0.0541478 0.0206507 0.0120151 -0.0613145 0.0732664 -0.0958545 0.0623294 0.0301496 0.0236982 -0.092301 0.0206466 0.0840544 0.0696231 -0.0584932 -0.0985809 -0.0638396 0.0560196 0.011146 0.0808021 0.00567379 -0.0120705 0.0535581 -0.00459013 0.0532896 -0.0166252 0.0379197 0.0754007 0.0167927 -0.0269384 -0.0320175 0.0593325 0.0124417 -0.0641652 0.051503 0.0876659 0.0217829 -0.0419158 0.0845376 0.0561264 -0.0933365 -0.0439373 0.0240321 -0.0574952 -0.0184003 0.0872345 -0.0724463 0.0506003 -0.0728761 -0.0812099 -0.00564964 -0.0154718 0.0309522 -0.0105316 -0.0529457 0.0197218 -0.0621445 0.017795 -0.0356374 0.0249161 0.0740332 0.0926375 0.0796665 0.0817529 -0.0363667 0.0887997 -0.0262624 -0.02891 0.0520774 -0.038869 0.0106345 0.0913726 -0.0559087 -0.0526903 -0.0929505 0.0583679 -0.0482834 -0.0331603 -0.0156903 -0.0526653 -0.0925695 0.0772494 0.0873235 0.0572131 0.0838513 -0.0752542 0.093668 -0.0659836 -0.0861763 -0.0168289 -0.0119581 0.0125444 -0.0799704 0.0879885 0.0845056 -0.00545538 0.00195258 0.0536185 0.0839763 -0.0613942 -0.0141808 -0.0778631 -0.0176966 -0.040189 0.0276401 0.0179231 -0.0572896 0.0578578 -0.017995 0.0419599 -0.0406921 0.0387723 0.0756113 -0.0545779 0.0206162 0.0544548 0.0335799 0.00227704 -0.0642081 -0.0806958 -0.0783794 0.0797304 -0.084422 0.0873343 0.0123149 0.042958 -0.0619045 0.0831635 -0.0052994 0.00566483 -0.051541 0.0757619 0.0272387 0.0795143 0.0707587 0.0864261 -0.0938208 0.0775113 -0.0060363 0.0587504 0.0658545 0.0999379 0.054373 -0.0448846 0.0952816 0.0404362 -0.0980364 0.0963697 0.0878077 -0.0499552 -0.0930962 -0.00437277 0.0429067 0.0860811 -0.056563 0.0923618 -0.0473471 0.0924937 -0.0689922 -0.00714665 -0.0182229 -0.0744449 -0.0249661 0.0862318 0.0385563 -0.0445743 -0.0473278 -0.0566647 -0.0825907 -0.0117575 0.0447215 0.0884431 -0.0966736 -0.0663306 -0.0988134 0.071908 -0.0583093 -0.020947 -0.0403276 0.0565374 -0.0568891 -0.0189187 -0.0878936 -0.0307439 -0.0250595 -0.00916905 -0.0304835 -0.0324098 0.0715765 0.00259681 0.0603208 -0.0204154 -0.0770489 -0.0598571 -0.083318 0.0744447 -0.0389744 -0.081865 0.00568615 -0.023591 -0.089834 0.0969637 0.0880005 -0.0489311 0.0230119 0.000140604 -0.0818285 0.0692814 -0.00138698 0.0561489 0.0695982 -0.0737656 0.0436046 -0.0417472 0.0714594 0.0636185 0.0864453 0.0217181 0.0225649 0.0604104 -0.0671579 0.0120612 -0.0524045 0.079099 0.0131766 0.0955726 -0.0457309 0.0661971 0.0100888 0.0913278 0.0988349 0.0920929 0.0397287 -0.0736934 0.0209401 -0.0355644 -0.0174231 -0.0357654 0.0404277 -0.0212457 -0.0571411 0.0753772 0.00662575 -0.086004 0.000196518 0.0705497 -0.015085 0.0819418 0.0481026 -0.049021 -0.0437945 0.0425246 0.0392164 0.0157997 0.0880269 -0.0366856 0.0539936 0.0285307 0.0392502 0.0426998 0.050258 0.0761236 -0.0509311 0.0519753 -0.049958 -0.0473397 0.0489071 0.0553386 0.0799036 -0.0570455 0.038042 -0.0626476 0.0775975 -0.0303603 -0.0259482 0.0328137 0.0976818 -0.0232434 -0.0579847 -0.0554847 0.0864738 0.0649383 -0.0920608 -0.0997089 -0.0487454 0.0207858 0.0763578 0.0501028 0.0576354 -0.0804355 0.076253 -0.0527186 0.0459972 0.0434705 -0.0540351 0.0470604 -0.0267538 0.096608 -0.00159516 0.0418056 0.0767449 -0.03409 -0.0632537 0.0406497 0.0107819 0.0459773 0.0972917 -0.00112145 0.0494562 0.012615 -0.0784753 -0.0330092 0.0905465 0.0210038 -0.0756916 0.0801064 0.0479491 -0.0593628 0.060998 -0.0118122 -0.045713 0.0985105 0.0858603 0.0423406 0.0734848 0.0180251 0.0180385 -0.0211717 -0.0469285 0.0916928 -0.0471167 0.00301491 -0.0489471 0.0835373 0.0917028 -0.0808905 -0.0536544 0.0511509 -0.00663171 0.0647847 -0.0974932 0.0492468 0.0518181 -0.02379 0.016007 0.0149769 0.0251853 -0.0861984 -0.0449062 0.0674417 -0.0605432 -0.0628328 -0.00534005 -0.0448952 0.0893092 0.00483075 -0.0141045 0.0334789 -0.0246502 0.0829383 0.0970212 -0.034224 -0.00127813 0.00512238 0.0510556 0.0762576 -0.0851728 0.0967659 0.0850269 -0.0808502 -0.0232311 -0.0271392 -0.0668742 0.0343417 -0.0140436 0.0494353 0.057554 -0.0449542 0.0731951 -0.0350459 0.0314396 -0.0491822 0.094692 -0.0912518 -0.0837092 -0.0238463 -0.0276175 -0.00784687 0.00585799 0.0105789 -0.0713793 0.0698885 -0.081498 0.0932677 0.0691367 0.0419274 -0.00166562 0.0674218 -0.0320449 -0.0436044 0.0211528 0.0566586 -0.00806483 -0.000868633 -0.0143292 -0.0163334 -0.0100775 -0.0638954 -0.0314343 0.012977 -0.055687 -0.0935016 -0.0212118 0.0762231 -0.0318118 0.0464127 -0.068332 -0.0728629 0.0358874 0.083165 0.0418119 0.00958497 0.0427178 0.048304 -0.0444669 -0.0578669 0.00493443 -0.0129376 0.0424499 0.0731144 0.0331792 -0.0179564 -0.00873185 -0.0778 0.0642425 -0.0847052 -0.0539203 0.063137 0.0292429 -0.0328312 -0.00960102 -0.0862484 -0.00582284 0.0702313 0.0455551 -0.0792896 
0 0 -0.018838 0 0 0 0 0 0 0 0 0 0 0 0 0 0 0 0 0 0 0 0 0 0 0 0 0 0 0 0 0 -0.0945556 0 0 0 0 0 0 0 0 0 0 0 0 0 0 0 0 0 0 0 0 0 0 0 0 0 0 0 0 0 -0.0957522 0 0 0 0 0 0 0 0 0 0 0 0 0 0 0 0 0 0 0 0 0 0 0 0 0 0 0 0 0 -0.0676871 0 0 0 0 0 0 0 0 0 0 0 0 0 0 0 0 0 0 0 0 0 0 0 0 0 0 0 0 0 0.0546912 0 0 0 0 0 0 0 0 0 0 0 0 0 0 0 0 0 0 0 0 0 0 0 0 0 0 0 0 0 0.0192247 0 0 0 0 0 0 0 0 0 0 0 0 0 0 0 0 0 0 0 0 0 0 0 0 0 0 0 0 0 0.0997546 0 0 0 0 0 0 0 0 0 0 0 0 0 0 0 0 0 0 0 0 0 0 0 0 0 0 0 0 0 -0.090204 0 0 0 0 0 0 0 0 0 0 0 0 0 0 0 0 0 0 0 0 0 0 0 0 0 0 0 0 0 -0.0472964 0 0 0 0 0 0 0 0 0 0 0 0 0 0 0 0 0 0 0 0 0 0 0 0 0 0 0 0 0 -0.0344694 0 0 0 0 0 0 0 0 0 0 0 0 0 0 0 0 0 0 0 0 0 0 0 0 0 0 0 0 0 0.0860536 0 0 0 0 0 0 0 0 0 0 0 0 0 0 0 0 0 0 0 0 0 0 0 0 0 0 0 0 0 -0.0281466 0 0 0 0 0 0 0 0 0 0 0 0 0 0 0 0 0 0 0 0 0 0 0 0 0 0 0 0 0 0.0998723 0 0 0 0 0 0 0 0 0 0 0 0 0 0 0 0 0 0 0 0 0 0 0 0 0 0 0 0 0 -0.0589006 0 0 0 0 0 0 0 0 0 0 0 0 0 0 0 0 0 0 0 0 0 0 0 0 0 0 0 0 0 0.0226712 0 0 0 0 0 0 0 0 0 0 0 0 0 0 0 0 0 0 0 0 0 0 0 0 0 0 0 0 0 -0.023974 0 0 0 0 0 0 0 0 0 0 0 0 0 0 0 0 0 0 0 0 0 0 0 0 0 0 0 0 0 0.0516784 0 0 0 0 0 0 0 0 0 0 0 0 0 0 0 0 0 0 0 0 0 0 0 0 0 0 0 0 0 0.0159388 0 0 0 0 0 0 0 0 0 0 0 0 0 0 0 0 0 0 0 0 0 0 0 0 0 0 0 0 0 -0.0565521 0 0 0 0 0 0 0 0 0 0 0 0 0 0 0 0 0 0 0 0 0 0 0 0 0 0 0 0 0 0.00833701 0 0 0 0 0 0 0 0 0 0 0 0 0 0 0 0 0 0 0 0 0 0 0 0 0 0 0 0 0 0.0996055 0 0 0 0 0 0 0 0 0 0 0 0 0 0 0 0 0 0 0 0 0 0 0 0 0 0 0 0 0 0.0564248 0 0 0 0 0 0 0 0 0 0 0 0 0 0 0 0 0 0 0 0 0 0 0 0 0 0 0 0 0 -0.0154399 0 0 0 0 0 0 0 0 0 0 0 0 0 0 0 0 0 0 0 0 0 0 0 0 0 0 0 0 0 -0.0732574 0 0 0 0 0 0 0 0 0 0 0 0 0 0 0 0 0 0 0 0 0 0 0 0 0 0 0 0 0 -0.0339902 0 0 0 0 0 0 0 0 0 0 0 0 0 0 0 0 0 0 0 0 0 0 0 0 0 0 0 0 0 0.0266932 0 0 0 0 0 0 0 0 0 0 0 0 0 0 0 0 0 0 0 0 0 0 0 0 0 0 0 0 0 0.0998569 0 0 0 0 0 0 0 0 0 0 0 0 0 0 0 0 0 0 0 0 0 0 0 0 0 0 0 0 0 -0.0117903 0 0 0 0 0 0 0 0 0 0 0 0 0 0 0 0 0 0 0 0 0 0 0 0 0 0 0 0 0 -0.0101698 0 0 0 0 0 0 0 0 0 0 0 0 0 0 0 0 0 0 0 0 0 0 0 0 0 0 0 0 0 -0.0863914 0 0 0 0 0 0 0 0 0 0 0 0 0 0 0 0 0 0 0 0 0 0 0 0 0 0 0 
