0.960774 0.761106 0.575005 0.416828 -0.617345 -0.808666 -0.338598 0.532949 -0.306993 0.587599 -0.224204 -0.123573 -0.790128 0.380228 0.160986 0.0280946 0.58334 -0.234125 0.120392 -0.743245 -0.301937 0.480871 0.449763 -0.369653 -0.0204208 -0.696991 -0.199798 0.4431 0.726398 0.68692 0.178308 -0.479692 -0.759237 0.0109617 0.599577 -0.96138 0.101572 0.952126 0.880921 0.430083 0.944345 0.944846 0.597639 0.661413 0.0992295 0.0672906 -0.29072 -0.290436 0.643146 0.191274 0.213705 0.111989 -0.661725 -0.568068 -0.70662 0.922182 0.620781 0.927124 0.171509 -0.615046 0.057837 0.161281 -0.309121 0.407847 -0.611632 0.663281 0.0371009 -0.339313 -0.462523 -0.540143 0.111959 0.855265 0.371498 -0.456462 0.368208 -0.419677 0.484195 -0.219583 0.538947 -0.0665636 -0.713321 0.739705 0.472072 -0.750662 0.71181 -0.372094 -0.956386 0.401578 0.458215 0.738561 -0.16313 -0.37951 0.792465 -0.773117 -0.454607 -0.89039 -0.801473 -0.680758 0.764617 0.225836 -0.113263 -0.813517 0.274355 -0.783327 0.346016 0.30409 0.360326 0.618844 -0.713721 0.825046 0.644201 -0.998361 0.244841 0.960569 -0.0469366 0.20604 -0.0405688 0.93555 -0.0923374 0.918737 1.01687 0.288947 0.692443 -0.602199 -0.466552 0.845842 -0.544621 0.496597 -0.549821 0.163767 -0.791482 0.2665 -0.593532 -0.948714 -0.317614 0.723194 0.0844942 0.526147 0.991544 -0.520447 -0.889459 -0.379875 -0.482401 -0.804828 0.744823 0.418811 0.15518 -0.832821 0.184679 0.156555 0.804977 0.501353 -0.494541 0.84489 0.0512185 0.759187 -0.211509 0.136821 -0.533763 0.674093 



-0.717985 -0.783888 0.707526 0.137865 0.547248 -0.638132 -0.318772 0.343264 0.0505698 -0.4245 0.0927916 -0.872122 -0.915355 0.410193 0.99368 0.188831 -0.507059 0.568669 0.581623 0.514661 -0.19254 -0.286595 0.443317 0.274301 -0.637474 0.49532 -0.639753 -0.553062 -0.316565 0.959637 0.186081 -0.0471901 -0.446589 0.879489 0.228014 0.263904 0.27068 0.524161 -0.966023 0.207882 0.16399 0.292974 -0.82332 0.314195 -0.899075 0.584534 0.566787 0.785613 -0.694142 0.00143412 -0.489554 -0.0083801 0.0602362 0.514744 0.328951 -0.724305 0.404943 -0.799533 -0.293466 0.128871 0.876529 0.488688 -0.943332 -0.506114 0.849801 0.455318 0.623199 -0.555108 0.857131 -0.322885 0.148468 0.679022 -0.478521 -0.864966 0.39415 -0.964527 0.977309 -0.286004 -0.201538 -0.603497 
-0.351737 -0.0783541 -0.881997 0.967999 0.342034 -0.342059 0.708563 -0.0980098 0.861254 -0.366017 -0.312494 -0.914089 0.64563 0.148959 -0.345467 0.834365 0.426379 -0.0791317 -0.96828 -0.401158 0.842945 0.443771 -0.1274 -0.596225 0.560497 -0.424932 -0.932808 -0.649348 0.280416 -0.213146 0.777341 -0.144212 -0.451742 0.198185 0.168119 0.0896416 0.0879516 0.0295272 -0.648698 0.653845 -0.296797 0.395613 -0.351249 -0.738196 -0.921194 -0.740314 -0.0333154 -0.979436 -0.968174 -0.319871 -0.511524 0.957067 -0.423794 -0.611879 0.659398 0.804031 0.197539 0.651228 -0.0580956 0.682093 -0.818721 0.133964 -0.171983 0.232531 0.678937 -0.506993 -0.179436 0.990079 -0.58306 -0.490705 0.708585 0.0991418 -0.626191 0.124805 -0.156672 0.727093 0.339573 -0.102653 0.276067 0.0322436 0.851821 -0.809607 0.920418 -0.282745 0.988218 -0.231187 0.922263 -0.543184 0.212771 -0.827258 0.716312 0.676966 0.884051 0.689798 -0.266468 -0.436327 -0.0789319 -0.794765 0.199088 0.100404 -0.183909 -0.56117 0.782468 0.347549 -0.0975988 -0.828201 0.831899 -0.179125 -0.689879 -0.460598 -0.758843 0.467763 -0.533039 -0.576267 -0.592982 0.178344 -0.691798 -0.605723 -0.622977 0.71057 0.0085104 -0.226533 -0.691604 0.888417 -0.940711 -0.353842 -0.522623 -0.175747 -0.68193 0.846754 -0.139753 0.802223 0.322597 0.0330106 -0.655669 -0.432103 0.990051 0.841936 -0.763045 0.79793 -0.0566512 -0.740138 0.311429 -0.813757 -0.091954 0.47747 -0.76101 -0.817449 -0.89871 0.0969751 -0.683257 0.096945 -0.983979 0.665146 0.591852 0.496659 -0.733704 0.337729 -0.254421 -0.969132 -0.673598 -0.595876 0.422219 -0.4298 0.967223 -0.681025 0.612843 -0.502059 -0.143921 -0.00180129 -0.664771 -0.182686 -0.621571 0.710717 -0.307591 -0.851638 0.765436 0.641279 -0.216159 0.919047 0.979208 -0.922687 0.0878796 -0.45604 0.86518 0.401053 -0.701966 -0.77093 -0.40051 -0.389415 -0.19444 0.415885 0.470754 0.140826 -0.491526 0.318945 -0.163768 0.163643 -0.386204 0.777822 -0.701241 -0.483205 -0.675458 -0.860526 -0.441582 -0.263964 -0.758762 -0.930341 0.710712 0.028821 -0.285489 -0.987804 -0.298635 -0.931772 -0.555751 0.256082 0.0694297 0.970671 -0.159633 0.884245 -0.264862 -0.581962 0.859781 -0.564571 0.446361 -0.963021 0.232952 0.118909 -0.460809 0.138892 -0.148258 -0.726677 0.882845 0.894487 0.547844 0.686818 0.627147 0.230509 0.540666 -0.675634 0.453402 0.0722263 -0.174809 -0.787042 -0.801237 0.204576 0.213413 0.0654917 -0.612272 0.557465 0.889068 -0.483266 0.334792 0.734376 -0.587441 0.012146 0.246133 -0.0886339 -0.792375 -0.361704 -0.172407 -0.0049994 0.729468 -0.953977 0.343475 -0.0761691 -0.724031 0.415502 0.220199 0.636166 0.455635 0.948687 -0.710656 0.547991 0.486339 0.044503 0.953114 -0.0351241 0.976087 0.571534 0.00983646 0.857526 -0.505555 0.395391 -0.819819 -0.482261 -0.182581 0.711354 0.921571 0.385927 0.892695 -0.293617 -0.104837 0.0455094 -0.573215 -0.43908 -0.222418 -0.112588 0.695207 -0.873327 -0.382495 -0.0950937 -0.91712 -0.726572 0.911203 -0.255472 0.221865 -0.494961 -0.985007 0.830783 -0.558274 -0.12848 0.419441 0.43017 -0.943535 -0.194716 0.880735 0.116758 0.578672 0.753909 -0.84411 0.526631 -0.817932 -0.366081 0.953809 -0.083783 -0.241023 -0.112922 0.422065 -0.0496078 -0.899562 0.90489 0.407748 -0.0366092 0.489759 0.682867 0.63035 -0.251747 0.727779 0.579451 -0.138189 0.0355431 -0.235313 -0.481691 0.719789 0.948182 0.97748 -0.659227 0.0442297 0.153885 -0.317475 -0.284951 -0.245635 0.313928 -0.0219861 0.743284 -0.567569 0.111244 -0.342576 0.903038 0.413039 0.228116 -0.648178 -0.604974 -0.167318 0.158385 -0.87037 0.824469 0.274806 -0.0204695 -0.16054 -0.382828 0.239682 0.142124 0.375949 -0.498095 -0.0710005 -0.458284 -0.0441219 -0.633925 -0.592955 0.856812 -0.234989 -0.18929 0.861784 -0.35638 -0.775849 0.392982 0.560972 -0.319604 -0.390479 -0.368788 0.00439282 -0.697643 -0.199732 -0.977483 0.696398 0.397306 0.0873308 -0.771042 0.686951 0.270565 0.722561 0.747214 -0.424793 0.350421 0.975804 0.840983 0.74604 -0.339267 -0.127775 0.545843 0.512335 -0.714808 0.568909 0.936869 0.279486 0.816411 -0.763077 0.082551 -0.0164202 0.311951 0.939692 0.0384386 -0.278087 -0.393688 0.865485 -0.27081 0.407975 0.391756 0.122121 0.481041 -0.949348 -0.565437 -0.641178 0.605551 0.903252 -0.186845 -0.0240214 -0.15876 0.341971 0.213583 0.452633 -0.64352 0.701023 0.491424 -0.890602 -0.137118 0.263049 -0.303568 -0.238829 -0.222885 -0.0464089 -0.524274 0.77495 0.251776 0.567219 -0.972261 0.54419 0.816374 0.944362 -0.980877 -0.923362 -0.541999 -0.241772 -0.329905 -0.416209 -0.793742 0.773419 -0.43814 -0.92572 0.83717 -0.764594 0.364581 0.412577 -0.897894 -0.962018 0.0144955 0.470579 -0.120983 -0.438493 -0.429913 0.565405 0.84766 0.189162 -0.140593 0.621054 0.933866 -0.862312 -0.757421 0.535892 0.378343 -0.983202 -0.904285 0.851675 -0.723145 -0.819225 -0.891065 -0.0163828 0.910265 -0.776581 0.801174 -0.215866 -0.112652 -0.680215 0.401847 -0.105755 0.976773 0.76723 -0.546185 0.171381 -0.294508 -0.158437 -0.462237 -0.835152 0.435094 0.798503 0.435288 -0.898174 0.699537 -0.360239 0.832072 -0.707352 0.312619 -0.577133 -0.460418 -0.164788 0.462037 0.679906 -0.201579 0.114804 0.0817355 -0.109321 -0.698011 0.664624 0.788545 0.556341 0.997187 -0.654143 -0.933832 -0.106155 0.53537 0.740866 0.822572 0.609261 -0.0739034 0.267332 0.623435 0.384748 0.158986 0.575936 -0.347579 -0.243855 0.276126 -0.103415 0.7704 0.338346 -0.388341 -0.588733 -0.0569337 0.0209929 0.853344 0.284705 -0.350873 0.0136414 0.914291 -0.35102 0.698094 -0.274914 -0.623662 0.559592 0.89192 -0.964673 0.366405 -0.92306 -0.0835996 0.355764 0.58408 0.541377 -0.837769 -0.98947 -0.0870324 0.612008 -0.801133 -0.4192 -0.720645 0.509888 0.47359 0.396854 0.946608 0.233266 0.413106 -0.112173 -0.879275 -0.311297 -0.00130967 0.808382 -0.647159 -0.917762 0.290284 0.114918 0.59108 0.418749 0.132365 0.838289 0.873049 0.535346 -0.417154 0.835782 -0.0323347 0.912231 -0.0620646 0.908717 -0.868958 0.21808 -0.646206 0.0971758 0.464699 -0.432303 0.451641 -0.61435 0.811705 0.697101 -0.500645 -0.481348 0.982647 0.173601 0.486661 0.240821 0.850669 0.117989 0.938758 -0.745332 0.42559 -0.714426 -0.876203 -0.202806 0.24367 -0.545332 0.781775 0.161241 -0.05301 0.883727 -0.268632 0.555232 -0.622128 -0.29174 -0.00261701 -0.737248 -0.365797 -0.91753 -0.00603394 0.828614 -0.789294 0.795666 0.00662522 0.910136 0.0943625 0.810556 -0.366134 -0.654514 0.92102 0.552571 0.519674 -0.891384 0.444749 0.24998 -0.202964 -0.12859 -0.600193 0.426605 0.770411 -0.305097 0.530794 -0.677825 -0.944027 0.462142 0.408853 0.654937 0.397734 -0.0995182 0.0145847 -0.768305 -0.467145 0.745009 0.469523 0.0268517 -0.593646 0.722469 -0.360909 -0.806205 0.974389 0.0292926 0.195019 -0.712354 -0.287933 -0.637611 0.494216 -0.364261 0.972788 -0.355604 0.258454 0.533027 0.751438 -0.899526 -0.612029 -0.0453631 -0.27643 -0.80611 -0.181982 0.633073 -0.160289 -0.341762 -0.184372 -0.780503 0.320865 0.864355 0.814984 0.491091 -0.0547793 0.249952 -0.508439 -0.566666 0.36406 -0.628856 0.618058 0.00486866 0.609698 -0.757864 -0.309866 -0.448679 0.13173 0.883106 0.160334 -0.586901 -0.35856 0.809242 0.827088 -0.938087 -0.91262 -0.641562 -0.543899 -0.0444449 -0.967617 -0.729909 -0.916879 0.561572 -0.558702 0.964391 -0.955441 0.936007 0.571831 0.0943793 -0.916172 0.101202 -0.656707 -0.881941 0.108025 -0.730349 0.272866 -0.610746 -0.803058 -0.624711 0.164702 -0.0807081 -0.250984 -0.673681 -0.997748 0.87245 -0.123662 -0.227396 0.545287 -0.0396558 -0.906187 -0.0439995 0.419725 -0.448424 -0.0963952 0.637644 -0.304221 -0.567133 -0.720542 -0.991328 -0.524771 -0.859001 0.714839 0.333101 -0.641392 0.312708 -0.635803 0.471164 0.706418 -0.733266 -0.374827 -0.593997 0.157175 0.805436 0.526912 -0.237038 0.667385 -0.705368 0.403839 -0.571363 -0.0918564 -0.0902885 -0.611185 0.775867 -0.267327 0.724721 -0.488459 0.070133 -0.253007 -0.42542 -0.844637 -0.618541 0.668067 0.782114 -0.954208 0.539344 0.610432 0.340175 0.69132 0.812485 0.76011 -0.424297 -0.47103 -0.330524 -0.943329 -0.447503 -0.869274 0.99727 -0.689125 -0.635344 0.0823625 -0.15533 0.726868 0.0215304 0.620419 0.0180021 0.708183 -0.486144 -0.213806 0.837173 0.792697 0.279288 -0.47223 0.393684 0.385565 -0.0251914 -0.585145 0.0628621 -0.798137 -0.369901 0.734914 -0.431537 0.0228989 0.477309 0.609202 -0.892295 0.626724 0.968869 0.796276 -0.353125 0.844867 -0.969799 -0.341176 -0.909458 0.110775 -0.978938 -0.402944 -0.933266 0.569102 0.405254 -0.551516 -0.816436 0.187964 0.844927 -0.870444 0.890071 -0.709132 -0.575273 -0.289202 0.161482 0.00187478 -0.288011 -0.971697 -0.145911 0.395935 0.258016 0.851147 0.187459 -0.391851 0.162207 -0.276088 -0.309085 0.988187 0.574475 -0.619086 0.246846 -0.196516 -0.940409 -0.751673 0.804948 0.122104 0.985866 0.74504 0.991925 -0.55085 -0.576517 -0.614741 -0.93178 0.773152 0.835836 -0.969573 -0.145513 0.34074 -0.00660059 0.371839 -0.107482 0.557456 0.565312 0.828566 0.139435 -0.930374 0.911586 0.100804 0.804171 0.586761 0.120656 0.769557 -0.07872 0.934452 0.182729 0.31757 0.105371 -0.641018 0.770301 0.620266 0.920258 -0.142723 -0.856341 0.750911 -0.939188 0.565058 0.697807 -0.485164 -0.585484 -0.951403 0.00164698 -0.445791 -0.61747 -0.620905 -0.862192 -0.0818016 -0.124902 -0.418644 -0.63773 -0.386181 -0.610159 -0.399299 -0.508835 -0.648495 0.665739 -0.0678677 0.348913 -0.560644 -0.505512 0.189736 -0.43843 0.535511 -0.167581 0.123143 -0.435448 -0.0823569 0.886033 -0.87173 0.836291 0.379503 0.727971 0.546982 -0.173853 0.939935 -0.602213 0.905679 0.595258 -0.643368 -0.394622 0.525291 -0.930341 0.598703 -0.379057 0.951632 0.784349 -0.413708 0.101763 -0.936939 -0.573717 -0.508174 -0.49611 -0.319291 0.948888 0.201963 0.512988 -0.332386 0.644121 0.377217 0.293445 0.890423 -0.552248 -0.587283 -0.277029 0.440568 -0.71465 0.288464 0.608558 0.87422 0.702744 -0.782795 -0.373652 -0.468545 0.606573 0.0744738 0.744882 0.519891 0.891545 0.340298 -0.651443 0.0545279 0.948774 -0.545082 0.666923 -0.605905 0.787467 0.814776 0.440779 -0.557498 0.0564607 0.798122 0.384343 -0.938654 -0.720692 0.777455 -0.658602 0.582613 -0.4208 -0.255075 0.181387 -0.119794 0.0110791 -0.782692 0.333997 -0.342577 -0.376703 0.602921 -0.606165 0.96754 0.644522 0.323011 -0.862537 0.483626 -0.324886 0.357485 0.135286 0.30994 0.217699 -0.593618 0.754814 -0.602846 -0.943825 -0.497017 -0.162552 -0.953982 -0.468097 -0.294334 -0.310126 -0.977865 -0.195227 0.67028 -0.812037 0.985044 -0.474858 -0.369187 0.443194 0.27353 -0.0684731 0.018556 0.239413 -0.628877 0.441776 -0.453409 0.0497273 -0.54286 0.221975 0.54094 0.488954 -0.477895 0.803831 0.0240243 0.050982 0.684446 -0.690227 -0.384951 0.755271 0.0409648 -0.0948022 0.57433 0.0117599 0.280105 -0.533187 0.654878 0.123926 -0.210921 0.830366 0.118195 0.807429 -0.247065 -0.551582 0.296598 -0.825831 -0.131328 -0.25265 0.727106 -0.8562 -0.889193 -0.0823482 -0.691256 -0.687999 0.129836 -0.181125 0.854493 0.269561 -0.509705 -0.25751 -0.489561 0.149498 0.363174 -0.775151 -0.978964 0.650373 0.582437 0.291019 0.384246 -0.640069 0.275163 -0.0674897 -0.754504 0.922888 -0.933712 0.228879 -0.0782694 0.321801 0.518021 -0.423453 0.645143 -0.441026 -0.750069 0.809396 -0.75346 -0.319058 -0.764485 0.48719 -0.475195 -0.931496 0.726414 -0.309993 0.662577 0.490131 0.192207 -0.859085 0.0361834 0.18849 0.926984 0.113592 -0.654589 -0.095726 0.117038 0.0076957 0.54786 -0.841501 0.133998 -0.742449 -0.351496 -0.480468 0.669871 -0.507139 0.338892 -0.99969 -0.679958 -0.877537 0.731862 0.759179 0.367819 -0.950076 0.282213 -0.664984 -0.418891 0.0547038 0.479676 -0.565497 -0.334015 
0.303174 0.211325 0.183276 0.610996 -0.364455 0.0707984 -0.978204 0.400442 -0.0786105 -0.685831 0.420641 0.904805 0.930682 0.862804 -0.979608 0.320605 0.669968 0.93795 -0.454285 -0.595934 0.0921934 0.648419 -0.76144 -0.635155 0.0540921 -0.128624 -0.102328 0.12073 0.23541 0.246425 0.88936 -0.0442279 -0.670364 -0.673994 0.332077 -0.157027 0.335291 0.370363 0.72738 0.970015 0.650087 0.693004 -0.692969 0.901582 0.906777 -0.132763 0.0398488 -0.0688568 -0.335094 -0.481928 0.788498 0.414786 0.0302882 -0.0318136 0.80699 -0.588057 -0.025407 -0.992935 0.779633 -0.20075 0.698229 0.791024 -0.875024 0.926444 -0.589441 0.680432 0.68618 0.946351 -0.985469 0.0254267 0.934175 -0.0918438 0.302581 -0.985233 -0.243808 -0.550755 0.75087 0.13263 -0.887999 0.555701 0.839101 0.993922 0.259253 0.873075 -0.426393 0.0738978 0.294039 0.679763 -0.322013 0.806147 0.0137443 0.33149 -0.655261 -0.95144 -0.983742 0.0376527 0.133156 -0.182422 0.851358 0.306516 -0.935817 -0.961821 0.202446 0.24759 -0.73637 -0.695746 0.648459 -0.881836 0.416646 0.991626 -0.905887 -0.227359 -0.979374 -0.961576 0.150694 0.634157 -0.0220458 -0.465096 -0.715781 -0.943438 0.920228 -0.623971 0.148362 -0.481412 -0.465325 0.506866 -0.311364 0.545133 0.541427 0.814748 0.893219 0.608225 -0.257743 -0.430698 0.523614 0.905294 -0.101215 0.217308 0.436011 0.970324 0.65681 -0.989828 -0.741405 -0.111279 -0.546735 -0.167233 0.245392 0.868144 -0.540892 -0.529393 0.476051 -0.19471 0.0584947 -0.429476 -0.635178 -0.949155 0.654656 0.896545 -0.533154 -0.26427 0.361302 0.815384 0.625469 -0.928143 0.627781 0.0997582 0.966525 0.42385 -0.958064 -0.775868 -0.775641 0.122951 -0.200354 -0.121939 -0.887942 -0.657991 0.121136 -0.0439364 0.67219 0.926092 0.33811 -0.25806 -0.829245 0.291132 0.754826 -0.568758 0.128324 0.860455 -0.872766 0.394644 0.623544 0.561473 -0.504499 -0.162819 0.305544 0.879319 0.656904 0.79492 0.259634 -0.0758518 0.539314 0.300259 0.0692752 0.534553 -0.143699 0.506584 0.161478 -0.972265 -0.0797772 0.0177238 0.491762 0.578062 0.413564 0.541905 -0.0825354 0.0624124 -0.563078 -0.638732 -0.89943 0.999453 -0.586656 0.277944 -0.714271 0.560366 -0.851159 -0.659532 -0.0485887 0.0696208 0.681144 -0.733021 -0.114087 0.0482869 0.0244984 -0.874305 -0.195792 -0.221548 0.466124 -0.891767 0.975269 -0.802482 0.22996 0.217291 0.690201 0.346366 0.482941 0.668608 0.149832 0.0186778 0.580506 0.486098 -0.105414 -0.529225 -0.0701581 0.495129 0.753787 0.570278 -0.172078 0.747364 -0.396539 -0.665356 -0.301829 -0.690058 -0.128104 0.389195 -0.286411 -0.148004 0.270255 -0.650455 0.162279 0.733601 0.241149 0.0976097 -0.353632 0.828576 0.462259 0.232199 0.582472 -0.315028 -0.0992241 0.23742 0.504968 0.703046 -0.00185203 0.811045 0.328003 -0.392961 -0.57434 -0.66201 0.613555 -0.460888 -0.167879 -0.615497 0.477661 -0.295775 0.510489 0.14566 0.494927 0.870685 0.894503 -0.51356 0.72072 -0.94704 0.993912 0.366133 -0.433888 -0.52576 0.387118 0.427306 -0.805593 -0.6579 0.446882 -0.884446 0.12067 0.274609 -0.989905 0.037414 0.407074 -0.519315 -0.536765 -0.0796755 0.683534 0.319643 0.881081 0.495407 -0.286126 0.136181 0.986656 -0.911781 -0.919872 0.605786 -0.9288 0.296677 -0.744391 0.489022 -0.958408 -0.134184 -0.862348 0.58961 -0.783439 0.259776 -0.165899 -0.350062 -0.476313 -0.469295 0.325687 -0.358283 -0.0327724 -0.0396869 0.799009 0.411304 0.444759 0.609732 -0.655823 0.13773 -0.911156 0.690963 -0.94702 0.558278 -0.0133337 0.249082 -0.879834 0.161463 -0.562436 0.380713 0.966854 0.11136 0.417136 -0.0700319 -0.0076529 -0.356458 -0.866626 0.271765 0.384786 -0.756763 -0.0163504 0.978492 -0.819786 -0.129069 0.587561 0.00191934 0.124222 0.782066 0.673578 -0.903398 -0.237219 -0.919718 0.414175 0.0488086 -0.189863 -0.910508 0.420257 -0.181274 -0.807419 0.202598 -0.336107 0.353345 -0.82523 0.814047 0.844733 -0.756869 0.915221 -0.564775 -0.332279 0.616837 0.038057 0.858937 -0.713836 -0.228896 0.452252 0.868311 -0.404614 0.228307 0.920535 -0.353725 -0.579176 -0.729201 0.86108 -0.320524 0.671357 0.81614 0.0142667 -0.0664815 -0.35592 0.954263 -0.629588 0.968476 0.950194 -0.547685 0.710303 0.427127 -0.0927726 -0.677112 -0.94291 -0.128411 -0.349487 -0.784345 -0.70878 0.929935 -0.331569 -0.614742 0.129029 0.540394 0.00498614 0.538452 0.268112 0.827097 0.2763 -0.00579704 -0.880054 -0.520401 0.410449 0.826016 0.242572 0.738569 0.393589 0.995168 0.0428769 -0.724123 -0.911872 0.559361 0.523294 0.293055 0.589591 0.0419141 0.575065 -0.991555 0.676756 0.842988 -0.0674783 0.445201 -0.472383 0.0486494 0.496129 0.705606 0.872427 -0.816476 0.49283 -0.363996 -0.0388378 0.506645 0.202032 -0.734799 0.0233169 -0.617211 0.555547 0.748286 -0.183866 -0.440857 -0.815295 -0.479874 0.669719 0.543473 -0.0089364 -0.374773 -0.564826 -0.947374 0.852313 -0.754867 -0.703346 0.229103 0.0381153 -0.234096 0.236974 -0.649058 0.945684 -0.779268 -0.759911 0.516161 0.726911 0.363485 -0.587999 -0.368294 -0.224158 0.118119 0.617763 0.495176 0.122133 0.11366 -0.249632 0.533284 -0.344609 0.304373 0.423272 -0.873994 -0.52948 -0.138604 -0.676486 -0.438475 -0.889489 -0.526188 0.186991 -0.92775 -0.488866 -0.398469 -0.490014 -0.850881 0.393482 0.490089 0.807509 0.293296 -0.64433 -0.524387 -0.462557 0.707432 -0.199042 -0.545853 -0.175483 -0.226458 0.842776 0.881424 -0.858427 -0.497353 -0.0261358 -0.977541 -0.272281 -0.231244 -0.45693 -0.646079 0.614963 0.292807 0.0842443 -0.591615 0.169672 -0.345811 0.639076 -0.666552 0.84295 -0.0257195 0.468716 0.693962 -0.525102 -0.419652 0.824228 0.648647 0.411828 -0.0498037 0.0660385 -0.906163 -0.657353 0.0335376 -0.16239 -0.165059 0.714243 0.861254 -0.303054 -0.544338 0.411064 -0.217909 -0.346654 -0.20238 -0.728644 -0.143418 0.369712 0.909666 -0.642271 -0.479468 0.979985 -0.895141 0.408268 -0.724444 -0.920614 -0.434591 -0.857345 -0.441349 0.197208 -0.01218 -0.429068 -0.363945 0.773678 0.939515 -0.820837 0.593845 0.0355761 0.5719 0.0714386 -0.860694 0.212949 0.195549 0.0766608 -0.253412 0.29979 0.47228 0.748535 0.375255 -0.161033 -0.217275 0.208732 0.824388 0.515481 0.798408 -0.936147 0.791196 0.552138 -0.495405 0.879161 0.834664 -0.755004 -0.908429 0.406122 -0.371594 0.568718 -0.613362 -0.567808 0.655647 0.371453 0.754553 -0.467059 0.974006 -0.537192 -0.707899 0.397563 -0.804082 0.392377 0.252291 -0.0653781 0.919248 0.178124 -0.0843666 0.603053 0.000987279 -0.234234 -0.80133 0.836465 -0.902219 -0.120895 -0.212348 -0.613259 0.650326 0.901032 -0.531661 -0.680329 0.54705 -0.657773 0.027962 -0.178477 -0.120909 -0.709581 -0.010983 -0.052013 -0.0881479 0.908663 -0.960546 0.150869 0.70695 0.134619 0.874424 -0.408743 0.591229 -0.789646 -0.576964 0.636842 -0.611529 -0.534759 -0.67118 0.10266 0.812542 -0.137295 0.493742 -0.832649 -0.926874 0.67295 0.533404 -0.659116 0.324825 0.573939 0.323993 -0.0303778 -0.130578 -0.0260462 0.68427 0.930661 -0.339191 -0.599279 0.179268 -0.863866 0.22332 0.435925 0.133279 0.230517 -0.916848 -0.335447 -0.194992 -0.642145 0.426735 -0.116192 0.625741 0.345908 0.0957811 -0.0841806 0.38992 -0.97871 -0.795195 -0.201323 -0.408584 -0.970047 0.496543 -0.0279425 0.344961 -0.556718 0.403396 0.266583 0.822551 0.609004 0.109647 -0.896757 -0.921345 0.587196 -0.848974 0.417153 -0.0140006 0.446475 -0.169265 0.180191 -0.108346 -0.605059 -0.358635 -0.254904 -0.660028 -0.723006 0.754498 0.108247 -0.676657 0.0083906 0.397117 -0.806311 0.566149 0.474029 -0.155598 0.360792 -0.55727 0.537597 0.316439 0.704667 0.52486 0.949933 -0.620991 -0.163315 -0.944446 0.547345 -0.145265 0.698188 -0.868239 0.163856 0.247351 0.5267 0.171938 -0.338656 0.040065 -0.893843 0.748164 -0.0185154 0.366182 0.254417 0.820007 -0.354259 -0.967707 -0.368411 0.44208 -0.911446 -0.942038 -0.468144 0.506148 0.0630793 0.241875 -0.677978 -0.882819 -0.504114 0.687563 -0.186302 -0.172996 -0.350403 0.294871 0.968864 0.407369 -0.541021 0.78164 -0.502335 0.754647 -0.677938 -0.381721 0.209592 0.384273 -0.0194551 0.152654 -0.239689 -0.133687 -0.489068 -0.317558 0.847606 -0.443373 0.359736 0.673542 -0.0514176 0.766648 -0.850076 -0.64988 -0.661724 -0.492446 -0.812684 -0.356799 -0.684853 -0.199088 0.265858 0.856281 0.20191 -0.750096 0.534693 -0.842058 -0.486588 0.167891 0.291468 -0.27682 0.236026 -0.738227 -0.596964 0.558751 -0.463042 -0.643309 0.568517 0.233241 -0.909321 -0.867262 0.558724 -0.587955 -0.7002 0.739896 -0.411302 0.681357 -0.0879298 -0.793344 0.933703 0.366814 0.440532 0.579445 0.492644 0.4488 0.522395 0.0233099 -0.593769 0.523772 -0.710528 0.612304 0.445894 -0.399082 0.277909 -0.110564 -0.365976 -0.0338503 -0.727224 -0.887201 0.40003 0.237401 -0.226276 -0.671019 -0.366394 0.81525 -0.665701 0.707972 -0.494888 0.546126 0.315583 0.0146942 -0.202837 0.0782032 0.380517 0.42048 0.31803 0.563346 -0.253017 0.427145 0.883991 0.458328 0.633188 -0.356266 -0.0142026 0.989871 0.620085 -0.152156 -0.000706129 -0.686681 0.787532 -0.777295 -0.401897 0.295546 0.5858 0.335174 0.941353 -0.865663 0.307026 0.462681 0.618321 -0.987764 -0.550866 0.467277 0.837455 0.320703 0.556489 0.558384 0.434801 0.48206 -0.287891 -0.372016 0.166708 -0.875424 -0.576571 -0.120645 -0.793074 -0.705359 -0.885768 0.637307 0.182872 0.781157 0.797284 -0.22311 0.353892 -0.388728 0.48637 -0.197914 -0.85252 0.453081 0.823063 -0.677414 0.770169 0.905452 -0.175278 -0.708227 -0.142313 -0.606327 -0.866389 0.493787 0.939559 0.305308 0.752925 -0.4975 0.184687 0.756673 0.673873 0.897293 -0.0623182 -0.369129 0.188529 -0.347814 0.804012 0.297167 -0.559404 -0.772807 0.308892 0.715036 -0.715256 -0.654624 0.0138118 -0.194282 -0.0778608 0.00464708 0.791076 0.100912 0.00420987 0.509697 -0.238487 -0.547428 0.818167 -0.633516 -0.0642311 -0.3415 0.741989 -0.560883 0.370955 0.980474 0.111295 0.86902 0.626633 -0.783373 0.857355 0.168621 -0.840593 -0.590928 0.235392 0.8141 0.985012 0.268828 -0.367934 0.343727 -0.206127 0.515837 0.853713 -0.641645 -0.310354 -0.624037 0.286159 -0.211423 -0.223708 -0.333837 -0.630845 0.372166 -0.312942 0.18361 0.855385 -0.587195 0.530877 0.628934 0.276985 -0.446202 0.81791 -0.184686 -0.495414 -0.754572 -0.535675 0.336991 -0.568301 0.509643 0.74329 -0.301385 -0.081469 -0.57596 0.359397 0.798639 0.546323 0.938806 0.675038 0.308535 0.832778 -0.0864671 -0.504818 0.0718024 -0.291699 0.661967 -0.427342 0.114601 -0.626307 -0.398805 -0.154661 -0.337642 -0.937393 -0.814112 -0.106139 0.0599607 -0.445716 0.583181 -0.256148 -0.184017 -0.510137 0.611008 0.980634 0.575171 -0.844101 0.151757 -0.341134 0.406243 0.22836 0.188302 0.179469 -0.818132 -0.438762 -0.269643 0.369771 0.538875 0.337481 0.404324 0.153231 -0.906847 0.850992 0.339578 -0.342998 -0.953319 -0.728535 -0.248919 -0.643472 -0.229836 0.657202 0.19492 0.970176 -0.914334 -0.0353726 -0.193031 0.60854 -0.210403 0.81797 -0.763582 0.413393 -0.816779 -0.600163 -0.772364 -0.135344 -0.790653 0.992602 0.062929 0.512289 -0.792275 -0.209489 -0.446918 -0.183701 0.854057 -0.112815 -0.650133 0.360887 0.752013 0.625803 0.364725 0.351922 -0.472634 0.235052 -0.723324 -0.667905 0.965944 -0.723139 -0.138949 0.983245 -0.699926 0.775608 0.307987 -0.753878 -0.808523 -0.219089 -0.367832 -0.142858 -0.997565 0.52407 -0.815779 -0.945163 -0.131826 0.731252 0.710645 0.0871058 -0.688417 0.698069 0.838412 -0.979592 0.691414 -0.280878 0.013501 0.719823 -0.171701 0.670835 -0.0784623 0.63884 -0.179636 0.808699 -0.575079 -0.191134 -0.325601 -0.925945 -0.347357 0.49108 -0.774513 0.123558 0.109153 -0.834598 0.151688 0.756692 -0.572204 -0.450837 0.64952 0.528898 0.435876 -0.0149462 0.603077 0.626783 0.119709 -0.18052 -0.0714785 -0.0354973 -0.948416 -0.969466 0.0517115 -0.375558 0.195402 0.952387 -0.957517 -0.856776 -0.74416 -0.234946 -0.223492 0.105393 0.380605 0.0606235 0.742815 -0.507204 0.692646 0.666407 -0.299607 -0.527585 -0.61081 -0.6054 1.02794 -0.390497 0.676271 0.733437 0.623989 0.780913 0.0810433 0.919191 0.803077 1.00769 -0.289813 0.272695 -0.54659 -0.727413 -0.460464 0.2349 0.264296 -0.886744 -0.341132 0.231083 0.339277 0.618618 0.167674 -0.371037 -0.682827 0.201391 0.114913 -0.396605 0.764785 -0.493237 0.710112 -0.388719 0.211221 0.904106 0.411984 -0.0924002 -0.991558 -0.874419 -0.117438 0.89563 -0.0839116 0.328735 -0.72693 0.147702 -0.15531 -0.430121 0.0493868 -0.306605 -0.670743 -0.102397 0.468115 0.755077 -0.325194 0.56647 0.278075 0.441365 0.848794 -0.789381 0.306217 0.672602 0.570133 -0.599453 0.314085 -0.725862 -0.356094 0.0245435 0.257712 0.800017 -0.16803 -0.449319 -0.684114 0.966538 -0.124844 0.605369 0.256359 0.0685372 0.171978 -0.396119 -0.644232 0.573702 -0.0568929 0.338774 0.689908 -0.944848 0.757797 -0.179887 0.891218 -0.955732 -0.772848 -0.0329673 -0.667397 0.0418365 -0.0274286 -0.625827 -0.120189 0.278252 -0.363865 0.751423 -0.576249 0.797002 -0.562409 -0.939 -0.614084 0.0979593 -0.814002 0.0311646 -0.765885 0.276822 -0.039004 0.930202 -0.254933 -0.404671 0.361941 0.25954 0.556672 -0.876902 0.701797 0.306514 -0.762016 -0.00996752 0.902073 -0.283566 -0.227794 -0.0271032 0.16798 0.751578 0.364284 0.856459 0.396067 0.223693 0.223066 -0.0655917 0.741025 -0.462096 0.714742 -0.729529 0.782047 

