-0.0315154 -0.562473 0.167672 -0.463505 -0.0148153 -0.726173 0.0202276 0.409403 -0.106885 -0.044753 -0.129549 -0.300495 -0.674712 0.557041 -0.319234 -0.185957 0.285045 -0.534489 -0.602916 0.22051 -0.167564 0.137391 0.0203759 0.0354321 0.881236 -0.436776 0.203082 0.174283 -0.251928 0.201721 0.123605 -0.383239 0.0693001 0.0174619 -0.250372 0.387451 -0.0140688 -0.556335 0.178253 -0.545617 0.459417 -1.21779 -0.630968 -0.779767 0.273763 -0.188122 -0.122201 0.0507591 -0.896042 0.405202 0.322185 -0.727635 -0.473802 -0.200353 -0.141561 -0.577682 -0.82229 0.150446 -0.359501 -0.0492057 -0.532216 0.814741 -0.692183 0.406075 0.185995 0.310224 -0.301646 0.165315 -0.0426734 -0.392807 0.0991268 0.368513 -0.532586 -1.09731 -0.411124 -0.1528 0.50234 -0.862267 -0.335526 -0.844323 0.0639877 -0.30273 -0.541399 -0.158453 0.107339 0.445249 -0.562476 -0.433111 0.194638 0.430513 0.249138 -0.145461 0.112536 -0.0274387 0.376924 -0.338147 -0.436738 0.445541 -0.377646 0.696026 -0.668188 0.345156 -0.699581 0.00871687 0.128351 0.659432 -0.0209974 -0.232342 0.286089 -0.198267 -0.143852 0.375017 -0.287316 -0.501488 0.0900182 0.68749 0.286885 0.383802 0.0493729 -0.673156 0.0246882 1.95983 0.256311 -0.434243 -0.0143305 0.264527 1.32241 1.16101 1.25358 0.27169 -0.0664477 0.971598 1.00995 -0.493444 -0.525658 0.290344 0.779375 0.331624 0.510208 -0.0599174 0.953244 0.211608 0.833021 0.96219 -0.99425 0.252471 1.34547 0.995963 -0.606722 -0.174146 1.47473 0.267237 1.00097 0.156466 1.26073 0.735484 0.363194 1.20317 -0.408533 1.81027 

0.163119 0.156284 0.360968 0.175081 0.116293 -0.378356 -0.281178 -0.739535 0.114787 -0.0157681 -0.031223 -0.307977 -0.657049 -0.1568 0.251604 0.00868001 -0.496228 -0.091356 -0.0937883 -0.0752596 0.0654371 -0.0275526 0.407121 -0.0403453 -0.330029 -0.185571 -0.141821 0.11653 0.303822 -0.0320195 -0.0785143 -0.0553217 0.0779074 0.000700046 0.198823 -0.319368 0.0126435 -0.0668026 -0.0559268 0.133341 -0.139879 0.336799 -0.0356475 -0.28542 -0.232448 -0.157301 0.0538975 -0.247931 0.27408 0.101886 -0.242731 0.0157455 0.0146819 -0.120097 0.197809 -0.14672 -0.069365 -0.214442 -0.166117 0.250826 -0.0469989 -0.415569 0.0681228 0.0335482 -0.189282 -0.0780337 0.275646 0.190449 -0.0909541 -0.0805755 0.318262 -0.135742 0.181642 -0.018069 0.28262 0.620909 -0.137209 0.239517 -0.246789 0.212935 
0.0300421 -0.0318974 0.0774352 0.00245396 0.0446056 0.0960166 0.0794493 -0.0172177 -0.087328 -0.0201267 0.0339857 -0.0216074 0.0554107 -0.0383348 -0.0858664 0.0507781 -0.029718 0.0382698 0.0420116 -0.0585724 -0.0470363 0.0994492 -0.0332037 0.116611 -0.0619522 0.0677444 -0.0216654 0.0216203 -0.0360118 -0.0863416 -0.0886899 -0.00930623 -0.0735321 0.0141116 -0.0771737 -0.132348 0.0682232 -0.0401055 0.0414726 -0.0325417 0.0363031 0.060171 -0.069785 -0.0745725 0.0908326 0.0188695 -0.130812 -0.101717 0.168869 0.0800003 0.0542819 0.050183 -0.00256763 -0.0322993 0.021754 -0.0515854 -0.137948 -0.032797 -0.0310975 -0.0142288 0.0246729 0.0336651 -0.0117823 0.0470391 0.0568794 -0.0554065 0.0325735 0.0619384 -0.00117871 -0.0761379 0.0477243 0.0603043 0.0625015 0.0989878 0.0448836 0.141803 0.0430238 0.108492 -0.035591 -0.064376 -0.00674025 -0.0485636 -0.0154493 0.0555569 0.0425729 -0.0170751 -0.0341511 -0.0589589 0.117623 0.0409116 -0.106136 0.0436822 0.0656299 -0.0665481 -0.0205126 0.0266462 -0.000881503 -0.119064 -0.0355214 -0.0565714 -0.0801762 -0.122285 -0.0250712 -0.110556 -0.0384613 -0.0193996 -0.0923731 0.0211177 0.0890643 -0.073596 -0.0807648 0.0565981 0.0604645 0.049167 0.0145747 -0.0510603 -0.000990817 0.052898 0.0149263 0.114692 0.0833681 -0.0604294 -0.0641778 -0.0997428 -0.0587492 0.0886198 -0.0453869 0.0333154 0.0530548 -0.0347955 -0.041339 0.0391162 -0.00349673 -0.074715 -0.0220261 -0.0784591 0.0967496 0.0843083 0.0410337 0.016692 0.00122067 0.0787595 0.0317053 -0.0282692 -0.0490026 -0.049988 0.0751145 0.0153724 -0.0924292 -0.0899302 -0.0926042 -0.0041164 -0.0787018 0.00498143 0.0509519 0.00709381 0.0621116 -0.0721789 -0.0194937 -0.0777641 0.0154805 -0.0332607 -0.0548494 -0.060913 0.0697725 0.0204383 -0.0888392 -0.0235612 0.0334416 0.0382754 -0.0978854 0.0883095 0.0968254 0.0198554 0.000611611 -0.0178633 -0.058251 -0.0248362 -0.020607 0.0703148 -0.0575943 -0.0517612 -0.0824324 0.0283597 0.0698179 0.000863793 0.0893721 0.0604349 0.0591984 -0.0795987 0.0917576 0.0739042 -0.0654789 0.0782324 0.0903842 0.0436232 -0.0447391 -0.0106269 -0.0419139 0.00150381 -0.0392377 0.0128333 0.0518739 0.0824356 -0.101788 -0.0765641 0.108501 -0.0104917 -0.0495735 -0.0175242 0.0494268 0.0182664 0.0143301 -0.0737712 0.0737756 -0.0925833 0.0955367 -0.0638655 0.0387989 -0.000184344 0.0892475 -0.0465236 0.0131945 -0.0646904 -0.0937997 -0.049278 0.0157092 0.0339228 0.0261611 0.0749552 -0.0375864 0.0540387 0.0245667 0.0533638 -0.0355833 -0.0964305 -0.0397627 0.0591228 -0.0958258 -0.0520285 0.0114775 0.0176775 0.0941609 0.0467539 0.0967446 -0.0860238 0.0130521 0.0263669 -0.0317934 0.0382098 0.0338528 0.0205149 -0.0766016 0.0638657 0.017421 0.0941894 -0.0770947 0.0327481 0.0873721 -0.0480683 -0.078907 0.0637621 -0.0844333 0.0994623 -0.0238549 -0.0261004 -0.0653416 -0.0795337 0.0304022 0.0532268 0.073064 0.0375225 0.0914903 -0.0668384 -0.00985288 0.0926291 0.0659796 0.00522684 -0.0281852 -0.0578639 0.0865262 0.0772414 0.0623308 -0.0681549 0.0169339 0.0164944 -0.0735617 0.0906583 -0.0416937 -0.0940623 0.0411763 0.0218356 0.0162803 0.0439649 -0.0368682 0.0993333 -0.063897 -0.00233775 -0.0869079 0.0572569 -0.00536329 -0.0304426 0.0818554 0.0434684 0.0703108 0.0758468 -0.035953 0.0951048 0.0789503 0.0509368 0.0447878 0.0470208 0.0723615 0.0685136 -0.0781976 -0.0671641 -0.0520134 -0.045774 0.0635789 0.0724257 0.0727166 0.0416924 0.0217335 0.0182503 -0.0398296 0.0769928 0.00791005 0.0399559 -0.0360111 0.0357062 0.0887058 -0.0312369 -0.0402746 0.0548666 0.0158532 -0.0125439 0.0479669 -0.0146001 -0.0668608 0.0325087 0.0428923 0.0777131 0.096588 -0.0946936 0.0690222 -0.0696272 -0.0212899 0.0867316 0.0386776 0.043554 0.0936913 0.015336 -0.0286777 0.00893574 -0.0470416 -0.0736027 0.0115607 -0.0608552 -0.0268149 -0.091418 0.100424 0.218109 0.0894292 -0.21758 0.0690662 -0.028528 0.0260648 0.118827 0.0189186 -0.204698 0.028812 0.0502979 -0.0159982 -0.0214514 -0.0954492 0.0970356 -0.059821 -0.0380332 -0.0319176 -0.00757698 0.111339 0.0363444 0.254999 0.0416172 0.108449 -0.151366 0.0240004 -0.0128368 -0.0517777 -0.0277596 -0.0331083 0.0170562 0.0716188 -0.00534944 -0.0534911 -0.102088 0.0939215 -0.041647 0.0483941 0.056236 -0.0164255 0.0364884 -0.0486542 0.0673546 0.087178 -0.0688804 0.000202633 -0.0211544 -0.00660941 -0.0863325 0.0447977 0.0900961 -0.0767699 -0.062962 -0.0153882 -0.0277573 0.0453004 -0.0916795 -0.00345425 -0.0723611 0.0796954 -0.0779535 -0.00953736 0.0340397 0.0685263 -0.0441935 0.00846317 -0.0421434 -0.0203602 -0.0313008 -0.0653059 -0.0352099 0.00475541 -0.0273593 0.0268508 -0.0666245 -0.00638846 -0.0527583 0.0787604 -0.017729 -0.0581192 -0.0748928 -0.0405671 0.0691789 -0.0731092 0.0624832 0.0404504 -0.0604576 0.0429834 -0.0714325 -0.0988434 -0.0863521 -0.051096 0.078525 0.0521582 0.0724917 -0.078534 -0.0708574 -0.0587081 -0.0717493 0.0715224 0.0563511 -0.0806763 -0.004437 0.00268735 0.0974468 0.0360536 -0.00434861 0.0949296 -0.0760954 -0.0368196 0.0487315 0.0371317 -0.0853157 0.0259577 0.0535779 0.0442608 0.0320917 0.0203493 0.0880579 -0.0450479 0.0116736 0.0495896 0.0198192 -0.0038372 0.00513995 -0.0487866 0.0888284 -0.0673784 0.0549969 0.0115993 -7.21376e-05 0.00509331 -0.0352153 -0.0565284 -0.0469411 -0.0260819 0.0206643 -0.00151409 0.0241154 0.0726252 0.00695699 0.0315331 -0.0692739 0.0742701 0.0607318 -0.0476546 -0.0587432 -0.0858526 -0.0249015 0.0458986 0.109316 -0.0572685 -0.0796579 -0.0902327 0.0587207 0.0637457 0.0484805 -0.0582955 -0.0788972 -0.0127184 0.150588 0.0693494 -0.0817418 -0.0589434 0.00803088 0.0257849 0.0226271 0.0585631 -0.108698 -0.128739 0.072256 0.0439253 0.104506 0.0109689 0.0824924 -0.0560473 -0.138063 -0.0491445 0.0724143 0.0479091 -0.036115 0.14569 0.0652372 0.0599844 -0.065126 0.0647093 0.0363649 -0.0156218 0.130584 0.0506355 -0.016956 0.0585175 0.0260014 0.0192784 0.0691216 -0.00861088 0.0166832 -0.0418897 0.0509159 0.0915254 -0.0696408 -0.0595152 0.0509673 0.0556244 -0.0209507 -0.0435014 -0.0599201 -0.0285563 -0.00224333 -0.0380316 0.00530165 0.035552 0.0109471 -0.0038583 0.0283903 0.046922 -0.065347 0.0330552 -0.0695752 -0.00120523 -0.0387435 -0.0776149 -0.0339058 0.0832016 0.0828928 0.0676243 0.0519433 0.0112406 0.0416592 0.0452504 -0.0332032 0.0445604 0.0159535 -0.0489841 0.0240365 0.0937199 0.0966886 0.0157229 0.0258848 0.0548529 0.0266879 0.0931177 0.0734421 -0.0666695 -0.0431389 0.0269951 -0.0710441 -0.00897872 -0.0827063 0.0920299 0.0719005 -0.0853082 -0.0930021 0.0658367 0.0590545 -0.0879038 -0.0492723 0.0339137 -0.0391781 -0.0885017 0.0741889 -0.0913539 -0.0623624 -0.0598086 0.029687 -0.0582083 -0.0966919 0.0670473 0.097045 -0.0179579 0.0388921 0.0202229 0.0915193 0.0344883 -0.0743634 -0.0312887 0.0565183 -0.0609621 0.0537555 -0.0195955 0.048431 0.0111943 0.0272185 -0.0193886 0.047209 -0.0447512 -0.0484242 0.0118036 0.0438319 0.000408363 -0.0136389 0.00327981 0.0615837 0.0665831 -0.00701285 0.0709688 -0.00663285 -0.0459403 -0.0379446 0.0701595 -0.102639 0.05908 -0.0213262 -0.0693231 -0.0361206 0.0923383 0.0566409 0.0213997 -0.046118 0.0125468 -0.0182104 -0.0524379 -0.0411799 0.0614803 0.091952 -0.0225753 -0.027762 -0.00946804 0.0712107 0.0781818 0.0148296 0.0751408 -0.046597 -0.022377 0.0686524 -0.0926049 -0.00356598 0.0260491 -0.0986671 -0.0873505 -0.0858494 -0.0825531 -0.0892957 -0.0483593 -0.0113776 -0.0670106 0.101305 -0.0626622 -0.0150171 0.0575455 -0.0700269 -0.0677035 -0.0818409 -0.0323187 -0.0875945 -0.0617149 0.038996 -0.0297931 -0.0378197 0.0930131 0.0836516 -0.0667695 0.0534441 -0.00575308 -0.0204964 0.0784588 -0.0170885 0.081719 -0.0861664 -0.0827664 -0.000580326 0.00931533 0.048842 -0.0100443 0.032728 -0.00457773 -0.0604832 0.0834491 0.0468859 0.0945264 0.0809911 -0.0721333 -0.0767852 0.0759807 -0.089923 0.00154444 -0.0128905 0.0323343 -0.00355544 -0.00409562 0.038177 -0.0666391 -0.0245466 -0.042323 -0.0995748 -0.0482935 -0.0555825 0.00498005 -0.0342339 0.0471836 0.0336128 0.000449794 -0.0772457 -0.0103286 0.0184024 0.0529108 0.0294482 0.0230031 0.033335 0.0760006 0.0576219 -0.0934238 -0.0695453 -0.064379 -0.062442 0.0891205 0.0538303 0.0443252 0.0298158 -0.0452141 -0.0239129 -0.0202015 0.0863679 0.084661 -0.0351098 0.0761981 -0.0982021 0.0412536 0.0920419 -0.0362195 0.00577375 -0.00667355 0.0182313 0.0059784 0.0259323 0.0897265 -0.0883891 0.0657373 0.0540241 0.0802492 -0.0648532 0.077106 0.0485243 0.0803266 -0.0269596 -0.0971471 -0.0808673 -0.0802382 -0.0121077 0.0204239 -0.00522926 0.0330603 -0.0426279 0.00688379 -0.0967602 -0.0517678 -0.0167 -0.0179835 0.0422504 0.0428072 -0.0284591 -0.0075627 -0.00496887 -0.0637755 -0.0248913 -0.00246311 0.0722615 -0.0580462 -0.0728891 0.0517057 -0.0123945 0.0447452 0.00523655 0.0893416 0.0125154 0.0699317 0.0265148 -0.0189713 -0.0691178 0.0447067 0.0614139 -0.0263551 0.0319764 -0.0592166 -0.0383909 -0.0517029 -0.0103844 -0.0979615 -0.0654169 -0.0619236 -0.0798125 -0.095707 -0.0185227 0.0468786 -0.0611861 -0.000600587 -0.0119698 -0.0328431 -0.0719794 0.036352 0.0240631 -0.00129872 0.0159603 -0.0295022 -0.0535943 0.0772517 0.0839129 0.00480312 0.038179 0.0234623 -0.0109114 0.0219823 -0.0803183 0.0633622 0.088826 0.0651443 -0.0855671 -0.0692179 0.047074 0.0781738 -0.0222946 -0.037376 -0.00324217 -0.0787676 0.0588464 -0.0861911 0.0775851 -0.0877008 0.0357481 0.0951699 0.0939041 -0.0771053 -0.0656453 0.0175892 0.0877471 -0.0730401 -0.0473398 -0.0689722 0.0983167 -0.0153524 -0.0873157 -0.0939115 -0.016753 0.000514971 0.0339061 -0.079689 0.0815438 0.0260577 -0.00255167 0.0999187 -0.0684865 0.0796574 -0.0592707 0.0239114 -0.00759035 0.0771252 0.0757197 0.0814512 0.0833352 0.026802 -0.0841346 -0.0466742 -0.091933 -0.0238553 -0.00641113 0.0632221 -0.0658031 0.096353 -0.00144455 -0.0363352 -0.0110491 0.0256014 -0.0208686 0.041329 0.0210612 -0.0634897 0.010615 0.0333794 0.0730329 0.0419573 0.0560173 0.00488923 0.000828044 0.0183307 0.0751004 -0.0692445 0.0928802 -0.0755157 0.0532297 -0.0512867 -0.011913 0.0760407 -0.0154698 -0.0698414 -0.0640763 -0.03735 0.00334927 -0.0434012 -0.088122 0.0276792 -0.0110588 -0.0104801 0.0837843 -0.0525853 0.0369038 0.0419602 -0.0474364 -0.0641324 -0.0701377 -0.0022371 -0.0180536 -0.00723185 -0.0932439 -0.0731253 0.080287 -0.0794831 0.0249597 0.0761331 0.0625453 0.0100708 -0.0349354 -0.0451478 -0.0799778 0.070936 0.0641492 0.051961 -0.0838499 -0.00251275 0.0622252 -0.0238425 0.0396964 -0.0919854 0.0971494 -0.05326 -0.0798101 -0.0999121 -0.022504 0.0340021 -0.0971112 0.0906149 -0.0936577 0.0503096 0.0847911 -0.0950485 -0.0946601 0.0521888 0.0182153 -0.0350631 0.0707162 0.0363272 -0.00692852 0.00612029 0.0296343 0.0212929 -0.0863189 -0.0929351 -0.0318903 0.0576188 0.0747756 -0.0567832 0.0234853 -0.0283132 0.0365311 0.0230602 0.00517884 0.0867315 0.0323884 0.0421943 0.0948935 0.0627937 0.0033849 0.0188371 -0.0515374 0.0165598 0.0391234 0.0980595 0.0755402 -0.042024 0.0181998 0.0306099 -0.0953355 -0.0398634 0.0615464 -0.0369914 0.000761551 0.0666042 0.0876157 0.0134982 0.0663009 -0.0824813 -0.0751843 -0.0857092 0.0822483 -0.0295164 -0.0536571 -0.0481298 0.019601 -0.0967416 0.0292911 0.0197611 -0.0982588 -0.0736782 0.071228 -0.0457871 -0.00528468 0.0343149 0.0798302 0.0592078 -0.00564464 -0.0577466 -0.0457301 -0.0176475 -0.095671 -0.0205796 0.0572714 -0.0979083 0.00049238 -0.0676326 -0.0308678 -0.0546195 -0.0785914 -0.00525361 -0.0613608 -0.0960249 0.0960141 -0.0570458 -0.0797998 -0.0787489 0.0424539 0.0992331 -0.00204578 0.0218303 -0.0763856 -0.0888672 -0.0511677 -0.0338949 0.0761168 -0.00585272 0.0688715 -0.0621621 0.0825442 -0.0416954 -0.0523479 0.0438654 -0.0795234 -0.0514527 0.0515038 -0.0255407 0.0213201 0.0715086 0.0828587 -0.0420708 -0.0181297 -0.0508364 0.000105168 0.0553036 -0.019331 -0.0661801 -0.064106 -0.0386681 -0.0493948 0.0694872 -0.0179892 -0.0517162 -0.0884811 0.0508896 0.0586505 -0.0121827 0.0925378 0.0696132 -0.0109565 -0.0971725 -0.0507867 0.0489921 -0.0739515 -0.0440539 0.0390525 0.0303503 -0.0296005 -0.0835552 0.05953 -0.0457572 0.0956744 0.068626 -0.0513937 -0.0951374 0.0835493 -0.00678876 -0.0309371 -0.0168094 -0.0187967 -0.000427606 0.00852942 -0.0988647 0.0900985 -0.00392812 0.0315157 0.0394568 0.0506233 0.0663722 -0.0314021 0.00863856 0.0267879 0.0437406 0.0466298 0.0820832 0.0359152 -0.0262204 -0.0492962 0.00415661 0.0872951 0.000772383 0.0825262 0.0228012 0.0952777 -0.0208659 0.0795113 0.0363025 -0.0377698 0.0934882 -0.084871 0.0848543 -0.0765626 -0.0531355 -0.0391345 0.0819582 0.0889048 0.0427231 0.085751 0.00954553 0.0446953 0.0583684 0.00814469 0.0869988 0.0613169 0.090293 0.0982082 0.0626183 -0.0941219 0.0978016 0.0910993 0.0600476 0.0413615 0.0285927 0.0358441 0.0940536 -0.102866 0.0570128 -0.0878015 
0.0757176 0.219979 -0.031115 0.0674732 0.0390973 0.180675 -0.00909277 0.024312 0.0972608 0.289692 -0.0553727 -0.0678806 0.0532028 0.149867 -0.0414119 0.0981247 -0.0256647 0.0292996 -0.0830635 -0.068053 0.0487185 -0.0556281 0.0640091 0.0769368 0.0919432 0.0445638 0.0172564 0.0703967 -0.0370224 -0.0395073 -0.10755 0.653422 -0.317826 0.0443146 0.0434402 0.45627 -0.0847388 -0.0123094 0.110763 1.03144 0.0827842 -0.0941977 -0.0241414 -2.43837 0.0458815 -0.0084061 0.169146 -0.0212444 0.0549779 -0.0816139 0.0058769 0.0784436 0.0145716 -0.0342951 0.0335104 0.157505 -0.0744182 -0.0583038 -0.0566639 0.0475647 -0.0897187 0.202021 -0.0914473 0.014852 0.0142539 0.20439 0.0736687 -0.0746734 0.0127899 0.138375 -0.0540945 -0.063263 0.0148958 -0.585749 -0.0836116 0.0558745 0.0376995 -0.024633 -0.0894508 0.0592554 -0.0773115 -0.00623454 0.0587938 0.098946 0.0558277 0.0775778 -0.0411197 0.0515524 -0.0992294 -0.0633438 0.0470199 0.195732 0.0221696 -0.0104948 0.0923043 0.0811221 -0.0742173 -0.041309 0.0743276 0.188206 0.0993534 -0.0827385 0.0528077 0.0573427 -0.0994358 -0.0619853 -0.0334431 0.0359608 0.0938615 -0.0166901 0.0505884 -0.0591956 -0.0476172 -0.0449013 -0.0210424 0.0602259 0.00200305 0.0674391 0.0837552 0.058049 0.0963288 0.27654 -0.183504 -0.0856138 -0.0747155 0.157023 -0.0412633 -0.0258096 -0.0223394 0.411193 -0.0302426 0.0128952 0.0137095 0.229674 -0.0313327 -0.0499416 -0.04161 -0.00913546 0.0444676 0.00416998 0.0358457 0.0932833 0.0436045 0.065982 0.0213606 0.0293535 0.0438384 -0.100777 0.075455 -0.0445337 0.0356106 0.307199 -0.0629095 0.063997 0.0401806 0.116083 0.00390737 -0.0959294 -0.074087 0.674586 0.0181623 0.00768656 0.0300601 -0.0683965 0.0515605 -0.0196296 0.00658201 0.0749467 0.05249 -0.0314428 -0.0238168 0.0976231 -0.063017 0.0353068 -0.0084252 0.109096 -0.00123738 0.0119273 0.0523029 0.0774568 0.0180322 0.454117 -0.102223 -0.0109272 0.0440105 0.269105 -0.0224059 0.0448184 -0.0712526 0.310661 0.0306298 -0.0814098 0.0402004 -1.22382 -0.00953371 -0.022461 0.0594922 0.0844511 0.0267116 0.0801144 -0.04738 0.0767294 -0.0188055 -0.0932576 0.0531565 0.0479463 0.0527166 0.0559376 -0.0806072 0.055824 -0.113768 0.498895 -0.0453297 0.0315739 0.05276 0.283707 -0.065561 0.0511247 0.0941396 0.432132 0.00986658 0.051486 -0.0975099 -0.576348 0.0474975 0.0163936 -0.0139691 -0.00564367 -0.0855114 0.0822366 -0.0906154 0.054718 -0.0882339 0.0743121 0.097888 0.0612412 -0.0470318 -0.0861968 -0.0108037 0.0737783 -0.071443 0.395025 -0.23522 -0.0748223 0.051049 0.399163 -0.0474338 0.00445508 0.0592081 0.652262 0.0439241 0.0494941 -0.0680795 -1.26565 0.0880048 0.0858836 0.117522 0.0531785 0.0503795 -0.0743927 0.0754342 -0.0611153 -0.0507759 0.0640504 0.0423184 0.104549 -0.0134959 -0.0890231 -0.0623355 0.0345078 0.111133 0.268034 -0.17126 -0.0411833 0.101241 0.244111 -0.00164317 -0.0520836 0.0465582 0.41217 0.0297045 -0.070853 0.00783503 -0.0768286 0.0266191 -0.0602113 0.00875387 0.0720947 -0.0708717 -0.0587049 0.0746506 0.0198961 0.025431 -0.07093 0.0463199 -0.017842 0.0694246 -0.0949757 -0.0963357 -0.0552162 0.0610765 0.179531 -0.117288 -0.0222311 -0.0189704 0.189122 -0.0646517 0.0974194 0.0290161 0.372416 -0.0431323 -0.0768553 -0.0381147 0.336737 0.0266492 -0.0185082 0.0485469 0.0386889 -0.0569668 -0.067351 0.0641928 -0.0180368 -0.0844314 0.0666548 -0.087137 -0.0239185 0.0287686 -0.0214514 -0.056926 -0.0818126 0.0271993 0.309615 -0.204982 -0.0268735 0.0301231 0.255071 -0.00198641 0.0194392 -0.0855574 0.576342 0.0281557 0.0952588 -0.14127 -1.21086 -0.042911 0.105099 0.121095 0.0282578 0.0449095 0.0216962 0.0329537 0.0929952 -0.0495887 0.00431238 0.0511197 0.0208837 0.096764 -0.0728777 -0.0733988 0.0599644 0.022689 0.464089 -0.119516 -0.0253575 -0.0618219 0.318432 0.0297245 0.0725178 -0.0439078 0.689341 0.0828655 0.0861998 -0.0681974 -0.978079 -0.0449077 0.120898 -0.0554941 0.0745128 -0.0556165 -0.103102 0.100909 -0.0147369 -0.0265318 -0.0126223 -0.0765603 0.116062 0.0948841 0.0129647 -0.000953503 -0.049024 0.0872346 -0.0216244 -0.0112388 -0.0243814 0.0884966 -0.0475238 0.0860485 -0.0171857 0.0845527 -0.103663 0.00892359 0.0763071 -0.0215584 0.365443 0.0792984 -0.0137022 -0.102712 0.0892507 0.00458597 -0.0698305 -0.0844644 -0.0762576 0.000526017 0.0864148 0.0331192 0.00959329 0.0562697 0.027667 0.0488198 -0.0940095 0.0354093 0.0399992 -0.0763832 -0.0672963 -0.00166791 0.0714259 0.0772383 0.0121354 -0.0738244 0.0933038 -0.0316719 -0.0912803 -0.0186746 0.247875 0.0139184 0.0841733 -0.000833368 0.0383521 0.0228784 -0.0541079 0.00602959 -0.0217358 0.0346787 0.0352961 -0.057823 -0.0609901 0.0628352 0.0483834 0.0465795 0.0192594 -0.0206294 0.351949 0.00606502 0.0535754 0.0440425 0.135721 -0.0147221 -0.0476273 0.0161955 0.276234 -0.098649 -0.0677222 -0.0702566 -0.559196 -0.0822208 -0.0212928 -0.0308372 0.0336434 -0.00716615 -0.00320444 0.0394866 -0.0674999 0.0486575 -0.0246557 0.04813 -0.0247859 0.0923137 -0.0603902 0.0653423 -0.0166475 -0.0266875 0.494681 -0.14592 0.0419575 -0.0433825 0.400818 -0.0267216 0.0129314 0.0869459 0.437756 -0.0634088 0.00925008 -0.0949825 -0.797287 -0.0368883 -0.0603498 -0.0659479 -0.0306409 -0.0307519 -0.0351124 0.0665189 -0.0318281 -0.0974237 -0.0227067 -0.0881315 0.0450943 -0.0848406 0.01147 -0.00406544 0.032728 -0.00304579 0.31176 -0.191677 -0.0820681 0.00661861 0.296753 -0.000859686 0.0261213 -0.0448223 0.447796 -0.058771 0.0380317 0.0739022 -0.124673 -0.00973728 0.00504344 0.0842132 0.0988911 0.0505723 -0.021205 -0.0538641 -0.0849136 -0.0760456 -0.0475869 0.0607517 0.102992 0.00225679 -0.0132938 0.0251319 -0.0276458 -0.00345003 0.373482 -0.0688607 -0.0285348 -0.0397782 0.186373 -0.000661372 0.0185537 -0.0545687 0.618333 -0.0914642 0.0426306 -0.131472 -0.634799 0.0636701 0.113542 0.103645 -0.000955139 -0.0265304 0.0100634 0.0478935 -0.0575178 -0.0829716 0.0928979 0.0599409 -0.0612006 -0.0511842 0.0778811 -0.00159558 -0.0129986 -0.0418414 0.102185 0.017538 0.0316322 -0.0890287 0.164747 -0.055143 0.0379263 -0.0931621 0.201124 -0.0286181 -0.0660106 0.0185173 0.182128 0.0692765 0.00610989 -0.0534298 -0.0730756 -0.038145 0.0498145 0.0293678 -0.0976938 0.0909502 -0.0854086 0.038757 -0.025001 -0.0348156 0.0504414 -0.0388149 -0.038983 0.00241611 0.5196 -0.196965 0.0939365 0.0352845 0.254439 -0.0888444 -0.0422068 0.0398485 0.499016 -0.0558798 0.0154247 -0.0888458 -1.15025 -0.0716376 -0.0463782 0.106273 0.0930939 -0.00551894 0.0546451 0.0584447 0.0984404 0.0347418 -0.0908695 0.024421 0.04794 -0.0846854 0.0835601 -0.0738377 0.102231 0.0946789 0.230254 -0.194059 -0.050697 -0.0568368 0.115841 0.0238176 0.00310545 -0.00581927 0.268947 0.0542641 0.0384326 -0.0584956 0.278319 0.080542 0.031588 -0.110709 -0.0848809 0.0471433 -0.0928845 0.0682994 0.0470787 -0.0451483 -0.0219294 0.0159346 -0.0681997 0.0104564 -0.0078874 0.090887 -0.0528943 0.011889 0.516841 -0.221608 0.0272013 0.0406336 0.339239 -0.0191136 -0.0476144 0.0533046 0.253335 0.0507747 -0.0981817 -0.113049 -1.19054 -0.0696195 -0.0256235 -0.0161066 -0.0394625 0.0800409 -0.0467561 0.0446174 -0.0193995 -0.0844936 0.0200955 -0.060192 -0.0341945 -0.0533819 -0.00125116 0.0861177 0.0117125 -0.0607842 0.247105 -0.0365377 0.0838484 -0.0220644 0.20546 0.08907 -0.0861961 0.0104409 0.37553 -0.0879923 -0.0207798 -0.00975755 -0.671549 -0.0963267 0.0438342 -0.0751034 0.0759572 0.0251227 0.0687309 -0.0118305 -0.0207214 -0.0724565 -0.00971817 0.0546262 0.0879071 0.0174278 0.0112275 0.0809232 0.0566184 0.160525 -0.0036466 0.0086871 -0.000191932 0.0279228 0.0371216 -0.0190622 -0.0358269 0.0751763 -0.324584 -0.0529888 0.0819652 0.0566873 0.897808 -0.0281023 -0.0552692 0.0318642 -0.0492203 -0.0039321 0.0342359 0.0464651 -0.0267767 0.0891279 0.0242377 -0.028975 0.0829791 0.028 -0.0337539 -0.0610299 -0.0833634 0.0659411 0.206924 -0.1744 -0.028262 0.0444158 0.200006 -0.0707137 0.0962964 0.0559236 0.605031 0.0323394 0.0729478 0.0368343 0.0436669 0.0194293 0.128458 -0.0142752 0.0641645 -0.0591818 0.0293948 -0.0501899 0.00724274 -0.0135952 -0.0197163 0.0982122 -0.0297609 0.0886729 0.0505267 -0.0093821 0.00247444 -0.136175 0.32391 -0.0805835 -0.0813076 -0.0712734 0.34645 -0.089741 -0.0708552 0.0632325 0.573223 0.0277167 0.0141048 -0.0488011 -1.05235 -0.00591791 0.0186456 0.00240736 -0.0750211 -0.0543002 0.0327607 0.0429458 -0.00756429 0.0105162 0.0192944 0.0494041 0.0804791 0.0396587 0.0785967 0.033471 0.0193935 -0.00677772 0.452447 -0.0961882 0.0267815 0.0712851 0.160387 -0.036566 0.0292888 -0.0333786 0.176138 0.00834071 0.0452057 0.00884747 -0.798855 0.0204207 0.0637397 0.0887494 0.0783099 -0.0785811 -0.0974829 -0.0860381 -0.0303446 0.0129018 -0.0879482 0.0590941 -0.0136596 0.0390077 0.0313538 -0.106371 0.0830333 0.0759784 -0.0110995 -0.121144 0.0625769 -0.0773616 0.0926203 -0.0761082 -0.0789147 0.00474068 0.0552733 0.0236285 -0.025309 0.00437699 0.477363 -0.00768998 -0.0521543 0.0435229 0.0914402 -0.0163643 0.0563865 0.0348936 0.0832163 0.0369534 0.0261448 0.0622289 -0.0587901 -0.0615802 0.0577536 0.0545502 0.0251113 -0.0192103 0.033174 0.0477248 -0.0705988 -0.00545271 0.0821032 0.0315349 -0.0169071 0.0581147 -0.0574546 0.0777895 -0.0398051 -0.0779195 -0.0705357 0.0503192 0.102385 0.102124 0.0461184 -0.0380916 0.0120462 0.0843059 0.0116153 0.0563805 0.0644321 0.0192147 0.0215423 -0.00111971 0.00331576 0.0107153 0.0387434 -0.00849137 0.308738 -0.0515741 0.0953111 -0.0800064 0.199061 0.0809067 -0.0464921 -0.0415224 0.434198 0.094827 -0.0461501 -0.051287 -1.15005 0.0241207 -0.050489 0.0468015 -0.0282085 0.00329185 -0.082543 0.0089513 -0.0646117 -0.0195098 0.0558486 -0.088387 -0.0037919 0.0117751 -0.0126024 0.068647 0.0698065 0.00979355 0.261203 -0.0471915 0.0307625 0.0577758 0.166198 0.0142738 0.0453955 0.00525882 0.469924 0.0686349 0.00744988 -0.0481422 -0.0314033 0.0508698 -0.0592937 -0.0635635 0.0204336 0.000324507 -0.103796 -0.0169519 -0.0723081 0.00119604 0.00313982 0.0540456 0.0941256 0.0526595 0.0285323 -0.0809394 0.0886132 -0.138683 0.441828 -0.0525127 0.0604251 -0.0608773 0.386521 0.051205 0.0711486 0.0597569 0.492274 0.0612171 -0.0356026 0.0402258 -1.00228 -0.00352947 -0.0313823 0.119241 -0.0725008 -0.0836988 0.0269867 -0.0143588 -0.00985192 -0.024611 -0.0700776 -0.0466037 0.0412423 0.0258912 0.0482547 0.0586772 -0.0438129 0.0548908 0.276164 -0.128549 -0.00298099 0.026785 0.267259 0.0570112 -0.0197814 0.0716379 0.199556 -0.0573949 -0.00857694 -0.0986681 -0.699616 0.0406532 0.0776665 -0.0361386 0.0484509 0.014779 0.0814893 0.0285144 0.0300309 -0.0567691 0.0545584 0.0683934 -0.0571251 0.071865 -0.0577045 0.0759506 0.0842889 -0.14237 0.358803 -0.12268 -0.0749817 0.0458579 0.375996 0.03804 -0.0963145 -0.0149852 0.723322 0.0676033 0.0250318 -0.117557 -1.1741 0.051332 -0.0284151 0.0455975 -0.0450518 -0.00763741 -0.00176238 -0.0671523 -0.0311329 0.0531266 0.0578898 -0.0675681 0.0812782 -0.0501587 -0.00391229 -0.0972642 0.061007 0.0535111 0.193468 -0.166766 0.0609745 -0.0513237 0.133313 -0.0877644 -0.0528516 -0.0567833 0.42019 -0.0662458 0.0797623 -0.0124221 -0.737858 0.0651984 -0.0224148 -0.0162278 0.01915 0.0617583 -0.0489061 -0.0827831 -0.0152172 -0.0745965 0.0952438 0.0757796 -0.051328 -0.0322036 0.0519875 0.0437471 -0.0105591 0.0486153 0.259121 -0.215151 -0.0476873 -0.0313578 0.319981 -0.0356742 -0.0157121 0.0875395 0.382327 0.0611651 0.0975226 0.0597054 -0.0985734 -0.00762868 -0.0604008 0.0297289 0.0251125 -0.0335772 -0.0526764 0.101098 0.0275561 -0.0171167 -0.0102494 -0.0396383 -0.0723812 -0.0299993 0.0563562 0.0314802 0.036785 -0.171163 0.491364 -0.20251 -0.000704491 -0.0215657 0.460484 -0.0810852 0.0503675 0.0137517 0.95141 0.000928618 0.0456472 -0.132428 -1.26961 -0.0581141 0.0191373 -0.0182896 -0.0589561 -0.0788315 -0.0185848 -0.01778 -0.0535673 -0.060702 0.064593 0.0868028 -0.00776043 -0.0963394 -0.0442469 -0.0691469 -0.0123404 0.134344 0.265856 -0.16847 -0.0255107 0.0982962 0.166799 -0.0479622 0.0992839 -0.0718047 0.179212 0.0450718 0.0303693 0.0504661 0.362749 0.0129647 0.0601177 0.00900173 -0.0836179 0.0764015 -0.0703403 -0.0786525 -0.0598469 -0.0577294 0.0695333 0.0745931 0.0598505 0.0239871 0.0700507 -0.05978 -0.0768232 -0.191555 0.558335 -0.251663 -0.0264367 -0.086955 0.467397 0.0175234 0.0887939 0.047966 0.786228 0.00569899 0.0470479 -0.101859 -2.22021 -0.01966 0.0963248 0.0643889 -0.0222542 -0.0853428 -0.00537164 0.0727769 0.0674874 0.0350952 -0.0468366 -0.0976697 0.137364 0.0538591 0.0693014 0.0728574 -0.0346005 0.148372 0.352636 -0.00472707 -0.0752839 -0.387356 -0.0983804 -0.156369 0.432099 -0.0292291 -0.286495 -0.617494 0.288547 -0.713732 -0.671971 -0.218842 0.275238 0.0776608 0.137564 -0.0155619 -0.151747 -0.444425 -0.270075 0.488318 -0.269251 0.346345 0.261528 -0.273746 -0.0130566 0.732314 0.28635 -0.50753 -0.232312 -0.0217875 -0.433721 0.154256 0.558471 0.0638139 0.189207 0.467143 0.25064 0.0650707 0.0464065 0.198041 -0.237618 -0.221017 -0.425919 0.135128 0.0221088 -0.567465 -0.350851 0.564407 -0.208512 -0.0144766 -0.379379 -0.587815 0.403854 -0.723303 -0.431172 0.0472587 0.476507 -0.318328 -0.368548 -0.290264 0.0162078 0.407718 -0.505394 -0.624323 0.092415 0.00301313 -0.124174 0.625601 -0.315488 -0.331823 -0.0763942 -0.164337 -0.283702 -0.20185 -0.423224 0.327504 0.539386 -0.177985 0.00636061 -0.412916 0.127911 0.479277 0.462878 0.556675 -0.237066 -0.0260536 -0.0828549 -0.623291 0.250302 0.233096 0.317981 0.140606 -0.0567723 0.324682 -0.178174 -0.647334 0.41742 0.0132946 -0.00785165 0.663827 -0.0537885 0.45896 0.0523282 -0.108335 0.417175 0.232275 0.320858 -0.0879584 0.132501 -0.607955 -0.285995 0.117244 0.169315 -0.16621 -0.483355 -0.512334 0.337292 0.380601 0.331514 0.082363 0.251733 0.0179699 0.124647 0.490214 -0.178975 0.0920876 -0.115639 -0.154476 0.383716 -0.358387 -0.723283 -0.443806 0.395604 -0.138051 -0.0421096 0.260549 0.412277 -0.238812 -0.277009 0.466414 0.752576 0.228383 0.331313 0.399837 -0.0609984 -0.309269 -0.488091 0.494785 0.254522 -0.00967139 -0.522005 -0.291284 0.221237 -0.317124 0.159323 -0.236413 0.147323 
-0.383779 0 -0.0576712 0 0 0 0 0 0 0 0 0 0 0 0 0 0 0 0 0 0 0 0 0 0 0 0 0 0 0 0 0.0327567 -0.0275483 0 0 0 0 0 0 0 0 0 0 0 0 0 0 0 0 0 0 0 0 0 0 0 0 0 0 0 0 0 0.296027 0 0 0 0 0 0 0 0 0 0 0 0 0 0 0 0 0 0 0 0 0 0 0 0 0 0 0 0 0 0.096922 0.0377337 0 0 0 0 0 0 0 0 0 0 0 0 0 0 0 0 0 0 0 0 0 0 0 0 0 0 0 0 0.0248129 0 0.0438847 0 0 0 0 0 0 0 0 0 0 0 0 0 0 0 0 0 0 0 0 0 0 0 0 0 0 0 -0.0119392 0 0 -0.474214 0 0 0 0 0 0 0 0 0 0 0 0 0 0 0 0 0 0 0 0 0 0 0 0 0 0 -0.0978394 0 0 0 -0.0121884 0 0 0 0 0 0 0 0 0 0 0 0 0 0 0 0 0 0 0 0 0 0 0 0 0 0.0723978 0 0 0 0 0.0106227 0 0 0 0 0 0 0 0 0 0 0 0 0 0 0 0 0 0 0 0 0 0 0 0 -0.00175729 0 0 0 0 0 -0.00385139 0 0 0 0 0 0 0 0 0 0 0 0 0 0 0 0 0 0 0 0 0 0 0 -0.0813718 0 0 0 0 0 0 1.67588 0 0 0 0 0 0 0 0 0 0 0 0 0 0 0 0 0 0 0 0 0 0 0.00468128 0 0 0 0 0 0 0 0.017019 0 0 0 0 0 0 0 0 0 0 0 0 0 0 0 0 0 0 0 0 0 -0.0963961 0 0 0 0 0 0 0 0 -0.0256896 0 0 0 0 0 0 0 0 0 0 0 0 0 0 0 0 0 0 0 0 -0.0780439 0 0 0 0 0 0 0 0 0 -0.182118 0 0 0 0 0 0 0 0 0 0 0 0 0 0 0 0 0 0 0 0.0931243 0 0 0 0 0 0 0 0 0 0 3.74777 0 0 0 0 0 0 0 0 0 0 0 0 0 0 0 0 0 0 -0.0867643 0 0 0 0 0 0 0 0 0 0 0 0.00285129 0 0 0 0 0 0 0 0 0 0 0 0 0 0 0 0 0 -0.0611604 0 0 0 0 0 0 0 0 0 0 0 0 -0.0697023 0 0 0 0 0 0 0 0 0 0 0 0 0 0 0 0 -0.022896 0 0 0 0 0 0 0 0 0 0 0 0 0 -0.183605 0 0 0 0 0 0 0 0 0 0 0 0 0 0 0 0.0804187 0 0 0 0 0 0 0 0 0 0 0 0 0 0 -0.0268928 0 0 0 0 0 0 0 0 0 0 0 0 0 0 -0.0947748 0 0 0 0 0 0 0 0 0 0 0 0 0 0 0 -0.0167605 0 0 0 0 0 0 0 0 0 0 0 0 0 0.00745881 0 0 0 0 0 0 0 0 0 0 0 0 0 0 0 0 -0.0543372 0 0 0 0 0 0 0 0 0 0 0 0 0.0812197 0 0 0 0 0 0 0 0 0 0 0 0 0 0 0 0 0 0.014163 0 0 0 0 0 0 0 0 0 0 0 -0.00974426 0 0 0 0 0 0 0 0 0 0 0 0 0 0 0 0 0 0 -0.00960396 0 0 0 0 0 0 0 0 0 0 -0.088519 0 0 0 0 0 0 0 0 0 0 0 0 0 0 0 0 0 0 0 -0.0221018 0 0 0 0 0 0 0 0 0 0.0413879 0 0 0 0 0 0 0 0 0 0 0 0 0 0 0 0 0 0 0 0 -0.00565124 0 0 0 0 0 0 0 0 -0.0662544 0 0 0 0 0 0 0 0 0 0 0 0 0 0 0 0 0 0 0 0 0 -0.0132962 0 0 0 0 0 0 0 0.0734919 0 0 0 0 0 0 0 0 0 0 0 0 0 0 0 0 0 0 0 0 0 0 -0.156249 0 0 0 0 0 0 0.0384463 0 0 0 0 0 0 0 0 0 0 0 0 0 0 0 0 0 0 0 0 0 0 0 -0.0378138 0 0 0 0 0 0.00754641 0 0 0 0 0 0 0 0 0 0 0 0 0 0 0 0 0 0 0 0 0 0 0 0 -0.00607955 0 0 0 0 -0.0404011 0 0 0 0 0 0 0 0 0 0 0 0 0 0 0 0 0 0 0 0 0 0 0 0 0 -0.0138946 0 0 0 -0.0982219 0 0 0 0 0 0 0 0 0 0 0 0 0 0 0 0 0 0 0 0 0 0 0 0 0 0 0.100922 
