0.00728913 -0.296175 0.104079 -0.460397 -0.230111 0.39006 0.196491 -0.0914616 -0.385943 0.373771 0.239142 -0.338924 -0.416852 0.371372 -0.42669 0.164465 -0.271965 -0.0847139 -0.175045 -0.390685 -0.186262 -0.15674 0.370783 0.32085 -0.135083 -0.399756 0.499306 -0.107321 -0.403613 0.119456 -0.431752 -0.467525 -0.486187 0.374465 -0.153537 -0.435311 -0.0363084 0.303124 -0.459165 0.150651 -0.14643 -0.431177 -0.239734 0.145623 0.0106137 -0.197575 -0.279869 -0.0327199 -0.203906 -0.0898282 -0.264796 0.175317 0.400827 -0.102275 -0.274317 0.155405 0.0961901 0.139262 0.171147 -0.336137 -0.434033 0.0774411 -0.114571 -0.445539 0.214308 -0.102324 -0.403597 0.0796561 0.433173 0.416996 -0.33433 0.252972 0.398418 -0.186232 -0.349309 0.255319 0.34598 0.0881171 0.298697 0.454464 -0.418746 -0.353554 0.415828 -0.182118 -0.0221503 0.278745 -0.0690351 0.473208 0.0678623 -0.0181516 0.278521 -0.398194 -0.345572 -0.0139691 -0.307538 -0.31489 -0.0834301 0.0352472 -0.451115 0.280203 
0.170438 0.283347 -0.271409 0.182002 0.472573 0.0755072 -0.124933 0.073886 0.221133 0.4866 -0.184235 0.25623 -0.169929 0.363032 0.168027 -0.225022 0.44907 -0.00352318 0.151276 -0.232411 -0.257891 0.210013 0.465192 0.134267 0.278939 0.230348 0.467252 -0.221666 -0.177762 -0.401028 0.485894 -0.358737 0.0164863 0.0678099 -0.353811 0.204319 0.457722 -0.457289 0.324735 -0.179713 -0.452575 -0.320731 -0.120787 -0.136429 0.33505 0.240886 0.215191 0.437879 0.323688 -0.382611 0.434631 -0.479896 -0.196093 -0.0975178 -0.285673 -0.270401 0.254171 0.249112 0.38464 -0.385574 -0.451092 -0.0913658 0.453658 0.430813 -0.124123 0.376641 -0.100265 0.230011 0.0232359 -0.448552 -0.24372 0.108427 -0.419372 0.03171 0.0685921 0.495393 -0.306481 0.19817 0.476262 -0.0761365 -0.0159164 -0.103553 -0.148489 0.472793 -0.199011 -0.254273 0.397046 0.0815475 -0.380405 -0.0687464 0.202656 -0.16863 0.000338764 0.00792976 0.458588 -0.491688 0.21767 0.345858 -0.375899 0.417629 -0.124029 -0.382056 -0.303299 0.00305416 0.37063 0.486523 -0.256287 0.424302 0.320431 -0.30841 -0.0202513 0.395345 -0.497144 0.075025 0.225951 -0.32626 -0.245555 -0.179441 -0.275562 -0.210561 -0.16069 0.16041 -0.172545 -0.441334 0.199346 0.367804 0.300307 0.459094 -0.152703 -0.367332 0.46562 0.486861 0.36916 -0.41175 -0.349048 0.406409 -0.436247 0.0499457 -0.147263 0.476715 -0.0687006 -0.181246 -0.237822 0.484835 -0.0132645 -0.0497134 -0.453482 -0.126978 0.401043 0.315318 -0.0185764 0.363956 -0.0184832 -0.295146 -0.394134 -0.0433435 0.471954 0.226578 0.0466791 -0.477877 -0.267673 -0.287189 -0.162223 -0.050333 -0.205715 -0.129317 0.106348 -0.0505914 -0.495593 0.109864 -0.224099 0.45978 0.0558711 -0.410707 0.0518957 -0.0147149 0.348291 -0.336047 0.281388 -0.307132 -0.414505 -0.270393 -0.434435 -0.163082 0.2594 0.125937 0.099664 0.460578 0.117736 0.0506867 -0.00597367 -0.198131 -0.000172 0.103651 0.15301 -0.32564 -0.0987038 -0.457354 0.496545 0.0230335 -0.121583 0.234938 0.479198 0.151204 0.0351504 -0.320053 -0.28354 0.123331 0.337362 -0.464409 -0.479165 -0.387338 0.45858 -0.193605 0.407528 0.307176 -0.304605 0.161913 0.214846 -0.490029 0.00173472 -0.197202 0.481449 0.48167 -0.152972 -0.101581 0.359349 0.175035 0.403024 -0.417872 0.38052 -0.0439622 -0.376975 0.39819 0.494916 0.0333165 -0.0414624 -0.265176 -0.468785 -0.0861193 0.301937 -0.190996 0.280778 0.00474535 -0.382206 -0.265511 0.468092 -0.226459 0.435151 0.175997 0.177747 -0.275738 -0.218103 0.478089 0.195922 0.456126 -0.283871 -0.190722 -0.23878 0.0798313 0.317527 -0.420587 0.355923 0.120591 -0.374288 -0.280022 -0.024391 0.254273 0.42421 0.377448 -0.0362003 0.240606 0.203056 -0.176 0.0816997 0.192155 0.102742 0.279505 0.110299 0.382447 -0.187385 -0.31792 0.110192 0.206522 -0.376159 -0.328213 -0.480929 -0.477667 0.356341 -0.239735 0.283892 0.126694 0.480667 0.477024 0.494806 0.48847 0.253084 -0.472033 -0.145307 -0.25193 0.200844 -0.159227 0.0389917 -0.115459 -0.213018 0.486386 0.412694 -0.405021 0.124768 0.0415946 0.055439 0.190865 -0.0523654 -0.131008 0.363548 -0.403778 0.179687 -0.112874 0.454154 -0.377799 0.344354 -0.256007 -0.266679 -0.00897791 0.26529 0.343417 0.209547 -0.369812 -0.357958 -0.0226898 -0.351006 -0.198375 0.0388847 -0.173215 0.416749 0.0769276 0.20535 -0.0444134 0.0811693 0.243447 0.270664 0.469635 -0.443858 -0.0759621 -0.0189011 -0.38319 0.414966 -0.395647 -0.133353 0.0782445 0.377265 0.481159 0.0144428 0.0894969 0.0336519 0.347766 -0.137973 0.326652 -0.170147 0.461202 -0.292622 -0.460094 -0.365005 0.314921 0.0666604 0.19142 -0.0661295 -0.323938 0.138937 0.209652 0.498442 -0.245181 -0.169236 -0.163858 -0.270259 -0.455896 0.239192 -0.101659 -0.440424 -0.309994 -0.431486 0.293214 0.0510169 0.247793 -0.060215 0.0503545 -0.275819 0.406172 0.103815 0.394762 0.0101027 -0.0183761 0.19613 0.234932 0.126946 0.462148 -0.0215172 -0.298587 0.264563 0.200441 -0.436451 -0.112706 -0.14555 -0.0760611 -0.0446008 0.344916 -0.24225 0.255014 0.136063 -0.322032 -0.343241 0.0228774 0.0349993 -0.0629081 -0.135961 0.396376 -0.310387 0.0317508 -0.32169 -0.0946912 0.494258 -0.121234 0.344958 -0.430297 0.402245 0.130237 0.173314 -0.382816 -0.130998 -0.356049 0.230213 0.174642 -0.491268 0.440045 0.167724 -0.168781 -0.288307 -0.345934 0.337254 -0.0769988 0.451685 -0.282238 0.302756 0.119605 0.186677 0.493248 -0.256711 -0.416151 -0.135892 0.0844335 -0.0393258 -0.0599636 0.239113 0.0985678 0.0745464 -0.144504 0.2796 -0.0362888 0.342772 -0.435447 -0.408051 0.27962 0.0970369 -0.44855 -0.236246 -0.12635 0.0778459 -0.124182 -0.377941 0.0811 -0.415651 -0.177163 -0.0545939 0.497884 -0.308537 0.434331 -0.269288 -0.436004 0.0541269 0.0974414 -0.177774 -0.0932559 -0.443361 -0.325052 0.00475353 -0.426492 -0.400195 -0.259651 0.392678 0.445208 0.139823 0.460277 0.00138604 -0.265548 0.329347 -0.0246426 -0.00442399 0.259925 -0.325944 -0.231108 -0.402483 0.0505795 -0.401656 0.383445 0.233448 -0.236135 0.0224082 -0.129241 0.266697 0.497577 -0.207579 -0.0809292 -0.306028 0.472249 -0.262078 0.0183455 0.409182 -0.263373 0.295667 -0.174386 0.2029 -0.258269 -0.161332 0.194873 0.420575 -0.140907 -0.0158593 -0.0216949 0.496908 0.134122 0.0455019 0.348114 -0.243074 -0.106211 0.312347 0.0317342 -0.170025 0.321218 0.457622 0.367569 -0.231587 -0.412051 0.357441 0.318189 -0.183968 0.211295 -0.215016 0.423889 -0.300703 0.456026 -0.0304215 -0.20574 -0.0487093 0.408576 -0.47862 0.277625 -0.24834 -0.185611 0.429962 -0.359183 -0.248524 -0.243436 0.263227 -0.0723222 -0.1177 -0.496138 0.356653 0.190999 0.266203 -0.492343 0.380666 -0.0101655 -0.361309 -0.480986 -0.161405 0.418367 -0.319183 0.271658 -0.499371 -0.397551 -0.0921842 -0.247379 -0.454598 0.275429 0.437622 0.460145 0.25029 -0.0943354 -0.373685 -0.424824 0.441347 0.360867 -0.045611 0.0984236 0.445219 -0.110423 -0.265021 0.0819569 0.278721 -0.215317 0.155187 0.444815 0.418341 0.236022 -0.26731 -0.379952 -0.29639 -0.463474 0.357501 0.155119 0.0962876 -0.0780761 0.100838 0.0546588 0.419019 0.0321664 -0.0384011 -0.0647127 -0.305993 -0.0619091 -0.207605 -0.130667 -0.253274 0.144703 0.45391 
0.272744 -0.368585 -0.0572466 -0.293944 0.27625 -0.435279 -0.074221 0.442243 0.437078 -0.141178 0.312617 -0.379394 -0.0926255 0.237673 0.446828 0.39986 -0.370485 -0.442717 0.0468938 -0.181934 0.462833 -0.403567 -0.212893 0.0341578 -0.43585 0.0216531 -0.0520446 0.0639058 -0.013325 -0.248797 0.417458 0.233249 -0.0402894 -0.00383103 -0.279376 0.223983 0.449997 0.358798 0.405312 0.397681 -0.440412 0.342501 0.196394 0.317739 -0.0665256 0.482611 -0.0635491 -0.0326734 -0.163182 -0.248709 -0.361521 -0.386384 0.105089 0.223088 0.353789 -0.435806 0.358529 -0.0818562 -0.2452 0.169625 0.0396331 0.0360628 -0.343665 0.148073 -0.17097 0.0873 -0.362273 -0.230889 -0.00439968 0.184942 -0.344752 -0.484625 -0.0753837 -0.414099 0.0221814 -0.288226 -0.0500081 -0.200092 0.0557807 0.195709 -0.262998 0.411987 -0.0978345 0.359809 -0.475588 -0.0724221 0.191562 0.4567 -0.233963 -0.107098 -0.290729 0.20656 -0.232097 -0.394692 -0.160522 0.483491 0.0577228 0.187723 -0.098404 -0.0402542 -0.0276471 0.0416013 -0.49465 0.00288464 -0.18808 0.488043 -0.274185 -0.360354 -0.0712874 0.328941 -0.391731 -0.0103234 -0.488668 -0.124315 0.450457 -0.402429 0.125883 0.082216 -0.488456 -0.346428 -0.312335 0.326412 -0.183348 -0.329269 0.382178 -0.286883 -0.191545 -0.383364 0.448568 -0.242838 -0.475328 0.169029 -0.318695 -0.10593 -0.190495 -0.383975 0.156615 -0.439422 0.259893 -0.417768 -0.0356021 0.270892 0.0230042 0.418367 0.403986 0.321515 -0.49776 -0.40458 -0.247607 -0.385051 0.233712 -0.277264 -0.0686769 0.498534 0.401765 -0.486748 0.476708 0.327944 0.302051 0.46149 0.2864 0.00417959 -0.422695 0.173411 -0.369425 -0.343901 0.106421 -0.102581 -0.337409 0.386372 -0.198443 0.0205557 0.284156 0.188703 0.493904 -0.0254071 -0.436746 -0.0466948 -0.43321 0.298595 -0.260754 -0.356727 0.372896 0.388423 -0.174891 -0.171107 -0.28634 0.461329 -0.265517 0.355769 0.495252 0.185471 -0.0752828 0.207938 0.471311 0.12114 0.309024 0.253103 0.138058 -0.281004 0.374876 -0.053066 -0.269748 0.0536574 0.48025 0.378461 0.233223 -0.460166 0.312214 0.0643052 0.285649 -0.303752 0.0966409 0.416228 0.230305 0.293428 -0.141809 0.160731 -0.312523 -0.100414 0.00645682 -0.342512 -0.389205 0.177009 -0.29915 -0.481697 -0.0654894 0.381315 -0.201558 -0.0424543 0.208961 -0.28629 0.239931 -0.295783 0.321298 0.310812 0.431757 0.268868 0.130111 -0.103389 0.0490014 0.315692 -0.396021 -0.0695055 0.49168 0.141035 0.00404633 -0.158121 -0.123574 -0.1045 -0.194709 0.0356074 0.494907 -0.42786 -0.19852 0.051166 -0.368684 -0.401289 -0.47193 0.253822 -0.342166 -0.178071 -0.0489942 -0.254185 -0.268546 0.445709 0.283042 -0.4494 -0.209846 0.482854 0.274711 0.496689 0.079515 0.45471 -0.110273 -0.154828 0.160051 0.0387069 0.170293 0.428818 -0.364377 0.257895 0.208864 0.493519 0.458376 -0.404845 -0.187727 -0.246744 0.476806 -0.00980186 0.37566 0.322589 -0.0683772 0.210482 -0.182047 -0.0895572 0.479003 -0.386965 0.272429 -0.0467575 -0.176462 -0.331777 -0.395949 0.229766 -0.0439202 0.110726 -0.273039 0.216639 -0.467839 0.12335 0.272301 0.218158 -0.226953 0.207416 -0.429977 0.179576 0.471791 0.2104 0.327913 -0.345729 0.0274073 0.305603 0.362434 -0.339418 -0.415797 0.471105 -0.4898 -0.441839 0.0254454 -0.131729 -0.150239 -0.129438 -0.258016 0.400966 0.142245 -0.017057 0.150822 0.164666 -0.292856 -0.0340634 0.301478 0.278294 0.236072 0.214871 0.190792 0.246022 0.117829 -0.111461 0.207813 -0.472215 0.0458584 0.0349269 0.485641 0.400545 -0.0175244 -0.384127 0.136356 -0.0579132 -0.466647 0.27059 0.15946 -0.402078 -0.0504964 0.073447 -0.0935738 0.105965 0.116017 0.289814 -0.128787 0.00543073 0.310029 -0.0145406 -0.229477 0.383224 -0.369749 0.30965 -0.313474 0.0385619 0.11108 0.254522 -0.431729 0.435922 0.430349 0.272093 0.327566 0.0935997 0.0289694 -0.295195 -0.0237163 0.200134 -0.423812 0.0207926 0.0260916 0.431893 0.0847658 0.0190875 -0.0533617 -0.133519 0.00246024 -0.0393714 -0.436871 -0.184509 0.0937683 0.0203519 -0.0595892 0.151242 0.421728 -0.1267 0.499676 0.170315 -0.263235 0.308656 0.486595 0.15815 0.211751 -0.467068 0.224003 0.0191141 0.265472 0.480947 0.228876 -0.10746 -0.114773 -0.212672 0.482495 0.0902521 0.380099 0.145692 -0.0607482 -0.347231 -0.455309 0.271979 -0.300018 0.242217 0.264109 0.117836 -0.306923 0.261776 0.326703 -0.116768 -0.403837 -0.00832335 0.112404 0.302836 -0.284088 -0.372018 0.395902 -0.250475 0.496259 0.40268 0.405767 0.0100635 0.206785 0.215132 -0.0157123 0.0243512 0.0466479 -0.342689 -0.011268 0.359727 -0.283051 -0.198729 0.422962 0.249331 -0.0924503 -0.35379 -0.299631 -0.0021173 0.142292 -0.0873208 0.173359 0.474046 -0.327916 -0.135105 0.12121 -0.406972 -0.213404 0.103969 0.0785128 0.465856 -0.480488 -0.228511 0.243862 -0.258339 0.0712804 0.37901 -0.208401 0.137418 -0.177185 0.418895 -0.00113102 0.0254818 -0.202591 0.00154347 0.195818 -0.0803311 -0.361438 -0.496944 0.175867 0.190308 0.0476962 -0.0740425 -0.319382 -0.0751072 -0.446686 0.027167 0.387852 0.336338 -0.315696 0.297463 -0.111575 0.352537 0.359699 -0.223794 0.456679 0.0025894 -0.402358 -0.271579 0.0926502 0.0871254 0.133413 0.205931 0.234985 -0.233218 0.285905 -0.120391 -0.180286 0.39331 -0.246306 -0.404632 -0.221127 0.114919 -0.406767 -0.0809188 0.13182 -0.455485 0.394871 -0.0480683 0.454136 0.383833 0.346344 -0.223444 -0.481325 -0.331616 -0.155428 -0.241875 -0.00686693 0.118722 0.231375 -0.37633 0.357155 -0.150275 0.41946 -0.327719 -0.013792 -0.0400771 0.42273 0.165589 0.114961 0.0709567 0.0493252 0.0283641 -0.0539264 -0.190589 0.0770448 -0.28938 0.0584141 -0.478588 -0.479342 -0.0387105 -0.0993846 0.367438 -0.104404 -0.438906 0.477636 -0.0585561 -0.48379 -0.439282 -0.429416 -0.00743449 0.179936 0.432544 0.108317 -0.115714 0.0396796 -0.347466 -0.0296277 -0.447224 -0.462017 0.283382 0.385822 -0.306195 0.220097 -0.294946 -0.110039 0.349325 0.333914 0.130887 0.016307 0.282164 0.0115466 -0.274519 -0.0966261 0.460478 0.3105 0.263161 -0.36073 0.139881 0.0763918 -0.379448 0.404243 -0.38818 0.253203 0.377098 0.133164 -0.246106 -0.0772334 -0.280956 0.166267 0.486864 0.170804 -0.333508 0.0927678 0.403459 -0.0114349 0.0126502 -0.0708737 -0.479357 0.0219378 0.479556 0.0116673 0.335117 -0.49776 -0.346793 -0.430657 0.23039 0.16176 0.0316642 0.267721 -0.319122 -0.215409 0.258277 0.296351 -0.0737911 0.330698 0.29791 -0.476747 0.343707 -0.0297042 -0.189397 -0.219629 0.110004 -0.194766 0.375666 0.275907 0.437876 0.165815 -0.133498 -0.32354 0.41305 -0.299314 -0.271768 0.312035 -0.122275 -0.0138875 0.0750122 0.0341838 0.234227 -0.407977 -0.31818 0.474371 0.436304 -0.455606 0.280128 -0.377362 0.158096 -0.403883 -0.401954 -0.0901498 0.0101334 -0.4701 0.0288474 -0.159127 -0.387236 0.457444 -0.0438757 -0.14913 -0.0298685 -0.0261582 0.179745 0.484862 -0.455683 0.264127 0.276918 0.0226927 -0.412866 0.393748 -0.278586 -0.369002 0.0927697 -0.368062 -0.24201 -0.417092 -0.0458326 -0.22574 -0.493341 -0.44846 -0.0719928 -0.493488 0.421854 0.0871222 0.44364 0.102069 -0.339765 0.262653 -0.0609703 -0.181423 0.0910923 0.328458 0.4507 -0.406354 -0.386683 0.308536 -0.425362 -0.305161 
