-1.31363 -0.482597 0.745787 -0.226104 -0.987456 1.32261 -0.294094 0.313576 -0.784947 -0.212892 -0.0125896 0.42525 -1.05433 -3.815 -2.14006 -1.38959 -0.599848 1.56951 -0.16663 -3.12556 -1.01151 -0.642166 0.110292 0.59563 -1.37511 0.440931 1.16141 -0.872955 -0.541145 -0.652257 -0.700778 -0.652408 -0.493277 0.660141 0.236188 -0.470084 -1.13458 -0.208925 -4.64192 -0.324792 -1.27334 0.158293 0.682902 -0.283885 -0.941752 -0.527988 -0.180436 0.709263 0.178801 1.11376 -0.33184 0.210249 0.120479 -0.179021 -2.76287 -0.763281 0.0363233 0.788412 0.742546 -0.79231 -0.653823 0.861632 0.140385 -2.47643 -0.890597 -0.880248 -0.624623 -0.196494 0.865078 1.11364 -1.27169 2.25051 0.346605 0.308762 -0.724187 -0.72187 -0.830344 1.59305 0.859844 1.95563 0.674433 -0.999752 -0.166944 -1.07785 -0.717416 0.473053 0.655835 0.86502 1.91936 3.91606 0.238362 -1.3194 -0.0268078 0.07947 -0.272194 -0.915046 -1.40533 -0.85035 -0.758788 -0.473782 
0.134303 -0.00413094 -0.181992 0.154543 0.838032 0.509819 -0.166389 -0.0795723 0.190219 0.251851 0.050046 0.000725063 -0.301919 0.335354 0.029753 -0.511288 0.26482 0.169909 0.456844 -0.00380191 -0.308118 0.0497464 0.220001 0.0731512 -0.0883417 -0.0976635 0.287203 0.283228 0.10925 -0.573443 0.972338 -0.355937 -0.157407 0.13615 -0.460506 0.130887 1.50867 -0.644468 0.301986 -0.384422 -0.651533 -0.385218 0.350475 -0.272986 -0.116441 0.211219 0.0173297 0.314635 0.410414 -0.804928 0.687264 -0.792311 -0.308237 -0.115435 0.476624 -0.0470421 0.043023 -0.235431 0.0470293 -0.627288 0.253684 -0.379544 0.195532 1.07601 -0.788465 -0.0976741 -0.268842 0.529153 -0.321768 0.328692 -0.514947 -0.394506 -0.700559 -0.0170852 0.247076 0.368354 -0.576284 0.0450004 0.276223 0.139717 0.198119 -0.363859 0.0177051 0.131433 -0.506864 -0.242323 -0.377058 -0.0139518 0.147419 -0.0640857 -0.168487 -0.454713 -0.039774 -0.0478961 0.724557 -0.990519 0.0299436 0.158009 -0.364283 0.0970528 0.0974942 -0.654508 -0.753793 -0.13366 1.01816 0.136619 -0.553566 0.549087 -0.201561 -0.642832 0.172401 -1.15771 -0.747346 1.58352 0.156616 -0.947109 -0.5143 -0.14504 -0.559162 0.686743 -0.77069 -0.0763417 -0.319072 -0.337228 0.315478 0.541437 0.114419 0.524193 -0.0875015 -0.125847 0.309596 0.43833 0.564387 -0.638531 -0.462499 0.234274 -1.50041 -0.0758169 0.932022 0.92771 -0.261067 -0.260889 -0.150578 0.45446 0.125079 -0.0671262 -0.525254 -0.262344 0.324949 0.236385 -0.512165 -0.208693 0.537448 -0.0142594 -1.10037 -0.16334 0.363487 -0.276747 0.538153 -0.82086 -1.1624 2.16631 -0.263474 0.042616 -0.725745 -0.512451 -0.0360235 0.360182 -1.25215 0.0932997 -0.410104 -0.101496 -0.330334 -0.516569 0.197045 0.105146 0.0932337 -0.657093 0.215798 -0.271068 -0.791973 -0.567147 0.0873784 -0.739325 -0.00666915 -0.118831 -1.24287 0.305625 0.78537 0.394755 -0.339806 -0.452315 -0.110345 0.0386583 0.347385 -0.727549 -0.255086 -0.655849 0.525612 -0.309242 -0.349949 -0.194285 0.660362 0.502943 0.034007 -0.807231 -0.366595 0.292567 -0.00110951 -0.817908 -0.794008 -0.111813 0.510768 0.675272 0.241929 -0.204922 -0.566889 0.279925 0.12765 0.0682452 -0.189054 -0.565942 0.189702 0.654764 -0.224967 -0.323316 0.0496411 0.238046 0.387162 -0.55737 0.391911 -0.126047 -0.228895 0.339038 0.189448 -0.441944 0.0504373 -0.159901 0.485671 0.086733 0.0276546 -0.396389 0.316981 -0.230018 -0.108284 -0.527023 0.232467 -0.366586 0.469503 0.0773643 0.175197 -0.580828 -0.32624 0.588896 0.124975 0.313576 -0.434312 -0.296035 -0.256462 -0.191119 0.327695 0.212309 0.224387 0.210651 -0.899559 -0.700962 -0.257876 0.306963 0.222483 0.799815 -0.25271 0.0179652 -0.0550964 -0.0819063 -0.0926215 -0.175606 -0.295033 0.641223 0.471823 0.304069 0.00715981 -0.395072 -0.205501 0.53711 -0.589892 -0.0654517 1.80147 -0.53392 -0.631202 -1.09267 -0.0281299 -0.00167667 0.670559 0.400502 0.48126 0.447893 -0.0956085 -0.774893 -0.162666 -0.56032 0.261672 -0.439523 -0.0797397 -0.0719388 0.536185 0.508912 0.256135 -0.575805 -0.205669 -0.185895 0.127571 -0.350386 -0.260531 0.804014 0.191937 -0.81806 0.0154463 0.00678922 0.377107 0.16481 0.0612877 -0.509845 -0.442183 0.0622699 0.414542 0.713319 -0.250609 -0.402035 -0.473305 0.638124 -0.242987 -0.491582 -0.193154 -0.689583 0.0308411 0.667711 -0.908507 -0.297953 1.37793 -0.110174 -0.411716 0.148645 -0.25772 -0.32633 0.764008 -0.754095 -0.107729 -0.782787 -0.227938 0.0718889 0.322393 0.215641 -0.548373 -0.119622 -0.193486 -0.121992 -0.351891 0.641013 -0.63794 0.0862236 -0.510442 -1.8825 -0.512212 0.485995 0.0536067 -0.206 -0.408668 -0.413254 0.175002 0.779838 0.0883832 -0.509446 -0.306729 -0.0464466 -0.681008 -0.48683 0.0218831 -0.476502 -0.622759 -0.0212451 -0.111451 -0.0377731 0.279252 0.0042247 -0.308874 0.244806 -0.389585 0.138369 -0.00379476 0.252373 -0.416441 -0.243752 0.394544 0.0505806 0.232295 -0.0969969 -0.117496 -0.432081 0.272568 -0.247074 -0.794986 -0.423008 -0.0767725 -0.0533632 -0.51906 0.242863 -0.429116 0.792594 -0.0893008 -0.659184 -1.24523 -0.159981 -0.0264262 0.176959 0.223999 0.199123 -0.626963 0.0342339 -0.397024 -0.349948 0.19072 -0.31698 0.134104 -0.299209 -0.39581 -0.365933 -0.0682209 -0.423365 -0.363613 -0.503892 0.999874 -0.0580072 -0.103737 0.578855 -0.0684257 -0.103098 -0.38788 -0.480716 -0.97337 -0.0796924 0.30195 -0.564366 0.36286 0.563607 -0.309102 0.192065 -0.252246 -0.630823 -0.257408 -1.10675 -0.0559695 -0.47708 0.308291 0.244274 0.278159 -0.602385 0.0373832 0.188628 -0.230899 -0.807768 -0.549873 -0.68824 0.0660839 0.865902 -0.286117 -0.645039 -0.260792 -0.150801 -0.478047 0.743008 -0.759806 -0.580072 -0.366869 0.611473 -0.489232 0.299251 -0.70997 -0.293173 0.0972366 0.387796 0.250228 -0.268337 -0.792068 -0.20047 -0.327965 0.203696 0.922406 -0.651629 -0.183112 -0.304043 -0.31133 0.212027 0.314387 -0.453487 0.442726 -0.290121 -0.407735 -0.0823309 -0.486464 -0.662824 -0.436837 -0.351069 -0.421428 0.182649 0.674213 0.352548 -0.213116 0.0370243 0.0769038 0.162896 0.0197688 -0.734934 -0.644132 -0.0801669 -0.257195 -0.265143 0.100191 -0.176381 0.643884 -0.250805 -0.0851846 -0.42965 -0.481777 0.0207224 -0.386554 -0.509022 -0.217311 -0.0867805 0.389165 0.478224 0.752176 0.24791 -0.132464 -0.174726 0.110964 0.442325 -0.51673 0.0988296 -0.327192 0.447978 -0.392537 -0.586355 0.416556 0.907196 -0.478278 0.0190578 -0.253558 0.285934 -0.377263 -0.333042 0.23525 -0.406283 0.0793971 0.558699 -0.33322 -0.0587324 -0.315131 -0.00426969 0.30028 -0.498726 -0.598581 -0.517806 0.120477 1.32196 0.257393 -0.734259 0.271673 0.252 -0.077725 -0.463584 0.291739 -0.0485254 -0.491958 -0.474459 -0.127356 0.482092 -0.68396 0.327034 -0.582684 0.0525458 0.509573 -0.479624 -0.437815 -0.194499 0.105631 1.03539 -0.465206 -0.199195 -0.11213 -0.731334 0.0297167 0.0523388 0.0975059 0.141471 0.786949 -0.487083 -0.672195 -0.196743 0.238164 -0.707549 -0.112827 0.0456472 0.895668 0.554663 -0.0256631 -0.285667 -0.38433 -0.497222 0.370452 -0.00060609 0.242407 0.423899 0.110228 0.0853978 0.319549 -0.177389 -0.101081 0.0422613 -0.241947 -0.0637666 -0.214905 -0.609786 -0.594066 -0.0503796 0.356456 
0.299688 -0.0457966 0.371195 -0.613312 0.277676 -0.453652 -0.31346 0.249478 0.333763 -0.699117 0.509174 0.104864 0.0963231 0.317509 0.0937807 0.263312 -0.649002 -0.676412 0.0820031 0.32665 0.478756 -0.463305 -0.303162 0.24829 -0.387865 0.0102838 -0.0829612 0.0748964 -0.00373142 -0.24367 0.416583 0.280729 -0.0883678 0.00370491 -0.310965 0.178324 0.491168 0.357206 0.389563 0.329556 -0.472029 0.335678 0.159959 0.345429 -0.0352621 0.452224 -0.101559 -0.0254428 -0.177119 -0.211606 -0.415088 -0.35657 0.259121 -0.0515637 0.0784216 -0.77259 -0.224869 -0.0271653 -0.0495878 -0.135036 0.091285 0.48148 -0.433294 0.101857 -0.360349 0.107085 -0.556587 -0.52302 0.0948295 0.0957909 -0.254578 -0.511081 -0.179966 -0.301903 0.161265 -0.346725 -0.0539592 -0.186984 0.0246454 0.0938167 -0.322666 0.277633 -0.0619613 0.394943 -0.570437 -0.0568517 0.309507 0.411525 -0.279301 -0.131234 -0.250197 0.203037 -0.284652 -0.320571 -0.330599 0.547361 0.0604195 0.192056 -0.0728693 -0.0624504 -0.0313514 -0.00189808 -0.551888 0.225064 0.00956977 0.0649748 -1.02278 0.416592 0.206923 0.263931 -0.576839 -0.485166 0.0396386 -0.0494775 0.753155 0.232214 0.475369 0.65887 0.00032451 -0.741531 0.205627 0.638188 -0.449448 0.505349 0.550579 -0.661546 0.0810451 0.0792694 0.157802 -0.301889 -0.458931 -0.386188 -0.297064 -0.176455 -0.233456 -0.249183 0.125929 -0.462657 0.17175 -0.263163 -0.438268 0.459955 -0.12979 0.632564 0.334014 -0.103428 -0.645744 -0.324929 -0.0899864 -0.455746 0.15019 -0.285644 0.0147385 0.454861 0.282812 -0.500931 0.507891 0.250809 0.257237 0.329196 0.297726 0.16295 -0.423789 0.146862 -0.42726 -0.405332 0.0781052 -0.0929228 -0.306957 0.398673 -0.273569 -0.0373122 0.273533 0.213682 0.577029 -0.165989 -0.073444 0.0575279 -0.841769 0.181734 -0.00845239 0.3466 0.0502615 0.410523 -0.526227 -0.162933 0.10784 0.407014 -0.266715 -0.224601 0.346486 -0.119682 -0.425565 0.0812492 1.10759 -0.266222 0.0330029 0.730205 -0.439775 -0.24302 0.557203 -0.185046 -0.132785 -0.119629 0.391012 -0.15216 -0.607255 -0.790591 0.416303 -0.373613 0.208906 0.222631 0.0755366 0.129306 -0.127482 0.170363 -0.511688 -0.288642 -0.461176 -0.15884 0.0208081 -0.341618 -0.805704 0.0734651 -0.342498 -0.506504 -0.0762754 0.374196 -0.225328 -0.0476837 0.220054 -0.269903 0.230871 -0.294187 0.307852 0.313567 0.462781 0.283316 0.10244 -0.101896 0.0487414 0.331906 -0.376724 -0.0393822 0.508123 0.134166 -0.0176981 -0.135279 -0.117121 -0.118053 -0.295899 -0.104044 0.535112 -0.603853 0.113125 0.323158 0.0128115 0.0196706 -0.345681 0.352113 -0.189561 -0.468945 0.0424089 -0.131368 0.209739 0.412759 0.519983 -0.616794 -0.0729128 -0.000632127 0.165853 0.332152 0.18662 0.397731 -0.188605 -0.27887 0.490169 0.0925346 -0.0995504 0.104963 -0.622531 -0.117395 0.0179967 0.341256 0.0932483 -0.342574 0.151829 -0.463535 0.347574 -0.503334 0.162667 0.0255805 -0.343227 0.109851 0.218256 -0.345211 0.341875 -0.474714 0.34478 -0.0891042 -0.193864 -0.280721 -0.301144 0.0152606 -0.125012 0.219769 -0.00651353 0.0858548 -0.328258 -0.238742 0.313947 0.539014 -0.252625 0.286108 -0.69227 0.100397 0.220834 -0.0527579 0.295274 -0.193112 0.00687466 0.169922 0.575931 -0.638471 -0.217815 0.272123 -0.613257 -0.942073 -0.831449 0.0088368 1.00783 0.663954 0.380894 1.25075 -0.0302491 0.525955 0.0585108 -0.0528956 -0.488455 0.404927 -0.193536 0.0436733 -1.56501 0.427026 -0.638727 -0.330534 -0.876605 1.05677 -1.1795 -0.704279 -0.0498603 0.238419 0.00442399 0.00520668 -0.109768 -0.151431 0.778943 -0.205007 -0.243934 0.0660441 0.476453 0.000459711 0.134968 -0.392945 -0.434377 -0.373646 -0.212521 -0.602116 -0.278081 -0.151234 -0.473715 -0.827158 0.0159295 -0.266631 -0.202003 0.0413343 -0.382462 0.0624641 -0.0490368 -0.00463487 -0.255967 0.542745 0.53664 0.448929 0.0659896 0.0814074 0.242252 -0.362652 -0.0643303 0.173525 -0.462629 -0.0232506 -0.0348781 0.624526 0.0178392 -0.0900861 -0.287463 0.074437 -0.0542134 0.128824 -0.455503 -0.205231 0.117726 0.0386366 -0.10996 0.0801578 0.41725 -0.181008 0.459954 0.0864746 -0.243407 0.429841 0.497346 0.125892 0.176298 -0.479644 0.206603 0.0387841 0.271207 0.538964 0.284316 -0.0730712 -0.158214 -0.154621 0.521726 0.00798681 0.46586 0.274887 -0.245454 -0.481737 -0.689151 -0.472361 -0.384003 0.284262 0.216947 0.180158 -0.0123158 0.244184 0.151008 -0.344896 -0.56856 -0.0225587 -0.17777 0.308671 -0.322929 -0.487883 0.465988 -0.371859 0.643844 0.436439 0.32272 -0.18936 -0.030776 -0.0259189 -0.0472303 0.204655 0.438874 -0.106081 0.229052 0.290124 -0.3805 -0.20345 0.292554 0.089415 -0.0830469 -0.354328 -0.29483 -0.404513 0.147294 -0.445028 -0.0528057 0.145594 -0.157683 -0.507494 0.0116058 -0.70622 -0.46032 0.00577538 -0.201257 0.304655 -0.350908 -0.0156629 0.48294 -0.120444 -0.342704 0.493106 -0.22775 -0.229259 -0.081022 0.345647 -0.261692 -0.381019 -1.04917 0.275997 -0.112534 -0.379927 -1.05637 -0.260375 -0.14244 0.112574 -0.036455 -0.0889725 -0.317401 -0.108159 -0.537575 0.0534448 0.387661 0.30206 -0.323158 0.174536 -0.085323 0.478121 0.362489 -0.279584 0.480156 0.00791507 -0.403088 -0.23916 0.0919203 0.0894486 0.160685 0.218869 0.258135 -0.225196 0.293057 -0.046278 -0.181909 0.456361 -0.246821 -0.245241 -0.361864 0.118179 -0.620928 -0.270972 -0.0181684 -0.475775 0.469091 0.0237569 0.426443 0.181475 0.240152 -0.353516 -0.55352 -0.413332 -0.079735 -0.378291 -0.125723 0.00339577 0.106753 -0.477136 0.302062 -0.151856 0.465883 -0.32808 -0.0423976 -0.0364143 0.485475 0.120676 0.118225 0.0592067 0.0101274 0.0904634 -0.0465289 -0.214566 0.00518099 -0.315514 0.0577763 -0.487997 -0.42515 -0.0451797 -0.17609 0.306317 -0.0902429 -0.429707 0.515558 -0.0894103 -0.48849 -0.38042 -0.421864 -0.0945691 0.0763635 0.511576 0.0209704 -0.140149 0.021486 -0.374789 0.106448 -0.509012 -0.534672 0.1683 0.361779 -0.281529 0.226933 -0.289587 -0.0455416 0.360898 0.350798 0.10321 0.0361729 0.323772 0.0850869 -0.238077 0.0199127 0.260604 0.278162 0.349217 0.0175708 0.225367 0.241525 -0.749552 0.507822 -0.0190391 0.325046 0.416954 -0.0278148 -0.230965 -0.187904 -0.511846 0.268257 0.716265 0.323283 -0.36875 0.264411 0.194249 0.21997 0.639785 -0.523751 -1.63224 0.193677 0.511099 0.706613 0.204789 -0.291545 -0.649858 -0.0592947 -0.144685 0.146348 -0.670906 0.136677 0.337292 -0.162232 0.2474 0.370456 0.138079 1.66485 0.741778 -1.24766 -0.129365 0.436397 0.239671 -0.304518 0.136709 -0.0939313 0.781236 -0.846473 0.592011 1.1487 -1.07976 0.127148 1.05651 0.216236 0.109708 0.484626 -0.359278 0.202271 -0.625238 -1.44954 -0.923326 0.191567 1.23016 1.44066 1.01043 -1.83702 -0.589396 -0.132894 -0.0671098 -0.0369913 -0.0906197 -0.160869 -0.0107344 0.0806697 0.056507 0.0803101 -0.0205418 0.439127 0.713714 0.417079 0.335324 1.13745 -0.300278 0.575067 -0.743561 0.161657 0.971352 0.577733 -1.05356 0.499631 -1.02193 -0.712076 1.01115 1.23088 -0.724637 -0.860317 -0.320922 -0.389282 -0.647978 -0.969854 0.181395 -0.581342 1.21009 -0.0630452 1.05498 1.21113 0.22636 0.669297 0.177634 -0.304185 0.367946 0.536484 0.156925 -0.712577 -0.119621 0.341926 -1.43379 -0.946233 
