
-0.550993 0.152685 0.305569 -0.277895 0.458915 -0.0840292 0.317748 0.591648 -0.10148 -0.416019 -0.105427 0.0136524 0.454746 -0.556084 -0.131876 0.207639 0.115143 0.371014 -0.554193 -0.369891 -0.43844 0.0913992 0.0218271 0.492932 -0.379012 0.430621 0.305542 -0.575177 -0.346227 -0.353247 0.394455 0.264035 0.0678991 -0.121561 -0.13025 -0.240121 0.207993 -0.350538 0.204089 -0.46026 -0.363296 -0.0987354 0.285928 0.0221159 0.512099 0.48731 -0.117913 0.256227 0.319723 -0.107009 0.530822 -0.131087 0.231316 0.374552 -0.380372 0.248806 -0.486774 -0.0523825 -0.599163 0.128563 0.433442 -0.570166 0.555283 -0.573486 0.289087 -0.0995725 -0.442635 0.188674 0.482265 0.532027 -0.144428 0.567141 -0.180704 -0.264374 -0.292801 0.560182 0.0773576 0.543892 -0.186844 0.0827155 0.255798 0.527423 -0.559345 -0.548795 0.48955 0.216678 -0.127432 -0.229283 0.361664 -0.140228 -0.493841 0.299124 -0.334413 0.0594592 -0.515145 -0.394524 0.559523 -0.370533 0.00807481 0.592002 
-0.421081 -0.0820113 -0.548047 0.103521 -0.0293877 -0.557643 -0.306537 0.450523 0.146435 0.303897 0.154563 -0.065999 0.174483 0.581188 0.0764908 0.346056 0.259599 0.148974 0.0149124 0.0770633 -0.177926 0.469538 0.116009 -0.237427 -0.55988 0.495873 -0.460146 0.216211 -0.511474 -0.21387 -0.0262602 -0.0424679 0.250563 0.164043 0.538352 -0.154525 -0.211647 0.00744858 -0.481041 -0.504507 -0.504444 0.210622 -0.430563 -0.31129 0.414625 0.35058 0.0205159 -0.332983 -0.170502 -0.28853 -0.342411 0.284185 0.232953 -0.181011 -0.445556 -0.378094 -0.0566363 -0.0935464 -0.345833 0.212522 0.569363 -0.146995 0.497053 0.152129 0.189103 -0.0435448 -0.0430851 -0.280653 -0.0383792 0.453527 0.468387 0.077914 0.473043 0.354555 -0.0143309 -0.375275 0.148098 -0.386487 -0.40508 0.592439 0.535289 -0.0855488 -0.570559 -0.535576 0.35585 -0.341916 0.504613 0.21684 -0.325348 -0.0729863 -0.107509 -0.0365034 -0.296463 0.548913 -0.348454 -0.196738 -0.053971 -0.137936 -0.577828 0.189094 
-0.119093 0.543867 -0.369365 0.239056 0.305016 -0.576111 -0.591649 0.458004 0.49263 -0.392933 0.34413 -0.594516 0.49582 -0.344663 -0.180053 -0.457556 0.593726 0.00955833 -0.589932 -0.372788 -0.145749 0.396161 0.511077 -0.587835 0.444733 0.136245 -0.236186 -0.226921 0.0707897 -0.285426 -0.566043 -0.364437 -0.331124 0.288791 -0.481856 0.356294 0.29826 0.0320641 0.0191514 0.193026 0.322336 -0.291699 0.0435157 -0.354368 0.0909504 -0.456958 0.514304 0.267371 0.0488393 -0.123203 -0.444604 0.55684 0.190723 0.37909 0.35809 -0.320411 0.494213 -0.188082 0.203095 0.385515 -0.0816224 -0.424943 0.18746 -0.024009 -0.388761 0.101426 -0.533609 0.323105 -0.0278732 0.502868 0.346137 0.299819 0.464407 0.223896 -0.535743 0.131387 0.327247 -0.307851 0.445481 0.0811947 0.239144 0.397081 -0.441945 -0.0970856 0.337449 -0.457726 -0.360686 -0.281153 -0.410688 -0.0966126 -0.0530925 0.147585 -0.598283 -0.230792 -0.539077 -0.350949 -0.433053 -0.59332 0.463211 -0.216896 -0.00693334 -0.0816724 -0.344069 0.549129 -0.192894 0.515192 -0.54484 -0.314583 0.0224184 -0.529357 0.146418 -0.111717 0.539974 -0.534087 -0.506937 -0.508969 -0.131971 -0.435757 0.0674384 0.0281186 -0.114371 -0.146253 -0.101786 0.414292 0.179031 0.0589797 0.0113911 -0.253038 -0.273967 -0.0286509 -0.0173693 0.0832791 -0.108887 0.476166 -0.0311428 -0.0392898 0.321474 -0.00104613 0.0773041 -0.159975 -0.0467555 0.439378 0.146874 -0.449282 -0.096722 -0.238205 0.422604 0.458924 -0.505447 -0.422016 -0.463716 0.451416 0.188808 -0.43459 -0.481777 0.133348 -0.340428 0.252908 0.29877 -0.172219 0.287579 0.499459 0.135238 -0.0712795 0.434439 0.118655 0.557601 -0.319778 0.526944 -0.443814 -0.539435 -0.349614 0.244418 0.594012 0.313222 0.0650043 -0.485972 -0.292537 -0.476989 -0.201555 0.312459 -0.184242 0.313473 0.549156 -0.379591 0.281591 0.212681 -0.399758 0.437133 -0.458098 0.241666 -0.243954 0.0122779 -0.257298 0.469658 -0.590279 0.351796 -0.0739912 0.206693 0.513464 

