
-0.0320027 0.696806 -3.81773 -1.92586 -0.926955 -3.92966 -3.38771 2.47182 -2.05973 -3.96841 -3.23079 -3.60558 -3.31075 -3.28411 -3.48299 -2.87289 -3.28419 -3.49967 0.983384 -2.61085 -8.84107 -3.27165 -2.26639 -2.36049 -5.33818 1.94597 0.105446 0.653666 3.93213 1.12002 1.4691 1.18034 -3.53095 -0.119573 1.00399 0.868424 1.09716 0.849673 1.03362 0.698612 0.507571 0.819252 1.49375 3.51207 1.22792 11.9802 1.15014 0.919687 -3.48305 4.86047 -4.34807 -2.46244 -4.60747 3.29542 -4.40569 -4.07254 -4.44982 -0.0747939 5.33821 -4.20795 -4.20575 -4.12559 -4.16761 -4.62349 -4.32161 -3.81592 -4.25979 -4.53404 1.21745 -2.75148 4.3097 -4.47874 -3.50232 1.65421 3.86747 -2.02718 -0.000414978 -3.6608 0.23332 4.01749 -3.86231 -2.94486 0.0240877 -4.67805 -3.48826 -3.76424 -3.62006 -4.46993 -3.11179 -4.16375 -4.17529 -3.08675 -4.66784 -1.29639 -3.71106 -4.50809 -3.79292 -3.38858 -0.34429 -1.6302 
-0.795211 -1.68712 -2.25044 -0.198878 0.914848 -2.31308 -1.93228 -2.70824 -0.961785 -1.37433 -1.3712 -1.72176 -1.5074 -0.986044 -1.69606 -0.936626 -1.27578 -1.66617 1.41775 -1.25366 -0.018414 -0.996308 -1.16329 0.497492 -0.576823 1.11377 1.11757 1.22436 1.01882 -0.863754 1.01909 0.900148 -1.29352 4.58345 1.29973 0.86791 0.632114 0.873433 0.787394 0.531171 0.612615 0.945603 0.843487 -5.39166 0.925905 -3.65789 0.903093 0.456909 -0.552271 1.63434 0.693953 0.333915 0.0137508 -2.03348 -0.718038 -0.695311 -0.156983 4.03313 -2.38978 -0.113495 0.461465 -0.384978 0.26357 0.134009 0.0367774 0.0457269 -0.144338 -0.361641 3.51469 0.251496 -1.17912 -0.0221537 0.486421 -1.19281 1.29966 0.57591 0.996436 0.33042 1.45256 4.37028 1.20505 0.5956 4.63317 -4.18298 0.784706 0.386886 1.02032 0.829126 0.532831 0.605613 0.891453 0.506073 0.629296 6.72269 -0.116888 -7.87441 0.595704 0.471345 4.4395 1.314 
0.0376513 -0.290016 -0.179783 2.4714 0.257719 0.270023 -0.768113 -1.24256 0.541292 -1.84584 -2.13715 -1.81173 0.357021 0.249439 0.912266 0.874342 -0.0635441 0.00272688 0.00752024 0.80609 -0.23318 -0.880195 -1.58245 -1.80062 0.461322 -0.976315 -2.26507 -0.690549 1.27034 -0.358805 0.695967 1.07574 0.0361274 -0.0138193 0.0558944 -0.629888 0.330305 -1.45998 -2.47521 -1.215 0.166288 -1.13805 -1.2846 -0.563329 0.0729431 -1.82065 -1.74944 -0.848503 0.129171 -1.69999 -3.34787 -0.976692 -0.01071 -0.519092 -1.11348 -0.710417 0.450555 -1.58382 -2.09176 -0.759979 -0.368617 -1.02052 -1.11561 -0.155168 -0.395596 -1.07625 -2.55002 -0.225701 0.0724486 -1.37189 -3.10427 -1.78546 0.133367 0.180616 -0.113632 -0.807346 -0.071222 -0.911612 -0.183374 0.942076 -0.0798428 -0.102858 -0.0166663 -1.59734 0.327393 -1.46326 -2.15035 -0.863118 -0.674123 -0.693099 -1.31595 0.781944 -0.806471 -0.912598 0.454496 0.992654 0.00578139 0.458791 -0.119982 2.54779 -0.00693334 -0.0816724 -0.344069 0.549129 -0.192894 0.515192 -0.54484 -0.314583 0.0224184 -0.529357 0.146418 -0.111717 0.539974 -0.534087 -0.506937 -0.508969 -0.131971 -0.435757 0.0674384 0.0281186 -0.114371 -0.146253 -0.101786 0.414292 0.179031 0.0589797 0.0113911 -0.253038 -0.273967 -0.0286509 -0.0173693 0.0832791 -0.108887 0.476166 -0.0311428 -0.0392898 0.321474 -0.00104613 0.0773041 -0.159975 -0.0467555 0.439378 0.146874 -0.449282 -0.096722 -0.238205 0.422604 0.458924 -0.505447 -0.422016 -0.463716 0.451416 0.188808 -0.43459 -0.481777 0.133348 -0.340428 0.252908 0.29877 -0.172219 0.287579 0.499459 0.135238 -0.0712795 0.434439 0.118655 0.557601 -0.319778 0.526944 -0.443814 -0.539435 -0.349614 0.244418 0.594012 0.313222 0.0650043 -0.485972 -0.292537 -0.476989 -0.201555 0.312459 -0.184242 0.313473 0.549156 -0.379591 0.281591 0.212681 -0.399758 0.437133 -0.458098 0.241666 -0.243954 0.0122779 -0.257298 0.469658 -0.590279 0.351796 -0.0739912 0.206693 0.513464 

