
0.570402 -0.288415 1.27757 0.528564 -0.742022 0.89279 0.00428665 3.69254 -1.3197 -2.53404 1.50533 -2.06287 -1.92003 -3.16867 -0.851731 -1.00281 -0.634162 -1.03551 -0.910457 -0.821811 1.50237 -0.766677 2.61758 -3.64105 1.28741 -1.68622 -2.53581 -0.723898 -0.170313 -1.1531 -2.95407 -4.1726 -1.15632 -1.40506 0.792681 -2.29053 -2.19945 -0.767143 -1.06127 -1.32348 2.69202 -2.24114 -0.32504 -0.147499 1.08432 0.134582 0.686505 2.34399 -1.28555 -0.271915 -2.68733 -0.691482 -2.72422 -0.827451 -1.45832 -7.01469 0.10936 -4.00998 -0.188979 -0.753999 -4.77004 2.23532 -1.93892 -1.11717 -2.71473 0.361095 -0.62265 -2.40377 0.00761349 -3.4321 3.31808 1.13489 -1.3867 1.01192 -1.55764 -1.07983 -0.211062 0.246252 0.722874 0.453099 -0.357816 -0.970151 -0.126311 -0.568414 -0.145349 -0.068726 -1.46273 -0.347503 1.93021 -1.23644 0.517126 -0.149865 -1.76339 -0.623266 0.78423 2.53753 -1.53078 -1.09847 -1.33803 1.87643 -0.754851 0.308671 -3.67194 -0.988939 0.608469 0.738792 -0.429321 -2.90016 -0.0221 2.14641 1.57799 -0.895534 5.50953 -1.23274 -1.65524 -0.617277 -0.877164 2.35758 -0.00387549 -0.759024 0.154756 -0.423927 -2.42674 1.23025 -1.0231 -2.27777 2.8371 -0.148158 1.6969 -1.76152 2.04856 0.92884 -2.84384 0.476657 -3.05146 -1.11427 -0.46095 -0.504783 -4.68627 0.49857 3.14618 -0.509647 -0.559871 -0.534202 -1.5589 0.279633 -0.3038 -0.792997 -0.879565 -0.813142 -0.163257 -0.328361 0.457439 -0.609602 -0.824073 2.42788 -0.673278 -5.51902 -0.187623 -0.222236 1.9322 -0.0589194 -0.572173 3.22827 -2.27299 -0.841215 0.152211 0.0280121 0.53532 -0.0246517 0.699486 2.97214 -2.49139 -0.506571 -2.82124 -2.77268 5.57957 -1.07903 -1.2976 0.758031 0.143118 -0.122362 0.336134 -0.389377 -1.39169 -1.26836 0.472251 -0.662004 3.4286 1.49896 -2.74078 -0.408167 0.329172 -0.127267 -1.78008 0.268076 2.02049 2.19669 -0.933007 -2.76256 
-0.656371 0.010607 -0.0119454 0.73145 0.577149 -0.0643311 0.0382216 0.00851253 0.0299845 0.0605571 0.0678529 0.0408836 -0.00118641 0.309926 0.14637 0.136239 -0.0427204 -0.0515347 -0.00475389 -0.0572747 -0.00105681 -0.163337 -0.104787 0.026044 0.0893074 0.049061 -0.105005 -0.0109581 0.18331 0.193472 -0.124011 -0.311271 -0.0383626 0.0186034 0.536941 0.129198 -0.020546 0.0857311 -0.377025 0.0045564 0.0150437 0.520528 -0.0478613 -0.00348625 0.195206 0.712527 0.196802 -0.0226062 -0.076046 -0.539905 -0.29529 0.024508 -0.0764894 0.128268 0.299259 -0.121991 0.0440738 -0.0353529 0.011792 0.0643731 -0.064444 0.0672386 0.0773909 0.131885 0.11942 0.350114 0.0248181 -0.126989 0.0129194 0.0717769 -0.033411 -0.0317611 0.0818526 -0.0333511 -0.167068 0.0650531 0.0428245 0.118048 0.11724 0.250453 -0.139554 -0.206869 0.270111 0.0178655 0.202111 -0.149921 -0.0894467 0.0346279 -0.169786 -0.106278 0.102136 0.252126 -0.107378 -0.15446 -0.263683 0.376048 -0.309038 0.0460209 0.0309802 -0.324989 -0.358487 0.0113738 -0.0146552 0.219967 0.269009 -0.173771 -0.0601132 -0.149175 -0.0509362 -0.0853855 -0.0958505 0.163603 0.00109799 0.186676 0.275424 -0.105244 0.0339679 -0.0253991 -0.0283251 0.0675473 -0.0410601 0.0358131 0.269278 -0.111403 -0.648883 0.0692942 -0.0155866 -0.20041 -0.0254576 -0.119296 -0.053104 -0.461196 -0.0244499 -0.0442116 -0.0853578 -0.672014 -0.12488 0.0134938 -0.162842 -0.0510581 -0.0750583 -0.10934 -0.0110376 -0.0566736 0.0971959 0.371612 0.101514 0.0318923 0.172318 -0.665375 
-1.33479 -1.26464 2.65986 -0.924513 -1.20778 -0.756404 -1.03576 -0.164671 -0.452509 -1.72527 -2.9858 0.00489808 -2.29349 -2.95511 -1.01241 -1.46172 -0.522262 -1.67877 -1.21205 -0.246754 -1.50475 -1.49763 -0.582978 0.400766 -0.2485 1.10423 -1.57167 -1.1849 -1.49634 -0.199265 -1.69758 -1.55552 -1.30808 -0.855719 -1.92496 -2.45951 -0.164531 0.716831 -0.842178 -1.7891 -1.46854 -1.2902 -0.842051 -1.41309 -2.38107 0.060427 -1.19597 -2.28203 -0.40643 -2.03711 0.577362 -0.453731 -0.141813 1.10319 1.67387 -1.95924 -1.0662 -0.384073 -0.176519 -0.691482 -1.9951 -0.43471 -1.27166 0.842218 -0.805824 0.531872 -0.801635 -1.70853 -0.134303 -0.404831 -1.51174 0.234289 -0.834103 -0.593197 -0.084029 -1.13174 -0.668251 -0.0769809 -1.08638 -0.505036 0.346209 0.75272 -1.03887 -0.546085 -0.784949 -0.469486 -0.475688 0.419509 -1.37476 0.885517 0.716635 0.160559 0.614115 0.501901 0.273935 -0.101443 -1.26249 -0.346166 -0.884543 -1.80908 1.05292 -0.868563 0.769588 -0.588937 0.287544 -1.59963 -0.791366 1.38073 -0.684754 -1.55001 -1.27865 1.12046 -2.2796 -2.56249 -0.328005 -1.47535 -0.0643657 1.08164 -0.601028 -0.768268 -1.47934 -2.36443 0.351854 -0.311667 -1.97351 0.0412163 -1.60708 -1.64116 -2.20307 -1.48899 -1.95311 -3.65986 -2.05117 -0.860177 -2.41191 -1.55533 -0.491656 0.323733 -1.08472 -1.26832 -2.35252 -1.7579 -0.44295 -1.79666 1.44213 -0.0837601 -0.393312 -2.71404 0.288285 -1.61244 1.60404 -0.676364 -2.25301 -2.58926 0.614632 -4.08998 -0.245011 -0.126698 -0.550273 0.963042 -1.0609 -0.725746 -1.0282 1.99092 0.737212 -2.00745 -0.902366 -3.47709 -1.01879 0.616595 -0.906548 -2.90661 0.29521 -0.236275 -1.97573 -0.270685 -4.39711 -0.670358 0.225659 0.168718 -0.791108 -0.59284 0.46944 -0.33876 -0.0954639 0.920653 -0.213462 -2.79844 -0.102565 -1.60392 -1.64756 -1.99242 -1.68956 -0.143803 1.21558 -2.17967 0.00306959 -1.59805 -0.552943 -1.347 
0.395218 -0.0904562 -0.317145 0.211231 0.199685 -0.189727 -0.3326 -0.40248 -0.275497 0.49125 -0.429445 0.329453 0.458941 -0.0611491 0.178862 -0.0889525 0.067062 -0.469126 0.0960073 0.208963 -0.13429 0.276693 -0.0359536 0.142864 0.273893 -0.320581 0.272865 -0.218874 0.203393 -0.0687241 -0.111663 0.0782324 -0.24832 -0.14425 0.211967 -0.477836 -0.418047 -0.356029 -0.159221 0.18219 0.0529921 0.252281 -0.239077 -0.0270288 0.412393 0.388143 -0.187082 -0.117592 0.129323 -0.49626 -0.181763 -0.233891 0.253858 0.272972 -0.0562171 0.0351095 -0.422956 0.145039 0.405119 0.313207 0.0505501 0.322451 0.234546 0.0288899 0.375915 -0.139276 0.157516 -0.306745 0.216534 0.267644 -0.225987 0.208053 -0.00139954 -0.0849455 -0.169726 0.0645357 0.435632 0.151869 -0.197474 -0.260262 -0.269983 -0.35807 0.498657 -0.185134 0.13822 -0.410389 -0.430028 0.44096 -0.470693 -0.00399322 0.199816 0.0471442 0.2206 -0.0713922 0.111444 -0.265403 0.285443 -0.106509 0.313411 0.135622 0.240568 -0.405997 0.370078 -0.201667 -0.0995979 0.29233 0.369269 -0.440553 0.0790568 -0.252079 -0.1207 -0.435171 0.464552 0.0679142 -0.098936 0.207039 -0.178995 0.372586 0.394739 -0.34169 0.032393 0.100951 -0.139756 0.32431 0.359769 0.477458 0.0839192 -0.0817296 -0.47931 -0.31714 -0.437862 -0.24417 0.256896 0.0922008 -0.0692007 0.153764 0.318711 -0.0836911 -0.237219 0.329318 0.0877524 -0.286267 0.158146 0.464793 -0.377394 -0.131106 0.394846 -0.203373 0.0926037 0.0957278 -0.464354 -0.389557 -0.208855 0.145009 -0.453517 0.0430255 -0.125715 0.224644 0.106813 -0.181209 0.174557 0.239699 -0.123575 0.292633 0.344138 -0.10271 -0.192594 -0.484003 -0.213322 0.112787 0.419731 0.201199 -0.19612 0.243439 0.194662 -0.441258 0.097996 -0.329738 0.251189 0.0511062 -0.136278 -0.242175 0.32485 0.0144066 0.35443 0.0658894 -0.0707926 0.0876319 -0.0260885 0.0309859 -0.0912944 0.244361 -0.419744 -0.47453 -0.401137 -0.27754 -0.14697 0.480944 0.259481 -0.347832 0.619206 0.119682 0.806388 0.499222 0.0245897 -0.0445076 -0.158957 -0.0592214 0.00380862 -0.106131 -0.379731 0.0214878 0.088367 0.00903711 0.159344 0.052418 0.181618 -0.127148 0.180116 0.346802 0.116645 -0.109581 0.0996866 0.255703 -0.0101514 -0.0652497 -0.0847003 -0.0226351 0.0269121 0.0342703 -0.0934503 -0.280478 -0.13101 0.000967714 -0.0465959 -0.0299345 -0.296224 -0.0782419 0.000482775 -0.112427 0.149758 -0.156532 0.0889969 0.246918 -0.261154 0.192481 -0.0546858 0.142766 0.0425058 -0.0467258 0.329963 -0.296278 0.0261737 -0.000414196 -0.0279549 0.386808 -0.10815 -0.0403367 -0.0824531 -0.424617 -0.0419813 0.0228291 0.044768 0.281194 0.0303339 0.026618 -0.178141 -0.0455527 0.0800049 -0.0260059 0.340834 -0.0943056 -0.0846422 0.0617953 -0.0879852 -0.0253125 -0.202067 -0.419931 -0.0586266 -0.0351548 0.21865 0.355182 -0.150815 0.0161732 0.014653 -0.108384 0.0153699 -0.300911 0.300159 -0.00827945 0.0236498 -0.0886838 -0.371582 0.180136 0.101394 -0.021452 -0.0519862 0.0657739 -0.096764 -0.270761 0.00179451 0.262312 -0.264728 0.0509109 -0.0589501 0.0618734 0.0211024 0.318331 0.0600604 0.0289272 -0.0382714 0.0807639 0.121247 0.129735 -0.189893 -0.185981 0.0468244 -0.0853261 0.0670245 -0.228996 -0.0849517 0.122513 -0.237815 0.0333183 -0.158724 0.110211 -0.155159 -0.401442 0.066505 -0.0348375 -0.069061 -0.371424 -0.0601064 -0.0107376 -0.094495 -0.0427998 -0.109446 -0.122205 -0.0400647 -0.293741 0.0980183 -0.0787431 0.0857741 0.208366 -0.17889 -0.11425 -0.268072 0.0507199 -0.190841 -0.317949 -0.133597 0.0813925 0.0373817 0.0164001 0.140274 0.42265 -0.28084 0.0564329 -0.141982 -0.0799431 0.13123 -0.0348799 0.237887 0.0329445 0.00696919 0.132763 -0.0259724 0.359843 -0.234053 -0.132431 -0.105159 -0.130016 0.20661 -0.0644447 -0.0581127 -0.277512 -0.0576061 0.0291546 -0.120867 -0.374068 0.43195 0.234766 0.604584 0.190138 0.0616121 -0.0533677 0.129689 0.37439 -0.102892 0.152012 -0.314803 0.118951 -0.315121 0.0574249 0.0123651 -0.0213051 0.100305 -0.0438672 0.117025 0.204248 

