
-0.595261 -0.0549769 -0.461026 0.209432 -0.167112 0.334948 0.204703 -0.411357 0.128635 -0.472273 -0.120372 0.393648 0.480368 0.496272 0.55151 -0.223543 -0.361023 0.415573 -0.509786 0.248267 -0.368545 -0.0718823 0.017191 0.403148 0.489146 -0.151986 -0.455571 0.318189 0.36468 -0.279995 0.0317742 -0.257691 -0.519897 -0.127238 -0.515041 0.164535 0.486721 -0.200896 0.418258 0.0754754 -0.593174 -0.0645743 -0.357688 -0.406618 -0.526342 -0.333299 -0.51094 -0.373464 
-0.557875 0.377074 -0.287501 0.344273 -0.00745956 -0.478824 -0.405166 0.0675966 -0.515212 0.478436 -0.495028 -0.261666 -0.0707853 -0.255212 0.549491 -0.408197 -0.0658873 0.165568 0.293295 0.559996 -0.555045 0.448104 0.490229 0.267302 -0.366638 -0.0466335 0.0435809 0.232224 0.425606 0.505709 -0.166173 0.313455 0.402514 -0.0329504 0.496264 -0.358948 
0.2917 -0.409457 0.324075 0.567505 0.316459 -0.162209 0.29882 -0.424678 -0.499778 0.446101 -0.419727 -0.536554 0.579802 -0.264719 -0.217654 -0.283384 0.393111 -0.117973 0.0326256 -0.467353 -0.464682 -0.41499 0.248615 -0.571623 
-0.384335 0.32587 -0.365005 0.548159 -0.431582 -0.0987626 0.571916 -0.298893 0.518606 0.206401 0.36205 0.0991165 -0.488071 0.0423293 -0.184731 0.113869 -0.0932487 -0.305652 0.220531 0.244631 0.185908 -0.555808 0.425496 -0.567151 -0.247019 0.524356 -0.156355 -0.596345 -0.401549 0.593168 0.436196 -0.0294983 0.16571 0.0768179 0.593914 -0.0659136 -0.0564757 -0.500322 -0.237749 0.210055 -0.0662675 -0.474186 0.548126 -0.587169 -0.110215 0.17704 -0.0993349 0.228434 0.254248 0.0956518 0.537187 0.530774 0.221602 -0.223941 -0.268934 0.0895656 -0.563135 -0.306975 0.347417 -0.275815 0.508106 0.590231 -0.32814 -0.358815 0.319332 0.0252917 0.270156 0.0893472 0.0871289 0.355054 -0.0601368 -0.330077 

