
-0.399136 -0.547291 0.144938 0.237687 0.00592086 -0.0275616 0.193274 0.203214 0.522174 -0.0389064 -0.199321 0.519729 0.179724 -0.361811 0.0572835 -0.30787 0.243591 0.0717368 0.488733 -0.123305 -0.269336 0.0160798 0.44498 0.0865654 -0.277011 -0.258782 -0.125955 -0.58062 -0.131683 0.188694 0.502068 -0.256831 0.253495 0.431613 0.531516 -0.251019 -0.463003 -0.579894 -0.382075 0.147184 -0.511884 0.248208 0.489207 -0.0797135 -0.327975 0.0256665 0.524553 0.400617 0.228487 -0.158544 -0.504207 0.172955 -0.539101 -0.201564 -0.0593996 0.245559 0.177924 -0.227476 -0.584261 -0.480789 -0.147157 0.287206 -0.123315 -0.269562 -0.0414666 0.158604 0.30765 0.365082 0.459978 0.211431 -0.0822301 -0.0693259 0.361682 -0.0356253 0.260584 -0.535425 -0.410814 -0.289283 0.510782 -0.265889 -0.391419 -0.199685 -0.266139 -0.248586 -0.065158 0.267142 -0.561587 0.407158 0.318896 0.55776 -0.5441 0.236549 -0.188262 -0.107692 -0.163967 -0.187788 0.429122 0.404078 0.574882 -0.493968 -0.561634 -0.0743506 -0.447838 0.431462 -0.339503 -0.385696 -0.395315 0.472416 0.408462 -0.543582 -0.0311476 -0.526637 -0.46289 -0.269843 0.394726 -0.370049 0.35074 -0.249956 0.484397 0.0336744 
-0.419891 0.266675 0.596832 -0.0683262 -0.422768 0.0512777 -0.197982 -0.390824 -0.375085 0.413609 -0.152716 -0.581932 0.540267 -0.196933 -0.592916 0.441052 0.313432 0.558336 0.0715575 -0.530825 0.0245534 -0.328448 0.00860748 0.158708 -0.0834212 0.149362 0.434981 -0.407183 0.372911 0.0941614 -0.308379 0.0900564 0.413045 0.207771 -0.125088 -0.547164 -0.527784 -0.17774 -0.458845 -0.339634 -0.159525 -0.49285 -0.496018 0.0356559 0.212888 -0.335834 0.0661837 0.27536 0.500275 0.313884 -0.438832 -0.420764 -0.480496 -0.0774293 -0.0703454 -0.229294 -0.515861 -0.557525 0.114032 0.183208 0.170785 0.522199 -0.137201 0.204017 0.433968 0.47238 -0.355096 0.113221 -0.00238208 -0.044622 0.246999 -0.262945 -0.4499 0.357871 -0.367217 -0.314381 -0.242165 0.180095 0.32125 0.581616 -0.177908 -0.070758 0.0332241 -0.53112 0.281768 0.545935 0.0121183 -0.312522 -0.412247 0.501637 
0.0757776 -0.120686 -0.238455 0.529215 0.11257 0.0686153 -0.143485 -0.59256 -0.583908 0.25075 0.268534 0.393163 -0.105343 -0.465312 0.506931 0.107816 0.590083 0.386875 -0.367405 -0.140281 0.0275411 0.378426 -0.508503 0.170275 -0.424007 0.145175 0.00385526 -0.266678 0.119791 0.327611 -0.392239 -0.357959 0.460335 0.563208 -0.0155233 -0.430963 -0.086721 0.408331 0.0087087 0.408198 0.429955 0.510181 0.565651 -0.0063484 0.299486 -0.0186261 0.578676 -0.19736 -0.0504622 0.0618899 -0.215226 -0.207988 -0.411099 -0.402684 -0.257465 -0.545683 0.271432 -0.264983 -0.0644012 0.0765237 -0.537195 -0.172889 0.0466288 -0.38623 0.156918 0.140368 -0.374877 -0.054096 -0.0189128 -0.216674 0.296411 -0.191267 0.453284 0.074363 -0.56453 -0.00241094 -0.580687 0.253127 -0.346843 -0.0685099 0.317649 -0.446569 0.199727 -0.276778 -0.19881 0.0182752 0.403527 0.21795 -0.0769078 -0.416427 0.497869 0.487921 0.284116 0.210984 -0.0524488 0.11109 0.0442673 0.083218 -0.104595 -0.587705 0.197749 -0.0942674 0.563273 -0.00879744 0.514371 0.123908 0.240832 0.0554081 -0.574243 0.354376 0.162229 0.285356 0.199314 0.160358 0.562867 0.377769 0.463574 0.360863 -0.101784 0.419108 
0.265425 0.0192626 0.232672 0.161331 0.3833 -0.43159 -0.147696 -0.467559 0.0184219 0.130546 -0.32209 0.534964 -0.1643 -0.562316 -0.236783 0.439241 0.580616 0.0041099 -0.110012 -0.104341 0.341644 0.111162 0.28202 -0.175048 0.596058 0.379328 0.474379 0.121261 -0.443391 0.000168006 -0.330683 -0.229963 -0.515822 0.26777 -0.317812 0.0942686 -0.202752 0.463506 0.142149 0.403449 -0.480524 0.397416 -0.467177 0.512187 0.229353 0.387246 -0.520396 0.227092 -0.148434 0.0928594 -0.0706043 0.483054 0.137751 -0.351018 0.225682 -0.158417 0.00712217 -0.0750027 -0.271413 -0.147226 0.455421 -0.500018 0.454393 -0.38836 -0.190817 -0.495597 0.325664 -0.304024 -0.189351 0.334181 -0.16701 -0.421562 0.318995 -0.0893695 0.188574 0.04463 0.142506 0.423398 -0.363706 0.484549 0.145666 -0.123314 -0.343612 -0.185268 -0.0630551 -0.543704 -0.53474 0.301018 -0.0966313 -0.239657 -0.307409 0.549809 -0.334543 0.380055 0.0167312 0.107323 0.472544 -0.278247 0.445315 -0.282251 0.426461 -0.367113 0.0143438 0.395124 0.163673 0.206516 0.249618 -0.478333 0.200154 0.485426 0.0518307 0.567368 -0.0970154 0.433041 -0.10023 -0.153046 0.347246 -0.4905 0.0826595 0.0214368 0.0500271 -0.372326 -0.472809 -0.239949 -0.591714 -0.0522767 0.42049 -0.58271 0.153878 0.554041 -0.435295 0.0540157 -0.0150094 0.381552 -0.518768 -0.0752439 0.447527 0.532714 0.202043 -0.501478 -0.550463 0.401568 -0.502581 -0.343942 0.409943 0.431089 0.4828 0.0221748 -0.0312119 0.342657 0.0331317 0.581322 -0.180426 -0.229644 0.440075 0.28919 -0.0957889 -0.349337 -0.346843 -0.13775 -0.227763 -0.353132 0.283795 -0.365521 -0.268239 0.142594 -0.513057 -0.027015 -0.468697 -0.0175754 0.39575 -0.0508071 -0.344709 -0.22183 -0.33378 -0.569771 0.173344 0.397885 -0.134887 0.239205 -0.0159234 -0.444232 0.193635 0.414306 -0.133069 0.362247 -0.178012 0.223864 0.469319 -0.335184 -0.37264 -0.538808 0.162515 -0.574912 0.458451 -0.558334 0.511561 -0.0752385 -0.152925 0.0823151 0.353868 -0.423623 0.152122 -0.091732 0.577247 0.378956 -0.565172 0.193788 0.212579 -0.0979914 -0.373969 0.117143 0.303677 0.388957 -0.54587 0.134299 0.0845703 0.0826335 0.423785 0.247918 0.530329 0.586579 0.308665 -0.0590725 0.0988013 0.319285 -0.559291 -0.157036 0.206237 -0.418565 0.14307 0.288627 0.497696 0.192816 0.4901 -0.516003 0.545756 0.216982 0.233525 -0.266936 

