
-3.18248 1.9305 -1.19973 -2.79992 -0.538802 0.209806 -1.6132 -2.02016 -1.8563 -0.893853 -1.41703 -1.7465 -2.47052 -2.54129 -0.958154 -1.53155 -0.394396 -2.51809 -0.93353 -2.20392 0.368159 -4.35774 -1.92506 -0.746443 -2.26721 -1.92466 -3.54762 -2.1849 0.374013 -1.5774 0.774404 1.16399 -0.212922 -0.813474 0.240334 -1.99987 0.628616 0.278576 0.419283 0.776737 0.0272878 0.0678027 -0.549276 -0.123519 0.941547 2.19844 -2.67807 0.533275 -0.379362 0.226475 2.32249 -1.40273 -0.414718 0.535724 1.2202 -0.770824 0.81703 0.130078 -0.473582 0.586792 -3.61399 1.56074 -0.18156 -2.69086 -1.6556 -0.370176 -2.22826 -2.75673 -2.05639 -1.73256 -1.34486 -3.08725 -2.79273 -2.40034 -2.70495 -1.18357 0.683454 -2.46024 -1.15924 -1.68407 0.725417 -0.762853 -0.898749 0.456816 -3.40418 -2.22613 -4.91411 -2.13329 0.0437477 -3.36922 -2.29072 -2.88868 -1.21348 2.17589 -0.942301 -0.0214482 -3.07794 -3.75563 -0.99098 -4.15622 -1.00233 -1.63606 -0.37427 -1.2166 0.344125 -2.4369 -0.234035 -2.20889 0.144736 -1.15904 -5.22646 4.25863 0.481296 -4.31313 -2.12799 -2.03283 6.36115e-05 -3.78524 -3.36449 -0.240736 
4.47773 0.243787 2.8622 -0.391923 0.0764189 -6.02117 -0.317261 -2.92117 0.00564617 -0.195519 0.66755 0.0614186 0.348233 -0.224501 -1.33978 0.0314523 4.79808 1.03341 2.46694 -1.03201 0.104273 0.0366533 -0.72371 0.160026 -8.44021 -7.35414 0.528646 0.0944075 -0.0198758 -0.786134 0.988234 -0.27292 -0.117253 -0.449068 0.6664 1.59938 0.154256 0.0812818 0.33006 -0.223364 3.05264 0.348182 0.544143 -0.0319323 2.09727 0.0170921 -1.33223 0.78501 -1.52509 1.92705 -0.181649 -0.399301 -0.00140966 0.984405 2.42889 2.26734 0.410624 -0.376493 -0.027258 -0.534783 -3.34718 0.0741312 0.626579 4.02051 0.0607713 -0.522831 -1.28676 -2.03428 -0.214263 1.06419 -0.62256 -0.282307 -1.03051 -2.84423 -0.670323 0.0453705 0.411861 -1.04115 1.02057 -0.354437 -0.131175 0.188998 0.0622647 -0.213719 -1.38503 -1.21901 -1.64087 -3.40984 2.16212 0.103564 
0.814265 1.46703 -0.379422 0.699406 0.0977702 0.134903 0.636989 0.121429 -0.273172 1.40051 -0.117853 0.884273 1.22387 0.338423 1.45252 -2.77841 -0.377762 0.0775686 1.11812 2.06454 -1.70928 -1.97434 -0.341298 0.806759 1.68739 0.410314 0.995762 1.11593 0.0762359 2.0379 0.680098 -0.911835 0.303592 0.0422662 -1.07216 0.316141 -0.427967 -0.0641247 -0.800556 0.957584 0.178674 0.710488 -0.298345 -0.0111262 0.65502 1.74807 -0.122664 -0.539095 -0.409313 0.763266 2.17553 -3.10133 -1.17704 -0.331049 1.15236 0.64498 -0.263676 0.544121 -1.07645 0.99069 -1.27092 -1.74727 -1.44719 -2.06308 0.0545992 0.545633 -1.37414 -1.27168 -1.04757 -0.817536 -0.798624 -1.54669 -1.87927 -1.62972 -2.49617 0.527946 0.724423 -1.19923 -1.30535 -0.773943 0.220297 -0.767044 -1.15414 0.866925 -1.43706 -2.451 -2.65523 -1.81897 -0.967552 -2.50996 -2.42069 0.121827 -0.0682781 -1.66596 -1.06281 -1.74596 -1.38263 -1.4474 -1.07184 -0.611517 -1.28588 -1.97432 -1.85083 -0.691463 -1.75687 0.14717 -1.32202 -1.91662 -1.41957 -2.46599 1.25757 -1.63276 -1.02352 0.211257 -1.1763 -1.78163 -1.37157 -0.543572 -0.457031 -4.10957 
-0.025217 0.00193744 -0.0105245 -0.0246054 0.0429095 0.0711574 -0.0156783 -0.671966 -0.0439672 -0.0217451 -0.0338566 0.177608 -0.101048 -0.00527304 -0.037437 0.638955 -0.0192104 0.0796424 -0.0406999 -0.338641 1.219 -0.293559 1.49278 1.46812 -0.00889909 0.0193364 -0.0287657 -0.189755 -0.0157645 -0.0177123 0.0165136 -0.201027 -0.133516 0.0181485 0.0389417 -1.38439 0.016964 -0.00446067 0.00919403 -0.234202 0.0176834 -0.00202243 -0.00175111 0.175685 0.17088 -0.00653035 -0.0778033 0.916788 0.0616304 -0.112566 0.136465 0.521131 0.0010905 -0.0086538 -0.0460929 0.875261 0.045699 0.0228585 -0.0135063 0.583959 -0.663277 0.292224 -0.69202 -0.333584 1.26576 -0.30855 1.56035 1.50151 -0.0333339 0.0035322 -0.0189824 0.129375 -0.00125738 0.00833687 -0.00205038 -0.219467 -0.000518967 -0.0149848 0.0381908 -0.590027 -0.0373608 0.107637 -0.0942924 -0.452206 0.0260904 -0.00641333 -0.0166664 0.79349 -0.0591116 0.0116955 -0.00765655 -0.245365 -0.0349659 0.0209382 -0.00360887 -0.363168 0.00194326 0.08546 -0.191986 1.49066 0.0100341 -0.104522 0.233516 -1.45759 -0.0421946 0.106643 -0.121582 -0.523275 0.000214115 -0.00982796 0.0624928 -0.816233 0.106259 -0.000620528 0.0427138 -0.667305 0.0627939 0.0194111 -0.0321106 0.457642 -0.29274 -0.258893 0.56856 -0.189846 -0.406127 -0.0149108 -0.100147 0.446008 0.413832 0.503234 0.0545629 -0.139359 0.225468 -0.445061 0.471794 0.464717 -0.56191 -0.389443 0.0547928 0.317802 -0.419536 0.541325 0.26512 0.515434 -0.125344 -0.264596 0.413119 0.129837 0.0400564 0.0852135 0.390196 0.13092 -0.177399 -0.018619 -0.249666 0.30563 0.0500432 0.158005 -0.205501 0.480171 0.25488 -0.464743 -0.0517987 0.52542 0.189275 -0.363739 -0.114409 -0.346168 0.0530967 -0.25272 0.0307607 -0.234238 -0.516024 0.188353 0.295482 -0.0438198 -0.288445 -0.279763 -0.526056 0.549313 0.27978 0.058835 0.350998 -0.160294 -0.139834 -0.131867 -0.245684 -0.292822 -0.120351 0.180403 -0.0579229 -0.29637 0.495697 0.538484 -0.0685995 0.381783 -0.575227 -0.236169 -0.307199 0.238578 0.249453 0.205176 0.305908 -0.00356951 -0.116923 0.187938 -0.463423 0.0876903 0.207283 0.246907 0.480739 0.375155 -0.450427 -0.187541 -0.0471849 -0.122831 0.202319 0.337511 -0.0509644 -0.559495 -0.0208142 -0.150774 0.21825 -0.275809 -0.0783133 0.391645 0.402041 -0.504581 0.309521 -0.340802 -0.25932 0.442547 -0.322171 -0.441253 0.477448 0.064871 0.309362 -0.530526 0.560788 0.572867 

