-0.0237904 0.489554 0.624565 -0.729319 -0.430263 -0.824603 0.0938128 0.51784 0.875639 0.783531 -0.0852524 -0.217972 -0.551521 -0.346779 0.584296 -0.938574 -0.802424 0.309087 -0.465303 0.813604 0.521307 0.707433 -0.275817 -0.888115 0.208226 -0.47546 0.785628 0.436855 0.491512 0.549689 -0.433722 -0.50595 
0.937066 0.0113634 0.503185 0.837621 0.808174 -0.785464 -0.367249 0.982604 -0.690539 0.95116 -0.803208 0.765267 0.0365658 0.468265 -0.786972 0.346391 0.702276 0.717557 0.267884 0.154954 0.490354 -0.861298 0.889612 0.590807 0.426619 0.926111 0.316788 0.329133 -0.0980128 -0.724037 -0.664972 0.700161 -0.907008 -0.514144 0.633647 0.940665 -0.379138 0.580151 0.639647 0.272502 
-0.923337 -0.742106 0.930956 0.275209 0.203346 -0.488699 -0.563679 -0.940405 0.469294 -0.773934 -0.69257 0.888688 0.344547 -0.933932 -0.793081 -0.3784 -0.479866 0.547867 -0.983528 0.650402 0.102941 0.71642 -0.0598184 0.588848 0.182168 -0.0319444 -0.580053 0.894102 -0.714599 -0.831271 0.906084 0.727065 -0.207806 -0.234918 -0.805324 -0.842367 -0.116404 0.363396 0.823795 -0.210893 -0.994081 -0.393288 0.0716121 -0.209701 0.678091 0.626098 0.699289 0.312328 -0.687051 -0.788853 0.808034 0.349933 -0.533664 0.540215 0.729289 0.594767 -0.139508 -0.746219 0.758354 -0.901962 0.5202 0.297018 0.597729 -0.518323 -0.882769 0.535099 -0.925837 -0.27577 0.471171 0.0044982 -0.613039 0.625574 

