4.41083 3.12386 -0.14393 -0.235257 -0.0278041 2.7629 -2.90829 1.83452 -9.03683 5.07939 -3.08203 3.37736 -0.667637 0.412176 0.846538 -8.37538 -9.55471 -4.63256 0.0747793 2.03045 1.73116 -1.18621 0.880643 -5.17877 5.62723 -0.0728226 -3.49825 0.541824 1.10995 0.135259 -0.328885 -5.0627 
-8.99809 -10.9759 -10.982 5.2204 -10.3133 -5.88934 -8.08732 -19.3303 -13.2463 -7.78558 -8.05586 -4.65535 -7.325 -6.7019 -7.86172 -11.5717 4.30511 5.38153 4.43048 5.11261 2.11608 -4.56963 5.28518 10.2892 -14.2718 0.0383305 -0.287527 -2.30173 -4.45596 -8.35214 -2.23569 -6.74443 10.7343 -1.58072 -0.57474 -1.69605 -1.06879 8.38425 -3.62456 0.362747 
-0.130139 -0.0425579 -0.0205288 0.606367 0.649172 0.31778 -0.203667 0.423666 0.799748 -0.218647 0.770133 -0.827113 0.489464 0.338658 1.01255 0.191157 1.1663 -0.464436 1.33383 1.64977 1.03029 0.0410673 0.75946 -0.128536 -1.90744 0.259443 -0.511686 -0.163757 -5.06799 0.537308 -4.69864 19.137 -0.207806 -0.234918 -0.805324 -0.842367 -0.116404 0.363396 0.823795 -0.210893 -0.994081 -0.393288 0.0716121 -0.209701 0.678091 0.626098 0.699289 0.312328 -0.687051 -0.788853 0.808034 0.349933 -0.533664 0.540215 0.729289 0.594767 -0.139508 -0.746219 0.758354 -0.901962 0.5202 0.297018 0.597729 -0.518323 -0.882769 0.535099 -0.925837 -0.27577 0.471171 0.0044982 -0.613039 0.625574 

