0.112433 -0.000295487 -0.161179 0.389422 -0.32243 -0.135688 -0.369504 0.0435172 0.166514 -0.402535 0.228505 -0.0870416 0.368243 -0.297481 0.465095 0.324524 0.119415 0.254295 0.268841 -0.187655 -0.181107 -0.263014 0.393901 0.456612 0.443756 0.284237 0.0551679 -0.179052 0.154499 -0.0660832 0.211633 -0.320485 -0.377578 0.483254 -0.21625 0.201818 0.263218 0.23871 0.0427104 0.0616354 0.164991 0.422997 0.375403 0.403296 -0.141245 -0.314206 0.351323 -0.296748 -0.220478 -0.410308 0.421228 -0.23934 0.0685006 0.417518 -0.390907 -0.460629 -0.352706 0.472673 0.195952 -0.124744 0.366718 -0.0539254 -0.218423 0.00720487 -0.0387557 -0.484319 0.304259 -0.244296 0.0371793 -0.497827 -0.305386 -0.0459635 0.439619 -0.218144 0.091061 -0.252674 -0.159122 0.214725 -0.138302 -0.0808638 0.403938 -0.239738 0.455926 0.438644 -0.125033 0.0595298 0.341524 0.164563 0.157256 -0.346833 -0.399274 0.272328 -0.0868572 0.354428 0.210693 -0.290538 -0.207093 -0.319149 0.234877 -0.451899 -0.338747 -0.406434 -0.453758 -0.255728 0.321322 -0.0402635 -0.094065 -0.255462 0.247987 -0.405957 0.0196395 -0.179282 0.284438 -0.173025 0.00850799 -0.344049 -0.333782 -0.0637134 0.117927 0.0905283 -0.267445 -0.166984 0.008612 -0.00896221 0.216881 -0.0172003 -0.318201 -0.319412 0.0214124 -0.297919 0.218424 0.0760269 0.198051 0.0530777 0.367513 0.139841 0.391485 -0.172183 0.168245 -0.376729 0.406659 0.0384218 0.104697 -0.143682 
0.415281 0.47896 0.162392 -0.1903 -0.00137888 0.391437 -0.0338464 -0.199915 -0.414258 0.219309 0.1609 0.138561 -0.461463 -0.204425 -0.117968 0.0489648 -0.419881 0.43845 0.108799 0.0980823 -0.272731 -0.389807 -0.0189834 -0.457237 -0.150789 -0.176781 -0.488174 0.0593097 0.326727 -0.421011 -0.0529793 0.412412 0.354496 0.451953 0.078097 -0.431635 -0.0942089 -0.454378 0.0104122 0.405942 0.217583 0.43249 -0.0536798 -0.229456 -0.215075 -0.297567 0.329597 0.117761 0.13696 0.208027 -0.0750299 0.275791 -0.421111 -0.269144 -0.359613 -0.110867 0.0281784 -0.166012 -0.452516 -0.441364 -0.288718 -0.406321 -0.371909 0.0813488 -0.493198 -0.06341 0.371169 -0.106586 -0.48345 -0.391379 0.446292 -0.114184 -0.252197 -0.051586 -0.339644 -0.134738 -0.138908 0.320159 -0.307615 0.152624 0.408418 0.36962 -0.00986783 0.260788 -0.433787 -0.172842 0.0272762 -0.315045 0.128334 -0.0390677 0.304599 -0.344789 0.0634622 -0.207516 -0.267357 -0.489196 -0.0271084 -0.19376 0.313727 -0.306528 0.446365 -0.341353 -0.21096 -0.222701 0.0890735 -0.27788 -0.0143508 0.0607037 -0.150802 -0.398617 -0.13579 -0.0446718 0.27053 0.202122 0.178388 -0.223934 -0.45923 -0.161181 -0.0420229 0.159148 -0.376943 -0.0787214 -0.425739 -0.442124 -0.482198 0.0959561 -0.446067 0.221415 -0.224882 0.441123 -0.2055 -0.0460414 -0.470667 0.425483 -0.0807802 0.13289 0.196684 0.0721029 0.119359 -0.150779 -0.34065 -0.17302 0.168255 0.190611 -0.0785277 0.0828015 0.464449 0.129198 -0.314639 0.400821 0.175205 0.257088 0.0844657 -0.463051 0.366253 -0.0648577 -0.0667258 0.27232 0.149531 -0.269412 0.471125 -0.399493 0.400584 -0.192964 -0.10013 -0.266292 -0.497305 -0.0832116 -0.390329 0.365632 -0.313686 0.330483 0.445223 0.469803 0.386574 -0.309429 -0.115089 0.212315 -0.422718 0.469544 -0.158631 -0.230264 -0.0951064 -0.333387 -0.0344311 -0.450914 0.401927 0.364586 0.0742674 0.313976 0.340778 -0.0102039 0.179314 -0.180078 -0.479454 0.237107 0.198363 -0.227942 0.252041 0.0826281 -0.229191 -0.209011 -0.425915 -0.426594 -0.473903 0.311321 -0.218168 -0.42134 -0.191283 0.223505 -0.131775 0.153568 0.251076 0.132105 -0.172689 -0.488005 0.177015 -0.491958 0.220528 0.280471 -0.173812 0.434279 -0.0265752 -0.283504 0.124996 -0.35631 -0.344125 -0.145059 0.464665 -0.368553 0.303439 -0.0669607 -0.109373 0.186737 -0.228614 -0.00572117 0.0535537 0.243177 -0.291509 0.265739 -0.483509 0.427617 -0.439679 0.209166 0.483429 -0.325112 0.15733 0.472343 -0.205312 0.14723 0.228215 -0.30057 -0.366895 0.0660554 0.379729 0.108159 0.347753 -0.289479 -0.326173 0.148525 -0.449381 -0.162965 0.451994 -0.345549 -0.405825 -0.0891195 0.188068 0.026163 -0.146843 0.149472 0.480703 -0.254514 -0.49133 0.33179 -0.270036 0.0269818 0.0906873 0.408394 0.0355249 -0.346297 0.457049 0.0291128 0.213301 -0.230441 0.331931 0.124727 0.431778 0.421497 -0.354372 -0.228091 0.310685 -0.287765 0.475981 0.455028 0.11951 0.297077 -0.479412 -0.41548 -0.374297 0.192229 0.00891093 0.437683 0.157507 -0.0548665 -0.376667 -0.452151 0.33093 0.313484 -0.0888039 0.180122 0.102264 -0.0926063 -0.426419 0.369957 -0.00688563 -0.327661 -0.0631911 -0.195146 -0.124973 -0.409842 0.122245 -0.474481 -0.156138 -0.379385 0.223257 -0.032222 0.468331 -0.271115 -0.0134566 -0.200459 0.334517 -0.463345 0.317382 0.296314 -0.435707 -0.275439 -0.045203 0.392236 0.369651 0.260197 0.417903 0.371692 0.39972 0.455211 -0.141847 0.398388 0.271953 -0.441778 -0.250866 0.43842 0.033213 -0.484595 0.297157 -0.131639 0.103695 -0.369009 0.0837274 0.424529 -0.182711 -0.07845 0.30135 -0.395523 -0.271073 0.209542 -0.288037 0.165849 0.444356 -0.149354 0.229008 0.113101 0.492764 -0.00672988 0.0521517 -0.429971 0.311126 0.447442 -0.0725829 0.207347 0.498506 0.341442 -0.437398 0.053205 0.00508182 -0.0318951 0.385188 -0.137647 0.0648579 -0.420815 -0.123731 -0.337997 -0.0900151 0.341662 -0.0487092 0.473948 -0.408871 -0.251523 -0.174857 0.0556582 -0.267843 0.295036 0.44043 0.0842266 0.304871 0.197898 0.195793 0.341608 0.210169 0.229178 -0.124836 -0.127175 -0.409219 -0.282547 0.272864 -0.221564 0.302054 0.413991 -0.18822 0.487158 -0.497866 0.141102 -0.423724 -0.213255 0.102785 -0.46203 0.123123 -0.364663 -0.17975 -0.440039 0.00881924 -0.28391 0.228772 0.332931 
0.170676 -0.132459 0.341187 0.133348 0.183455 -0.492635 0.248793 0.378593 -0.193688 0.155975 -0.231703 0.492514 0.149765 -0.122554 -0.105524 -0.437128 -0.000143309 -0.48005 -0.049029 -0.296073 0.0676792 0.108712 0.312035 -0.305868 0.240946 0.0711394 0.139123 -0.0654079 0.294345 -0.324759 -0.404294 -0.193638 -0.490095 0.0532886 -0.0704759 0.146221 -0.487415 0.202178 -0.174667 0.449049 0.452737 0.0437383 -0.298382 0.145486 -0.306307 -0.255352 -0.12828 0.273088 -0.344708 0.144735 -0.397565 0.102761 0.444576 0.117489 -0.0479109 -0.332722 -0.368961 0.18621 0.0144572 -0.24695 -0.131503 -0.394088 -0.160875 0.389278 0.191359 0.442196 -0.373133 -0.0116087 0.442557 0.277102 0.153712 -0.0521174 -0.42625 -0.249529 0.0217917 0.108461 -0.0584379 -0.357263 -0.0200372 0.375245 -0.0388226 -0.263311 -0.213483 -0.280786 -0.175293 0.174778 -0.178887 -0.372148 -0.409107 -0.360745 -0.305168 -0.164795 -0.355441 -0.317333 0.219183 -0.276979 -0.299459 -0.146904 -0.113146 0.324896 -0.0404132 0.132805 0.271332 0.388221 -0.0756933 0.299322 0.0193905 -0.431985 0.496518 0.214869 -0.04004 -0.229268 0.445978 -0.0673336 -0.496193 0.209534 0.178318 -0.434259 0.197044 -0.192515 -0.00645046 0.0764996 0.0530157 -0.33246 0.116654 0.300207 0.344994 -0.157118 -0.138227 -0.426894 -0.0541633 -0.313921 0.299862 -0.267525 0.321313 -0.339946 -0.233581 -0.322347 -0.26053 -0.0942461 0.36163 -0.406944 0.396808 -0.109995 -0.145815 0.406467 -0.388466 0.274257 -0.439912 0.178306 0.388621 0.466733 0.0936946 0.288417 0.0719441 0.442442 0.340346 0.0690546 0.103456 -0.467781 -0.0010512 -0.076328 -0.284823 -0.253458 -0.0466339 -0.461998 0.274635 0.316853 0.196367 0.0762619 -0.231362 0.283226 0.148968 -0.198027 0.218728 -0.32365 0.194891 -0.0912043 -0.133706 0.0286272 -0.499594 -0.0844017 0.359127 -0.0131094 -0.314369 -0.424272 0.0987475 0.145556 -0.308086 0.0459036 0.0841344 -0.0633128 0.289395 0.0955987 0.389345 -0.23533 0.198289 0.199493 -0.107708 -0.426783 -0.441013 -0.0916547 -0.0235358 -0.317001 -0.158147 0.357697 -0.467695 0.256491 0.323531 -0.486741 0.323749 0.00524597 0.314698 0.0988053 -0.24035 0.111992 0.273494 -0.0868788 0.124467 0.364531 -0.275378 0.184769 0.208205 0.155351 -0.0503464 0.433483 -0.448202 -0.304162 -0.107843 -0.429975 -0.116792 -0.281521 0.167849 0.0321914 -0.280241 -0.352273 -0.169332 -0.198405 0.0651267 0.165685 0.00913157 0.247593 0.212634 -0.374457 -0.102577 0.210126 0.178823 0.0982198 0.257487 -0.48781 -0.00575442 0.328896 -0.473456 -0.214111 -0.267549 -0.30066 -0.224179 -0.322885 0.326675 0.105621 -0.129657 0.201829 -0.133854 -0.0223893 -0.218565 0.263667 0.473266 -0.325437 0.211286 -0.394979 -0.171104 -0.380193 -0.30999 0.393355 -0.416635 0.479202 0.497523 0.26534 -0.12236 -0.461009 0.109041 -0.390542 -0.490204 -0.242261 -0.112421 -0.0323359 0.259151 0.447099 -0.0255733 -0.006137 0.45381 0.46956 0.332698 0.327467 -0.42549 -0.228319 0.393249 -0.411337 -0.0173137 -0.486333 0.389896 0.180329 -0.130948 0.0738916 0.196868 0.355073 -0.407026 0.442789 -0.086615 -0.265404 -0.283096 0.426289 0.372768 0.107984 -0.165191 -0.448801 -0.007654 -0.38153 0.450269 0.42069 0.268347 -0.185652 -0.218228 0.0323775 0.193641 0.0900576 0.456084 -0.456564 0.0728297 -0.390863 0.47208 0.359342 0.0917609 0.0182379 -0.186483 -0.417163 -0.482252 0.165006 0.413448 -0.288381 -0.100669 -0.169027 0.159519 0.130092 -0.0445262 -0.235094 -0.381796 0.403381 -0.292026 0.221359 0.27022 0.0568774 0.150351 -0.252165 0.166061 0.022906 -0.113167 -0.38346 0.0360567 0.103871 0.416662 -0.104214 -0.100672 0.485582 0.250052 0.264078 0.322982 -0.276625 -0.158759 -0.366461 0.447087 0.158837 0.342643 0.457169 -0.487792 0.383305 -0.490988 0.440473 0.162951 -0.119232 0.346684 0.0226211 0.0852781 -0.00117574 -0.403805 -0.497725 -0.426124 0.240131 -0.21833 0.39757 0.0876601 0.198512 -0.0704246 0.330831 -0.430831 -0.260292 0.484677 0.0443961 0.137727 0.202464 -0.0241 0.0665455 0.187304 -0.457911 -0.46969 0.4013 0.477091 0.0300864 -0.386624 -0.0645898 0.00567831 -0.341995 -0.370635 0.215792 0.102216 0.118487 0.302192 -0.245716 -0.428506 0.250622 0.305728 -0.056756 0.442146 -0.322777 0.154941 0.350902 -0.135966 0.24948 0.115301 0.13357 0.0760007 0.348684 -0.207837 -0.40124 0.171686 0.109681 0.1095 -0.496569 0.250675 -0.10879 -0.242284 -0.0329254 0.0954437 -0.257512 -0.219084 -0.196344 -0.316746 0.131319 0.149736 0.421599 -0.324394 -0.457258 0.214291 0.0331124 0.135837 -0.43288 -0.35139 -0.261601 0.216882 0.225848 0.302468 0.364321 0.318713 0.189069 0.26776 -0.469996 0.371249 -0.470396 -0.0217589 -0.00652975 -0.225299 -0.379647 0.275319 0.439266 -0.262281 0.455508 0.231663 -0.0137844 -0.248202 0.229524 -0.0590307 0.36827 -0.0629087 -0.12673 0.453332 0.276374 -0.449032 -0.314274 0.302739 0.00683157 0.108976 0.249912 0.0543641 -0.46604 0.407217 -0.3664 -0.0631143 -0.436628 -0.150879 -0.272594 0.0657749 0.118352 0.212401 0.294658 0.368246 0.177576 -0.0266866 0.0203705 -0.294193 0.0733894 -0.0757444 0.412099 -0.221172 0.0643432 -0.183502 0.193025 0.295155 0.274736 0.0486253 -0.352473 -0.486581 -0.0453205 0.439589 -0.347541 -0.103566 -0.204751 -0.31908 0.192354 -0.10529 0.103014 0.0106724 -0.334181 0.435834 -0.0129563 0.0642982 -0.0260522 -0.480859 0.156354 -0.0129637 0.11151 0.0646132 -0.246163 0.241952 -0.196404 0.354775 0.375363 -0.357016 -0.411551 0.473719 0.473139 0.182792 -0.278348 0.295561 -0.309665 -0.092248 0.134418 -0.30095 0.0304077 0.0383368 0.298015 0.0883484 0.341152 0.265054 -0.370959 -0.315895 -0.301387 -0.0999825 -0.0695116 0.134124 -0.313463 0.456591 0.0471647 -0.421872 -0.4353 0.4635 0.29451 


-0.446345 -0.0423423 0.320236 -0.204736 -0.122103 -0.433412 -0.391775 -0.113042 -0.387908 -0.319141 0.363903 0.371068 0.253557 0.254944 -0.00795182 0.207103 0.399127 0.124878 0.0963665 -0.382303 0.201056 -0.0705566 0.479089 -0.238633 -0.205511 -0.228361 -0.316212 0.491839 -0.286795 0.311518 0.250203 -0.249043 0.183381 -0.131306 0.295976 -0.245988 0.395707 -0.420826 -0.0683942 -0.101667 0.280914 -0.0448203 0.294803 -0.0479135 -0.0219131 -0.319542 0.241563 0.333447 -0.429502 0.374172 -0.49658 0.0457033 -0.335239 0.219364 0.420142 0.474264 -0.315715 0.30928 0.316402 -0.408819 -0.0577742 -0.341608 -0.357293 0.437345 0.246783 0.205253 0.0186208 0.14933 0.375834 -0.220252 -0.0136088 -0.00296819 