0.432747 -0.364175 0.27711 0.27185 0.180326 -0.218612 0.282785 -0.233451 -0.125505 -0.448511 -0.0781235 0.104962 0.498278 -0.0819041 0.376645 0.132379 -0.38181 0.366397 0.322734 -0.154133 0.484086 -0.194827 -0.265155 -0.149212 -0.393937 0.0636641 0.000522947 0.0573677 -0.365077 0.107767 -0.316459 0.107 0.494043 0.4546 0.0159989 -0.251356 -0.320683 -0.309046 -0.0555111 -0.072166 0.150362 -0.0177209 -0.330548 0.197328 -0.0585755 0.173701 -0.061437 -0.327628 0.363588 0.314634 0.107845 0.29342 0.177087 0.1675 -0.108708 0.136935 0.242734 0.0270781 0.314347 0.0466991 0.344812 -0.16824 0.495184 0.116969 0.336818 0.302466 -0.228184 0.0996766 -0.403926 0.155178 0.36531 -0.167366 0.394861 -0.330392 -0.425976 -0.157511 0.0171945 0.498278 -0.018 0.212984 0.123812 0.103063 -0.174989 0.374098 0.138657 -0.239266 0.314094 -0.309465 0.443636 0.121913 0.396778 -0.355143 -0.463289 -0.361092 0.109573 0.389942 0.373143 -0.300704 0.0103204 0.328599 -0.306273 -0.214712 -0.220333 -0.299119 -0.356807 -0.493126 -0.330321 -0.211727 -0.0723039 -0.155855 -0.0978179 -0.318183 0.367224 -0.0310217 0.47246 -0.113602 0.34639 0.0414539 -0.059904 0.342612 
-0.276213 -0.37868 0.0665872 -0.317583 -0.0711283 -0.478075 0.324662 0.140099 -0.439842 0.174834 -0.419618 -0.48612 0.38419 0.262965 0.339092 -0.304743 -0.223586 -0.116111 -0.36983 0.303731 -0.173575 0.312785 0.2067 -0.437783 -0.0730947 -0.0500896 -0.16054 -0.360389 -0.0998148 -0.119023 0.446924 0.00935778 0.042132 -0.15191 0.355501 -0.119224 -0.248905 0.403265 0.263361 -0.464482 0.0517511 0.212142 -0.41603 -0.0579009 -0.0354899 0.115077 0.332915 -0.115316 0.395588 -0.245819 0.144112 -0.0172441 -0.366897 -0.214413 -0.189926 -0.371314 0.0254033 0.251694 -0.0741221 0.419501 0.209836 -0.0896832 0.171091 0.460337 -0.348273 -0.339587 0.455369 -0.155407 0.0323585 -0.472292 0.129051 -0.0811156 0.43593 -0.360448 0.490898 -0.109001 -0.49701 -0.205956 0.335444 0.159961 0.0411187 0.0964224 -0.31965 -0.0748707 -0.409072 -0.0464968 -0.362067 -0.453169 -0.201074 -0.0833204 0.074575 0.331156 0.476904 0.353508 -0.110791 -0.326348 0.485076 0.0954681 -0.0952484 -0.292808 -0.39191 0.142931 -0.196926 0.198895 0.478644 -0.313844 0.167412 -0.113121 -0.0757864 0.139175 0.486387 -0.146096 -0.196877 -0.257434 0.352035 0.0408381 0.292963 -0.222456 -0.0529838 0.179903 0.114424 -0.416067 -0.126712 -0.175006 0.209009 0.269985 -0.0752527 0.38834 -0.141171 -0.0597307 0.258943 0.320232 0.226901 0.245173 -0.336595 0.0937211 -0.48093 -0.447903 -0.217533 0.178394 -0.216714 -0.0308574 -0.0129935 0.0887097 0.0526403 0.48072 -0.433759 0.0446575 0.203422 -0.133483 0.0839332 -0.475259 0.255024 -0.166375 -0.0232793 0.369422 0.225354 0.26934 -0.0793013 -0.113463 -0.43068 -0.322172 0.256162 0.366452 0.236072 0.0544038 0.0967112 -0.186885 0.387541 0.442428 -0.280487 0.379709 0.149492 0.412136 0.179638 -0.493857 -0.381347 -0.386927 0.343583 -0.379899 -0.456447 -0.0849109 -0.498355 0.108532 0.222834 0.150373 0.354498 -0.179178 -0.325908 0.127891 -0.00537315 0.212251 -0.019098 -0.0449436 0.345096 0.422227 -0.278184 0.48359 0.237328 0.0267155 0.428815 0.0734168 -0.317169 0.392058 0.26417 -0.279524 0.299106 -0.103803 0.0600887 0.0234868 0.220487 -0.372514 0.288377 -0.173361 -0.182459 -0.00718035 -0.42488 0.242838 0.179651 0.114361 -0.113166 -0.185142 -0.0608483 -0.273925 0.118461 -0.0611832 0.441298 -0.226087 -0.233943 -0.0842777 0.310002 -0.102043 -0.439577 0.271541 -0.0553013 0.244891 -0.213283 -0.156236 -0.400381 0.426606 0.475225 0.245229 0.38251 -0.377998 0.30336 -0.313037 -0.281826 0.34446 -0.336463 -0.433812 0.183682 0.064662 -0.42898 -0.194396 0.462147 -0.327135 -0.464472 -0.245588 -0.338546 -0.291515 0.135235 0.189711 -0.452551 0.472559 -0.0488214 -0.0491578 0.363544 -0.10021 -0.312653 -0.28028 0.18221 -0.109686 0.246874 -0.00895832 0.344837 -0.0462675 -0.458539 0.0389963 -0.481448 0.291428 0.0608151 -0.104067 -0.454436 0.0260764 -0.3493 0.384374 -0.105319 -0.480882 0.49174 0.188169 -0.3627 -0.291348 0.372542 0.439508 0.236729 0.171654 -0.250051 -0.240259 0.459878 0.210834 0.192947 0.309697 -0.321309 -0.426487 0.308582 -0.162344 0.0288526 0.284299 -0.281352 0.132914 -0.321738 0.375674 0.335084 -0.228361 -0.355462 0.0895165 0.325672 0.168594 -0.214825 -0.0925376 -0.00182901 0.0352573 -0.230925 0.144083 -0.115793 -0.0183799 0.458371 0.0937127 -0.14064 0.386485 0.0388894 -0.061824 0.192206 -0.199306 0.376872 0.495545 0.0558301 -0.126687 0.447835 -0.215164 -0.183405 0.242924 0.446694 -0.359312 -0.266214 -0.182597 0.125045 -0.419916 0.330048 -0.00633939 -0.457302 -0.312118 0.0827067 -0.258366 -0.404738 0.335049 -0.154836 -0.141839 0.28106 0.0790798 -0.180855 0.429204 -0.31495 -0.316752 -0.35447 -0.169395 -0.462994 -0.405174 -0.108134 0.239263 0.345651 0.212528 0.288488 -0.02723 -0.208612 -0.38184 0.212085 0.144163 -0.428176 0.0182172 0.130961 -0.24865 -0.439576 0.0222147 0.478364 0.266916 -0.415003 0.104905 -0.181961 -0.00810555 0.453681 -0.371158 -0.392105 -0.241438 0.49183 -0.0168137 0.359457 0.321304 -0.186526 -0.475221 0.417525 0.221325 0.0476127 -0.439873 0.117308 0.380905 0.443832 -0.119321 0.429338 -0.0207139 -0.483612 -0.333782 0.0204249 0.204507 0.406421 -0.040016 0.225288 0.17871 0.464264 -0.295476 0.425288 -0.108143 0.321048 -0.0914114 -0.364565 0.487375 -0.460984 -0.267229 0.269139 0.0983101 -0.158625 0.160449 0.168018 0.188301 -0.206086 0.434711 0.00594911 -0.476084 -0.289273 -0.077001 0.0219837 -0.29573 0.248925 0.262059 0.299769 0.24147 0.305148 -0.416551 -0.0402297 0.043344 0.319668 0.354491 0.0769065 -0.495703 0.0541188 -0.0339607 -0.475619 -0.366157 0.124636 0.00840237 -0.0560389 -0.446097 -0.0510632 -0.359212 0.479689 -0.087926 0.146795 -0.349888 -0.404261 0.228944 -0.44604 0.273333 -0.235306 -0.228861 0.240423 0.0666848 0.326468 -0.0899475 -0.098512 0.451665 0.196415 0.44851 0.462386 0.335469 0.496127 -0.462695 -0.174503 0.345685 -0.0526829 0.149416 -0.0740727 -0.334714 0.101516 0.00906408 0.258096 0.360594 -0.144094 -0.472526 -0.42055 0.0750254 0.245333 -0.279822 -0.206242 0.4692 -0.322439 -0.299593 -0.208028 0.00517766 -0.125683 0.106012 0.239382 -0.411729 0.269559 -0.129025 0.470903 0.483502 -0.423678 0.0582673 0.114825 -0.454373 0.49079 -0.413624 0.333304 -0.210183 0.302978 0.192807 -0.133457 -0.120179 -0.261798 0.00244946 -0.402991 0.449602 0.469102 -0.444182 0.268969 0.419031 -0.494445 -0.124579 0.464948 0.417661 0.166058 0.093873 0.165178 0.273855 0.425094 -0.0630574 -0.492117 -0.289835 -0.317097 -0.376773 -0.0104118 -0.455307 0.035313 0.474092 -0.230494 -0.284948 -0.160398 0.0166547 -0.0244392 0.467146 0.056409 0.370342 -0.285704 -0.259758 0.296241 -0.164346 0.245498 -0.0843923 0.276909 0.416613 -0.246218 0.114569 0.0562593 0.00064673 0.269982 0.462399 0.262439 0.353569 0.157482 0.332319 0.0491542 0.154874 0.146209 -0.455623 0.232188 -0.369901 0.0709576 -0.132923 0.0961052 -0.449414 0.212478 0.276587 -0.335899 -0.316504 -0.0821978 0.496648 0.127626 -0.249324 0.289924 -0.117079 -0.23354 -0.157946 -0.115873 0.427234 -0.02845 0.253485 -0.46128 -0.179293 -0.0316069 0.203109 0.323109 0.13553 -0.0118223 0.436026 0.347355 -0.0750054 -0.00335816 0.450779 0.105278 -0.401445 -0.352405 0.162081 0.245689 -0.280082 0.452466 -0.163167 -0.497796 -0.496953 -0.284376 0.207585 0.356594 0.360333 -0.492768 -0.342017 0.352328 0.408493 0.261368 -0.251115 0.00361005 0.09162 -0.307303 0.367803 -0.329157 -0.0377305 -0.294469 -0.437594 0.264597 -0.486703 -0.0736602 0.0724243 0.154964 -0.482062 0.376377 0.48593 -0.483841 -0.211881 -0.417669 -0.0821886 0.279956 -0.367764 0.295236 -0.0288374 -0.0834079 0.0078785 0.427965 0.314727 0.170932 0.114937 0.406367 -0.164071 -0.359226 0.347571 0.0140116 -0.28478 -0.305543 -0.164369 0.133364 -0.368326 0.109402 -0.023074 -0.215097 -0.0684497 -0.317962 -0.440127 -0.0962676 -0.487192 0.415746 -0.166993 -0.292264 -0.337123 -0.098617 -0.36271 0.35529 -0.156174 0.479428 0.18145 0.353447 0.491638 -0.41667 0.109475 -0.340962 0.276305 -0.164251 -0.0499627 -0.437425 0.119452 0.332272 0.0841431 0.236952 0.207956 0.124521 0.446984 -0.322761 -0.0980435 -0.487661 0.240565 -0.484989 0.418793 0.048631 0.415321 0.170941 -0.238284 -0.355478 -0.486727 -0.303846 0.387921 -0.0571817 -0.397668 -0.00475146 0.17495 0.302172 -0.473159 0.447148 0.298018 0.155569 -0.375018 -0.115951 0.345569 -0.489517 -0.190623 -0.13708 0.142459 0.32336 -0.336831 -0.0818843 -0.199542 0.322896 -0.0671772 0.198749 0.180867 0.238872 -0.357897 0.178308 0.1524 0.441238 -0.489119 0.0588529 -0.442245 -0.491301 0.331178 0.315724 0.149743 0.0408525 -0.337632 0.492475 0.491199 0.258346 0.0157227 -0.0450294 -0.0125911 0.0942793 0.29447 0.324497 0.383234 0.0669017 -0.0690766 -0.283796 -0.344096 0.140559 0.361626 0.341479 0.376162 0.497394 -0.477866 0.131829 0.122688 0.364328 0.0504913 -0.358915 0.118174 0.490216 0.0920288 0.485492 0.49089 -0.275057 0.111927 0.323472 -0.157511 -0.247325 -0.337073 -0.38807 0.0412629 0.471709 -0.273546 0.395572 -0.192533 -0.0540653 -0.365003 0.204535 0.0558796 -0.221292 -0.396805 -0.479316 -0.489334 -0.281711 0.0197496 -0.434494 0.46666 -0.45426 0.316035 -0.0796535 -0.482943 0.0391768 0.28351 0.146458 -0.150075 0.495976 0.16904 -0.147028 0.0620515 0.0258471 0.254389 -0.135377 -0.365121 0.14457 -0.303969 -0.369636 0.378757 0.333746 -0.114598 -0.214429 -0.0791882 0.281503 0.173084 0.451905 -0.27083 -0.421398 -0.376738 0.475359 0.376917 0.131759 -0.42991 0.0579092 0.201545 0.275985 0.137658 -0.391729 0.0116988 -0.375989 0.340381 -0.343669 -0.179683 0.0788868 -0.252143 0.20178 -0.424507 -0.0877654 -0.213733 0.0193161 0.195372 -0.0366075 -0.338267 -0.0817947 0.303637 -0.195087 0.0745927 -0.406502 0.129094 -0.235653 0.0935333 0.367133 -0.276212 -0.444418 0.048799 0.426489 -0.112087 -0.0388709 -0.0492406 0.264374 -0.213062 0.452311 0.197594 -0.207973 0.305341 -0.356571 -0.490753 0.0214277 0.0472315 0.490802 -0.424804 
0.486787 -0.100749 0.125329 -0.213281 -0.141853 -0.0212137 -0.205877 0.470658 0.0794441 -0.0429518 0.0699474 0.0296329 -0.349225 0.478695 -0.417623 0.356666 0.279615 0.129562 -0.227182 -0.446965 -0.202217 -0.263337 -0.300491 0.302451 -0.428983 -0.223522 -0.18096 -0.443825 0.062297 0.200578 0.0492959 -0.127925 0.429107 0.29896 0.400087 -0.148253 -0.229002 -0.294415 -0.382 0.456263 0.1328 0.471576 0.254881 -0.00992556 0.193135 -0.0682401 0.371664 -0.393373 -0.0384463 0.39872 0.0497595 0.327926 0.377609 -0.06687 0.1536 -0.460166 -0.331052 -0.190631 -0.195206 0.260227 -0.365422 -0.432333 0.359128 -0.36728 0.00124682 0.067708 0.221267 0.398962 0.399889 0.310615 0.372501 -0.0185053 -0.258264 0.467556 0.169744 -0.494779 -0.390274 0.309444 0.188824 0.0687056 0.30362 0.420342 0.181945 -0.329682 0.19964 0.271176 0.0900855 0.187166 -0.414031 0.00908342 -0.0399999 -0.341209 0.0877252 -0.493689 -0.308971 0.130319 0.140526 -0.141099 0.0963962 0.378195 0.092851 -0.350391 0.318902 0.255187 -0.332474 0.0991617 -0.159362 -0.0507799 0.245262 0.0264273 -0.304442 -0.281167 -0.00800061 0.394872 -0.154671 0.450745 -0.401098 -0.408839 -0.26449 0.294549 

-0.123796 0.494697 0.256253 0.412985 -0.212179 0.490574 0.211785 -0.121171 -0.0658666 -0.327211 -0.132237 -0.0170174 0.295695 -0.107734 0.049252 -0.0732292 -0.336012 0.218339 0.282682 -0.300019 0.264028 -0.255191 0.173024 0.230941 0.10848 -0.0420962 0.284105 0.0068822 -0.395264 0.431376 -0.42365 0.292883 -0.138785 -0.22026 -0.367295 -0.325695 -0.0175313 -0.244871 0.484842 -0.149254 0.380374 0.0306399 -0.33615 -0.148425 -0.412361 0.425456 -0.0785321 0.420241 0.131324 -0.429497 -0.309444 -0.0241871 0.123638 -0.392842 0.403731 0.476242 0.440886 0.0798007 0.399148 0.153988 