-0.331154 0.544653 -0.324887 0.8158 0.682691 0.314533 -0.488623 0.262295 0.70191 0.854967 0.47463 0.343447 0.909501 0.114913 -0.389855 -0.0168892 0.398414 0.237268 0.478317 -0.277865 0.315719 0.682812 0.0918696 0.797855 -0.232092 0.67852 -0.206348 0.914575 0.246591 0.4928 -0.220351 0.356733 -0.888765 -0.543467 0.566293 -0.248302 -0.0835175 -0.910062 0.537806 0.0732522 0.444285 0.995889 -0.153974 -0.169635 -0.873696 -0.326247 -0.196317 0.753784 0.274276 0.956496 -0.679041 0.192608 0.0362937 -0.147934 0.747907 -0.00563383 -0.652581 0.380951 -0.33764 -0.561663 -0.508618 -0.838406 -0.879454 -0.737275 0.60216 -0.263946 -0.201069 -0.0130643 -0.43946 0.195173 0.420086 0.489709 0.0618004 0.968977 -0.308416 -0.766889 -0.280598 0.826504 -0.996909 0.717849 0.387756 0.419651 -0.776578 -0.153109 -0.0748068 -0.086608 -0.62791 -0.84995 0.653602 0.220863 0.148998 0.920833 0.916973 0.754214 -0.476297 0.150082 -0.46708 -0.874721 -0.964337 -0.750111 -0.0688162 0.442987 0.436029 0.384515 -0.0722982 -0.309458 0.96812 0.731176 -0.00464992 0.0553524 -0.222921 0.192845 0.572184 0.63404 0.00487849 0.803581 0.931583 0.783461 -0.997672 0.847903 0.855669 -0.943078 -0.834604 -0.239999 -0.55035 -0.282926 0.978602 -0.852579 0.660927 0.222359 -0.34035 0.773772 -0.870183 -0.0534086 -0.234029 -0.288837 -0.072309 -0.00604815 0.447091 0.0191805 -0.0257589 0.151002 0.0430509 0.596012 -0.84387 0.0858294 0.106098 0.0614221 0.0988865 -0.167652 0.064209 0.808789 -0.753001 0.902414 -0.453954 -0.589993 0.378589 0.931141 0.246563 -0.46992 0.29043 0.026138 0.224034 0.62629 0.87244 -0.31498 0.253381 -0.288102 -0.178235 -0.368365 -0.569368 -0.707043 -0.92502 0.196268 -0.994824 0.156837 0.515786 0.230295 -0.0705975 -0.415331 -0.422496 -0.875359 0.789754 0.250184 0.480869 0.998288 -0.590718 -0.130413 -0.105461 0.184487 0.900818 0.562182 0.597723 0.746847 -0.783758 -0.788441 0.876935 0.198069 0.270166 -0.197478 
-0.833138 0.240115 0.370375 -0.345538 -0.00504616 -0.950576 -0.802884 -0.248132 0.695177 0.775603 -0.0681314 0.844421 0.402872 -0.911424 -0.721368 0.0821102 -0.0541607 0.799813 0.831632 0.164747 -0.178138 -0.930154 0.616471 0.950876 0.34593 -0.830625 0.318889 0.256793 -0.365788 -0.956362 0.125839 -0.338015 -0.528323 -0.625824 -0.933228 0.82167 -0.911965 0.758969 0.836262 -0.91049 -0.43751 -0.756379 0.969787 0.741144 -0.837696 -0.50179 -0.302255 -0.338469 -0.43172 0.916235 0.875399 0.250471 0.181419 -0.364647 0.221832 0.380947 -0.782654 -0.988462 0.101152 -0.512804 -0.591581 -0.679773 -0.827916 0.362784 0.904631 0.00501149 -0.799077 0.789508 -0.728454 0.560974 0.353293 -0.71374 -0.232864 0.796819 -0.642788 -0.417244 -0.626281 -0.581173 0.431592 -0.983245 0.457237 -0.739093 0.99915 0.156569 0.0232974 -0.394028 0.365036 0.164107 -0.57983 -0.301959 0.525912 0.605815 0.615112 0.144421 -0.0299372 -0.0251499 0.580459 -0.553414 0.72651 0.388247 -0.599755 -0.872614 0.211607 0.21456 0.558069 -0.69599 -0.677777 -0.643693 -0.0100004 0.215951 0.966353 0.185539 0.592098 0.524464 -0.0663893 0.87634 0.982371 -0.886146 -0.68765 -0.101208 0.510957 -0.273055 -0.919523 -0.655054 0.396125 0.552331 0.77846 0.236815 0.833649 0.423616 0.922084 0.678196 0.606424 0.386451 0.87042 0.927411 0.414369 0.167813 -0.859287 0.503793 -0.872561 -0.248751 -0.643822 -0.422612 0.967405 -0.820703 -0.708851 0.650848 -0.173228 -0.709987 -0.00277345 0.782875 0.654478 -0.465391 -0.979014 0.310713 0.157513 -0.812245 -0.189148 -0.064668 0.831267 -0.412905 -0.274738 0.0954336 0.0232369 -0.880337 0.773451 0.78005 0.852211 -0.715538 -0.113409 -0.023348 -0.442907 -0.583659 -0.666439 -0.680012 0.593555 -0.0411414 -0.921709 -0.497182 -0.117061 -0.357694 0.193666 -0.91825 0.0873354 0.459053 -0.973955 0.230883 -0.418962 -0.310351 -0.254325 0.877756 0.0601002 -0.973516 0.556304 -0.184566 -0.774641 0.208783 0.383188 0.479264 0.629613 0.161395 0.679696 0.0885386 0.142148 0.168456 -0.434393 0.572557 -0.410023 0.781759 0.376933 -0.71363 0.212818 0.40753 -0.580962 -0.0260582 0.111569 0.967686 0.463006 0.696982 -0.826608 0.996564 -0.934304 0.205838 -0.887013 -0.0603083 0.428144 0.179684 -0.818086 0.346222 0.95387 -0.196515 0.483087 -0.184626 -0.690849 -0.868657 0.171666 0.982823 -0.707689 0.0205682 -0.309247 0.935775 0.194919 0.785803 -0.720372 0.641665 -0.590862 -0.0740684 0.479155 -0.405574 0.996257 0.955376 -0.108524 0.974103 0.342237 -0.491556 0.957583 0.609911 -0.416568 -0.00182003 -0.841137 -0.912472 0.53563 0.778355 -0.769298 0.434944 -0.944764 -0.676343 -0.592864 0.556415 0.101139 0.52911 0.286576 -0.0621253 0.329452 0.555915 -0.670692 -0.543683 -0.696274 0.703876 0.325649 -0.846661 0.681166 0.950624 -0.574426 0.484878 -0.482824 0.472777 0.69511 -0.200726 0.529361 -0.995952 0.482286 -0.429661 0.254111 0.426136 -0.591343 0.134063 0.74072 -0.708077 -0.255926 0.424523 -0.756905 -0.0156553 -0.440259 -0.321918 0.50763 0.0295558 -0.212296 0.467142 0.0238321 -0.2161 -0.846346 -0.165221 0.961106 -0.114063 -0.438496 0.703408 -0.476843 -0.236008 -0.988883 0.77582 0.476636 -0.0939976 -0.955074 0.798764 -0.569784 -0.952949 -0.286017 0.801563 -0.758345 0.450328 -0.738845 -0.481148 -0.298767 0.554433 0.399312 0.535707 -0.998496 -0.483833 0.354115 -0.79188 0.134505 -0.287164 0.236138 -0.397843 0.473502 -0.726536 -0.297207 -0.712207 0.755917 -0.657515 -0.719574 -0.375581 0.770305 -0.957068 0.547389 -0.682485 0.0671336 0.0885488 -0.993295 -0.81849 -0.28687 -0.810716 0.622296 0.352146 -0.241846 0.983929 0.670242 -0.186373 0.291696 0.64749 -0.401865 -0.198816 -0.262817 0.338615 0.869676 -0.425374 0.0490507 -0.500609 -0.205126 -0.808455 -0.654687 -0.165135 -0.553703 -0.598298 -0.964106 -0.0928999 -0.852409 -0.960728 -0.211025 -0.784025 0.270963 -0.0275658 0.0638394 -0.861427 0.0317456 -0.743597 0.91014 -0.760052 -0.48004 0.739861 -0.8245 -0.214207 -0.686378 0.938026 -0.937775 -0.118009 -0.437716 0.764255 0.0311954 0.400439 -0.0533665 0.400699 -0.8675 0.130268 0.184682 -0.0215566 0.79072 -0.161102 0.969336 0.191601 -0.143322 0.584938 0.842453 -0.21701 0.355538 0.388525 0.105158 0.702896 -0.207707 -0.477661 -0.853026 0.428803 -0.337893 -0.859795 0.598911 -0.268342 -0.116456 -0.512498 -0.908852 0.943504 -0.633424 0.861696 0.000163676 -0.334546 -0.324442 0.626144 0.253124 -0.0235236 -0.0997963 0.316059 -0.272867 0.766878 -0.802364 0.567095 0.113713 -0.0656594 0.536133 0.556186 -0.5754 -0.27384 0.674561 0.450934 -0.0561082 0.538347 -0.512629 0.105704 0.729779 0.846316 -0.474785 0.523614 0.542052 0.826881 -0.654588 -0.656934 -0.178662 -0.429748 0.339463 0.814091 -0.673291 0.721941 -0.820577 0.352396 0.657798 -0.369344 0.109783 -0.728475 -0.443488 0.414878 0.714853 -0.880933 0.580225 -0.678663 0.989177 -0.679762 -0.591604 -0.864615 -0.068854 -0.839497 0.972159 -0.644076 0.494978 0.540623 -0.650796 0.385708 0.0249433 0.939961 -0.18211 0.225379 -0.585409 -0.22881 -0.882971 -0.673668 0.429622 0.337269 -0.194116 0.89914 0.374519 -0.774193 -0.0228627 0.607341 -0.835809 0.913255 -0.444214 0.966234 0.477441 -0.0507031 0.0684941 -0.136809 -0.761568 -0.606113 0.371553 0.570397 -0.777991 -0.318086 0.0624522 0.252758 0.10373 0.27675 0.516174 0.736836 0.393965 -0.339472 -0.993582 0.445735 0.625392 -0.0795233 0.441234 -0.62483 0.193713 -0.673132 0.794585 0.87941 0.362091 -0.629592 0.764417 0.993256 -0.6937 -0.423126 -0.97456 -0.557468 0.116626 -0.573595 -0.632358 -0.925494 -0.445665 -0.582731 0.0996696 0.0047547 -0.871863 -0.469818 0.685448 0.303018 -0.387911 0.263307 0.69533 -0.24075 0.179518 0.134522 0.273069 0.410071 -0.47617 0.742819 0.23514 0.809939 -0.00805275 0.88 0.884761 -0.237037 0.308718 0.352994 0.970109 -0.163696 -0.182559 -0.791846 0.329384 0.43723 -0.695284 -0.917724 -0.949715 0.374456 -0.548713 0.919786 -0.510007 0.451062 -0.230779 0.0362416 0.0364296 0.340408 0.600971 0.600288 0.03989 0.469961 -0.984746 -0.53061 0.495349 0.453839 -0.263787 -0.239727 -0.795941 -0.90673 0.677314 -0.635769 -0.403226 -0.766701 0.381836 -0.587659 0.221736 -0.539169 -0.5446 0.119393 -0.240324 -0.342383 -0.0114616 0.773651 -0.358076 0.0953782 -0.129511 -0.850149 -0.834899 -0.407495 -0.730434 0.899625 -0.51664 -0.799377 0.841499 -0.304949 0.821029 -0.398506 0.0579882 -0.755239 0.96 0.638246 0.563456 0.950316 0.883444 0.779754 -0.419816 -0.536638 0.309673 0.76929 0.841155 -0.364535 -0.400268 0.227023 0.858625 -0.984725 -0.131696 0.909532 -0.776447 -0.0795144 -0.983494 0.792462 -0.828792 -0.0489358 0.667963 0.697686 0.506765 -0.341416 0.698745 -0.946535 -0.3413 -0.694922 0.154291 0.985423 -0.305019 -0.0365474 0.223975 -0.0656026 -0.0585847 -0.21639 0.122781 0.963734 -0.906581 0.72296 0.193888 0.16501 0.418913 -0.763098 0.405272 0.314119 0.541056 -0.815367 0.625119 -0.639141 0.77062 0.426744 -0.593377 -0.620507 -0.764365 0.450978 -0.527843 0.0442098 -0.872753 0.952354 0.800327 0.838465 -0.477527 0.482962 0.18573 0.37972 0.241163 0.101575 0.726671 0.139749 0.587453 0.908436 -0.509307 -0.600203 0.17746 -0.780113 -0.421118 0.663259 0.194624 0.350092 -0.687606 -0.557289 -0.946209 0.179137 -0.969918 -0.110077 -0.67511 -0.832911 0.212106 0.718259 -0.837493 0.539466 0.00715507 -0.985152 -0.146031 -0.569919 0.958315 0.727173 0.316959 0.356015 0.735442 -0.704345 -0.275518 0.935482 0.712674 -0.694318 -0.00768687 -0.78575 -0.81795 -0.57633 -0.377011 0.575424 0.522698 0.52644 -0.832635 0.549517 -0.210772 0.458673 0.264476 -0.542908 -0.737678 0.847985 -0.937132 0.185862 0.0869102 0.399785 0.982235 0.156504 -0.598971 -0.996018 0.633119 0.945276 -0.584651 0.465863 0.304998 0.811617 -0.163337 -0.461988 0.00402787 0.637312 -0.909964 0.480076 0.919696 -0.574327 0.590909 0.763211 0.586418 0.415565 0.866247 0.657071 0.910401 -0.814846 0.915035 -0.708678 0.986514 -0.855677 0.851652 -0.842585 0.177372 0.535815 0.885308 0.242979 -0.670225 0.0562629 0.16695 -0.592978 0.865386 0.737365 -0.00753144 -0.951119 -0.201824 0.874219 0.12472 -0.364109 -0.49472 0.666913 -0.250668 -0.477153 -0.0980544 0.598084 -0.541147 0.845814 0.327044 -0.115644 0.387224 -0.478863 -0.212628 -0.538141 0.966222 -0.720188 -0.59595 0.818681 -0.677476 0.577788 -0.48863 -0.702372 0.242902 0.381333 0.862251 0.693548 -0.714734 -0.182185 -0.883143 -0.234456 0.44401 -0.381714 0.915217 0.197644 0.665207 -0.939095 -0.518736 0.314897 -0.731067 -0.631696 0.799738 0.330398 -0.674013 -0.813293 0.779127 -0.654357 0.035492 0.386929 -0.741816 0.968797 -0.214272 -0.644648 -0.212726 0.264865 0.104732 0.315821 0.117719 0.522598 0.695598 0.290422 0.550719 0.956212 -0.31628 -0.0198389 -0.822889 -0.517524 -0.578234 -0.949642 -0.156343 0.688139 -0.269096 -0.770221 -0.110133 0.777653 0.12827 0.820709 0.379745 0.0626986 0.44209 0.31826 0.291518 -0.965091 0.728637 0.112193 0.183625 -0.660945 -0.363434 -0.741486 -0.987409 -0.184236 -0.105337 0.0168813 0.676962 -0.970248 -0.161819 -0.274189 -0.0584284 0.713845 -0.0489494 -0.375125 0.519983 0.921831 -0.344877 0.916547 -0.667628 -0.0644545 -0.821254 -0.805514 0.495917 -0.216622 -0.0389372 -0.615155 0.611879 -0.689095 -0.762468 -0.689861 -0.0592704 0.738603 -0.708173 -0.047354 0.344692 0.0375773 0.555321 0.47331 -0.206543 0.134132 0.98029 -0.862057 0.567401 0.186415 0.751904 -0.473939 -0.95634 -0.607504 0.944296 0.466902 0.264138 0.228837 0.775175 0.873237 -0.0760254 0.185253 0.361755 -0.719597 -0.385087 0.883881 0.267004 0.920428 0.317302 0.662248 0.811205 -0.924765 0.0315095 0.0859289 0.484466 0.657042 -0.375573 -0.235931 -0.662788 -0.0180941 0.872305 0.0476379 -0.332062 -0.769053 -0.188541 0.900504 0.752784 0.504099 0.482538 -0.171185 -0.363352 0.801096 -0.31539 -0.246468 -0.114825 0.339859 -0.262061 -0.728889 -0.290918 0.713879 -0.583361 -0.18321 -0.241285 -0.702287 -0.396134 -0.698045 -0.707532 0.976011 -0.00616388 0.0443667 0.252643 0.250411 -0.397588 -0.871483 0.416522 0.39399 0.266521 -0.779039 0.4142 -0.357044 -0.903108 0.28311 0.518004 0.0134445 -0.556358 0.943655 -0.936752 -0.798604 -0.930938 -0.714749 0.558858 0.11365 -0.0139458 -0.840191 0.00381095 -0.753143 0.346479 0.23681 -0.693697 -0.385446 0.792326 -0.0703189 0.137477 -0.444732 -0.293541 -0.516962 -0.408857 -0.0565447 0.0940389 -0.762829 -0.57345 -0.811265 0.19112 0.684697 0.636133 0.198333 -0.811511 0.428976 0.608187 0.834866 0.468278 0.00946045 -0.911689 -0.857117 -0.761232 0.339943 0.963887 -0.598957 -0.590515 0.403352 0.767147 -0.229413 0.049951 -0.143987 0.616111 0.524907 0.35503 0.55348 -0.15199 -0.342595 -0.967995 -0.327074 -0.493837 0.664022 0.792373 -0.0278564 -0.888339 -0.594474 -0.200657 -0.589235 -0.457239 -0.715897 0.880148 0.0260321 0.26129 -0.0396036 0.435888 0.115675 0.159729 -0.100602 -0.257326 0.32239 0.00685721 -0.255395 0.0375526 -0.172388 0.980237 -0.979421 0.119715 -0.935271 -0.0931945 -0.059378 -0.534535 -0.0123692 -0.849387 -0.725333 0.702066 0.444079 -0.54082 0.7571 0.980322 -0.278011 0.707574 0.0205632 0.637384 0.938009 0.471914 -0.255223 -0.399861 -0.816815 0.634136 0.0903137 -0.71466 0.394 -0.682776 0.527614 -0.452748 -0.185092 0.563028 0.521075 0.910925 -0.501723 -0.546814 0.920316 0.787509 -0.651739 0.561019 0.488824 0.294563 -0.031486 0.966143 0.0407336 -0.955254 -0.485593 0.96893 -0.089354 -0.821822 0.19146 -0.863992 -0.179901 0.710304 0.29856 0.409019 0.755775 -0.643064 0.0544256 -0.239143 -0.249678 0.329467 -0.503367 -0.457422 0.483937 0.658804 0.285854 0.525371 0.80663 -0.181284 0.872141 -0.677473 0.164841 -0.67004 0.579806 -0.358619 0.309565 -0.333185 -0.171321 -0.520655 0.752644 0.20618 0.845686 0.827989 0.679868 -0.240457 0.784169 -0.795566 0.63536 0.253604 0.593433 0.782229 -0.80749 -0.0980109 0.943532 -0.746109 0.297091 0.558604 -0.927136 -0.790197 -0.905214 -0.342377 0.590182 -0.197835 0.206099 -0.407071 0.933328 -0.996415 -0.449152 0.219502 -0.529923 -0.71974 0.403564 -0.524857 -0.925258 -0.435827 -0.444845 0.557467 0.102807 -0.695036 0.554397 0.295481 0.401921 0.252799 0.126109 0.992951 0.286706 0.246839 -0.882492 0.483215 -0.0860527 -0.99809 0.689913 0.641647 -0.411383 -0.550265 -0.461245 0.367369 -0.649883 -0.1582 0.976851 -0.46819 0.192565 -0.803194 0.428392 0.739345 -0.0621309 -0.233726 -0.211947 0.923359 -0.329054 -0.52047 0.124526 -0.200832 -0.0804563 -0.510339 0.711365 0.478775 -0.16334 0.0881926 -0.364308 0.298745 0.358716 -0.191978 0.0674889 -0.562898 0.613898 -0.90462 0.373267 -0.695176 0.420466 0.826518 -0.39156 -0.669636 -0.925595 -0.313648 0.679834 0.786723 0.248143 0.0646808 0.319605 -0.191471 0.632249 0.18109 -0.39927 0.535881 -0.371843 -0.125524 -0.0182179 -0.255041 -0.522843 0.306789 -0.370228 0.89514 0.500312 -0.218246 0.203258 -0.621796 0.646584 -0.983758 -0.792763 0.116645 0.118304 0.650926 -0.467561 0.595346 -0.375804 -0.601076 -0.558468 0.394942 -0.132863 0.153169 -0.158996 0.388061 -0.137775 -0.980508 -0.862854 -0.729641 -0.135772 -0.075723 0.85528 0.0187036 -0.901779 -0.7198 -0.923956 0.186631 -0.215788 -0.503092 -0.377393 0.330471 -0.569014 0.645522 -0.916028 0.784485 0.284024 -0.18831 -0.0286148 0.429582 -0.895359 0.27208 0.978852 -0.233925 -0.127668 0.312911 0.411003 0.622344 0.901798 0.695324 0.129446 -0.345214 0.383585 0.282483 -0.131804 0.662491 0.570103 -0.352936 -0.486999 0.227075 0.0262296 -0.0677918 -0.198567 0.99902 0.466645 -0.631 -0.534192 0.478179 -0.763468 -0.344673 0.0817356 0.258881 0.188434 0.688228 -0.438213 0.939456 -0.115711 0.291357 0.746052 0.239317 -0.733099 -0.507919 0.512405 -0.315447 -0.111243 0.891536 -0.515961 -0.217467 0.637895 -0.110987 0.606084 0.904785 -0.251571 -0.910955 0.400768 0.942259 0.520908 -0.383844 -0.0172141 -0.347589 0.925867 0.402296 0.206622 0.0823245 -0.485902 0.747794 -0.934584 -0.0791211 -0.699514 -0.455697 -0.608878 -0.4768 -0.37452 -0.987472 -0.914947 -0.728387 0.918268 -0.166456 -0.0434355 0.0762229 0.710471 -0.264182 -0.444992 -0.101289 -0.639262 0.910948 -0.55428 0.608501 -0.246961 0.718081 -0.0651064 0.861921 -0.771647 0.872711 -0.934053 -0.986562 0.214552 -0.0837963 -0.421101 0.342776 0.477554 0.622446 0.750756 -0.863169 -0.592114 -0.41032 0.403899 -0.862952 0.807326 0.985123 -0.95227 0.915211 0.704277 0.412179 0.685442 0.959852 0.566056 0.112071 0.818603 -0.372381 0.607765 -0.625329 -0.980557 -0.636199 0.443558 -0.797659 0.0262404 -0.264469 0.775712 -0.719788 0.0265577 -0.654342 -0.0438614 0.237478 -0.2728 0.520861 -0.876999 0.688094 -0.0574211 0.307162 -0.406354 -0.335926 0.531093 -0.864778 0.165915 -0.412993 0.619085 0.0936164 0.0484684 -0.567617 0.702193 0.111265 0.744016 -0.187381 -0.00575576 0.042093 -0.830008 0.0257066 -0.764858 -0.0557621 0.369653 0.438825 0.308949 -0.834143 -0.841199 0.338581 -0.17123 0.71808 -0.230364 -0.519683 -0.660207 0.370726 -0.92564 0.431626 -0.519224 -0.112268 -0.623144 -0.685984 -0.426967 0.669734 0.393036 0.148342 0.00121689 -0.724539 0.21757 0.40949 0.603533 -0.0253921 0.817277 0.5427 -0.346175 0.811086 0.0515915 0.1058 -0.620572 -0.941602 0.724153 -0.847092 -0.707643 0.883967 0.655507 -0.898099 0.500297 0.784222 0.176371 -0.125872 0.365329 -0.980973 0.0713624 -0.0689572 0.00797737 -0.651865 0.00643475 -0.0860438 0.678844 -0.430344 -0.864738 -0.46265 -0.748638 0.890232 -0.439502 0.842089 0.882273 -0.35326 -0.871308 0.397452 -0.419747 0.305221 0.330741 0.142995 0.532141 -0.176147 -0.686023 -0.265027 -0.549752 -0.526563 -0.310659 0.578287 -0.505817 0.880385 0.433103 -0.440334 -0.110117 -0.559009 0.982182 0.888837 -0.534978 -0.902377 0.214252 -0.435392 -0.141499 0.839792 0.762294 0.237983 -0.104918 -0.00190043 0.724127 -0.690867 0.17011 0.889754 0.0527414 -0.883865 0.493785 0.683725 0.246415 0.313144 0.852316 0.879207 0.615422 -0.0151697 -0.809479 -0.251611 -0.561729 0.795393 0.460313 0.659578 0.287147 -0.265319 -0.0677187 0.303509 0.632529 0.710695 -0.879755 0.657648 0.425241 0.0467737 0.728816 0.303206 -0.913 -0.722775 0.568496 -0.755467 0.977679 0.861732 -0.445838 -0.0127483 0.746471 -0.694776 -0.736972 0.990451 -0.993797 0.433488 -0.899677 0.802619 -0.789805 0.00844553 0.355531 -0.382196 0.759605 0.877849 0.245993 0.421197 0.422803 -0.521793 0.057593 -0.150462 0.555715 0.798557 0.114582 0.876442 0.892123 0.149186 0.311175 0.265275 0.904391 -0.190184 -0.944947 0.92044 0.959484 0.540154 0.320447 -0.437289 -0.83097 -0.583826 -0.278637 0.536929 -0.645218 0.330786 -0.605335 0.510106 -0.166877 -0.897765 -0.297561 0.932572 -0.330559 0.0556243 0.507029 0.807386 -0.173034 0.904953 -0.0337792 0.259414 0.688052 -0.404926 -0.888297 -0.294605 0.952423 -0.255711 -0.833204 0.95428 0.12764 -0.878414 -0.213515 -0.233833 0.963306 0.456247 0.111914 0.0944423 -0.332297 -0.776207 -0.119514 0.435644 -0.158868 -0.274969 -0.36849 -0.719609 0.222559 -0.501113 0.412491 -0.769669 -0.0088055 -0.150102 0.54486 0.316011 0.139897 0.219113 -0.432903 -0.361612 -0.479333 0.436689 -0.751463 -0.214975 -0.901333 0.824179 0.461446 0.51845 0.626418 0.777319 -0.697209 0.706756 -0.973043 -0.5946 0.334851 0.82796 -0.323159 -0.624967 -0.989503 0.521951 -0.42236 -0.691208 -0.973317 0.227704 0.461471 0.146731 -0.0566026 0.486536 0.84888 0.944903 -0.17874 0.0978171 0.130213 -0.823467 0.617955 0.977307 -0.193465 0.613448 -0.909368 -0.782231 0.747655 0.612661 0.763872 -0.117639 -0.896932 0.949959 -0.554191 0.737527 0.664591 -0.501875 0.872803 -0.443147 0.210161 -0.346328 -0.0963891 0.340886 0.148588 -0.0164915 0.701847 0.196699 -0.762869 0.332689 -0.485353 0.391071 0.710234 -0.613949 0.208375 0.167309 0.443059 -0.846565 0.53796 -0.89145 -0.319064 0.476432 0.74646 -0.114658 -0.385992 0.950677 0.0848242 0.085132 -0.947543 0.205894 0.448039 0.478494 0.767491 0.569 0.608267 -0.864535 -0.791609 0.601606 0.910108 0.965728 -0.194675 0.0798866 0.641807 -0.888715 0.520637 0.0662898 -0.64117 -0.186928 -0.0349956 -0.235783 -0.740741 -0.489107 0.836502 0.673291 -0.0386356 0.799698 -0.0684487 -0.949519 0.811311 -0.535306 0.644303 -0.232957 -0.282392 0.382778 0.578845 0.729227 -0.263676 -0.102057 0.00157454 0.915386 -0.986423 -0.31691 -0.510107 0.289324 -0.272702 0.467364 -0.112266 -0.428921 0.573705 -0.731281 -0.32075 0.86586 -0.111817 0.439013 -0.566927 -0.477953 -0.327113 -0.239958 0.931343 -0.0684362 -0.454372 -0.75079 0.0805677 0.317515 0.656064 -0.426772 -0.224784 0.772893 0.233504 -0.327173 -0.149306 -0.741473 -0.627869 -0.473027 0.749238 0.274367 0.968903 -0.942255 -0.07279 0.477061 -0.930111 0.952789 0.652366 -0.104907 0.76539 -0.618262 -0.807993 -0.76492 -0.233076 0.931087 0.378829 0.985858 0.4454 -0.183026 0.757024 -0.221768 0.496369 -0.456962 0.622445 0.835 -0.531172 -0.953791 -0.807418 0.0263575 0.305925 -0.591678 -0.717823 -0.436919 -0.41748 -0.941042 -0.834426 -0.0817446 0.0101686 -0.90245 -0.514919 -0.473499 0.880566 0.769088 -0.154763 0.620692 0.348734 0.685417 0.160014 0.251027 0.388536 0.503468 0.441708 0.3722 0.0229245 0.646311 -0.547328 0.453296 -0.407775 -0.0516648 -0.0273702 -0.801496 -0.156501 0.100068 -0.0613411 -0.75895 0.811204 -0.338886 -0.275097 -0.323937 0.452906 0.920013 -0.723575 0.94181 0.637395 0.0483469 -0.768971 -0.165969 0.156016 -0.325841 0.311164 -0.0722417 -0.26927 0.74858 0.33891 -0.372165 -0.0544707 -0.321202 -0.626535 -0.0051712 -0.991861 0.157438 -0.697666 0.179648 -0.1733 0.764381 -0.0752871 0.186451 0.462646 -0.0735846 0.937841 -0.300098 -0.75239 -0.222386 0.578189 -0.337671 0.211399 0.880757 0.651949 -0.0810896 0.135031 -0.846174 0.462483 -0.427496 -0.547491 -0.140723 0.551924 0.170461 0.595597 0.0191027 -0.426386 0.992579 -0.588652 -0.886869 0.400586 -0.385868 0.0223159 -0.312802 0.458434 -0.221524 -0.752836 -0.151245 -0.605172 -0.0605341 0.283739 -0.410639 0.176283 0.358993 0.352093 0.874027 0.0709426 -0.711919 -0.105716 0.353118 0.554841 -0.337996 0.170931 -0.333077 -0.492484 0.458119 0.909742 0.246526 -0.675173 0.552722 -0.532167 0.826264 0.455597 -0.0222677 0.592327 0.712983 -0.00923048 -0.203671 -0.0368023 -0.647891 0.0932563 0.360709 -0.283901 -0.208258 0.34454 -0.808507 0.982831 0.755369 0.10371 -0.292772 0.5357 -0.609215 -0.564938 0.52365 0.141878 -0.905148 -0.830884 -0.353246 -0.323936 0.934634 -0.847083 -0.719033 -0.152513 0.980708 -0.737073 0.201279 0.76183 -0.957324 0.617402 0.163053 0.505765 0.62711 -0.205531 0.310809 -0.919509 -0.307739 0.763706 -0.302819 0.768576 0.166784 -0.097666 0.00840194 -0.17692 0.217713 -0.414518 0.254635 0.549504 -0.776056 0.286031 -0.783306 0.365064 -0.391309 0.88571 0.215449 0.142172 0.775732 -0.54234 -0.951851 -0.193393 0.627258 -0.0595867 0.660436 0.494336 -0.470639 0.915266 0.853677 -0.554314 -0.799173 -0.859199 -0.72759 0.0817291 0.862974 -0.244532 0.670745 -0.746535 -0.12041 -0.228898 -0.533844 0.655327 0.149756 0.663004 -0.418178 0.132867 -0.484165 -0.100124 0.231131 -0.979883 -0.249813 0.622066 0.228901 0.497975 0.152322 -0.337539 -0.350023 -0.31181 0.95534 -0.524561 0.754797 0.062771 0.612394 0.92247 -0.125468 -0.978686 -0.33419 0.0494354 0.755316 0.333887 -0.803362 -0.495382 0.790445 0.764817 0.210905 0.255614 -0.930966 0.870775 -0.999787 -0.292005 0.304155 0.514222 0.699142 0.941356 0.5779 -0.0500654 -0.999082 -0.552529 -0.255484 0.220794 -0.546818 0.486788 0.622684 0.454466 0.145365 0.371554 -0.491578 0.202567 0.279148 -0.488764 -0.695486 -0.430413 0.512723 -0.893921 0.38972 0.405913 -0.138824 0.372081 -0.706833 0.454132 -0.893998 -0.267512 -0.806736 0.728721 0.960442 0.943122 -0.349633 0.359815 0.0597967 0.892363 0.978922 -0.975804 -0.276265 0.328162 -0.438006 0.386126 0.191613 -0.160436 0.601617 -0.1723 -0.654501 -0.270471 -0.406665 -0.542004 0.435258 -0.16709 -0.324311 0.226379 -0.574745 -0.303772 -0.0159089 -0.598988 -0.714166 0.469499 0.720529 -0.482572 -0.495302 0.2455 -0.888826 -0.999393 -0.897547 0.082695 -0.29216 0.0869671 -0.366479 0.18394 -0.0116672 -0.987774 0.661258 0.928997 -0.540422 -0.262992 -0.311149 -0.590726 -0.264062 0.838064 0.0157763 -0.019363 -0.701795 0.940622 0.233879 -0.813673 -0.131579 -0.958012 0.387106 -0.365915 -0.883185 0.823702 -0.65563 -0.154517 0.378288 -0.639312 -0.148708 -0.255012 0.0575981 -0.894439 0.983139 -0.303824 -0.0666192 0.95024 -0.503762 -0.45475 0.474647 0.830093 0.793928 -0.148874 -0.321659 -0.560658 -0.761714 -0.965035 0.604156 -0.947853 0.187217 0.225148 -0.530719 -0.981524 -0.614581 -0.0161543 -0.320178 -0.589078 0.467471 0.368453 -0.395293 -0.863279 0.0565818 -0.555017 0.288799 -0.37514 0.278014 -0.139673 -0.635996 -0.945865 -0.420327 0.22349 -0.524618 0.712706 -0.668644 0.71876 -0.93692 0.893857 -0.608934 -0.0859938 0.681378 0.0978604 0.978929 -0.0460838 0.634037 -0.607253 0.159866 -0.313344 0.758181 0.298406 -0.540654 0.992478 -0.850607 0.00886609 -0.401543 -0.317357 0.198844 -0.0630908 0.895422 -0.667202 0.0991405 0.521644 0.255967 0.0629843 -0.228422 0.557235 -0.791798 0.745454 -0.907484 -0.123189 -0.955083 0.886137 0.137814 0.478937 -0.464325 -0.397206 0.389572 -0.0513745 0.145872 -0.568782 -0.410879 0.0655273 0.554462 0.435008 0.989789 -0.286216 -0.273663 0.463591 -0.149221 -0.603558 0.342667 -0.0191566 -0.662796 -0.569006 0.134542 0.0721929 0.752298 0.580584 -0.628685 -0.0778514 0.0732058 0.931358 0.68675 -0.202759 -0.0912528 0.0641818 -0.566302 0.578395 -0.386178 0.380323 0.950743 -0.5317 -0.504228 -0.122512 0.273599 -0.169959 0.778114 -0.30546 0.903588 0.355294 -0.395932 0.606919 -0.598854 0.898969 0.49704 -0.704466 -0.432862 -0.691074 0.0336166 0.516725 0.194407 -0.771305 0.166234 -0.0202715 0.152307 0.210632 -0.397445 -0.18572 -0.835985 -0.28396 0.638566 -0.990147 -0.83767 0.421381 0.100858 -0.781226 -0.371022 0.240662 -0.953043 -0.498538 -0.841633 -0.189746 0.971039 0.333602 0.100107 -0.5103 0.0819434 0.723104 -0.66494 -0.718074 -0.922917 0.00280101 0.597551 0.839185 0.765164 -0.953456 -0.878088 0.729182 -0.241011 0.403362 -0.666656 0.248914 -0.759793 -0.215961 0.925365 -0.116626 0.290605 0.67609 0.258667 0.0710162 -0.743365 0.253242 0.313563 -0.561483 0.272927 0.432606 0.0141309 -0.481268 0.911049 -0.164163 -0.6635 0.0144071 -0.6887 0.889462 0.812783 -0.412767 -0.344217 0.470034 -0.280757 0.683251 -0.928775 -0.696617 -0.613076 0.319005 0.539187 -0.578754 0.490671 0.889555 
-0.346894 -0.981832 -0.370163 -0.224991 0.47012 -0.474135 0.466571 0.932075 0.033626 -0.585027 0.158233 0.0226441 0.416091 0.20456 -0.553471 0.556182 0.0269453 0.45231 0.610502 0.945436 -0.418864 -0.816133 0.662607 0.10787 -0.00673505 -0.434756 0.708887 -0.810226 0.00637782 -0.0389473 -0.332203 -0.289014 -0.802844 0.277905 0.637851 0.369852 -0.479393 -0.357157 -0.439064 0.354379 -0.70236 -0.122162 -0.561595 -0.109318 -0.298967 -0.143542 -0.8118 -0.531007 -0.477366 0.373548 0.431153 0.14882 0.727796 -0.735256 -0.265121 -0.463052 -0.178143 0.468638 0.153523 -0.273633 0.287567 0.520344 0.50593 0.389792 -0.855973 -0.321405 -0.516338 0.793716 0.799951 -0.338046 -0.697287 -0.353651 0.104237 -0.339595 -0.854049 0.33965 -0.571524 -0.901177 0.193498 0.718281 0.812551 -0.947574 -0.270193 -0.795819 0.839867 -0.678927 0.428815 0.850444 0.186393 0.816692 -0.218827 -0.918748 -0.0735549 -0.856068 -0.98664 0.950213 0.768894 -0.495625 -0.914774 0.792392 0.360684 0.262358 -0.366409 0.179101 0.508743 0.0572945 -0.234449 -0.150232 0.0940374 0.975244 -0.738019 0.24027 -0.922401 -0.147951 0.164605 -0.239388 0.916786 0.770608 -0.820305 -0.947964 0.578554 -0.449651 0.0991414 -0.165901 -0.269295 -0.129783 0.794442 0.535622 0.386906 -0.703527 0.646266 0.984112 -0.38782 -0.0346773 -0.742626 0.856743 -0.853204 -0.925223 -0.759029 0.0918038 -0.586149 0.748783 0.256768 0.929548 0.193316 0.14919 0.919981 -0.0353865 0.140061 -0.359979 0.949858 0.281578 0.420229 -0.290164 0.924565 -0.359466 0.390472 -0.572905 0.557832 -0.665535 0.660668 0.282864 -0.489206 -0.364044 0.717869 0.587675 -0.637029 0.531216 -0.908494 0.283553 0.746032 -0.196542 -0.816698 -0.343589 0.941948 0.784777 0.445665 0.852419 0.0978492 -0.931837 -0.0866374 -0.247809 -0.100445 0.529826 0.470869 -0.823245 0.447878 0.174568 0.589692 -0.468987 0.581511 0.861879 -0.286686 0.414144 0.202268 -0.823826 -0.424894 -0.16284 0.593829 -0.485782 

-0.59279 -0.69968 -0.816656 0.560535 -0.12101 0.43323 0.608663 0.927858 0.13598 -0.180652 -0.172936 -0.711778 0.240325 -0.117855 0.867225 -0.933211 -0.0570934 -0.797279 -0.642658 0.393565 0.389737 -0.505251 -0.185812 -0.93149 0.31183 -0.525315 0.616946 -0.0139259 0.0517361 0.0345052 -0.526532 0.193396 0.468404 -0.457376 0.159373 0.0620768 -0.237014 0.54751 0.979433 0.527342 -0.496123 0.430156 -0.235067 -0.0219055 -0.715551 -0.264369 0.113894 -0.825709 0.325143 -0.591957 -0.662342 0.928286 0.990233 -0.732685 0.626481 0.258417 0.987392 0.0701091 -0.110777 -0.475484 -0.270911 -0.15282 -0.711171 -0.822766 -0.394751 -0.725565 -0.632891 0.12625 0.763256 0.236331 -0.173204 -0.00159948 -0.577393 0.950168 -0.112143 -0.861106 -0.237093 -0.142729 0.868219 -0.0810391 0.101294 0.416374 0.396117 0.825745 0.93619 -0.45089 0.556825 0.577174 0.61602 0.291262 -0.997973 -0.879177 -0.58377 0.81667 -0.9874 -0.242083 0.929027 -0.417702 -0.283084 -0.515484 