0.311968 -0.27856 0.0341452 -0.0959387 -0.216723 0.667075 0.277325 0.733373 -0.474873 -0.383434 -0.260491 0.0356449 0.428678 0.199764 0.171828 -0.409773 1.18424 -0.613537 1.79086 0.0531851 0.353161 -0.850492 0.409034 -0.691611 0.0490495 0.0580626 -0.216041 0.331191 -0.503074 -0.912964 0.26542 1.33921 0.769431 -0.205158 -0.696911 0.0301803 -0.938131 0.765029 -0.577743 0.130903 -0.620552 -0.116572 -0.357555 -0.207887 -0.318379 -0.520154 -0.534908 0.208612 1.56126 0.632677 -0.272215 0.415144 0.123031 -0.0793367 0.527168 0.273508 0.125669 -0.741705 -0.175456 -0.644049 -1.36307 -0.90819 0.245085 -0.44478 0.257643 -0.518061 0.693941 -0.545266 -0.0728911 0.461075 -0.107512 -0.158272 0.178918 -0.136922 -0.470598 -1.08745 0.105551 0.0457246 -0.432143 0.405308 -0.575798 0.118774 -0.279858 -0.116091 1.56476 -0.0235924 -0.984936 0.340438 0.450748 1.75303 0.939295 -0.196467 0.277238 -0.00991931 -0.83315 0.894315 1.26947 -0.183538 -1.32886 0.122628 -0.643671 -0.356525 -0.0623099 -1.00339 0.203098 0.0583147 -0.375593 -0.183726 0.37493 -0.137818 -1.02824 0.294552 -1.19534 0.170156 -1.15744 -0.489864 -0.299886 -1.10632 0.00427138 0.362579 
0.313859 -0.112488 0.184984 -0.512475 -0.0155505 0.187262 0.249998 0.203351 0.00579914 -0.47202 -0.207389 0.442219 0.349262 -0.0221832 -0.341802 -0.364672 -0.280569 -0.326506 0.407373 -0.512932 -0.0785359 0.342036 0.198367 -0.107615 -0.116146 -0.386468 0.359419 -0.579681 0.172372 -0.50865 0.393211 0.376911 -0.137591 0.239074 -0.336101 0.29925 0.00297732 0.0395007 -0.477945 -0.304276 0.281606 0.323184 0.363268 -0.0964687 -0.349691 0.188709 0.100007 -0.417431 -0.247268 0.160601 0.221044 -0.011322 0.0824234 -0.191139 0.429366 -0.320835 -0.297988 -0.0391882 -0.260964 0.189318 0.363796 0.367032 0.27566 -0.136635 -0.428205 -0.351909 -0.351877 -0.420665 -0.292494 -0.272073 -0.328438 0.102115 0.268482 -0.426454 -0.0199721 -0.189188 -0.259695 0.250467 0.349706 -0.177188 -0.254661 0.427306 0.271401 -0.402103 0.412314 0.309117 -0.136364 0.40052 -0.563231 -0.193245 0.396441 -0.191416 -0.0689661 0.262389 0.36186 0.314976 0.445165 0.380028 0.201661 -0.251074 0.0317501 -0.371532 -0.0139392 -0.214607 -0.299236 0.11713 0.0474549 -0.107263 0.158869 0.40202 0.315074 -0.438 0.196641 -0.349121 0.0316892 -0.504314 0.181171 -0.238054 0.169633 -0.505294 -0.0455157 0.330628 0.0500117 -0.330688 0.440333 0.217028 -0.134971 0.0132197 -0.48139 0.410826 -0.458255 -0.130379 -0.47358 0.428686 -0.0952772 0.391247 -0.26565 0.108962 0.146497 -0.115283 0.193862 -0.221623 0.215392 -0.507404 -0.369817 0.180695 -0.289667 -0.380027 0.0977223 -0.0744613 -0.310453 -0.121208 -0.0146935 0.412581 -0.244848 -0.355657 0.412227 -0.027082 0.337253 -0.240023 -0.4064 0.158546 -0.327213 -0.36094 -0.122266 0.217308 -0.351236 0.463755 -0.040303 -0.465444 0.200854 0.0957932 -0.379254 0.300383 0.454847 0.40914 -0.443034 -0.411157 -0.346518 -0.528935 0.285161 0.0554074 0.188844 -0.253101 0.288486 -0.373954 -0.363416 0.320809 -0.208894 -0.400381 0.302939 -0.263246 -0.320709 -0.0027254 -0.191156 -0.503362 -0.218024 0.0204392 0.123653 -0.0730362 0.420427 0.237479 -0.136597 -0.241281 -0.11799 0.420373 0.102946 -0.203098 0.355217 -0.285224 0.0547193 0.173064 0.484438 0.357361 -0.298723 0.0614328 0.0381511 0.178358 0.455945 -0.284629 -0.347424 -0.312753 -0.202142 -0.352929 0.371018 -0.298135 -0.251799 0.369876 -0.332034 -0.426383 -0.308376 -0.326571 0.02384 -0.156908 -0.0611616 -0.467455 -0.356659 0.200909 -0.508635 -0.152657 -0.39496 0.490787 -0.46261 0.396223 -0.373442 -0.0984607 0.0207358 -0.460377 0.132137 -0.270638 -0.179816 0.325809 -0.105282 -0.0239882 -0.00617382 0.0900999 -0.132158 -0.309105 -0.169398 -0.232232 0.34527 0.262042 -0.134857 -0.188683 -0.152124 -0.182181 -0.397854 -0.289825 -0.548868 -0.470982 0.237766 0.217723 0.0586502 -0.216507 0.198754 -0.191477 0.0851993 -0.129902 -0.0527444 0.245197 -0.456487 0.0716246 -0.460216 0.431087 0.253876 -0.00776167 0.389288 0.367219 0.315577 0.322813 -0.241006 0.0573741 -0.303586 0.110956 0.243264 -0.26191 0.433399 -0.122962 -0.337867 -0.267505 0.230431 -0.0318933 0.0811797 -0.0847853 -0.00118435 -0.183895 0.39375 -0.207889 -0.0574296 0.176067 0.408985 -0.254553 0.404167 -0.274051 0.271125 0.457515 0.257652 0.238103 -0.463786 -0.545559 -0.414765 -0.0929522 -0.347817 0.0265999 -0.400269 0.24565 -0.105934 0.112298 -0.034856 0.0760636 -0.00817157 0.278494 -0.115485 -0.0233936 0.0558174 -0.543726 0.383917 -0.538073 -0.459225 0.185372 -0.492537 0.249481 0.174849 -0.0807273 0.188796 -0.137002 -0.15743 0.427485 -0.430266 -0.130771 0.370509 0.321902 0.34316 -0.0494065 0.424414 -0.11261 0.360431 0.0822311 0.16017 0.0607494 -0.144505 -0.233173 -0.283837 0.167212 -0.310595 0.420259 0.0885488 -0.217431 0.0257089 0.299412 0.240098 0.0937743 0.323949 0.145029 -0.357831 -0.317192 -0.2305 -0.311273 0.244092 -0.542206 0.199021 -0.097492 -0.410715 -0.0587906 -0.256205 -0.367656 -0.166575 -0.284541 0.341104 -0.540747 -0.164613 0.380878 0.227026 0.130582 -0.319927 0.0614291 0.361084 -0.590786 0.341666 -0.284784 0.219609 -0.499768 0.0326251 -0.411008 -0.114826 -0.398542 0.457673 0.486541 -0.274029 0.26378 -0.386173 -0.419306 0.125659 0.102978 0.0908781 0.459285 0.0390451 -0.576287 0.277344 -0.0162446 0.275489 -0.328842 -0.355588 -0.297164 -0.299556 -0.307735 -0.00757798 0.351565 -0.433484 0.0404789 -0.266109 -0.0162235 0.209764 0.490992 0.246808 0.249947 -0.0387598 0.364097 -0.442696 0.160447 0.205087 0.410354 0.494822 -0.436654 0.0773291 0.448109 0.332351 -0.400734 0.180623 -0.0953192 0.418742 0.599592 -0.23366 0.310828 -0.0937135 -0.323378 0.32789 0.303545 -0.0061998 0.379367 -0.20821 0.342352 -0.157591 -0.106112 -0.397819 0.43139 -0.463341 0.128906 0.109218 -0.419655 -0.0697342 -0.41778 -0.429393 -0.0768747 -0.142922 0.179513 -0.205832 -0.4742 -0.462889 0.206464 0.184676 0.356896 0.205637 0.396126 -0.495054 -0.476366 -0.415218 0.265658 0.261739 0.222456 0.110189 -0.193292 -0.0903387 -0.0295047 0.248082 -0.294587 0.406276 -0.497862 0.355906 -0.0617556 -0.23503 -0.0144153 0.278848 0.160679 -0.436059 -0.213796 -0.268807 -0.304129 0.399884 0.0874542 0.382352 0.413109 0.380327 0.407677 -0.389385 -0.24687 0.0631322 -0.5351 0.4487 -0.184343 0.46756 -0.391348 -0.448844 -0.0602528 -0.313676 -0.000197228 0.183866 0.249311 -0.439528 0.0815995 -0.285871 -0.350051 0.0513753 0.329288 -0.212054 0.48189 -0.368811 -0.19155 -0.526765 -0.128847 -0.464863 0.53922 -0.441532 0.190359 -0.171992 -0.156844 -0.371904 -0.104769 0.0752271 0.341507 0.118659 0.324599 -0.0142547 -0.0158626 0.0109491 -0.380512 0.0536746 -0.208289 -0.140442 -0.293936 -0.417337 -0.229026 -0.208475 -0.538406 -0.263697 0.4373 -0.211307 -0.365021 -0.0576983 0.246287 0.0121966 0.449309 0.123876 0.453797 0.20935 -0.0924387 -0.0249868 -0.577692 -0.226503 -0.188877 -0.0370913 0.440054 -0.231056 0.495335 -0.29876 0.218136 -0.457023 0.0347513 -0.351354 0.363049 0.0418314 0.0428731 -0.37921 0.439298 -0.424528 -0.00765245 -0.318872 -0.0374456 -0.368396 -0.403657 -0.518042 -0.0174182 0.208655 0.0307564 -0.421542 -0.481601 -0.482231 -0.0315327 -0.512466 0.102594 -0.210105 0.0862474 -0.474107 0.247785 -0.349321 0.202817 -0.0807847 0.271226 0.0962523 0.295492 -0.352023 0.166405 -0.334783 0.437172 -0.222819 -0.472797 0.136172 -0.0324321 0.03253 0.0693443 0.0981303 0.578454 -0.0799315 -0.101783 0.37281 -0.0224681 -0.306429 -0.0584451 -0.339779 0.342482 -0.267534 -0.370819 -0.393323 0.0491249 -0.272245 -0.228059 -0.226296 0.189864 -0.368186 0.367563 0.448953 -0.106424 -0.471101 -0.386095 -0.276587 -0.315679 -0.171469 0.249141 -0.49339 -0.154596 -0.489653 0.104715 0.0813487 -0.12693 -0.378387 -0.16371 -0.500379 -0.355567 0.331578 -0.0152155 -0.183397 -0.312794 -0.0671915 -0.358895 0.219385 0.447665 -0.167869 0.287394 0.339539 -0.43989 -0.0198079 -0.0335485 0.0853346 -0.54471 -0.260685 0.1856 -0.121916 0.269075 -0.522515 -0.330459 0.085006 0.050205 -0.307611 -0.388691 -0.0344273 -0.304069 -0.0988647 -0.00335776 -0.251506 -0.0523875 0.285892 0.417537 -0.252216 -0.280312 -0.239195 -0.0760241 -0.115907 -0.417705 -0.115325 0.200277 -0.221116 -0.378777 0.202637 0.00960027 -0.217592 -0.263642 -0.165593 0.323642 -0.101654 0.113417 -0.311887 0.220736 0.349292 0.0898101 -0.501836 -0.500977 -0.0634217 0.371244 0.27339 -0.395585 0.191291 0.42976 -0.441103 0.336003 -0.0835373 0.0345195 0.214893 -0.447105 -0.284862 -0.182516 0.220029 0.147085 -0.27891 0.303636 0.28295 -0.0634303 0.0775234 -0.438462 0.426992 0.310338 0.14764 0.350104 -0.318896 -0.278434 0.225468 -0.109627 -0.45428 0.109565 0.319349 -0.228385 -0.0677695 0.393183 -0.102748 -0.260903 0.0244083 -0.134099 0.383863 -0.0187754 0.393463 -0.159505 0.368474 -0.338895 -0.196612 -0.336526 -0.407112 -0.0616091 0.327288 -0.175411 -0.364236 -0.336879 -0.268407 -0.244879 0.421511 -0.208383 0.201184 -0.522682 0.338584 0.0709163 0.474586 -0.219598 -0.431281 -0.135546 -0.324349 0.156034 -0.0310784 0.450158 0.267207 0.445097 0.366929 0.158987 0.190177 -0.535678 0.434711 0.300082 -0.0041805 -0.200914 0.285433 0.12892 0.319675 0.315769 -0.191316 0.509606 0.483432 0.0105254 -0.196174 0.256126 -0.0390278 0.238382 -0.0391668 -0.407559 0.482905 -0.486834 -0.0419652 -0.449252 -0.458483 -0.494785 0.182264 0.29904 -0.338736 -0.25034 -0.0501858 -0.188113 -0.24362 0.22544 0.132969 0.40223 0.389244 0.324961 0.152653 0.196601 0.327519 -0.283937 -0.430272 -0.295798 -0.249961 0.250117 0.348922 -0.400909 0.174258 0.245888 0.0358841 0.390775 -0.0548983 0.236225 0.0441762 -0.0908078 0.406291 -0.357573 0.193533 0.0670055 -0.311068 0.0855445 0.186243 -0.0930523 0.368265 -0.458799 0.242153 -0.308177 -0.442535 -0.617638 0.238287 -0.360084 -0.483406 -0.139451 0.419431 -0.216725 0.135777 -0.0516078 -0.309796 0.468099 0.32582 0.415024 -0.39889 -0.35977 -0.325833 -0.00389182 -0.306388 0.330326 -0.489616 -0.082233 -0.17202 -0.372121 0.0912236 -0.0265806 0.452704 -0.362809 0.339269 -0.150937 -0.391761 -0.560179 
0.121624 -0.2615 -0.744276 0.806913 -0.692446 0.184078 -0.434006 -1.28206 -0.26471 0.872476 0.224048 0.0900933 -0.341564 -0.406872 -0.468846 0.197622 0.562752 0.148919 0.546834 -0.098035 0.504947 -0.0254987 -0.0480073 -0.392859 1.01965 -0.457188 1.30499 0.165119 0.614331 0.242297 0.444803 -0.717099 0.0687263 0.00914632 0.0308395 -1.01523 -0.0799652 0.0476252 -0.240496 0.225864 0.3764 -0.605128 -0.315647 -0.333959 -0.311249 -0.220743 0.37319 0.293325 0.101095 0.0831281 0.281062 0.341449 -0.0904029 0.0799593 -0.319619 -0.918635 0.0122194 0.170664 -0.145355 0.560198 -0.455034 -0.653779 -0.0184667 0.84785 0.753342 -0.932799 -0.191753 -0.0194977 -0.521331 0.604864 -0.0443662 0.0992278 0.710248 0.498909 0.154261 1.04265 0.44001 0.497855 -0.113691 0.404938 0.652832 -0.146458 -0.626463 -0.267978 -0.492262 0.257072 0.152919 0.177345 0.0551325 -0.00852947 -0.568631 -0.784514 -0.407946 -0.379589 0.111767 0.463934 -0.367064 -0.137252 1.044 0.167774 0.249364 0.564914 -0.300253 -0.247077 -0.321948 0.568066 -0.0373798 0.663042 0.306741 0.122123 1.00345 -0.287671 -0.337566 -0.615707 0.485877 -0.163741 -0.206375 -0.645515 0.00519511 1.65655 

-0.454878 0.476528 -0.110498 0.170331 -0.4032 -0.315837 0.107487 0.00400758 -0.302731 0.23071 0.0351943 0.136349 -0.23914 -0.284754 -0.0093239 -0.136161 -0.00759636 -0.438631 0.416129 0.159879 0.104743 0.359487 -0.338848 -0.101907 0.12865 -0.0243297 0.102552 -0.457725 0.2324 -0.386264 -0.278899 0.0255714 0.0757616 0.277973 0.373043 0.346558 -0.18289 -0.314137 -0.234844 -0.38275 -0.0262514 0.37843 0.120381 -0.249676 -0.228698 0.0357976 -0.159632 0.381906 0.2317 -0.487071 0.344041 -0.287769 -0.136506 -0.14158 -0.371197 -0.336155 -0.387981 0.363412 -0.24248 -0.276924 