-2.66871 -4.73932 -2.438 -1.8517 -0.625305 -3.18725 -36.8108 -1.22303 -8.44371 -3.02881 -1.57371 -5.00113 -0.338462 -9.58863 -47.581 -21.3802 -2.39095 -0.992653 -1.34903 -103.926 -6.95061 0.70719 -2.82586 2.93613 -7.46819 -1.78738 -28.6919 -48.8734 -2.19042 2.46987 0.0136035 -0.41206 -1.63792 -1.41207 -2.58453 -109.669 -5.93138 -3.79427 -0.0514758 -3.06683 -0.850677 -2.81193 -1.83765 -5.28958 2.40533 -3.74648 -1.01711 -0.477103 -93.5849 -4.57775 1.07016 2.48666 1.59233 1.72148 2.6696 0.351295 7.71009 2.10008 3.07755 1.25571 3.85052 1.20402 -1.09176 3.09253 18.8367 5.36332 0.940883 1.87586 -0.658952 35.5318 3.19085 1.10864 1.90863 1.00773 2.0656 0.0885128 17.9626 10.197 -3.76971 1.00129 0.202411 -3.27046 0.510093 0.729352 1.31241 38.5709 1.46697 0.930736 1.87665 1.32862 1.30511 2.92646 2.55751 2.95146 -1.89045 1.29506 -0.14743 -0.032142 32.831 1.04919 -3.80667 -5.46697 -2.85673 -3.2573 -3.54375 -1.15439 -17.4983 -2.65681 -9.52876 -4.40617 1.15886 -5.46754 -0.252657 -10.2315 -38.6246 -12.0444 -1.42324 -2.66952 -0.840117 -69.4974 -4.92886 -2.46909 -3.60977 -2.04463 -5.60204 -2.80363 -32.0469 -18.4536 0.194328 -3.43876 -0.999629 3.31039 -2.65446 -3.06023 -2.98063 -77.8106 -6.2153 -4.02429 -1.85768 -3.29712 -3.05415 -4.96599 -3.59205 -5.0581 1.84689 -2.45263 -0.59027 -1.31215 -66.5642 -5.66803 -2.51456 -3.07512 -2.67244 -1.30529 -3.15995 -1.30951 -14.0168 -0.874393 -5.22735 -2.851 -0.294178 -3.21347 0.632005 -5.2861 -24.5536 -7.92317 -1.69098 -2.65813 -2.16906 -64.6028 -4.46343 -0.97145 -3.52433 -2.16967 -4.53651 -1.19499 -28.3884 -16.7351 -0.92633 -1.62068 -0.896446 -1.26496 -0.765331 -0.200885 -1.80393 -65.9244 -3.77856 -2.77931 -2.03062 -1.7473 -0.0813715 -2.24443 -0.978797 -2.6824 1.4897 -2.51004 -0.0953935 -0.804629 -54.2707 -3.25327 
-1.14367 -0.186695 0.111163 -0.686337 -0.323016 -1.0182 -2.42363 -0.552504 0.0367553 0.458139 0.082161 0.45858 0.360799 -1.67578 -3.4505 -1.02615 -0.218006 0.459178 0.832243 -5.18798 -0.703546 -1.01374 0.242562 0.839953 -0.0124213 -1.00189 -1.95113 -1.89101 -0.292097 -0.791052 0.0847507 -0.233583 -0.700339 -0.688321 -1.12537 -5.00322 -1.32683 0.44978 0.620945 -1.1349 -0.679603 -1.1347 0.662505 0.330516 -0.652092 -0.67104 -0.35813 -0.459891 -5.58051 0.552055 0.564866 -0.176339 -0.077793 -0.705446 -0.0961384 0.313326 -2.4034 -1.29283 -0.55727 -0.830268 -0.441288 -1.06561 -0.869989 -0.401575 -1.8245 -1.10325 -0.962922 0.448873 -0.727843 -4.79176 -0.172115 -0.797328 -0.606773 0.685897 -1.00114 -0.588509 -2.8963 -2.72898 0.505283 -0.817936 0.416148 -0.634661 0.827134 0.0940722 -0.168849 -6.21891 -0.0498276 -0.145082 -0.795147 -0.526369 0.283819 0.227489 0.307831 -0.266207 0.155667 -0.194399 0.524585 -0.674836 -4.42228 0.0240668 -0.910288 -1.29942 -0.0476048 -0.126239 0.240098 -0.763611 -2.29853 -0.948065 -0.668423 -0.101513 1.11665 -0.200301 0.550025 -0.239895 -2.79552 -0.23192 0.818526 -1.22678 -0.687039 -5.45394 -0.0144511 -0.356643 -1.29343 -0.765977 0.0377736 0.381066 -1.49155 -1.91099 0.90734 0.588925 0.880996 0.782629 0.434408 0.323954 0.678274 -4.89748 -0.00049537 -0.141376 -1.0746 0.279383 -1.11465 -0.627077 -0.951104 -0.83324 1.15301 -0.989952 -0.764726 0.529426 -5.32201 -1.07417 -0.313307 0.356066 0.395266 -0.806189 -1.29698 0.243092 -1.46324 -1.11662 -0.84757 -0.382132 0.981559 -0.798746 -0.316811 -0.668925 -2.70589 -1.9886 0.609606 0.439414 0.852822 -6.06827 -0.638816 -0.106936 -0.816816 -0.694582 -1.02479 -0.851276 -1.67646 -2.18895 -0.848018 -0.331872 -0.158149 -0.253261 0.0216504 -0.980747 -0.104811 -5.36583 -1.38882 -0.078306 -0.634278 -0.534761 -0.496418 0.499431 -0.247181 -1.38414 0.741908 -0.353816 -0.830516 0.0873614 -4.7656 0.115084 0.31908 -0.265414 0.420484 -0.25226 -0.175822 0.100835 -2.05514 0.268185 -1.06845 0.464295 0.527226 -1.09947 0.170745 -0.356829 -3.31009 -1.13432 -0.0522757 0.627051 0.463617 -4.65575 -1.35202 0.912976 -1.30821 0.0949154 -1.24536 -0.231573 -1.84187 -1.96812 -0.744395 0.511531 0.912782 -0.0920829 0.311072 -0.247124 -0.882995 -6.69354 -0.243198 0.673634 -0.923006 -0.203842 -0.55134 0.55745 -0.112363 0.375175 -0.534769 0.472415 -0.646736 -0.19549 -4.66963 -0.769754 0.685724 0.528567 -0.367736 0.633304 0.0242671 -0.559177 -0.663165 0.305539 -1.07499 -0.319284 -0.690844 -1.29831 0.493557 0.0139957 -3.49843 -0.673316 -1.10861 -1.01698 -0.592253 -4.79632 -0.424269 0.445521 -0.0873332 -0.173048 -0.0288989 0.384651 -2.94071 -2.69149 -0.622583 0.869185 0.28456 -0.742229 0.50915 0.888127 -0.766572 -5.34001 -0.897689 0.163588 0.479794 -0.425136 0.287268 -1.37428 0.175005 -0.840289 0.439715 0.256887 -0.647217 0.012641 -4.40807 -1.07226 -0.566459 -0.00228655 -1.01612 -0.356454 -0.758229 -0.389539 -1.11312 -0.274816 -0.870718 0.149678 0.174125 -0.60194 -0.88842 -0.92958 -1.76802 -1.22232 -0.602341 0.362773 -0.476232 -5.58874 -1.51429 0.692232 0.102728 -0.20492 -1.31342 0.627499 -2.8398 -3.10076 -0.212326 0.966872 -0.799433 0.554761 -0.910861 -0.543645 -0.490913 -5.27045 -0.0155519 0.226518 -1.21381 -0.708243 0.112022 -1.17021 -0.172777 -0.697792 0.421742 -0.567093 0.417627 -0.847958 -5.44599 -1.07639 0.445384 -1.08432 -0.978786 -0.716379 0.452335 -1.02469 -1.07336 -0.986856 -0.591288 -0.228915 -0.843002 -1.20433 -0.328944 -1.57507 -2.10683 -0.756114 -0.405691 0.643293 0.670853 -5.5391 -0.233712 0.563901 -0.775774 -0.309738 -0.621169 0.167351 -1.40034 -2.57318 0.122742 -0.3353 -0.246215 -0.704022 -0.826703 -0.227632 -0.745849 -6.42318 -1.37897 -0.402089 -1.06773 -1.18514 -0.453119 -1.16235 -0.0363182 -0.438194 0.249443 -1.03068 -0.0241292 -0.865019 -4.23865 -1.12423 -0.790573 0.313052 -1.08371 -0.555006 -1.00435 0.870404 -2.55852 -0.42238 -1.09614 0.446791 0.181488 0.0145989 -0.0954397 -0.36366 -3.59663 -0.977992 0.0208368 -0.362192 0.791331 -5.51383 0.443928 0.108013 -0.517231 0.474016 0.484102 -0.388274 -1.91448 -1.75928 0.178849 0.868206 -0.248795 -0.373229 -1.02504 0.366305 -0.530039 -6.68468 0.184047 -0.577531 -0.331772 -0.736908 -1.15095 0.565178 -0.940706 0.451068 0.185767 -0.503796 -0.380317 0.504722 -4.89566 -0.387704 -0.410329 -0.11075 -0.532079 0.426079 -1.12033 0.499474 -1.50704 -0.370031 -0.122289 0.238722 -0.425108 -0.65968 0.632488 -0.313425 -2.78524 -0.569913 -0.676474 -0.234932 0.73039 -4.50642 -1.00019 0.440026 0.168143 0.715959 -1.01294 -0.828198 -2.44868 -2.57755 0.413154 0.9794 -0.71438 0.826374 -0.992592 0.289899 0.465652 -6.19423 -0.305081 -1.03766 -0.658805 0.190468 0.47276 -1.25926 0.272944 -1.08929 1.17478 -0.849012 -0.647479 -0.986037 -5.21764 -1.20368 0.661626 -1.07089 0.235766 0.199824 -0.968766 0.318087 -1.59581 0.63559 -0.840532 -0.0920847 -0.435117 -0.61465 -0.925044 -1.43803 -2.29951 -0.770991 -0.357961 0.558505 0.37513 -6.12693 -0.54827 0.523753 -1.20972 0.802333 -0.802565 0.794969 -1.79257 -2.19851 0.142185 0.0285004 -0.802656 -0.501681 0.199537 0.5079 -0.970137 -6.14297 -0.352412 -0.0564311 -0.111587 0.0523393 0.274081 0.358511 0.0866832 -0.7501 -0.807978 0.276485 0.569517 -0.200945 -4.70755 -0.98901 -0.11682 -1.09994 0.535373 0.538611 0.0441208 -0.697213 -0.856331 0.688885 -1.35212 -0.74059 -0.824268 -0.943308 0.0745528 -1.33795 -3.36149 -2.03375 -0.60951 -0.923367 0.100281 -5.34798 -1.39727 -0.553406 0.311539 0.192096 -0.746262 0.0920428 -1.57468 -2.38856 0.253209 0.299832 0.23198 0.514503 -0.648186 0.680321 0.0429936 -5.01495 -0.422917 0.570811 0.669445 -0.461447 0.0666253 -0.0253319 0.662827 -0.574324 0.00304486 -0.961096 0.273509 0.315808 -5.84407 -1.2819 -1.26025 -0.0523527 -0.807925 0.578987 -0.827977 0.383441 -1.85153 -0.26813 -0.621993 0.0229442 0.751263 0.214448 -0.00218316 -0.294397 -3.71387 -1.63887 0.331504 0.113203 -0.263176 -5.59246 -1.32135 -0.990318 0.303405 -0.746692 -0.761577 -0.937966 -1.88818 -2.73547 0.295427 -0.37386 -0.585688 0.223826 -0.412339 -0.40488 -0.203608 -5.05124 -0.77294 -0.213811 -0.344827 -1.07456 -1.07699 -0.785821 -1.03772 0.488997 -0.331036 -0.968627 0.785624 -0.426371 -4.32776 -0.762686 -0.252545 -1.18205 0.700788 0.297447 0.245486 0.882694 -0.737304 0.475382 -1.07824 -0.854102 0.459965 0.38345 0.799082 -1.12889 -3.1294 -0.881237 0.69478 -1.32536 -0.131085 -4.4432 -1.30186 -0.163103 -1.3574 0.68154 -1.18714 -0.2202 -1.60205 -1.45012 0.580456 -0.176107 0.657657 -0.842103 -0.513316 -0.757419 -0.0378554 -4.83946 -0.719883 -0.345737 0.00865848 -0.290013 -0.300678 -0.594716 -0.184501 0.553106 -0.720978 0.55371 0.138014 0.043588 -4.72987 -1.12728 0.0947386 -0.11269 0.281844 -1.15617 0.307149 -0.706762 -0.850129 0.122372 -1.2518 -0.937971 -0.614073 0.0651374 -0.569916 -0.720149 -3.60188 -0.155906 0.636482 0.49783 -0.476916 -4.86977 -0.339678 0.296132 -0.132746 -0.00934781 0.368319 -0.0315154 -1.68256 -1.23937 -0.435616 -0.434894 0.136372 -0.67568 -0.593133 0.600762 0.00247763 -5.47479 -1.10247 -0.866478 -1.16153 -0.0452729 -1.21201 -0.488403 -0.982391 -1.24354 0.39771 0.54901 -0.893368 0.418044 -5.14163 -1.34933 -0.456564 -0.996728 0.699103 0.386374 -0.00101115 0.288394 -0.885307 -1.00872 -0.93394 0.618018 0.862966 -1.08016 -0.04976 -1.55011 -3.54708 -1.68459 -0.540856 0.234789 0.523309 -4.82629 -1.35804 0.465929 -0.584681 0.347751 -0.0938748 -0.714173 -3.00769 -1.29982 -0.863441 0.351171 0.0458217 0.504217 0.81022 0.0940071 -0.791117 -6.8209 0.218255 0.636087 -0.799967 0.241452 0.0629053 0.433292 -0.470619 -0.872616 0.189632 0.468063 -0.965839 0.358654 -4.22909 -0.938507 0.280376 0.336401 0.327206 0.0747661 0.548276 0.58945 -0.710347 -1.11922 0.256613 -1.02614 1.13681 -1.24152 0.809579 -1.60694 -2.55176 -0.572445 0.721463 -0.0976561 -0.669614 -5.29647 -0.358458 -0.676567 0.491477 0.626442 -0.365883 -1.12238 -2.47184 -1.27359 0.198411 -0.1988 -0.535809 0.771345 -0.422684 -0.53965 -0.2902 -5.2268 -0.956011 0.536624 0.111727 -0.340054 0.145131 -0.857189 -0.519909 -0.948769 1.15183 -0.889437 -0.651825 0.69726 -5.82626 0.213608 -0.799163 -1.12918 -0.0163096 0.0405337 0.54428 0.625927 -2.33548 -0.486556 -1.54157 -0.55192 0.594302 -0.767554 0.873144 -0.566714 -2.06392 -2.04736 -0.682581 -0.0257381 -0.730456 -5.98443 0.27433 0.246809 -1.04792 -0.924216 0.420776 -0.825621 -2.23452 -1.76088 -0.668125 1.13411 -0.255361 -0.540216 -0.384742 0.202368 -0.0874145 -5.50907 -0.297145 0.213409 0.480281 0.0660117 0.308626 0.577887 -0.623561 -0.430467 -0.637285 -0.686773 -0.634109 -1.07106 -5.30513 0.323959 -0.579629 -1.19703 -0.369345 0.436855 -0.1897 0.753087 -1.241 -0.241673 -0.216332 0.000796125 0.441811 -1.35093 0.686563 -0.652166 -2.5455 -1.7692 -0.52728 -1.08212 -0.986798 -5.53697 -0.630744 -0.066707 0.303054 -1.08117 -0.52017 -0.445453 -2.32844 -1.43396 0.0247416 -0.209815 0.478895 1.02626 -0.516893 0.854049 -0.859774 -5.88934 -1.23612 -1.1147 0.280601 -0.441032 -0.28103 -0.99348 0.304598 -1.09972 -0.576864 -0.85911 -0.115145 0.617181 -5.85696 -0.411534 0.0341591 -0.389232 0.296109 0.132511 -0.524514 0.0665106 -0.640458 -1.16643 -0.0910209 -0.131049 0.902197 -0.859779 -0.998414 -1.37186 -1.78483 -0.641358 0.100293 -0.111798 0.775786 -4.4795 -0.601433 0.101665 -0.0121537 -0.83052 -0.743438 0.712616 -2.00301 -1.22738 0.390993 0.827557 0.770117 -0.820332 -0.140506 0.0234316 0.29232 -5.16784 -0.790437 -0.54512 -0.878104 -0.242504 0.630212 -0.330687 -0.639343 -1.17968 -0.00293716 0.731255 0.696909 0.382677 -4.66625 -0.535365 -0.673885 0.374287 -0.574602 -0.587267 -0.432795 0.272238 -1.88281 -1.03326 -0.94934 0.396415 -0.433068 -0.56905 -0.283358 -1.46665 -3.12526 -1.80631 -0.871377 0.635376 -0.0055529 -5.30836 -0.272764 0.166822 -0.771497 -0.982406 0.0581712 0.222726 -2.00349 -2.92685 0.487891 -0.191734 -0.944197 0.387543 0.345988 -0.0490528 -0.748504 -4.88123 -1.35162 -1.10779 -1.14625 -0.93916 0.316765 -0.264675 -0.321227 -1.25082 0.189415 -0.922392 0.290604 0.115388 -5.84248 -0.749625 0.481793 -0.497128 -0.121735 -0.785531 -0.611511 -0.584583 -2.02961 -0.360916 -0.564383 -1.08029 -0.423158 -1.1971 0.149047 -0.0796619 -2.09299 -0.909927 -0.975356 0.0883402 0.608798 -4.51787 -0.0571301 -0.0741278 -1.2856 -0.96804 -1.11958 0.168678 -1.30613 -2.74676 -0.516824 0.568661 0.726059 -0.124981 -0.122065 -0.206485 0.423965 -5.29998 -0.0598342 0.24429 -0.367307 -0.567005 -1.21009 -0.705399 -0.801119 0.253394 0.977977 -0.197106 -0.944214 -0.715896 -5.34944 -0.953415 -0.767772 -1.14271 0.620936 -0.314767 -0.0566804 -0.107225 -1.18486 -0.188697 -0.498693 -0.418066 -0.107034 -0.0634502 -0.0352159 -1.01975 -2.69158 -1.28065 0.816391 -1.32006 0.120326 -6.288 -0.618602 -0.142966 -0.908443 -0.123292 -1.20774 -0.896598 -1.56795 -1.70373 -0.467129 0.922409 0.939233 -0.173578 0.535558 -0.0419341 0.445238 -4.88688 0.0570499 -0.564413 -0.615178 -1.04122 0.392043 -0.288012 -1.02194 -0.0166283 -0.497172 0.358365 -0.508622 -0.306514 -4.58576 0.156896 0.600392 -0.928532 -0.806026 0.579518 0.469539 -0.719361 -1.05973 0.184452 -0.363859 -0.34895 1.11644 -0.345107 -0.997327 -1.24995 -1.7602 -1.19761 -0.985667 -0.149175 -0.863381 -5.53263 0.184896 0.214972 0.0351101 0.644853 -1.00142 -0.116839 -2.50916 -2.39748 0.403158 -0.338057 -0.498511 0.58837 0.486788 0.223357 0.333225 -5.01826 -0.596148 0.562952 -0.892789 -0.0595696 -0.912133 0.201481 -0.6659 -0.101063 -0.147581 -0.34057 -0.576529 0.631223 -4.94261 0.481506 0.517456 0.253059 -0.499669 0.44337 -1.11354 0.567739 -1.36714 0.289061 0.123807 -1.12495 0.0522816 0.557692 -0.788182 -0.467268 -2.17052 -2.0354 -0.954042 -1.24585 -0.341766 -4.76255 -0.723243 0.122511 -0.78098 0.822405 -1.35477 -0.620417 -2.05051 -2.67773 -0.646049 0.568874 -0.565946 -0.820826 -0.607843 -0.507342 0.365321 -5.72208 -1.1099 0.245208 0.0801643 0.177511 0.0107062 -0.252217 0.68567 -0.123922 0.432443 -1.05174 0.42734 -0.207475 -6.14688 0.325733 0.331114 -0.838193 -0.809477 -0.802044 0.0493988 -0.717504 -1.77895 0.67248 -1.12661 -0.124899 -0.652902 0.0425517 0.697272 -0.82649 -2.96285 -1.32021 0.759513 -0.669689 -0.519859 -5.22821 -0.72624 -0.164044 -0.884247 0.600443 0.120424 -0.334604 -2.18182 -2.51211 0.372436 0.524026 -0.233067 0.171921 -0.734914 0.5514 -1.09677 -5.45162 -1.11004 0.111276 0.611202 -0.61597 -0.91173 -1.30392 -0.620929 0.269205 0.972327 0.0788937 0.00880589 0.198184 -5.34026 0.268069 -0.129443 -0.82608 0.276669 -0.712642 -0.443494 -0.0858393 -1.87579 -0.827215 -0.351633 -0.687692 1.04543 0.114472 -0.260319 -0.561101 -3.35092 -0.461676 -1.1476 -1.1334 0.117256 -5.23443 0.125518 -0.551149 0.221437 -0.486727 -0.959427 -0.729733 -1.87507 -2.28067 0.22686 0.00631295 0.346972 -0.0333425 -1.15252 -0.925351 -0.921787 -5.96066 -0.490587 0.546091 -0.196613 -1.12619 -0.961893 -1.30228 -0.12065 -0.626416 -0.317488 -0.546642 0.274597 -0.690436 -4.50327 -1.28021 0.473952 -0.142785 -0.447522 -0.369414 0.111611 -0.96298 -1.34867 0.67448 -0.892347 -0.445132 0.463203 0.0251631 0.580271 0.137439 -2.0338 -0.978814 -0.509059 0.0429493 0.283094 -5.48454 0.137083 0.486514 -0.726845 -0.597922 -0.131276 -0.145035 -2.33781 -2.34637 1.07271 0.631954 -0.672089 -0.42976 0.306163 -0.825965 -0.536819 -5.74315 -0.155983 -0.120755 0.472911 -0.662623 0.697363 -0.494036 -0.0159247 0.335424 0.424921 -0.902348 -0.563794 0.390983 -5.46423 -0.475423 0.581003 -0.94277 -0.476679 0.297096 -0.428957 0.538462 -0.715964 -0.555943 -1.56938 0.0833036 1.09255 0.135068 -0.425918 -0.781573 -3.07672 -0.182393 0.23845 -0.134014 0.0829354 -5.83863 0.222386 -1.01817 -0.45303 -0.810437 -0.814049 -0.780142 -2.74681 -2.52233 -0.913781 -0.749638 -0.769476 1.0227 -0.338472 -0.105933 -0.115923 -5.11442 -0.679046 -0.754181 -0.316606 -0.863672 0.668854 -0.932605 0.301219 -0.657589 0.903684 -0.234356 0.806046 -0.893069 -4.27608 -1.29823 -1.29709 -0.212257 -0.343008 -0.7619 0.0248057 0.409933 -0.998302 0.446385 -1.52159 -0.909578 -0.260027 0.0180593 -0.905025 0.0429675 -1.744 -2.06053 0.751366 0.363641 0.41279 -4.66729 0.434444 0.482468 -0.261837 0.707681 -0.730733 0.436501 -2.89534 -3.12836 -0.562508 0.608867 -0.838747 0.130673 -0.436484 0.713215 -0.911934 -5.79833 -1.06921 -0.353051 0.0221612 -0.49721 0.278768 -1.25532 0.380812 -0.468049 0.492766 -0.575603 -0.391801 0.409671 -6.01357 -0.198265 -0.723526 0.192275 -0.165596 -0.29233 -0.885588 0.634571 -1.50948 0.439644 -0.845803 -0.32322 0.192385 -1.21585 -0.0163665 -1.52922 -2.78489 -0.738607 0.27498 -0.0316862 -0.833532 -6.19393 -0.186826 -0.254818 0.344171 -0.341287 -0.878034 -0.831472 -1.89929 -3.07345 0.505317 -0.353915 -0.153356 -0.518711 -0.858 -0.489465 0.477588 -5.43185 -0.266522 -0.307972 -0.939855 -0.00683995 0.167397 0.225208 -0.332674 0.406649 0.728304 -0.515424 0.755212 -0.0698303 -5.04299 -0.984752 -1.25214 0.297344 -1.1063 -1.04844 0.565997 0.587886 -2.51885 0.195925 0.1258 -0.141093 0.0244204 -0.0205116 -1.02305 -0.692996 -2.79808 -1.10028 -0.81571 -0.334201 -0.0854328 -4.67389 -0.955752 -0.948326 -0.836559 -0.859561 0.531881 -0.610767 -1.42793 -1.26553 -0.279569 -0.705999 0.356364 -0.315315 0.133205 0.268243 -0.0491508 -5.29275 -0.591011 -0.995212 -0.480344 -0.774162 -0.768656 -0.688985 0.271006 -0.916445 1.06599 0.263854 -0.496209 -0.231538 -5.7078 0.618002 0.578304 -0.961787 -1.16159 -0.126547 -0.753363 -0.20912 -0.780956 0.457922 -0.420439 -0.422382 0.148392 0.338286 -0.73294 -0.594249 -1.83937 -1.05552 -1.04771 0.153149 0.684336 -5.10632 -0.212263 0.768728 0.505298 0.5045 -0.373521 -0.980743 -2.52163 -2.70954 0.869084 0.625622 0.61849 0.39158 -0.437334 -0.130216 0.111363 -5.19236 0.29583 -1.18894 0.442331 0.20083 -0.195319 0.350491 -0.00407548 -1.32363 -0.537171 0.399247 -0.811342 0.856258 -4.28706 -0.810018 -0.323281 0.319662 -0.953988 -1.07777 0.672481 -1.06142 -1.18726 -1.20405 0.144197 -1.10727 0.158738 -0.0303087 -0.424269 -0.00475337 -1.85128 -0.862267 0.257351 0.0821677 -0.521182 -5.29514 -0.67587 0.472126 0.424648 0.00365941 0.518091 0.720859 -2.12083 -1.83663 0.338966 1.0697 -0.231272 -0.840515 0.748424 0.896987 0.348008 -5.50444 -0.852153 -1.14016 -0.799142 -0.503047 0.294836 -1.02354 0.023504 -1.01596 0.695709 -0.336127 -0.953639 -0.418982 -4.21622 -0.694739 -0.254909 0.0802196 0.548174 -0.513833 0.586983 -0.101401 -1.36133 0.383681 -1.06335 -1.20576 -0.144313 0.566583 -0.297784 -1.59756 -1.77485 -0.98062 -1.04226 -0.554151 -0.233222 -4.38943 -0.0691607 0.0283258 -0.279466 -0.44322 -1.13456 -0.290778 -1.83437 -2.30667 -0.201278 -0.203181 -0.760697 0.326992 -0.673129 0.349993 -0.961815 -5.83369 -0.564966 0.235671 0.100695 -0.0845131 -0.0229803 -0.811229 -0.668894 -0.889961 0.622293 -0.920712 -0.27085 -1.02276 -4.32461 0.0972659 0.207917 0.199609 0.518107 -1.03801 0.388786 -1.04066 -2.21535 0.0304791 0.169537 -0.640623 -0.474675 -1.37534 0.479877 -1.18672 -3.42034 -2.08158 0.0638591 0.120836 0.147342 -5.40933 -0.0388718 0.765291 0.570994 -0.289662 -0.260534 -0.0410516 -3.09348 -1.52985 1.051 -0.028156 0.57236 -0.804936 -0.954247 0.685158 0.420515 -5.06101 -0.532503 -1.20612 0.734642 -0.778601 0.495434 0.286266 -0.809157 0.462175 -0.257544 0.0409119 -0.402203 -0.217811 -4.8079 -0.215592 -0.327025 0.275038 -0.0625127 -1.10367 0.0147184 -0.552975 -1.22968 0.405862 -1.27237 -0.109089 0.317601 0.0572194 -0.888639 -0.226399 -3.62058 -1.42732 0.312587 0.405825 -0.114047 -5.73872 0.42527 0.00123599 -0.288777 -1.05847 -0.152457 0.276774 -1.79152 -1.38032 0.642692 0.773577 -0.905624 -0.687176 0.42959 0.847611 0.773582 -6.01956 -0.334977 0.332618 -1.10403 0.296227 -0.175803 -1.0195 -0.49421 -0.445624 -0.0501792 -0.90999 -0.544982 0.71508 -4.4755 -0.402815 0.489165 -0.495258 -1.20873 0.470512 -0.853277 0.576682 -1.85371 -0.586764 -0.275644 0.261381 0.879519 -0.649517 -0.144131 -0.762784 -1.81374 -2.09468 -0.480755 -0.850743 0.289935 -5.62543 -0.0580435 -0.195854 -0.80283 0.462782 -1.08963 -0.492015 -1.40415 -2.25962 0.512704 -0.401618 -0.519042 -0.22268 -0.411973 0.868845 -0.260582 -6.27926 -1.16565 -0.228622 0.102199 0.431654 -0.668865 -0.603109 0.465611 -0.177124 -0.141569 -0.318556 -0.797348 -0.749291 -5.62181 0.385058 -0.0361664 0.542094 -1.20147 -0.413589 0.15909 -0.997732 -0.667959 0.347994 -0.763329 0.447926 -0.46797 -1.19383 -0.806993 -0.997435 -1.79804 -0.72943 0.822013 0.104764 -0.182415 -4.59571 -0.747176 0.412781 -0.830871 0.511522 0.476649 -0.702436 -3.22381 -2.95522 0.100049 0.471235 -0.632766 -0.61339 -0.608934 -0.479977 -1.13319 -6.65931 -0.496609 -0.299021 -1.11777 -0.739329 -0.715592 0.502241 0.461807 -0.565391 0.806296 0.179485 0.629542 0.0385921 -4.89776 0.0243561 0.192935 0.0148987 0.112987 -0.317874 0.328341 -0.614949 -1.16745 -0.712146 -0.710087 -0.344834 -0.651204 -0.542342 0.0579949 -0.8257 -3.48808 -0.297056 -0.502731 -0.615732 -0.323326 -4.89983 0.394605 -0.807163 0.567901 0.526473 -0.310004 -0.940236 -2.43598 -1.99179 -0.25215 0.476473 -0.11333 -0.164838 0.576564 0.276413 -0.564311 -5.87936 -0.736066 -0.935725 -0.220488 -1.21627 -0.0846552 -1.07599 -0.127634 -0.583928 0.949985 -0.244536 0.130576 0.341224 -5.22237 0.573661 -0.610631 -1.1792 -0.481598 0.23739 -0.655641 0.143777 -0.739992 0.347577 -0.739512 -0.182433 -0.695881 0.0766431 -0.469569 -1.31185 -2.86985 -0.556336 0.00661619 0.254961 0.0197137 -5.77912 0.467171 -0.67224 -1.26078 0.289664 -0.74422 -0.148949 -2.58282 -1.68937 -0.147832 -0.587527 -0.192333 -0.500739 -0.23255 0.221242 -0.602785 -5.6486 -0.0558707 0.0429035 0.658711 -0.153468 -0.954012 -0.484042 0.0458362 0.144213 -0.152392 0.00168193 -0.388952 -0.613906 -4.69067 0.545562 -0.0640076 -1.10198 0.29351 -0.872966 0.508294 0.387976 -1.64302 0.287956 0.0545611 -0.326695 -0.0533786 -0.422642 -0.689964 -0.671103 -2.36842 -1.39216 -0.372103 0.00390465 -0.807896 -4.3699 0.229961 0.0201222 -0.66668 0.424777 -0.967566 -0.736202 -1.74636 -2.00593 -0.831457 -0.665574 -0.394334 -0.219504 0.762618 -0.90958 -0.911179 -5.9774 0.565844 -1.04626 -0.0140371 0.53742 -1.19942 0.239077 -0.144229 0.095137 0.812714 -0.374781 0.254934 -1.04093 -5.45653 0.399526 -0.613352 0.341766 -0.0924277 -0.438465 -0.309568 -0.244541 -1.40304 -0.71889 -0.403787 0.23204 -0.625764 -0.0998096 -0.825379 -0.399295 -3.12044 -0.22255 0.0516037 -0.198463 0.776343 -5.89507 -1.47726 -0.276981 0.253349 -0.170509 0.302084 0.323072 -2.74065 -1.23254 0.927368 -0.389005 -0.840261 -0.754767 -0.899606 0.0192319 0.670828 -6.06942 0.255881 -1.05572 -0.335727 -0.453308 -0.775937 0.277002 -0.157525 0.252376 -0.232574 -0.0363828 -0.54004 -0.221546 -4.91766 -1.34406 -0.560346 0.195257 -0.0303111 0.157176 -0.165648 -0.40516 -1.97077 -0.616181 0.296918 -0.842025 0.90509 -0.323069 0.570321 0.158111 -2.8546 -2.08695 -0.498035 -0.2912 0.755927 -5.01884 -1.32877 -0.57897 0.416536 0.653895 -0.147446 0.0843499 -3.20098 -1.27703 -0.926096 -0.126695 0.263067 0.618654 0.527126 0.878859 0.385754 -5.87495 -1.41395 -0.861718 -0.4708 -0.00361647 -0.788911 0.108463 0.315402 0.0438378 0.330968 0.202305 -0.547453 0.0811454 -4.86964 -0.852944 -1.00602 -0.857222 0.25351 -1.23472 0.0717502 0.338292 -1.75957 0.0677095 -1.36525 0.136668 -0.743706 -0.653352 -0.848809 -0.0356376 -1.76869 -0.165138 -0.513478 0.0191797 0.0604076 -4.46037 0.453514 -1.05939 -0.650174 0.21724 -0.796357 0.214862 -2.0784 -2.30824 0.675308 -0.00699041 -0.695589 -0.166039 -0.578681 -0.604501 0.243112 -5.99198 -0.739175 -0.0828099 -0.790062 -0.528182 -0.258002 -0.977313 -1.02145 0.0588708 0.906133 -0.651821 -0.551177 0.124079 -6.03761 -1.36357 -1.20808 -0.344114 -0.551372 -0.253832 -0.684449 0.116318 -1.63242 -1.29215 0.00283559 0.611533 -0.390129 -0.648832 -0.353222 -1.35508 -2.99319 -0.270196 -0.148069 -0.359998 -0.701184 -4.41211 -0.291529 -0.897261 -0.505488 -1.06893 0.028755 -0.537179 -3.1532 -1.3241 -0.581939 0.0107923 0.337199 -0.53488 -0.320724 -0.317509 -0.134548 -6.71933 0.568275 -0.613013 -0.281936 0.725829 -0.745855 -0.833076 0.167365 0.419465 0.979532 -0.318123 -0.377533 -0.68208 -5.9105 -1.32922 0.293623 -1.37466 -0.0719956 -0.115651 -0.848689 -1.04915 -2.23533 -0.320526 -0.9786 -0.906542 0.617763 -0.0173868 -0.437366 -1.62764 -2.67255 -1.66328 0.124954 -0.715776 0.278625 -5.49241 -1.1614 -1.02945 -0.794236 0.112568 -0.88297 0.541442 -2.93866 -1.42905 -0.863229 1.05917 -0.650023 0.0184386 0.509362 0.0353631 0.786783 -5.87097 0.219173 -0.916442 -0.0554507 -0.537754 0.516088 -0.0799196 -0.847935 0.58185 -0.665004 -0.160383 -0.457418 -0.438779 -4.94994 -0.427271 0.584889 -1.09401 -0.160072 0.180845 -0.0620032 -0.00463702 -1.84917 0.252863 -1.45022 0.42799 -0.757191 -0.509029 -0.997156 0.121778 -2.59131 -0.629323 -0.62817 -0.737841 0.390183 -5.40411 -0.379536 -0.652371 -0.784788 -0.0453953 0.196111 0.263743 -1.28023 -2.43402 -0.199972 0.6289 -0.190309 -0.499126 0.170651 -0.0816539 -0.854942 -6.39389 -0.280322 -0.236996 0.536981 0.356174 -0.870778 -0.456177 -0.234076 0.520729 0.872354 -0.372009 -0.147128 -0.05724 -5.71509 0.214216 -0.696711 -0.0464862 0.69153 -0.872499 -0.822198 -0.190134 -1.34715 -0.474331 0.119692 -0.622924 1.05388 -0.0305459 -0.438005 -0.15744 -3.32798 -0.209291 0.333195 -1.0451 -0.432251 -6.04381 -0.491791 0.433137 -0.179501 -0.882228 -0.192118 -0.191536 -2.11771 -1.93717 -0.323754 -0.0204102 -0.877073 -0.179528 0.46655 -1.05264 -1.02982 -5.40351 -0.314006 -1.09042 -0.586338 0.0162513 -1.19514 -0.876863 -1.14891 -0.600374 1.15664 0.164353 0.0442324 -0.631721 -5.06684 0.358924 -0.975473 -1.14488 -1.18213 -0.337998 0.279581 0.771563 -0.855585 -1.25783 -1.53651 0.411718 -0.0907183 0.0175222 -0.708729 -0.515445 -3.48892 -1.32422 0.761519 -0.457261 0.291216 -4.67664 -0.266741 -0.012572 -1.11727 0.14232 -0.0447882 -0.732747 -1.99709 -1.7152 0.087822 -0.315958 0.86996 -0.0597301 -0.835516 -0.0480902 -0.880846 -4.93542 0.397919 -0.721956 -0.559534 0.245624 -0.52285 0.304926 -1.23606 -1.10725 -0.427472 0.149756 0.483312 -0.700175 -4.65812 0.525375 
-0.564728 -1.17293 -0.417881 -0.0684641 0.219235 -0.868684 0.415782 1.30877 0.0249192 -0.503038 0.213641 -0.042485 -1.68245 -3.74716 -1.53005 4.14055 -2.0567 -3.47291 -0.36163 4.49522 -0.148578 -0.0865778 0.993866 -0.492575 1.16985 1.28039 1.39471 -2.05969 -2.13031 -4.04453 -1.33014 3.34248 -1.51077 -1.04165 0.340642 1.57061 -0.618276 -0.549861 -0.435899 0.530777 -1.0039 0.59932 0.433742 -0.954498 -0.748329 -0.974162 -1.00329 0.228321 -0.634273 0.0557178 0.363974 0.435282 -0.843236 -3.69108 -0.995898 2.23092 0.736304 1.68745 0.678549 -1.08491 -1.86263 -3.60889 -0.525301 4.13914 -0.552862 0.421629 -0.284467 0.116446 -1.35942 -4.35534 -1.70349 3.27504 0.309511 0.0253315 -0.910926 -0.248056 0.15187 0.0625213 0.651349 0.0910817 -1.30513 -4.9456 -1.25631 2.82858 1.00676 -0.438642 0.45336 0.575442 -2.19155 -3.79034 -1.40453 3.23831 0.207912 0.15192 -0.289076 -1.2085 1.17462 0.204715 -0.707604 0.194461 -0.0905568 -0.600632 -0.582428 0.958955 -1.33952 -3.46635 -1.08363 3.07637 -1.77529 -2.66429 -1.61888 3.55483 -1.30715 -0.494374 -0.427979 -1.10925 0.372871 0.0967472 0.0312037 -1.65456 0.509936 -0.51151 0.0292514 -0.195159 0.604998 -0.202822 1.102 -0.561796 0.409624 -0.336734 0.687528 0.629857 -0.619221 0.423487 -0.691025 0.620782 -0.654616 -0.497593 -0.618943 -0.286858 -1.43299 -1.0325 -0.088547 2.66262 -0.694415 -1.56628 0.484753 1.51059 -0.295229 -1.08354 0.757245 0.956397 -1.67254 -4.35339 -0.0910422 3.30552 -0.108981 -1.53246 0.316448 0.203565 -1.50887 -3.91093 -1.55773 3.43521 -1.16611 -3.06335 -1.53446 3.82946 -3.06724 -3.78369 -0.279499 3.48886 -1.5943 -1.72121 0.623504 2.05363 1.23712 -0.573585 0.224851 3.3156 0.13743 0.141324 0.0178247 0.200843 0.550103 -0.647383 0.502638 0.0290692 0.743561 -0.103768 0.661838 0.492722 -1.43965 -1.92733 -0.304702 1.389 -1.58228 -2.42186 0.0364005 1.54745 




-0.59279 -0.69968 -0.816656 0.560535 -0.12101 0.43323 0.608663 0.927858 0.13598 -0.180652 -0.172936 -0.711778 0.240325 -0.117855 0.867225 -0.933211 -0.0570934 -0.797279 -0.642658 0.393565 0.389737 -0.505251 -0.185812 -0.93149 0.31183 -0.525315 0.616946 -0.0139259 0.0517361 0.0345052 -0.526532 0.193396 0.468404 -0.457376 0.159373 0.0620768 -0.237014 0.54751 0.979433 0.527342 -0.496123 0.430156 -0.235067 -0.0219055 -0.715551 -0.264369 0.113894 -0.825709 0.325143 -0.591957 -0.662342 0.928286 0.990233 -0.732685 0.626481 0.258417 0.987392 0.0701091 -0.110777 -0.475484 -0.270911 -0.15282 -0.711171 -0.822766 -0.394751 -0.725565 -0.632891 0.12625 0.763256 0.236331 -0.173204 -0.00159948 -0.577393 0.950168 -0.112143 -0.861106 -0.237093 -0.142729 0.868219 -0.0810391 0.101294 0.416374 0.396117 0.825745 0.93619 -0.45089 0.556825 0.577174 0.61602 0.291262 -0.997973 -0.879177 -0.58377 0.81667 -0.9874 -0.242083 0.929027 -0.417702 -0.283084 -0.515484 