-0.052126 0.5612 -0.128758 0.239694 0.106423 -0.596939 -0.435077 0.364168 -0.384802 -0.492783 -0.496853 0.362869 -0.0520419 0.527732 0.225921 -0.467467 0.134269 -0.342387 0.456697 0.267239 -0.420515 -0.122774 0.230335 -0.544097 0.10205 0.0269527 0.237543 0.487202 0.257345 -0.403565 0.299509 0.0774349 0.450273 0.592792 -0.431299 -0.306812 0.138231 0.416394 0.190242 -0.0496529 -0.478877 -0.371743 -0.0672241 -0.287958 -0.423603 -0.0215406 0.342841 -0.130709 
0.190171 0.193232 0.421489 0.120998 -0.211763 0.003435 0.179832 0.172624 -0.19704 -0.434172 0.0351195 -0.574466 0.550534 -0.391853 -0.22693 0.305846 -0.216719 -0.037234 0.0699832 -0.551557 -0.382856 -0.326954 0.463218 0.0564495 -0.00958532 0.18685 0.0435464 -0.192286 0.119756 -0.0299711 0.447255 0.550402 0.293243 0.586431 0.536965 -0.454888 
0.212384 -0.081818 0.598936 0.0636443 0.00730845 0.390609 0.153429 0.0400577 -0.456935 -0.0489146 0.305644 0.111853 -0.122062 -0.34407 -0.375972 -0.212826 -0.4166 0.570074 -0.0295589 0.000683808 0.0885003 -0.0539751 -0.355672 0.57869 
-0.36924 0.455047 -0.0390124 -0.0144128 -0.453028 0.104465 -0.206937 -0.451287 0.441908 -0.437594 -0.587454 0.228768 -0.432275 -0.137645 -0.333368 -0.238117 -0.427493 0.287865 0.0373917 0.379732 -0.101643 0.553014 0.124399 0.269589 -0.287163 -0.16757 -0.354678 -0.462885 0.38489 -0.158706 0.268151 0.234779 0.376296 -0.0765446 0.271371 -0.225946 0.231019 0.472487 -0.51277 -0.30048 -0.559179 0.441978 0.435876 -0.502866 0.375232 0.0665208 0.443878 -0.538081 -0.347466 0.379455 -0.0704363 -0.325008 -0.0967869 0.443798 0.17599 0.0508265 -0.197949 -0.237778 -0.254809 0.279674 -0.357489 -0.105296 0.363039 0.347809 0.138255 0.428387 -0.344944 -0.476527 -0.57033 -0.490308 -0.424354 0.208119 

