-0.355005 0.0286929 -0.174247 -0.918744 -0.339849 0.284264 -0.270491 0.237708 -0.598038 -0.754079 -1.12676 0.326089 1.04867 1.27079 0.591345 1.14819 3.51453 -0.140557 -0.945941 -3.83225 -0.404472 -1.36268 -0.184952 -0.592367 0.83804 -1.54073 -0.510217 1.54746 0.72657 -1.00883 -0.326004 1.07487 -0.341193 -0.0207694 0.80127 0.992256 -1.57065 0.670202 0.563612 -3.33122 -3.0321 -0.458092 0.521834 0.0659337 -0.0163916 0.341399 0.14712 -1.62742 
-0.324565 0.204233 0.0796189 -0.0904881 -0.293211 0.0697071 0.352526 0.0443688 -0.0201299 0.458755 0.108131 0.168736 0.287775 -0.222558 0.0509025 0.0852596 0.0161761 -0.0461189 -0.161738 -0.0221685 0.0186685 -0.0614269 0.000331637 -0.0325583 -0.123507 -0.289681 0.086844 0.330962 0.169293 0.0227495 0.404586 -0.0265064 0.000822784 0.912887 0.0350586 0.0258902 
0.830715 1.20322 1.42412 0.325947 -0.166645 -0.5361 -0.522931 -0.618574 0.0835802 -0.416424 0.199389 -1.66741 0.343129 -0.558676 -0.385525 -0.000409473 0.0661063 0.384854 -0.490409 0.0898596 -0.0208157 -0.832858 0.0439371 0.985968 
-0.0116025 0.0377651 -0.0998472 -0.395375 0.00920091 0.00107186 -0.0229144 -0.220817 0.306622 -0.232975 0.296583 0.239728 0.00362165 0.0886072 -0.257208 -0.319714 -0.014101 -0.125572 0.302665 0.188973 -0.105999 -0.0443918 -0.657318 0.0380572 -0.0486374 0.0511765 -0.168594 -0.59032 0.116995 -0.313606 0.231137 0.0116644 -0.750495 -0.376649 -0.258561 -0.225873 0.027431 -0.0116076 0.0700403 0.205045 -0.575976 0.0958749 0.19354 0.415844 0.14519 -0.0508625 0.253161 -0.0676798 -0.347466 0.379455 -0.0704363 -0.325008 -0.0967869 0.443798 0.17599 0.0508265 -0.197949 -0.237778 -0.254809 0.279674 -0.357489 -0.105296 0.363039 0.347809 0.138255 0.428387 -0.344944 -0.476527 -0.57033 -0.490308 -0.424354 0.208119 

