-0.30106 0.215559 0.399147 0.542218 0.0830855 -0.426538 0.119361 0.331376 0.412499 -0.416621 0.24088 -0.220998 0.393052 0.186986 -0.504699 -6.84162e-05 -0.231086 -0.00355434 0.0434237 0.381991 0.0951678 -0.448109 0.0432668 0.0865367 0.371012 -0.120763 0.43692 0.509708 0.159312 -0.294774 0.477334 -0.558512 0.304142 0.40396 -0.130705 -0.36626 -0.118239 -0.382033 -0.0415561 0.0647724 0.192486 -0.425871 0.148251 -0.386593 0.533924 -0.515177 -0.578236 0.530863 0.272632 -0.531533 -0.464345 -0.579693 -0.511223 0.568557 -0.584822 -0.56849 0.335493 -0.266361 -0.386567 -0.207016 -0.35059 -0.0567342 0.0332628 0.456993 0.44049 -0.0651814 0.420423 0.284514 0.141557 -0.0114984 -0.52613 -0.144371 0.305177 0.305581 -0.369093 0.209886 -0.212678 -0.0232481 -0.273085 -0.569684 0.0280586 0.582526 0.183098 0.462088 0.566514 -0.293653 0.426677 -0.187569 -0.0477072 -0.362674 0.422426 0.175043 -0.317846 -0.352807 -0.556802 0.455451 
0.123349 -0.480206 -0.24288 -0.422457 -0.209049 0.486118 -0.431727 0.156774 0.178539 -0.334925 -0.479474 -0.0717304 -0.329168 0.161645 0.43445 0.282298 -0.328297 0.34593 0.463425 -0.575882 0.0404398 -0.247119 -0.0644304 0.0319298 -0.303881 -0.129752 0.513671 0.336098 0.0206116 -0.0454644 0.106427 0.35362 0.427489 0.358352 -0.118299 0.00149512 0.358615 0.536159 -0.272891 -0.386772 -0.2185 0.538275 0.116813 0.381889 0.502415 -0.169316 0.101516 -0.336839 -0.192256 0.342562 -0.109186 -0.327195 0.447848 -0.0105951 0.0742277 -0.482506 -0.439307 0.0163222 0.312441 -0.417311 -0.50364 0.432458 -0.146931 0.407605 -0.0859681 -0.332349 -0.504859 0.453493 -0.264807 0.336688 0.0953037 0.0314623 
-0.135613 0.379909 -0.2467 -0.293255 0.285084 0.0926906 -0.27274 0.0459044 0.385664 -0.415603 -0.208096 -0.324307 -0.372066 0.146484 0.378681 0.556942 -0.237069 -0.284564 0.140089 -0.448048 -0.337565 0.427566 -0.5866 0.129304 -0.502389 0.571799 -0.560907 0.260967 0.190276 -0.00942844 -0.586025 0.288052 -0.387402 -0.24719 0.014726 0.0376578 -0.444088 0.364706 -0.33111 -0.449666 0.562626 -0.474637 0.114295 -0.493478 -0.53714 0.34451 -0.0210299 -0.234291 0.358572 0.125062 0.397542 0.408387 -0.344622 0.078405 0.0248909 -0.145974 0.227749 0.217184 0.22927 0.500534 -0.313699 0.243999 0.296308 -0.265123 -0.0918215 0.485024 -0.394012 0.376558 -0.499489 0.282662 -0.569168 0.312948 0.317457 -0.548388 -0.308426 -0.198114 -0.274476 0.523375 0.422564 0.510292 0.165573 -0.0623037 0.0986486 0.560777 0.320624 0.473744 -0.175415 0.342606 -0.052672 0.10734 0.415781 -0.220114 0.408918 0.206247 0.570342 0.492235 0.0169164 0.0825678 -0.446777 -0.138656 0.491577 0.54465 0.497507 -0.352009 -0.0519123 -0.424213 0.150427 0.389792 -0.0298695 -0.257455 -0.255474 -0.597729 
-0.271666 0.196606 -0.146038 0.259977 -0.378873 -0.393578 -0.42291 -0.391427 -0.160437 -0.400517 0.259026 0.321719 0.0437702 -0.274091 0.0697025 -0.192118 -0.25351 -0.0278693 -0.205274 -0.408697 -0.275413 0.512432 0.434616 -0.0361633 -0.44889 -0.381856 0.298843 0.0975641 0.486578 0.300465 0.591331 0.0452652 0.438882 -0.466441 -0.558962 0.140927 -0.242902 0.0577072 0.498326 -0.24341 0.30236 -0.255765 -0.282759 -0.485032 0.590834 -0.119952 0.0131689 0.535653 -0.13638 0.382294 0.410758 -0.408794 0.0789182 -0.104655 -0.0646152 0.413811 -0.22928 -0.233374 -0.286366 0.526984 0.126055 0.221176 0.544317 -0.367756 0.141778 0.252443 0.593092 0.312137 -0.128769 -0.531014 0.0578692 -0.355775 -0.065027 0.21201 -0.175635 0.245413 -0.0306563 -0.483937 0.375386 0.122895 -0.384259 0.147904 0.553214 0.179609 -0.382365 0.582731 0.190991 0.559047 -0.42441 0.242117 -0.00343756 0.0672118 -0.370859 -0.310318 0.205657 0.172701 
0 0 0.1 0 0 0 0.1 0 0 0 0.1 0 0 0 0.1 0 
