0.0853591 0.0349642 -0.382491 -0.594439 -0.415127 0.14895 -0.379773 -0.364319 0.0196263 -0.264914 -0.507542 -0.172719 -0.175859 0.128361 -0.490898 0.504704 0.306127 -0.456905 0.0478912 -0.404515 0.206724 0.583356 -0.0774226 0.566658 0.101543 -0.0556671 0.141816 -0.484856 0.545475 -0.197644 0.575787 -0.494819 0.0390231 0.380761 0.451514 0.383846 0.317983 0.326171 -0.101081 0.285827 -0.34434 -0.0374231 -0.0866266 0.32104 -0.54541 -0.0474056 -0.501981 0.0121547 
0.272785 -0.178265 0.384312 0.360099 0.555584 -0.0247895 0.029801 -0.189438 0.33314 -0.439579 0.172575 -0.15961 0.329322 0.472417 -0.507356 0.00601713 0.111198 -0.282077 0.0530084 -0.594397 0.457117 0.423775 0.0965601 0.518295 0.267815 -0.529829 0.118062 0.353742 0.0747822 -0.486195 -0.502839 -0.41038 -0.312361 -0.528515 0.400807 0.273224 
-0.0894392 0.302607 0.365867 -0.571377 0.0627056 -0.228115 0.382365 0.0182899 0.483083 -0.142853 0.5935 -0.398994 
-0.0290475 -0.583142 0.228641 -0.373639 0.0233013 -0.100001 -0.538062 -0.384115 0.254014 -0.562931 0.338966 0.356634 0.0681139 0.417665 0.111724 0.343095 0.433863 0.340389 -0.0809148 -0.438742 0.259617 0.555363 0.332466 0.0840576 0.257734 0.0908887 0.312729 -0.316397 0.167003 -0.34905 0.490038 -0.421884 0.116734 0.25797 -0.244233 0.584057 0.545373 -0.143244 -0.0332563 -0.279328 0.327424 -0.320427 -0.0418485 0.595781 -0.0594915 -0.279324 -0.410369 0.324446 -0.323965 0.0866695 0.575397 0.534005 0.543426 -0.34503 -0.345319 0.172066 -0.283092 0.593647 -0.31621 0.235993 

