
0.574202 -0.341599 -0.569978 0.295186 -0.31687 -0.117724 0.391553 0.169701 -0.0232449 -0.426848 -0.171381 0.585062 -0.0205812 0.394157 0.548781 -0.397699 -0.506546 -0.535385 -0.21408 0.597336 -0.221005 -0.120162 0.382761 -0.239956 -0.553606 0.21391 0.265597 0.480658 -0.337885 -0.303884 -0.300082 -0.267399 0.265928 -0.482835 -0.120614 0.50626 -0.477974 -0.117992 -0.323788 0.382454 0.477393 -0.378572 -0.586828 0.143903 0.235156 -0.396826 -0.476194 -0.331809 
-0.146502 0.335774 0.557202 -0.34288 -0.345543 0.231212 -0.133632 -0.0164674 -0.233706 -0.248644 0.0195472 0.165132 -0.431625 -0.367011 -0.575457 -0.562286 -0.229685 0.14931 0.322462 0.525636 -0.194978 0.165066 -0.581436 0.354339 -0.454416 -0.158299 0.227621 -0.202679 0.541224 0.207152 -0.51301 -0.0843905 0.0394151 -0.0543248 0.11405 0.347039 
-0.593168 0.371582 0.568661 -0.568226 -0.420389 0.45433 0.180151 0.0513832 0.30423 -0.41725 0.382042 -0.17812 0.311541 0.234453 0.409296 -0.376882 0.572998 0.328921 -0.279302 0.267141 -0.0229806 -0.529476 0.222165 -0.0528924 
-0.432159 -0.390192 -0.453257 -0.438426 0.441427 -0.320382 0.282658 0.383484 -0.0343281 -0.376669 -0.426888 -0.143632 0.281891 -0.210581 0.528784 -0.406874 0.00655851 -0.347384 -0.0951768 -0.416004 -0.279989 -0.52234 -0.00500809 0.104212 0.0289299 -0.48166 -0.124108 -0.406662 0.0133908 0.432767 0.0726638 -0.206196 -0.568449 -0.201642 -0.163581 0.38383 -0.199488 0.169723 0.441564 -0.183331 -0.352156 0.0999076 -0.245446 0.183223 -0.599787 -0.497412 0.442977 -0.563554 -0.105671 -0.0366205 0.301563 0.422705 0.469213 -0.370735 0.292687 0.399798 -0.128714 0.264268 -0.0308795 -0.0161803 0.395275 0.242776 0.0180288 0.425843 -0.348222 -0.232696 0.568388 -0.500856 -0.0531871 -0.581032 0.156602 -0.0487001 

