
-0.0723585 -0.365061 0.012577 0.325079 0.466808 0.405106 -0.367812 -0.185065 -0.369364 0.0425048 -0.211867 0.259117 -0.254171 0.265615 0.0301529 -0.243409 0.433411 0.295061 -0.38456 0.0224605 0.173992 -0.413356 0.345208 0.0355184 -0.439216 0.343591 -0.155869 0.11473 0.443289 -0.259373 -0.467269 0.339955 0.00430856 -0.15456 0.0916574 0.0709079 0.452726 -0.402096 0.20255 0.283825 -0.0863223 0.154172 -0.305293 0.077427 -0.341313 -0.269139 -0.488764 0.201763 0.368289 -0.0207159 0.00921736 0.186521 -0.195342 -0.450452 -0.358171 -0.0241578 -0.364554 -0.0659282 0.0541058 -0.434262 -0.0610632 -0.139749 -0.135283 -0.18312 0.41183 0.168692 -0.10861 -0.236387 -0.076427 -0.451039 -0.162708 -0.217122 0.408735 0.267297 0.467247 0.0876634 0.152802 0.0309974 -0.303594 0.100483 0.419225 -0.16259 -0.0381154 -0.0109731 0.444845 0.439039 0.333589 0.134881 0.228328 0.146731 0.180997 0.283386 -0.21779 -0.330335 -0.31719 0.116361 -0.430556 0.242576 -0.234425 -0.444918 -0.386788 0.225925 -0.349065 0.397803 0.345087 -0.112773 -0.0240844 -0.416806 0.374558 0.268289 -0.0603931 0.116797 -0.3982 -0.0310708 0.355845 0.459032 0.366592 -0.211279 -0.470067 -0.414165 
-0.129604 0.405915 -0.125156 -0.180311 0.295531 -0.360338 -0.493747 0.141134 -0.30476 -0.064133 0.0217023 0.209337 -0.114001 -0.295511 0.366571 -0.0123152 0.442388 0.331162 0.163226 0.0252229 -0.466049 0.151293 -0.0732006 -0.0787471 -0.00950052 0.0735784 0.305935 0.3023 0.351395 0.181546 -0.391385 -0.341837 -0.281052 -0.425207 -0.486168 -0.350722 0.264008 -0.447271 0.281057 0.346796 -0.282808 -0.376894 -0.00204977 0.317639 0.113169 0.252831 0.259084 -0.0997813 0.0954587 -0.468674 0.053028 -0.237635 0.148364 0.352854 0.219425 -0.29289 -0.350503 0.480659 0.143885 -0.330892 -0.312365 0.176662 0.318491 0.162082 0.121114 -0.0452972 0.388775 0.332064 0.361997 0.00872767 0.117343 0.275506 0.494454 -0.430753 -0.416921 -0.267643 0.496365 -0.450906 0.330152 0.176948 0.39414 -0.482754 0.0151963 -0.167165 0.446004 0.198836 -0.0420799 0.358139 -0.0464025 -0.0150767 
-0.141506 -0.462049 0.354352 -0.23012 0.448681 0.202404 -0.382089 0.0209591 0.266482 0.262751 0.377566 -0.125282 -0.42119 0.00211089 0.407659 -0.482669 0.374278 0.0187868 -0.144401 -0.490219 0.0737422 -0.394187 0.405089 0.255569 -0.145159 -0.256011 0.238991 -0.409367 0.34482 -0.149792 -0.296941 -0.247366 -0.199684 -0.218849 0.285076 0.301534 -0.307096 -0.436085 0.228069 0.0724177 -0.279329 0.358226 -0.273887 0.0324076 0.171219 -0.233847 -0.444718 0.22863 0.288666 -0.195721 0.212186 0.191653 0.126773 0.171572 0.0183196 -0.267593 0.118708 0.317801 0.0927439 0.25248 
-0.236037 0.125495 -0.489746 -0.311164 -0.132461 -0.150126 -0.0839066 0.277026 -0.481367 -0.360091 0.429258 0.132429 -0.361759 0.144128 -0.349838 -0.381906 -0.0771787 -0.0118856 -0.439778 0.427188 0.0374196 0.0627298 -0.0826277 0.19265 0.366871 -0.318452 0.212892 0.0354658 0.27842 -0.145015 -0.258231 0.14008 -0.173914 -0.15885 0.272357 0.43442 0.376652 0.0076338 -0.445958 -0.192177 -0.417301 -0.268363 0.249403 0.194121 0.399828 -0.0761511 -0.496006 0.183823 0.0888373 -0.0925379 -0.0221095 -0.188183 -0.311487 0.320474 -0.343135 -0.327988 0.0914814 0.112361 0.324468 0.340688 -0.00607321 0.498943 -0.409748 -0.363715 0.315285 -0.185599 -0.344191 -0.237736 -0.15295 -0.0723535 -0.361131 0.496496 -0.334502 -0.154007 0.0178984 -0.224847 -0.329874 -0.0201007 0.001802 0.280162 0.365369 0.0977729 0.118768 -0.00170156 -0.0905122 -0.288637 -0.384329 0.393921 -0.0974662 0.389387 0.213165 0.395833 0.10436 -0.499693 0.00815494 -0.288537 -0.471805 0.315723 -0.384022 -0.097924 -0.00683319 0.417582 0.028888 -0.488189 -0.077839 -0.00652651 -0.0742626 0.240351 0.373016 -0.262116 0.109451 0.327813 -0.414089 0.290598 0.266772 0.121263 0.272369 0.0793842 -0.283665 0.00712334 -0.455851 0.281891 0.310099 0.162695 -0.215851 -0.401019 0.176578 -0.43396 0.428192 -0.160727 -0.288663 -0.472827 -0.130772 -0.222623 -0.0363421 0.208501 0.351416 -0.00916886 -0.196352 -0.371207 0.271481 -0.487851 0.0455375 -0.237688 0.48747 0.17433 -0.416702 0.499619 0.217549 -0.15439 0.328158 -0.10812 -0.280418 0.327777 0.479813 0.0651922 0.324655 -0.128308 -0.00526438 0.152432 0.259975 -0.440072 -0.177047 -0.368333 -0.111343 0.475385 0.155808 -0.0514155 0.0344165 0.287476 0.290733 0.00980165 0.16762 -0.260683 -0.225232 -0.0449046 0.118546 0.284569 -0.211117 0.357863 

