0.498372 -0.193802 0.196306 0.163122 0.201429 0.490932 -0.513756 -0.45854 0.109221 -0.388271 -0.191632 -0.342964 -0.173582 -0.201507 -0.521351 0.102522 0.0216389 -0.170907 -0.382246 0.347251 -0.0951449 -0.198382 -0.545881 -0.263246 -0.287805 0.123046 -0.454887 -0.270663 -0.319345 -0.0521299 0.205658 -0.560167 
-0.388258 0.0179409 -0.459013 -0.241259 0.015777 -0.382794 -0.102139 0.299479 0.358393 0.570122 0.166428 0.311541 0.0587916 0.48521 0.376142 -0.275988 -0.247973 0.18112 0.589488 0.152611 0.481948 -0.213197 0.185296 0.27154 
0.378128 -0.122803 0.480653 0.559421 -0.0276565 0.110336 0.492568 -0.491107 -0.221869 0.519589 0.213951 -0.507605 -0.288552 -0.0575346 0.251323 0.482057 
-0.589936 0.303418 0.24272 0.408972 0.420434 -0.459093 0.0374509 -0.273896 0.0346672 -0.459423 0.138103 -0.433789 0.0258406 -0.111286 0.123373 0.30154 -0.120774 0.440386 -0.348598 0.577427 -0.0833849 -0.135411 0.0975239 -0.324896 0.243046 -0.439746 0.215768 0.183597 -0.235565 0.218514 0.223745 0.587491 -0.504462 -0.202715 -0.381736 0.479776 0.0133315 0.327011 -0.0252362 -0.362329 0.134879 -0.255635 -0.343622 0.487265 0.339199 0.456185 -0.161703 0.587085 

