
-0.407314 -0.430663 0.0471885 -0.19214 0.159185 -0.000669777 -0.574822 -0.508705 0.13279 -0.350715 0.434788 0.0782219 -0.566577 -0.0238429 -0.441601 0.434331 -0.329679 -0.0917386 -0.0798455 0.195683 0.164801 0.560432 0.503206 0.302171 -0.516489 0.419455 0.353925 0.134591 0.411048 -0.371782 0.414019 -0.0844233 0.307836 0.00361492 0.0834889 -0.374573 0.035246 0.318772 0.333708 -0.473048 -0.525393 -0.0500661 -0.24927 0.123153 -0.48444 -0.0633872 -0.218691 -0.154452 -0.354251 -0.185929 -0.162721 0.387646 -0.234442 0.302201 -0.0260926 0.108176 -0.27948 -0.0262308 -0.159428 0.582644 -0.57964 -0.320681 0.498308 -0.0797367 -0.0776424 -0.078342 -0.0102273 0.313348 0.447634 -0.423701 -0.570329 0.428373 -0.398505 0.125787 0.223265 -0.0663243 -0.330751 -0.383922 -0.0143018 -0.364217 -0.338141 0.142293 -0.231474 -0.295342 -0.107903 0.334822 -0.262014 -0.421287 -0.15965 0.490311 0.163652 -0.125829 -0.266802 0.185724 0.564088 -0.506966 -0.37807 -0.316019 0.302127 0.296473 -0.357352 -0.362593 0.0327531 0.00133499 -0.350306 -0.0328784 -0.0803948 -0.25695 0.598376 0.229106 -0.459042 -0.481169 0.337537 0.572492 -0.00822803 -0.260391 -0.0503925 -0.300608 0.37148 -0.468576 
-0.251798 -0.549627 -0.577135 -0.0850374 -0.576862 0.377063 -0.27333 -0.0946166 0.345956 0.574174 -0.494403 0.574558 -0.451824 0.295703 -0.337316 0.569274 -0.586149 0.0321961 0.461589 -0.537538 -0.446354 -0.0963338 0.214724 0.57033 0.362256 0.525324 0.180054 0.0610361 0.467664 -0.559714 -0.341164 0.561038 -0.555452 0.0363201 -0.228858 0.0916619 -0.373747 -0.0743552 0.365995 0.348639 -0.503159 -0.452786 -0.42992 0.0850425 0.108181 -0.114757 0.211913 -0.482703 0.463252 0.437426 0.543023 0.517581 -0.534243 0.36146 -0.575856 0.593418 -0.592731 0.0394647 -0.0989459 -0.0364836 0.46896 -0.426381 0.147526 -0.0330189 0.306591 -0.555424 0.0183454 -0.170607 -0.399127 -0.508816 -0.24998 -0.288942 -0.244394 0.391926 -0.436932 0.25473 0.480983 -0.193373 -0.427377 0.521262 -0.581897 -0.434683 -0.264603 0.420439 -0.0713799 0.413863 0.0257768 0.143074 0.0063259 -0.156248 
0.561548 -0.229888 -0.106538 0.212138 -0.4224 -0.590969 0.35988 0.111746 0.393417 0.519384 -0.0886662 0.133379 -0.120353 0.18898 -0.345495 0.558194 -0.160882 0.389475 0.0833268 -0.231214 0.549111 -0.33915 -0.276958 0.129133 0.401795 -0.262271 -0.0810589 -0.449335 0.0550209 -0.255662 0.117163 -0.119636 -0.450866 0.00221516 0.44899 0.039864 -0.0174539 0.209071 -0.458004 0.52525 0.40383 0.108903 0.295536 0.419533 -0.56699 -0.227672 -0.34822 0.130438 -0.57995 0.0249266 -0.591672 -0.201424 0.281067 0.458978 -0.272933 -0.54665 0.0917059 -0.432148 0.382437 0.391121 -0.213225 0.205882 0.0432873 -0.503079 -0.0163006 0.05503 -0.0250205 -0.117789 0.0455383 0.589529 -0.187842 0.179355 -0.206491 -0.578175 -0.377401 -0.106415 -0.460063 0.429465 -0.196515 0.43906 -0.578201 -0.0944592 0.572864 0.525075 -0.029958 -0.239708 -0.328232 -0.577314 0.143178 -0.354059 0.57965 -0.468428 -0.526485 -0.381536 -0.401571 -0.290165 0.516282 -0.445752 0.546762 0.527386 0.562944 0.402888 -0.44969 -0.275024 -0.432134 0.0115243 0.0141731 0.137796 0.0406447 0.478765 0.464621 -0.358037 0.192383 0.297641 0.380065 -0.413378 -0.403534 0.306974 -0.0875 0.10068 -0.579171 -0.299196 -0.443597 0.0425014 -0.446655 -0.591998 0.0516102 -0.330491 0.270663 0.135996 0.513361 0.0533301 -0.424945 0.348321 0.557318 0.109979 0.51551 0.581114 -0.130659 -0.431491 0.57827 0.448893 0.277525 0.156309 0.457479 -0.243658 0.195912 0.561319 0.32159 0.0289949 -0.295645 -0.0318618 -0.530936 0.0604378 0.128667 0.210746 -0.490469 0.544427 -0.12048 0.528788 0.524308 -0.262349 0.263729 -0.149324 -0.150709 0.143582 0.569941 0.0503168 0.596458 0.297331 0.130412 -0.297008 -0.495794 0.393467 0.539153 0.237874 -0.308314 -0.272046 -0.309012 0.364782 -0.455033 -0.444284 0.134552 0.0622153 0.433982 0.539259 0.11215 0.158297 -0.12978 -0.17115 -0.373308 -0.350003 0.430004 0.220852 0.192973 0.458271 0.108612 0.397451 -0.468658 0.468391 -0.0308892 -0.122418 -0.580081 -0.294732 0.147809 0.118842 -0.357223 -0.187605 0.0308287 -0.419936 0.235553 0.229424 0.195867 0.00404911 -0.0765422 -0.098536 -0.336252 -0.152891 0.279694 -0.104124 0.025107 -0.153253 -0.505561 -0.340345 0.090697 0.589627 0.10449 -0.364381 -0.172465 0.00762637 0.367745 -0.0677803 -0.553689 0.105421 -0.481671 0.0793843 -0.274955 0.363114 -0.540681 0.547936 
-0.143512 -0.105514 -0.131498 0.322718 -0.148168 0.444108 0.365902 0.568476 -0.455598 -0.00945731 0.387984 -0.529657 -0.5476 0.0388875 0.459045 0.110702 0.143518 0.496508 -0.195211 0.427521 -0.212821 -0.465939 0.284492 -0.124868 -0.222555 0.426066 0.593106 -0.204806 0.294183 -0.326047 -0.369144 0.420627 -0.0449693 0.428244 0.558444 0.105988 -0.199869 -0.218903 0.42135 -0.246362 0.00115722 0.0740831 0.0119524 0.241977 -0.0836507 -0.170599 0.0325274 -0.48206 0.128084 0.297446 -0.349248 0.386166 0.413552 -0.397833 -0.290601 0.492729 -0.320537 -0.357047 0.234695 -0.172661 -0.416895 0.576909 -0.106295 0.0208607 0.195989 -0.214727 -0.313693 -0.213566 0.422641 0.438942 -0.580032 0.113646 0.0956053 0.39955 -0.267352 0.0408284 -0.0824214 0.480878 -0.514142 0.119082 -0.486371 -0.243479 0.500846 0.199504 -0.473566 0.513179 0.0891684 -0.0583258 -0.0231027 -0.592688 0.599036 -0.39175 -0.142034 0.333418 0.508158 0.19854 0.517555 -0.228855 -0.177414 -0.150168 0.222838 0.524867 -0.229818 0.0308367 0.558646 -0.043744 0.433025 0.568722 -0.0534504 -0.270208 0.378842 -0.317143 -0.0123801 -0.128584 0.0999732 -0.190321 -0.461289 0.543876 -0.295559 0.0686949 -0.0127024 -0.0668533 0.0723707 0.520827 -0.439906 -0.0264428 -0.213999 -0.0795191 -0.467603 0.301447 -0.0404337 0.378111 -0.118212 -0.0948664 -0.430354 -0.391825 0.0371706 0.506704 0.225224 0.148717 -0.2976 0.354453 0.517405 -0.505194 0.0576405 0.570317 -0.0209253 0.146051 0.308811 0.275957 -0.459546 -0.162114 0.2431 -0.240912 -0.0701163 -0.242814 -0.57216 -0.386056 0.445603 -0.251371 -0.135309 0.149804 0.584312 -0.521399 0.0595858 0.382293 -0.46865 0.54041 0.532773 -0.164991 -0.471122 0.130363 0.387412 -0.264457 0.522747 -0.0307643 -0.561706 -0.308139 0.364892 -0.113936 0.158203 -0.598644 -0.418853 -0.328624 -0.314682 0.188097 -0.323827 0.443493 0.54565 -0.0595044 -0.467294 -0.478444 0.0387606 0.120327 0.316976 0.406536 0.230905 -0.318807 -0.136757 0.101941 -0.208068 0.330621 -0.114781 -0.39696 -0.0352618 0.232261 -0.13766 0.134618 0.527295 0.580029 -0.593206 -0.271288 -0.45131 0.505234 0.364966 -0.0161038 0.156701 0.0476222 0.297005 0.413329 0.559617 -0.170117 -0.231524 -0.133092 -0.421902 -0.112678 0.532841 0.500045 -0.221932 0.191877 0.292223 0.503095 0.420024 -0.441873 -0.105884 -0.338447 -0.551265 -0.316699 -0.0431563 -0.323881 0.58404 -0.132353 0.455132 -0.292555 -0.37883 -0.121382 0.0517778 0.423752 0.198958 -0.128638 -0.199512 0.355178 0.0855129 0.413047 -0.42916 -0.0451275 -0.393541 0.357086 0.365478 0.062041 0.403912 0.368814 -0.230109 -0.153041 0.097686 0.0741054 0.212218 -0.527077 0.283211 -0.31747 -0.179408 -0.406358 -0.360213 0.569048 0.474593 -0.0326045 0.158436 0.0962577 -0.14663 0.375465 0.325541 0.596873 0.334526 -0.0633658 -0.228692 -0.0727496 0.466148 0.300329 -0.30281 -0.200354 0.209091 0.407449 -0.380155 0.0538376 0.347843 -0.54021 0.181461 -0.333762 -0.325761 -0.423514 -0.0341153 0.316103 0.507207 0.123307 0.533791 0.178334 -0.599237 0.210873 -0.0522061 0.493135 0.182251 0.207536 0.49573 -0.266563 -0.212576 0.408212 0.430718 -0.598369 0.240978 0.242041 -0.568707 -0.438032 0.00767594 -0.0360898 -0.225903 0.146821 0.508839 -0.235715 -0.0353726 0.209627 -0.437269 -0.381451 0.511704 -0.332768 -0.270928 0.116375 0.464452 0.298064 0.597051 0.570943 -0.550732 0.513336 0.508209 0.571113 -0.28585 -0.57358 -0.29426 -0.039039 -0.25496 0.196089 0.422174 -0.327506 0.374307 0.523777 -0.410849 -0.0757105 -0.127335 0.0122715 0.525161 -0.0614509 

