
0.401133 0.545692 -0.435106 0.973656 -0.219088 -0.236468 1.46199 0.5727 -1.00507 -0.760363 -0.354725 -0.0652266 -0.33823 0.314325 0.520454 -0.622291 -0.650753 -0.98584 -0.710957 1.28596 -0.343837 -0.00245997 0.890052 -0.455964 -0.9394 0.911459 0.230936 1.21081 -0.40558 -0.636577 -0.928037 -0.567619 0.0343252 0.00891711 -0.053216 1.19633 -0.983225 0.243085 -0.294124 0.378175 0.487773 -0.151815 -0.309132 0.0674354 0.904651 -1.43753 -0.612442 -1.28287 
0.0575406 0.0418589 0.674438 -0.0138428 0.0248817 0.100561 -0.00555483 0.150732 -0.0248392 0.0824279 -0.165784 0.115544 0.0213758 -0.0646928 -0.126969 -0.00394374 0.113642 0.0540513 -0.00752807 0.106076 0.00355018 0.00301378 -0.0894613 0.133687 0.0911793 -0.0293307 0.146684 0.026703 0.111765 -0.0259585 -0.0105212 0.0411051 -0.018029 0.0585999 -0.108634 -0.00128856 
-0.576813 0.405216 0.723971 -0.349593 -0.499956 0.354693 -0.1455 -0.230081 -0.191601 -0.103049 0.338973 -0.397728 0.3294 0.351115 0.407719 -0.144648 0.515338 0.278773 -0.326282 -0.0140788 -0.12983 -0.408415 0.166249 0.182249 
-0.0418793 -0.182178 -0.64804 -0.482846 0.199113 0.22018 0.800241 0.484867 -0.0370417 0.0171007 -0.0434349 0.0163184 0.696604 -0.252563 0.798647 0.321482 -0.181808 0.0446274 0.0373261 0.280342 -0.2458 -0.86034 -0.366873 0.123942 1.21473 -0.555797 -0.489646 -0.384253 0.366595 1.28886 -0.462096 0.456672 -1.00074 -0.293585 -0.147242 0.900717 -0.636347 0.0763032 0.251072 -0.793527 -0.194954 0.659261 -0.299112 -0.425757 -0.0215416 -0.198001 0.634413 -0.683856 -0.105671 -0.0366205 0.301563 0.422705 0.469213 -0.370735 0.292687 0.399798 -0.128714 0.264268 -0.0308795 -0.0161803 0.395275 0.242776 0.0180288 0.425843 -0.348222 -0.232696 0.568388 -0.500856 -0.0531871 -0.581032 0.156602 -0.0487001 

