-0.491268 0.851118 1.08335 0.733433 1.29623 1.00899 -0.183933 -0.725338 -0.399605 -3.27907 0.413987 -1.23495 -1.0351 -0.894665 -1.03979 -1.27203 -0.921376 -0.511502 -0.320765 0.288795 -1.61496 -0.737556 -1.06196 1.07169 0.537385 0.685816 -0.15362 0.0368758 -0.173224 0.104321 -0.0853349 -2.19652 
-0.353123 0.0212147 -0.0147668 0.0180768 0.0142252 -0.0530495 -0.0133945 -0.00638211 0.0762297 0.0177636 0.00517416 -0.00534046 0.0179163 -0.00633426 0.0129117 0.0124482 -0.0319956 0.105812 0.00149621 0.00780578 0.113581 -0.0414155 -0.00564602 0.033871 
0.4372 -0.4951 0.565442 -0.0102358 -1.17317 -0.0199121 0.405076 0.0560477 -1.31526 0.186725 -0.123883 -0.21771 -0.146366 0.264067 -0.178434 -0.116565 
-0.0289678 0.00272572 0.0513015 0.0639592 -0.0348137 -0.100452 0.135675 0.24716 0.436706 0.194797 -0.0154182 -0.120397 0.339522 -0.272425 0.288597 0.0412916 0.110009 0.0699872 -0.195092 -0.171121 0.231209 -0.118488 -0.0712178 -0.204419 -0.356301 -0.224704 -0.679873 -0.170479 -0.0295366 -0.0556493 0.0865482 -0.360235 -0.504462 -0.202715 -0.381736 0.479776 0.0133315 0.327011 -0.0252362 -0.362329 0.134879 -0.255635 -0.343622 0.487265 0.339199 0.456185 -0.161703 0.587085 

