-0.316989 -0.462144 -0.0164145 0.040233 -0.049102 -0.212206 0.643511 0.935765 0.254685 0.893668 -0.392825 -1.49057 -0.45677 0.446037 -0.259314 0.557314 0.187592 -0.641257 0.866456 1.3332 -0.0882163 -1.08358 0.259168 0.232972 0.330121 -0.89083 -0.00826434 0.0342424 -0.0159212 -0.428474 0.609857 0.00179077 0.068896 1.77489 -0.864726 -1.09326 -1.18864 -0.12873 0.277482 0.546614 0.562633 -1.35631 1.03853 0.626269 0.421635 -1.11231 0.135047 0.656581 0.283662 -1.45133 -0.834239 -1.04205 -0.711215 0.194371 -0.784112 -0.0582074 -0.0347637 1.18664 -1.21274 -0.358854 -1.40965 0.216238 0.256523 0.969256 0.957127 -0.938351 1.40422 1.38662 0.137921 -0.480246 0.133459 0.05164 0.518576 -0.637109 -0.520801 -0.130914 -0.234682 1.05181 1.16528 -0.226975 -0.671831 2.67947 -0.461068 -0.90005 -0.295539 0.023166 -0.102754 0.390705 1.26121 -0.977639 0.84365 1.52957 -0.138803 -1.37403 -2.3636 0.849041 
0.123349 -0.480206 -0.24288 -0.422457 -0.209049 0.486118 -0.431727 0.156774 0.178539 -0.334925 -0.479474 -0.0717304 -0.329168 0.161645 0.43445 0.282298 -0.328297 0.34593 0.463425 -0.575882 0.0404398 -0.247119 -0.0644304 0.0319298 -0.303881 -0.129752 0.513671 0.336098 0.0206116 -0.0454644 0.106427 0.35362 0.427489 0.358352 -0.118299 0.00149512 0.358615 0.536159 -0.272891 -0.386772 -0.2185 0.538275 0.116813 0.381889 0.502415 -0.169316 0.101516 -0.336839 -0.192256 0.342562 -0.109186 -0.327195 0.447848 -0.0105951 0.0742277 -0.482506 -0.439307 0.0163222 0.312441 -0.417311 -0.50364 0.432458 -0.146931 0.407605 -0.0859681 -0.332349 -0.504859 0.453493 -0.264807 0.336688 0.0953037 0.0314623 
-0.135613 0.379909 -0.2467 -0.293255 0.285084 0.0926906 -0.27274 0.0459044 0.385664 -0.415603 -0.208096 -0.324307 -0.372066 0.146484 0.378681 0.556942 -0.237069 -0.284564 0.140089 -0.448048 -0.337565 0.427566 -0.5866 0.129304 -0.502389 0.571799 -0.560907 0.260967 0.190276 -0.00942844 -0.586025 0.288052 -0.387402 -0.24719 0.014726 0.0376578 -0.444088 0.364706 -0.33111 -0.449666 0.562626 -0.474637 0.114295 -0.493478 -0.53714 0.34451 -0.0210299 -0.234291 0.263822 -0.00182245 -0.0776956 0.0924298 -0.510635 -0.888859 -0.407938 0.236259 0.564822 0.34117 -0.0686752 1.00613 -1.01489 0.311943 0.799681 -0.347908 -0.746473 0.0429631 0.413157 0.391602 -0.980925 0.184053 0.990247 0.0835972 0.317457 -0.548388 -0.308426 -0.198114 -0.274476 0.523375 0.422564 0.510292 0.165573 -0.0623037 0.0986486 0.560777 0.320624 0.473744 -0.175415 0.342606 -0.052672 0.10734 0.415781 -0.220114 0.408918 0.206247 0.570342 0.492235 0.0169164 0.0825678 -0.446777 -0.138656 0.491577 0.54465 0.497507 -0.352009 2.86682 2.86001 2.85179 2.84512 -0.0298695 -0.257455 -0.255474 -0.597729 
-0.271666 0.196606 -0.110221 0.259977 -0.378873 -0.393578 0.835375 -0.391427 -0.160437 -0.400517 0.185991 0.321719 0.0437702 -0.274091 1.03678 -0.192118 -0.25351 -0.0278693 0.299059 -0.408697 -0.275413 0.512432 2.55911 -0.0361633 -0.44889 -0.381856 3.50222 0.0975641 0.486578 0.300465 -0.740882 0.0452652 0.438882 -0.466441 -0.989687 0.140927 -0.242902 0.0577072 0.441625 -0.24341 0.30236 -0.255765 0.654185 -0.485032 0.590834 -0.119952 -2.40638 0.535653 -0.13638 0.382294 1.49822 -0.408794 0.0789182 -0.104655 -0.0172057 0.413811 -0.22928 -0.233374 -1.34568 0.526984 0.126055 0.221176 1.87215 -0.367756 0.141778 0.252443 0.27304 0.312137 -0.128769 -0.531014 1.77895 -0.355775 -0.065027 0.21201 -1.43149 0.245413 -0.0306563 -0.483937 -0.0542208 0.122895 -0.384259 0.147904 0.209015 0.179609 -0.382365 0.582731 -2.27403 0.559047 -0.42441 0.242117 -4.47072 0.0672118 -0.370859 -0.310318 0.390023 0.172701 
0 0 0.1 0 0 0 0.1 0 0 0 0.1 0 0 0 0.1 0 
