
-0.35331 -0.70078 -0.678532 0.169621 0.522694 -0.0826878 -0.620443 0.260557 -0.749532 0.334805 -1.34899 0.703414 -0.631017 0.0218394 -0.0943202 -0.472202 1.11227 0.272849 -0.981593 -0.471331 0.0791437 -0.747431 -0.183383 -0.149376 -0.809477 0.40402 -0.654766 -0.0505938 -0.406358 -0.453715 -0.736593 0.642129 -0.205925 -0.511848 0.127097 0.116378 0.458071 -0.864341 0.408351 0.337733 -0.508476 0.218865 -0.717156 0.121547 -0.892238 -0.126552 -1.1509 0.217965 0.625722 -0.078222 -0.0844867 0.140684 0.0724877 -1.64694 -0.454236 0.321682 -0.800152 -0.445467 0.412749 -0.640231 -0.601495 -0.899991 -0.430363 -0.411032 0.105406 -0.53232 -0.874665 -0.837001 -0.254974 -1.24022 -0.969711 -1.01905 0.0851843 -0.0234518 0.269543 -0.317341 -0.459347 -0.414145 -0.710621 -0.320517 0.139634 -0.763501 -0.533159 -0.285225 0.467793 0.704123 0.0116756 -0.394779 0.433383 -0.0593867 -0.220751 0.118139 -0.736643 -1.05302 -0.457451 0.203064 -0.31242 0.283431 -0.348708 -0.474215 -1.17574 0.422751 -1.00033 0.324174 0.239177 -0.549148 -0.598109 -0.306019 -0.0430683 0.279469 0.0866508 0.165741 -0.529341 0.0384968 0.52702 0.325826 0.532782 -0.0346432 -1.28219 -1.39602 
-0.0908553 -0.0288566 -0.607644 0.00551718 -0.0884069 -0.22353 -0.593606 -0.21694 0.0179238 -0.00434581 0.0598581 -0.198751 -0.167401 -0.172827 0.0267937 -0.181586 0.170762 0.134826 -0.047398 0.097387 -0.118027 0.0794609 -0.0785274 -0.0990123 0.0624927 0.190937 -0.0676742 0.422963 0.163025 0.0812618 0.18266 0.0137965 -0.0224753 0.0549779 -0.0181282 0.00740822 -0.0557435 0.0348139 0.0109296 0.00345274 -0.00827306 -0.0483319 -0.066489 0.177209 0.329837 -0.0692082 -0.0549448 0.289942 0.0576138 -0.0273911 -0.319805 0.0189248 -0.191214 -0.0636275 -0.0374045 0.121442 0.0579205 0.23335 0.247956 -0.0304818 -0.300216 0.00131387 0.0923448 0.0638712 -0.0586841 -0.496944 0.216058 0.188882 -0.027834 0.13394 0.000296872 -0.0851035 0.14348 -0.766366 -0.401173 -0.227413 0.00320965 -0.236077 -0.0415977 0.0324939 0.189577 0.00647461 -0.0652735 -0.124266 0.0357219 0.108308 0.0695502 -0.0847513 -0.1498 0.152076 
-0.789622 -1.1998 -0.213894 -0.875618 -0.223154 -0.572613 -0.954466 -0.515168 -0.28015 -0.249072 -0.51781 -0.690671 -0.949115 -0.587526 -0.21951 -1.00262 -0.454839 -0.447632 -0.8285 -1.18193 -0.25843 -0.942409 -0.35762 -0.259066 -0.47576 -0.45444 -0.475831 -0.894451 -0.238865 -0.749216 -0.0269648 -0.00364575 0.160251 0.289245 0.674509 0.720736 -0.0627197 -0.261721 0.427533 0.186139 0.0392778 0.42194 0.00960653 0.354337 0.493944 -0.0793869 -0.0210072 0.323078 0.636943 0.175311 0.259161 0.272353 0.567577 0.547662 0.18504 0.12346 0.607915 0.535136 0.464638 0.597095 
0.0118377 -0.182943 -0.203878 -0.184239 -0.254547 0.337515 -0.663798 0.132382 -0.113445 -0.183372 0.290189 -0.148364 0.111935 -0.326783 -0.195545 -0.31752 0.47772 0.249967 0.306762 -0.240431 0.0201926 0.030548 0.176765 0.507392 -0.00378004 0.286537 -0.243542 -0.159395 0.280323 -0.234854 -0.181111 0.578995 -0.369223 0.372884 0.0210379 0.204035 0.17322 0.326714 -0.473932 -0.0693862 -0.483123 -0.242276 -0.42265 -0.879673 0.769101 0.22189 -0.213342 -0.026655 -0.141549 -0.221424 0.384018 -0.189367 -0.0282236 0.0107996 -0.155617 -0.409942 -0.0131234 -0.0601068 0.375781 0.681927 -0.148699 0.351065 0.0595939 -0.194984 0.613548 -0.475454 -0.281232 -0.357779 0.193508 0.200457 -0.261155 0.0616597 -0.638317 0.203248 -0.470703 0.172564 -0.329454 0.0484086 -0.128745 0.318642 0.180844 0.0700854 0.414054 0.425768 -0.186524 -0.160804 -0.511652 0.295556 -0.0305673 0.455884 0.0755085 0.0486358 0.0567095 -1.07172 0.0850846 -0.130189 -0.652872 0.026308 0.422744 0.465375 0.574451 0.456565 0.664277 -0.00330237 -0.367279 -0.412622 0.24339 0.358517 -0.0150223 -0.172468 -0.0230569 0.389721 0.0291452 0.149526 0.575394 -0.658336 -0.107985 0.00773949 0.0273419 -0.692324 -0.455851 0.281891 0.310099 0.162695 -0.215851 -0.401019 0.176578 -0.43396 0.428192 -0.160727 -0.288663 -0.472827 -0.130772 -0.222623 -0.0363421 0.208501 0.351416 -0.00916886 -0.196352 -0.371207 0.271481 -0.487851 0.0455375 -0.237688 0.48747 0.17433 -0.416702 0.499619 0.217549 -0.15439 0.328158 -0.10812 -0.280418 0.327777 0.479813 0.0651922 0.324655 -0.128308 -0.00526438 0.152432 0.259975 -0.440072 -0.177047 -0.368333 -0.111343 0.475385 0.155808 -0.0514155 0.0344165 0.287476 0.290733 0.00980165 0.16762 -0.260683 -0.225232 -0.0449046 0.118546 0.284569 -0.211117 0.357863 

