-0.159419 -0.435316 0.158691 -0.181752 0.353538 0.464159 -0.433021 0.211634 0.354832 -0.0420004 0.351432 0.0286495 0.497777 -0.525336 -0.57744 0.50967 -0.539729 0.0691637 -0.227546 0.00232017 0.100044 0.326907 0.117461 0.195916 -0.201553 0.432364 0.225774 -0.141924 0.372323 -0.294013 -0.53531 -0.0436147 0.125636 -0.474342 -0.429426 -0.474546 0.368677 0.557871 -0.0467153 -0.0653649 -0.0564939 -0.398119 -0.123134 0.331367 0.369037 -0.435823 -0.33872 -0.329931 0.0359308 -0.131441 0.152712 -0.21645 0.0275855 -0.227875 0.0511413 -0.510295 0.257098 0.0178618 0.341904 -0.258908 0.185745 0.502143 -0.15507 0.286408 0.184019 0.134962 -0.00972498 -0.416709 -0.337967 0.41635 -0.0163385 -0.308366 0.204884 0.0983451 0.225213 -0.428588 -0.196442 -0.459792 -0.396713 -0.547786 0.519517 -0.483309 -0.43032 -0.217813 0.361936 -0.358357 0.234194 0.264502 0.0182705 -0.179405 0.401104 -0.0999026 0.174708 0.349468 0.0271315 0.256186 
0.213575 -0.317261 0.103335 -0.50639 0.424976 -0.0749802 -0.500273 0.516078 -0.422642 0.373274 0.0294601 0.303917 0.113336 0.39962 0.0882242 0.276926 -0.472339 0.142573 0.274946 -0.165549 -0.31441 -0.587619 0.416707 -0.52898 0.475653 -0.522466 -0.150012 -0.348908 -0.165617 -0.39658 0.530328 0.279795 -0.336543 -0.0664739 -0.452899 -0.170159 0.533175 -0.573215 0.451761 -0.223219 -0.123492 -0.207414 -0.0300562 -0.256783 0.372678 0.0765945 -0.41007 0.58955 -0.325543 0.409419 -0.313716 0.288604 -0.411298 -0.149265 0.0149119 -0.467627 0.159505 0.451139 0.326792 0.404325 -0.345686 -0.0945942 0.339789 0.543209 0.473537 0.153332 0.416789 -0.249685 -0.102583 0.327257 0.260432 0.287217 
-0.0235739 -0.521928 0.110383 -0.335747 0.0777741 -0.35099 0.0478337 0.416397 0.138978 0.537215 -0.0793294 0.199653 -0.283785 0.338504 0.381074 -0.369331 -0.2453 -0.279969 0.398648 -0.571233 0.515758 0.526765 0.352974 -0.205911 -0.340575 0.0257207 0.128359 -0.268583 -0.117639 0.296457 0.47672 0.13915 -0.207734 0.00453901 -0.598015 0.441922 -0.467038 -0.435302 0.065574 0.252088 -0.575065 -0.587328 0.215224 -0.0797763 0.184852 0.359239 -0.277984 0.240571 0.286294 -0.519543 -0.00766102 0.00506228 0.299881 -0.327903 -0.359056 -0.551417 -0.445204 -0.358399 -0.581528 0.11729 0.103083 -0.127277 0.596878 0.00704706 -0.465668 -0.194941 -0.194357 0.114157 -0.101987 -0.333465 -0.568855 -0.267486 0.453398 -0.542425 0.356117 0.329063 -0.180078 -0.508647 -0.113901 -0.493504 -0.329309 0.566416 -0.296758 -0.0265418 -0.249186 -0.38763 0.597718 0.347535 -0.167696 0.194436 0.358822 -0.496626 0.347285 -0.499252 0.1083 0.379101 
