-0.409494 0.317798 -0.317914 -0.131657 0.502236 -0.418865 0.474914 -0.35015 0.586437 -0.0612534 0.0190027 -0.413631 0.459665 0.403949 -0.448332 0.0366199 0.23117 -0.378803 0.596765 -0.403671 0.269842 0.54451 -0.0988858 -0.38225 -0.594553 0.356102 -0.387262 -0.00327214 -0.0542713 -0.510145 -0.42959 0.58099 0.182645 -0.193736 0.189641 -0.0860642 0.314094 0.581259 0.0556304 -0.551475 0.414932 -0.192875 0.282393 0.555747 0.563252 0.445484 -0.430775 -0.460429 -0.0493094 -0.366794 0.109807 0.0222926 -0.114109 -0.310254 0.30694 -0.368046 -0.426942 -0.520167 0.491643 -0.171797 0.291513 0.348691 0.416571 0.241874 -0.272709 0.39075 0.127545 -0.328261 -0.503207 -0.247346 -0.102303 -0.0392093 0.332702 -0.224401 -0.32919 -0.0591427 0.202908 0.307891 -0.462292 -0.159644 0.304235 0.220833 0.487345 -0.511395 -0.5592 0.278863 -0.198482 0.0230565 -0.430083 0.240199 -0.416866 -0.544007 0.0737908 -0.503821 0.537734 0.448921 
0.554504 -0.424299 0.4159 -0.0565551 -0.100808 -0.430966 0.242825 0.595479 -0.435296 -0.217546 -0.368625 -0.349787 -0.540199 0.151782 -0.159908 -0.415605 -0.574508 0.312072 0.499767 -0.574804 0.111415 0.485717 -0.244775 0.316704 0.288082 -0.504794 -0.508028 -0.324894 -0.053156 -0.0899044 -0.145394 -0.0492151 0.448482 0.588054 0.542558 -0.481742 0.534158 -0.122397 0.376795 0.545829 0.188654 0.184132 0.348836 -0.46871 -0.237334 0.0128786 0.0726794 -0.375539 -0.581162 0.409588 0.091981 0.28831 0.344303 0.441097 0.28658 -0.412305 -0.474571 0.0862196 -0.225699 -0.130492 -0.0385204 0.236585 -0.416571 0.0935248 0.548131 -0.101084 -0.252602 -0.264548 -0.321991 -0.203733 -0.269574 0.208029 
-0.0467107 -0.0151757 0.248948 -0.369757 -0.480693 -0.0134879 0.0772901 0.0522759 -0.0885252 -0.43986 0.546232 0.508607 0.234416 -0.56821 0.580536 0.172871 0.320804 -0.529456 0.0883484 -0.355808 -0.120839 -0.0889046 -0.483017 0.381139 0.0645529 0.136719 -0.0693465 0.27444 -0.421626 0.30344 -0.113721 0.424688 0.183566 -0.57711 -0.161851 -0.0408896 -0.336169 0.564842 -0.343749 -0.066175 -0.442305 -0.030248 -0.299213 0.207656 0.230704 0.556451 0.563371 0.0284579 
0.146938 -0.0942277 0.237462 0.0215842 0.541279 -0.0836495 0.0884988 -0.514688 0.051348 0.34509 0.0978721 -0.129528 0.0931693 0.0227554 -0.453061 -0.587394 -0.220572 -0.120278 -0.236433 0.114083 -0.0400452 0.126229 0.103127 -0.0719055 -0.54772 -0.548787 0.535578 -0.287122 -0.586156 -0.573341 0.269339 -0.248455 0.223786 0.0675077 -0.580522 -0.583407 -0.515931 0.102561 0.280668 0.41075 0.578686 0.119829 -0.307905 -0.101515 0.204322 0.446935 -0.1008 -0.21984 -0.25968 -0.537484 -0.193103 -0.0861225 0.151556 0.172108 -0.256692 -0.165937 -0.461853 0.460779 -0.074141 -0.550501 -0.538876 0.286302 0.474404 -0.0666447 0.309251 0.256178 0.445869 -0.48527 -0.391309 0.439465 -0.554312 -0.258406 0.0308763 -0.109376 0.32134 0.432555 -0.2024 0.596498 0.508385 -0.078373 -0.0905225 -0.00897861 0.217796 0.0849019 0.275068 0.0287714 0.182119 -0.241586 -0.594745 -0.542378 0.194687 -0.203969 0.388639 -0.299727 -0.126026 -0.0692291 -0.195898 0.482285 -0.482629 -0.462904 -0.160844 -0.246311 -0.578102 -0.032813 0.29949 -0.10449 -0.566157 0.14972 -0.104129 0.497958 -0.278926 0.299612 -0.480845 0.267091 0.366344 -0.262886 -0.26632 0.321509 0.233239 -0.0334187 -0.305562 -0.229043 0.046558 -0.382619 0.584784 0.287656 -0.288969 -0.109887 -0.142692 0.583724 -0.116731 -0.578665 0.0911916 -0.476649 0.371186 -0.321838 0.317331 0.0678934 0.140691 -0.491865 -0.295459 -0.0108066 0.432062 0.525202 

