-0.3711 0.357115 -0.36087 -0.194871 0.530443 -0.439645 0.191809 -0.324951 0.636914 -0.0555192 -0.0165402 -0.258221 0.291047 0.444696 -0.371087 0.0850647 0.178863 -0.310103 0.412217 -0.186653 0.247812 0.510011 -0.242622 -0.460686 -0.598952 0.318701 -0.333582 -0.1575 -0.0244064 -0.501681 -0.519175 0.652163 0.043347 -0.0615867 0.0831902 -0.0154298 0.260406 0.628582 0.151571 -0.354126 0.388604 -0.0245645 0.24423 0.66557 0.672869 0.313925 -0.437152 -0.568453 0.204545 -0.177077 0.0816691 -0.551345 -0.176849 -0.385645 0.549696 -0.309942 -0.542345 -0.382983 0.326487 -0.0997948 0.315204 0.44604 0.290128 0.371404 -0.0584981 0.251189 0.30893 -0.0188871 -0.439065 -0.118791 -0.210876 -0.137207 0.367459 -0.324265 -0.308122 -0.482795 0.183909 0.312191 -0.329025 -0.193348 0.12288 0.383475 0.243059 -0.368244 -0.46595 0.286889 -0.320997 0.255385 -0.378179 0.258695 -0.269573 -0.43635 0.203593 -0.555632 0.419688 0.383191 
0.465444 -0.275724 0.488385 0.044441 -0.17705 -0.276354 0.0801791 0.006612 -0.128169 -0.0278903 -0.39561 -0.297897 -0.340944 0.109579 0.0924167 -0.402971 -0.229639 0.202976 0.182907 -0.266354 0.251282 0.276216 -0.0953699 0.403418 0.217448 -0.175088 -0.298792 0.00990396 -0.0149438 -0.14034 -0.0485657 -0.054452 -0.0198112 0.129682 0.33903 -0.131152 0.30288 -0.0724394 0.220198 0.30783 0.0191969 -0.0491164 0.146067 -0.1581 -0.278074 -0.0538913 0.0237878 -0.322511 -0.345406 0.288807 0.179316 0.0886648 0.254799 0.39649 -0.00402201 -0.0342959 -0.0151417 0.16202 -0.0667964 -0.0973914 -0.0855366 0.00387629 -0.0548277 0.00174323 0.161218 -0.0262781 -0.200827 0.0113247 -0.0877497 -0.0341157 0.0610951 0.183314 
-0.0323466 -0.101244 0.173268 -0.39527 -0.352381 0.00917225 -0.0593702 0.0470563 -0.147762 -0.264283 0.475629 0.517527 0.145445 -0.517471 0.536489 0.250022 0.178922 -0.302558 -0.0400432 -0.238646 -0.0117657 -0.328204 -0.417077 0.303085 0.0374072 0.0878604 -0.0447995 0.171633 -0.381053 0.288373 -0.169036 0.260742 -0.0117094 -0.437306 -0.208914 -0.0683175 -0.310437 0.603781 -0.370299 -0.112547 -0.497905 -0.0129653 -0.271008 0.168431 0.312727 0.452328 0.4124 0.0236134 
0.16268 -0.023506 0.0259638 -0.186187 0.323347 -0.0689018 0.020412 -0.368193 -0.0509547 0.244396 0.00115786 -0.181512 -0.128727 0.0287985 -0.740813 -0.487499 -0.131739 -0.0963927 -0.145311 0.155618 0.0517059 0.0478297 0.0785013 0.0819837 -0.235787 -0.729302 0.723574 -0.412435 -0.772144 -0.307461 0.00325846 -0.120314 0.491207 -0.00829294 -0.513934 -0.442832 -0.171027 0.162876 0.122637 0.163644 0.422474 0.0034963 -0.159039 0.107903 0.0172536 0.134506 -0.205532 -0.193838 -0.0801866 -0.287909 -0.274853 0.00625725 0.177404 0.410692 0.192975 -0.00293806 -0.250119 0.207791 0.110683 -0.487306 -0.454775 0.191332 0.392831 -0.0528119 0.174644 0.248367 0.16266 -0.214316 -0.218491 0.313464 -0.394938 -0.200443 0.0627052 0.0106041 0.237391 0.171826 -0.282894 0.223383 0.351939 -0.0655465 -0.192919 0.0801035 0.15872 0.161211 0.289828 0.0538829 -0.00252615 -0.209908 -0.415196 -0.477172 0.380414 -0.0192096 0.0286908 -0.340278 -0.108926 0.190363 -0.195898 0.482285 -0.482629 -0.462904 -0.160844 -0.246311 -0.578102 -0.032813 0.29949 -0.10449 -0.566157 0.14972 -0.104129 0.497958 -0.278926 0.299612 -0.480845 0.267091 0.366344 -0.262886 -0.26632 0.321509 0.233239 -0.0334187 -0.305562 -0.229043 0.046558 -0.382619 0.584784 0.287656 -0.288969 -0.109887 -0.142692 0.583724 -0.116731 -0.578665 0.0911916 -0.476649 0.371186 -0.321838 0.317331 0.0678934 0.140691 -0.491865 -0.295459 -0.0108066 0.432062 0.525202 

