-0.154176 -0.512295 0.551262 -0.0988412 0.279914 0.666362 -0.397471 0.311912 0.332516 -0.10413 0.364921 0.0995774 0.480317 -0.513507 -0.837619 0.535637 -0.645075 -0.116811 -0.123172 -0.429154 0.158265 0.558793 0.167573 0.197018 -0.199995 0.35697 0.636707 -0.0587396 0.299828 -0.0862003 -0.501578 0.0636944 0.105329 -0.540449 -0.418267 -0.40143 0.351021 0.563574 -0.31477 -0.0316609 -0.168156 -0.598164 -0.0111029 -0.118433 0.428405 -0.192164 -0.287343 -0.327913 0.035492 -0.206504 0.573254 -0.133782 -0.0428957 -0.0198673 0.0838707 -0.396663 0.239374 -0.0478331 0.353353 -0.185417 0.167236 0.503576 -0.425934 0.32476 0.0699194 -0.0735771 0.107031 -0.877783 -0.277672 0.668462 0.035582 -0.308098 0.202996 0.0267155 0.660453 -0.349507 -0.26148 -0.253609 -0.367058 -0.424377 0.50513 -0.547042 -0.416322 -0.148138 0.343908 -0.362394 -0.0413285 0.309015 -0.100701 -0.40229 0.529125 -0.573242 0.231538 0.617051 0.0766563 0.255868 
0.213575 -0.317261 0.103335 -0.50639 0.424976 -0.0749802 -0.500273 0.516078 -0.422642 0.373274 0.0294601 0.303917 0.113336 0.39962 0.0882242 0.276926 -0.472339 0.142573 0.274946 -0.165549 -0.31441 -0.587619 0.416707 -0.52898 0.475653 -0.522466 -0.150012 -0.348908 -0.165617 -0.39658 0.530328 0.279795 -0.336543 -0.0664739 -0.452899 -0.170159 0.533175 -0.573215 0.451761 -0.223219 -0.123492 -0.207414 -0.0300562 -0.256783 0.372678 0.0765945 -0.41007 0.58955 -0.325543 0.409419 -0.313716 0.288604 -0.411298 -0.149265 0.0149119 -0.467627 0.159505 0.451139 0.326792 0.404325 -0.345686 -0.0945942 0.339789 0.543209 0.473537 0.153332 0.416789 -0.249685 -0.102583 0.327257 0.260432 0.287217 
-0.0605656 -0.374208 0.0251909 -0.155665 0.355489 -0.315581 0.0741091 0.343131 0.671218 0.912174 0.340186 0.894333 -0.175954 0.197095 0.299084 -0.470796 -0.098346 -0.27578 0.43066 -0.0876827 0.358609 0.443192 0.231322 -0.0338619 -0.0810872 0.0631471 0.102619 -0.350599 -0.222869 0.28171 0.210863 0.255854 -0.0571581 0.224218 -0.344067 0.472019 -0.456539 -0.261643 -0.0587084 0.027112 -0.384959 -0.481702 0.117359 -0.038335 0.22664 0.548482 -0.42007 0.1991 0.113817 -0.304759 -0.0297688 0.0634665 0.2551 -0.243094 -0.369766 -0.289469 -0.315472 -0.129649 -0.56041 -0.217634 0.12197 0.232798 0.40568 -0.010922 -0.355946 -0.120258 -0.256087 -0.0524088 -0.178653 -0.262231 -0.650232 -0.258336 0.541655 -0.0788664 0.450694 0.283079 -0.665974 -0.973435 -0.656574 -0.547287 -0.167434 0.634052 -0.33696 -0.119186 0.192963 0.139756 0.758673 0.317365 -0.160498 0.365123 0.170769 -0.349156 0.537765 -0.235501 0.0530757 0.112278 
