
0.334479 -0.329761 -0.0139729 -0.150128 -0.447202 0.157967 -0.0974804 0.128611 -0.239671 -0.138598 0.306231 0.426596 0.416406 0.369367 0.155949 0.207832 -0.42816 -0.198856 -0.436391 -0.156077 -0.00796493 -0.349718 -0.281236 -0.112508 -0.361113 -0.0460991 0.218011 -0.157384 0.460979 -0.0199742 -0.000622333 -0.146852 0.196382 0.00075366 -0.455123 -0.19742 -0.266709 -0.429814 -0.302552 -0.353524 0.222473 0.281482 0.132224 -0.0369094 -0.0694321 0.347429 -0.343896 0.479394 
-0.0406682 0.398781 0.242081 -0.0670222 -0.347504 -0.441514 0.442244 -0.438141 -0.0673526 0.106614 -0.298402 -0.309017 -0.236441 0.467222 0.452594 0.306031 0.198336 0.0451604 0.0612394 0.201479 -0.363134 -0.276906 -0.139329 -0.436732 0.201867 -0.254498 -0.162797 -0.316132 -0.353798 0.212341 -0.255735 0.296306 -0.453034 -0.101238 -0.470249 -0.246551 -0.382702 -0.101842 -0.49759 0.433731 -0.420908 0.260352 -0.312254 -0.100938 0.116515 0.252816 0.413939 -0.0647517 0.0647024 0.0994462 -0.0553709 0.15346 -0.414171 0.162459 0.459398 0.203889 -0.429402 -0.197814 -0.378977 -0.248986 -0.318108 0.374113 -0.466415 0.490099 -0.0512178 -0.222957 0.343712 -0.259065 0.200426 -0.0154095 0.19221 -0.287153 
-0.22104 -0.436408 0.168905 0.16774 -0.187127 -0.132289 -0.0729519 0.0327225 0.414326 -0.451228 0.39592 -0.183675 -0.424734 -0.0376462 0.422354 -0.077179 0.211935 -0.379472 0.362296 0.395889 0.118214 -0.149042 -0.353066 -0.422578 -0.1838 0.446944 -0.364799 -0.2515 -0.355417 -0.177874 -0.358744 0.459481 0.255081 0.211629 -0.0401931 -0.0548664 -0.136834 0.476695 -0.450474 -0.202728 0.261098 -0.263935 -0.283478 -0.0781657 0.325679 0.332652 -0.328258 0.0656611 0.148229 -0.264635 -0.239339 -0.216905 0.07262 0.315872 -0.131221 -0.428067 -0.0394796 0.458391 0.344273 -0.234577 0.387787 0.0544531 -0.340933 -0.190468 -0.271142 -0.434787 -0.140142 0.195172 0.205794 0.333995 0.376318 0.265552 -0.154526 -0.37854 0.257792 -0.453178 -0.472488 -0.0753349 -0.376148 0.270975 0.0809012 -0.253735 -0.0591215 0.331093 -0.307489 0.366914 -0.228544 -0.252808 -0.424096 -0.439294 -0.485621 0.2892 -0.0939784 -0.217813 -0.211827 0.20776 0.0509003 -0.196302 0.44968 -0.181802 0.401399 0.289484 -0.411569 -0.316761 -0.340757 0.301645 -0.265029 -0.129762 0.436733 -0.287979 0.26588 0.477359 0.493967 0.0417549 -0.0868033 -0.300414 -0.204846 -0.0603422 0.159191 0.336306 

