
-0.23025 -1.26776 2.00642 -2.40189 0.448209 0.123966 -1.74049 -0.95663 -2.24098 -1.33036 1.67889 0.739426 0.978733 0.242572 -0.308138 0.821063 -1.66004 1.21369 -1.52656 0.300665 -1.02206 1.64096 -1.81837 1.39032 0.469248 -0.492236 0.0358272 2.27245 0.418211 -1.67363 -1.11771 -0.944642 0.0725682 0.274116 -0.958389 -1.21634 -1.27663 -0.566757 -0.293906 -1.10327 -0.148936 0.13531 -0.77472 0.721868 -1.18801 0.00308244 -0.001691 0.931004 
-1.03478 0.253249 -0.426282 -1.45747 1.79775 -0.678416 2.43764 -0.650211 -1.14527 0.314873 1.08164 2.68063 -0.641107 0.356837 -2.2251 -3.99731 -1.06585 -0.155262 0.45327 -0.249068 -0.868967 -0.393408 2.21005 1.26086 -1.74237 -1.2501 -0.71998 -1.10981 -0.122684 -1.30577 -3.09274 -2.66632 -1.88139 0.505705 -0.198102 1.31172 -2.26888 -0.353374 1.89236 3.60022 -0.227027 0.970477 -1.83185 -3.90107 -0.528597 -0.0403314 2.015 0.703815 0.609508 0.169168 -1.64939 -2.55441 -0.497251 1.921 3.15916 0.705048 -1.68537 0.366987 2.95219 1.47079 0.179266 -0.0545311 0.220464 -0.450368 0.802388 -1.02705 1.93257 -0.191012 0.0384456 -1.32963 0.0817809 0.115227 
1.05698 0.811628 -0.202814 -1.90954 -0.556042 1.25343 -1.37321 -0.633034 0.794405 0.280169 -0.125129 -0.813828 -0.0194891 -0.110435 0.67425 0.353485 -0.137143 -1.35664 2.41057 2.28073 -0.0413139 0.00447741 -1.13854 -1.76781 -0.339645 -0.135738 -2.87728 1.04975 0.0796672 -0.22807 -1.01659 1.53529 -0.520166 -0.555443 0.71565 -1.33601 -1.14282 1.76425 -0.876645 -0.136284 0.0128212 -0.84299 -1.85687 -0.7721 0.934743 1.20691 0.714289 0.40973 0.148229 -0.264635 -0.239339 -0.216905 0.07262 0.315872 -0.131221 -0.428067 -0.0394796 0.458391 0.344273 -0.234577 0.387787 0.0544531 -0.340933 -0.190468 -0.271142 -0.434787 -0.140142 0.195172 0.205794 0.333995 0.376318 0.265552 -0.154526 -0.37854 0.257792 -0.453178 -0.472488 -0.0753349 -0.376148 0.270975 0.0809012 -0.253735 -0.0591215 0.331093 -0.307489 0.366914 -0.228544 -0.252808 -0.424096 -0.439294 -0.485621 0.2892 -0.0939784 -0.217813 -0.211827 0.20776 0.0509003 -0.196302 0.44968 -0.181802 0.401399 0.289484 -0.411569 -0.316761 -0.340757 0.301645 -0.265029 -0.129762 0.436733 -0.287979 0.26588 0.477359 0.493967 0.0417549 -0.0868033 -0.300414 -0.204846 -0.0603422 0.159191 0.336306 

