
1.07479 -0.988784 -1.50306 -0.0164082 0.453181 -2.26367 -0.49273 0.734845 0.332983 0.715745 0.637846 1.53872 0.834278 1.00481 0.98537 -0.169826 -0.286011 -1.29265 -0.426125 -0.0115882 -3.34202 -1.12703 0.174304 -0.559512 -0.920915 0.731436 0.0668889 -0.862611 -0.400166 0.466455 -2.12462 0.912216 0.54923 0.194731 2.5296 -1.75872 0.738166 1.83389 0.0516442 1.52029 0.176419 -0.748542 -0.641556 1.15652 1.05186 -1.54167 -1.43092 -0.403555 
-0.0897686 -0.0629536 -0.0458604 0.0567025 -0.116264 -0.0281726 -0.0523849 -0.0640427 -0.0447101 -0.0697327 -0.0144505 -0.0342069 -0.0439148 -0.0905755 -0.0240534 0.0356205 -0.227276 -0.0195766 0.0366441 0.05527 -0.00768381 -0.143204 0.0434409 -0.0309429 0.0153984 0.0166082 0.00207595 0.044676 0.0256612 0.00110024 0.0645566 0.0411247 0.00957672 0.024853 -0.00255004 -0.00259806 
-1.4251 -0.385236 -0.818921 -0.386442 0.0844148 0.0249902 -0.102204 0.0568625 -1.11765 -0.0365546 -0.51534 0.0649065 -0.772633 -0.545246 -1.01454 -1.47758 -0.197856 -0.877036 -0.161979 -0.0325368 -1.45973 -0.423046 -1.45578 -0.904926 -0.881177 0.370347 0.131989 -0.732024 -0.0536326 0.666151 0.403646 -0.205848 -0.092854 0.226492 -0.683199 0.852691 0.563727 0.636311 -0.15098 -0.698224 -0.139784 -0.260229 0.333205 0.464564 0.404104 0.325531 -0.146161 -0.211998 
0.338415 0.48364 -0.643011 -0.387293 -0.18801 0.371748 0.301788 0.694298 -0.938681 0.636076 -0.393497 -0.222501 0.144255 -0.0527394 0.0269567 0.626502 0.0155021 0.149809 -0.0119755 0.311515 -0.967776 -0.409929 -0.0280827 -0.342364 -0.251845 0.0495974 -0.481078 -0.370908 0.532287 -0.0503452 0.606933 0.451237 0.0993894 -0.97768 0.215201 0.544947 0.188837 -0.361645 0.256223 -0.678628 0.522118 0.343217 0.892015 -0.422378 0.507769 0.0397961 -0.80566 -0.081408 -0.436114 0.156971 0.336762 -0.6757 0.289089 -0.570846 0.0178934 -0.102753 0.730987 0.779839 -0.574807 0.320012 0.977046 0.749264 0.234341 -0.445064 0.832014 -0.218231 0.228041 -0.74055 0.215536 0.660852 -0.0644286 0.583216 0.128274 0.836829 0.377776 0.822978 0.263338 0.266318 0.791927 0.416421 -0.769364 0.280926 -0.77534 -0.98763 0.362203 0.958513 0.108763 0.602817 -0.736796 0.568088 0.768973 0.165685 0.268042 -0.723162 -0.943326 -0.205862 

