0.69882 -0.84861 0.853645 -0.198561 -0.621009 0.856414 -0.419871 -0.134761 -0.414968 -0.371127 -0.690933 -0.337127 0.4964 0.141104 -0.86813 -0.338717 -0.971047 -0.280154 1.02622 0.95788 
-0.820243 -0.0288905 -0.503718 -0.311797 0.333423 0.729381 -0.320162 -0.111902 -0.959738 -0.952422 -0.931009 0.570752 -0.242412 0.05593 0.0041828 0.642722 0.135411 0.196317 -0.103349 -0.0513592 0.777085 0.00706518 0.783837 -0.375908 -0.680801 -0.726901 -0.152543 0.489703 0.62916 -0.882587 -0.685539 0.309158 0.758767 -0.580178 0.752847 0.6383 -0.921023 -0.0109831 0.0118423 0.385222 0.465621 0.0929535 -0.733371 1.00073 -0.308081 0.407496 -0.950776 0.549058 -0.792882 0.384898 0.255031 -0.85029 0.861363 -0.590365 -0.180083 -0.0496713 0.914394 0.267608 -0.0414427 0.11572 
-0.64976 -0.273948 -0.51032 -0.19664 -0.788117 -0.746395 0.463181 0.143423 -0.521525 0.784307 -0.861246 -0.844146 -0.166141 0.783877 -0.0893991 -0.292528 -0.959644 0.20493 0.35894 -0.64339 0.140006 0.737712 -0.113385 0.212509 0.789142 -0.785667 0.542908 0.758043 0.100309 0.278366 -0.873208 0.916705 0.901772 -0.579249 0.136572 0.841219 -0.362746 0.130551 0.574245 0.744787 0.534604 0.460635 -0.981228 -0.896274 0.532341 -0.728798 -0.642628 -0.119518 0.139322 0.794286 -0.0633434 0.516786 -0.367422 -0.356831 -0.870624 -0.0882142 0.887353 -1.03571 0.119414 0.25413 0.589369 -0.518383 0.470559 0.87796 0.182719 0.189426 -0.0123399 -0.392492 -0.518764 0.909052 0.66168 -0.563582 0.279486 -0.339038 -0.94176 -0.505749 -0.0269097 -0.241169 1.04022 0.0124546 -0.298544 0.613547 -0.363176 -0.654546 0.219086 0.303086 0.144208 -0.743696 -0.418768 0.146747 0.317998 0.105303 -0.104615 0.0272906 0.614455 0.758712 -0.7036 0.563833 -0.164189 -0.598233 
0.155621 0.816043 -0.878284 -0.576849 -0.257925 0.15385 0.563112 0.533097 -0.698464 0.165555 0.815943 0.813062 0.979926 0.0731364 0.560806 -0.939796 0.0727916 -0.620421 0.306909 0.545638 0.649208 -0.430268 -0.694203 -0.392241 0.365105 0.579986 -0.799494 0.428755 -1.01647 -0.249087 -0.918281 0.375707 -0.967046 0.976243 -0.041114 -0.721711 -0.500171 -0.651239 -0.480382 0.794986 0.454432 0.753268 -0.662902 0.0514692 0.35792 0.0726203 0.802216 0.338716 -0.243552 -0.152082 -0.414054 -0.540519 -0.515925 0.749943 0.92977 -0.343512 -0.0930422 -0.851938 0.154965 0.759544 -0.807409 -0.0475109 -0.151734 -0.740432 0.236961 -0.204277 -0.725734 -0.721527 0.728987 -0.00739781 0.393167 -0.0453344 0.235279 0.44197 0.109185 0.752856 -0.408293 0.4246 -0.517033 0.887427 -0.886269 0.843449 -0.504859 0.0781339 0.00294306 -0.0419034 0.040201 -0.397561 0.523211 0.0505518 0.21231 -0.137815 0.946221 -0.166415 -0.610008 -0.936163 0.310694 -0.830474 0.456921 -0.925222 0.925713 -1.49106 0.318461 -0.757589 1.2097 -0.169666 0.116313 0.15336 -0.710202 0.582903 -0.247978 -0.0240297 -0.417455 -0.676908 -0.442462 0.967779 0.0356363 0.907201 1.39368 -0.665339 
-0.198211 0 -0.700515 0 0 0 -0.131683 0.917516 0 0 0 0 0.667596 0 0 0 0 -0.571658 0.276363 0 0 0 0.972808 0 -0.160895 
