0.0723694 0.419382 0.48403 -0.284147 -0.523199 -0.103588 -0.13403 -0.0043989 0.0525947 0.124523 0.404282 0.302893 -0.490022 -0.00332784 -0.421047 0.309569 0.134226 -0.267891 0.174944 -0.0573838 -0.472149 0.225329 0.593324 -0.519757 -0.365167 -0.559939 0.440184 0.263674 -0.273996 -0.144281 0.265273 0.493018 0.185268 -0.44686 -0.183431 -0.570895 0.117297 0.281163 0.408016 0.50897 -0.25226 -0.181056 0.510185 -0.53203 -0.128023 0.00855331 -0.479865 0.379694 
0.214469 -0.489119 -0.0701744 -0.404902 0.137714 -0.409691 0.0622861 0.215426 0.20875 -0.0883576 -0.308664 -0.181231 -0.244892 0.0872175 0.553187 0.463372 0.35639 0.484241 0.00876448 -0.582682 -0.166113 -0.0858694 -0.4714 -0.360519 -0.472567 -0.0168475 -0.441904 0.153697 0.221668 -0.193065 -0.567736 0.436546 0.556681 0.585786 -0.259106 0.428111 
0.401922 0.381299 0.364405 0.113715 0.00106129 0.0924281 0.142318 0.494067 0.37014 0.0111289 -0.254728 0.490532 0.169307 0.560018 0.244671 -0.097881 -0.264617 -0.114697 -0.445286 0.174583 0.511385 -0.0211101 -0.0321902 0.259403 
-0.0464047 -0.45143 0.440386 0.260547 -0.418132 0.476292 0.539705 -0.3218 0.388002 0.463313 0.459486 0.335083 0.294489 0.149631 -0.414342 -0.142664 0.000637366 -0.388325 -0.0924852 0.182099 -0.572517 -0.0442584 0.350018 -0.50234 0.1226 -0.565066 0.445061 0.418531 -0.197441 0.353993 0.46111 0.330669 0.19679 0.110456 0.531887 0.573952 -0.0961007 0.529001 0.233063 0.281844 -0.237423 -0.0714238 0.155599 -0.119699 -0.0388056 -0.119404 -0.0674761 -0.414373 -0.362414 0.438142 -0.0847651 -0.284658 0.53962 0.176526 0.348042 0.370028 -0.155764 0.548405 -0.131804 -0.267874 -0.371362 -0.297448 -0.315378 0.208952 -0.192099 0.0103254 -0.511876 -0.562365 -0.129719 -0.533712 0.315416 -0.407576 

