-1.21092 -0.485371 -0.00423276 -1.4826 -0.533922 -2.00906 0.643579 0.610428 0.0159259 0.234902 0.0441019 2.53912 -1.59706 0.728093 0.842394 1.06935 -0.0180271 -0.605903 1.10355 0.0538816 -2.68914 1.93949 3.90535 0.458418 0.0500837 0.40962 0.918261 0.738225 -0.408138 1.36985 -1.22425 0.927964 0.983284 -0.270521 -0.500965 -1.83692 0.402575 0.1784 0.580821 -0.743632 -0.299632 -1.11246 1.9743 -0.998078 0.0342176 0.20798 -2.07127 1.18654 
-0.664919 0.0788354 -0.000218754 -1.41576 -0.0052517 -1.15892 -0.032948 0.993629 0.0947237 0.0521672 0.031735 0.385656 0.241703 -0.000182096 0.00745463 0.323751 0.0144448 0.293814 0.0149673 -0.325728 -0.0268247 0.103209 -0.0414724 -0.109154 0.14811 0.0866479 -0.0730204 -0.0248158 0.000586008 0.0694487 -0.0568918 -0.11208 0.0940631 0.335385 -0.237131 0.0155169 
0.375954 -0.144491 0.124694 -0.767785 -0.144676 -0.566963 0.214716 -0.420901 -0.39256 -0.858893 0.292661 0.2976 -0.145099 0.112245 0.224856 0.314175 0.00528161 -0.169113 0.0890461 -0.534528 0.30261 0.04099 -0.475315 0.855719 
-0.108651 -0.25944 0.505498 0.162787 -0.776645 0.170575 0.0389568 0.301172 0.0556303 0.0491832 0.546394 -0.0643608 -0.0384597 -0.105153 0.405666 0.16908 -0.885479 -0.168773 -0.537004 -0.315798 0.102652 0.149877 -0.470815 -0.298758 -0.0859091 -0.101527 -0.0333404 0.581836 -0.00245303 -0.111475 0.33225 0.0405924 0.026024 -0.370423 0.353701 0.406821 0.237284 0.0162549 0.0760583 -0.0121719 0.029479 -0.116265 0.192545 0.12634 0.134888 -0.0283411 -0.0207237 -0.234741 -0.362414 0.438142 -0.0847651 -0.284658 0.53962 0.176526 0.348042 0.370028 -0.155764 0.548405 -0.131804 -0.267874 -0.371362 -0.297448 -0.315378 0.208952 -0.192099 0.0103254 -0.511876 -0.562365 -0.129719 -0.533712 0.315416 -0.407576 

