-0.240532 -0.113004 -0.505241 -0.607914 -0.134495 -0.735988 0.865812 -0.186108 0.666299 -0.481413 -0.896579 0.484518 0.492558 0.603095 0.281989 0.856009 -0.586116 0.890689 -0.845307 0.801581 0.0518418 -0.761906 -0.505339 -0.702989 0.83304 0.51034 -0.958745 -0.387408 0.659857 0.723898 0.243907 0.833258 0.00824767 -0.937835 -0.128074 0.832701 0.879198 -0.961918 -0.97725 0.405636 0.828524 0.282767 0.968881 0.172644 -0.799988 -0.52809 -0.108626 0.285205 -0.629858 0.902882 0.664762 0.809637 0.19617 0.827305 -0.39845 -0.361894 -0.840717 0.207164 -0.976936 -0.316972 -0.789223 0.421201 -0.23247 0.66924 -0.924397 0.945817 -0.510384 0.989234 0.0507097 -0.876156 0.615964 0.872976 -0.414076 -0.346131 0.00971793 -0.812479 0.860754 0.66463 0.298623 0.57336 -0.446705 0.0133458 -0.504493 -0.649977 0.75657 0.468907 -0.904119 0.522307 -0.067529 0.99411 0.639211 0.294139 -0.345063 0.520083 -0.649331 -0.289106 
0.113729 0.0252492 -0.823596 -0.609309 -0.52134 -0.832511 0.663133 -0.997074 0.262546 0.382045 0.0208972 -0.0513512 -0.443056 0.0959351 -0.914626 -0.213225 -0.227758 -0.448508 0.538059 -0.135724 -0.359676 0.806171 -0.109463 0.448156 0.948579 0.359644 -0.508588 -0.0124299 -0.514078 0.0756255 0.164331 -0.948626 -0.0895553 0.891693 -0.971645 -0.325192 -0.557941 -0.359334 0.651652 -0.347877 -0.422924 0.970698 -0.124475 0.376397 0.105144 0.476296 -0.0599009 0.381122 0.643365 -0.339212 -0.0273275 -0.156711 -0.459055 0.711057 -0.40979 -0.47235 0.713447 -0.994583 -0.821459 0.230003 -0.757514 0.819949 -0.26909 -0.901941 0.930295 0.339021 -0.590976 -0.793291 -0.229897 -0.40361 0.819255 -0.185697 0.00441786 0.0144834 -0.328936 -0.965944 0.139448 0.140162 -0.493579 -0.456129 -0.0263971 0.972255 0.548547 -0.337904 -0.437639 0.274476 0.315376 0.0292608 -0.407809 0.282402 0.636118 -0.205429 0.979345 -0.784805 0.0972458 -0.781741 0.231346 -0.346216 0.382786 0.991988 0.500405 0.74669 0.198387 0.190822 -0.949393 -0.601886 -0.427773 0.648411 -0.585685 -0.810787 -0.686252 0.214483 0.851552 0.286074 0.904786 0.968588 -0.612454 0.112414 0.734671 0.360467 0.589182 0.71263 -0.411363 -0.925366 0.194729 0.0938433 -0.417802 -0.971945 0.460137 0.203804 0.369363 0.280609 -0.3594 -0.607824 -0.620679 -0.487627 -0.880491 0.652769 0.623508 -0.941739 -0.943823 -0.498823 0.787843 0.201849 -0.00147229 0.214495 0.0217333 0.623238 -0.147922 0.728799 -0.418945 0.7386 -0.932554 -0.445547 0.576602 -0.877767 0.766165 -0.356162 -0.404015 0.66986 -0.0156333 0.661723 -0.851509 -0.0859197 0.632115 0.838703 0.155507 -0.725564 0.386038 0.704493 0.679797 -0.00948433 -0.2851 -0.231577 -0.178375 -0.9571 0.779405 -0.0208308 -0.689173 0.715858 -0.031232 0.765816 -0.564019 -0.0193521 -0.504609 0.88206 0.574647 -0.0470455 -0.950731 0.260905 -0.351249 -0.00741841 0.558063 -0.632433 0.873842 0.460673 -0.100778 -0.22636 0.572714 -0.257045 -0.77144 -0.974571 0.412263 0.0600142 0.619769 -0.296997 -0.904821 0.481141 0.885325 -0.911249 -0.395844 -0.446348 0.938237 -0.924177 -0.259202 0.251118 0.488144 0.452589 -0.10529 0.181301 0.219646 0.60264 -0.958272 -0.362178 -0.158914 -0.872833 -0.680442 -0.649207 0.791594 -0.943899 0.655999 0.289629 0.68737 0.756902 0.629632 -0.200595 0.720865 -0.557142 0.709159 -0.787327 
-0.286553 -0.123228 -0.875011 -0.567309 0.0572881 -0.356471 0.956145 0.699458 0.688969 -0.0691129 0.613388 -0.803123 0.309837 0.151208 0.039724 -0.0170041 0.272483 0.636111 -0.385342 -0.38113 -0.198618 -0.817995 -0.103549 -0.057335 0.811014 0.36388 -0.231238 -0.305556 0.111186 -0.650442 0.491429 -0.256142 -0.937713 0.239293 0.53998 -0.10119 0.886837 0.052849 0.69965 -0.692168 0.554044 0.659395 -0.357363 0.783582 -0.047176 -0.488224 0.176091 0.513468 -0.173064 0.854231 0.881654 0.204283 0.373299 0.470408 -0.993483 -0.447655 -0.94993 0.622962 0.525648 0.00489697 -0.438394 0.916518 0.120947 -0.255737 0.161143 0.357245 0.0593663 -0.748006 0.205577 0.177006 0.185043 0.647534 0.210357 -0.130658 0.632723 0.920354 0.90194 -0.815819 -0.0864025 -0.866351 -0.0852645 -0.449695 -0.344549 0.654051 -0.341487 -0.0805881 0.255685 0.446002 0.283062 -0.254212 -0.169884 0.254596 0.729038 0.711448 -0.987304 -0.286582 -0.368955 0.503443 0.70932 -0.921538 -0.394858 0.259498 0.865776 -0.530878 -0.177422 0.197182 -0.112681 -0.570135 0.215961 -0.944545 -0.163831 -0.727058 0.174222 -0.848059 0.19197 0.420416 0.627015 -0.759113 0.239537 0.0637746 0.786747 -0.164379 -0.658629 -0.270796 -0.539012 -0.886711 0.286496 0.157494 0.564564 -0.00821655 -0.947158 -0.112105 -0.347276 -0.636898 -0.876259 -0.85973 -0.856997 0.875867 0.0718705 -0.538124 -0.745557 -0.477016 -0.590957 -0.361668 0.557871 -0.78799 -0.542869 0.495482 0.749048 0.428724 -0.0449023 0.355014 -0.0740369 -0.0395249 0.770164 0.717889 0.299192 0.870912 0.671802 -0.533929 -0.910788 0.617938 -0.240077 0.75345 0.848069 -0.337583 -0.424306 -0.493088 -0.424686 -0.828804 -0.667095 0.128126 0.66854 -0.495893 -0.973007 0.0345878 -0.843411 -0.617199 -0.821087 -0.355315 0.0105527 -0.808816 0.198905 -0.865303 0.922106 -0.0901412 0.49607 0.497927 0.912689 0.705608 0.152986 0.404685 0.595544 -0.90518 -0.422727 0.123404 0.55869 0.793408 0.732808 0.73576 0.324689 0.180968 -0.443565 0.156832 -0.609905 0.158329 -0.224542 -0.474196 -0.94522 0.716556 0.472429 -0.554373 0.72189 -0.45626 -0.439563 -0.53227 -0.561265 0.955058 0.408171 0.454656 -0.41829 -0.640217 -0.0494413 0.0207834 0.537749 -0.106431 -0.746866 0.0926001 0.60372 0.407562 0.79076 0.270179 -0.825627 0.916755 -0.856455 0.00639776 0.519317 0.101498 -0.438308 -0.708131 0.643625 -0.221468 -0.149984 -0.78772 0.0645447 -0.505277 0.337545 -0.888354 0.790972 0.633569 0.226395 0.370336 0.141742 -0.780311 0.672446 -0.184325 -0.439034 -0.41133 0.101646 0.320251 0.496367 -0.576834 0.579058 0.512299 -0.761635 0.583671 0.302899 -0.339812 -0.6449 -0.975323 0.379386 -0.896779 -0.969016 -0.231284 -0.778624 -0.115182 -0.148988 -0.112895 -0.683224 0.68835 -0.0570488 -0.157235 0.587369 0.941579 -0.783814 0.376112 0.765249 0.0274047 0.0567041 -0.271578 -0.0489769 0.00487564 0.938841 -0.537142 0.259148 0.12142 0.855244 -0.0866784 0.4477 0.628397 -0.213052 0.89398 0.301163 -0.0569116 -0.861869 0.0283626 0.855909 -0.593579 0.418274 -0.749958 0.234821 -0.51361 -0.634099 -0.208406 -0.571534 -0.559343 -0.490488 -0.635051 0.16835 -0.480607 -0.415408 -0.768729 0.309177 0.6046 0.478837 -0.206134 -0.892762 0.474288 -0.96363 -0.269957 -0.892801 0.390347 0.724329 -0.477853 0.650431 0.266728 

