
-0.413912 0.116835 -0.170994 0.0219535 -0.310002 0.219982 -0.0715656 -0.177521 -0.446917 -0.281443 -0.12641 -0.126343 -0.113301 0.428047 0.394947 0.420978 0.259976 -0.346824 0.248557 0.166384 -0.20949 -0.0213566 -0.047321 -0.484795 -0.442567 0.00954438 0.33967 -0.33938 -0.0940633 0.474052 -0.10567 -0.266923 0.469099 0.113009 0.354585 0.445476 0.0605323 0.443091 -0.192979 -0.450068 -0.363152 -0.257209 -0.0647735 -0.0914332 0.169918 0.0475634 0.395544 0.0636546 
0.275181 0.00458846 -0.0768883 0.298668 0.391836 0.1019 0.0873579 0.0277461 -0.332078 0.399726 0.168328 0.0751085 -0.148588 0.174554 -0.367716 0.101326 -0.376744 -0.365321 0.0125411 0.316509 -0.274828 0.0360443 0.473782 -0.277415 0.200502 0.237954 -0.131751 -0.345843 0.0216695 0.157956 0.371034 0.0246693 0.29809 0.105533 -0.431572 -0.181252 -0.00483704 0.433023 0.24559 0.351751 -0.389607 0.47549 0.461015 -0.197073 0.17251 -0.177162 -0.0330036 -0.0330555 
0.110774 -0.469479 0.385206 0.363729 -0.451862 0.0643009 -0.496302 0.138637 0.0785085 -0.452032 0.244682 0.262633 0.278695 0.10563 0.133041 0.276372 -0.226691 0.286886 0.297963 0.195376 -0.123401 -0.133285 -0.23185 -0.241494 -0.0487943 -0.427426 0.408622 -0.142656 -0.326965 -0.367273 -0.0912639 0.225897 0.412643 -0.292868 -0.183712 0.322806 -0.443261 0.149912 -0.0128696 -0.0946884 -0.0041271 -0.419532 -0.312568 -0.168473 0.0809714 -0.317772 0.0895974 0.109692 0.272027 -0.32578 -0.398757 -0.400951 -0.0958989 -0.0191189 0.465457 -0.216658 0.242419 -0.466716 -0.219374 -0.490515 0.479159 -0.00949216 0.42405 0.425635 -0.445987 0.468012 -0.129231 -0.310589 0.322887 -0.279284 0.112153 0.0817445 -0.338613 -0.419895 0.0337422 0.0501827 0.439218 0.331741 -0.357204 -0.136369 0.326586 0.359353 -0.483746 -0.437374 0.406069 0.342738 -0.223838 0.083467 0.0722592 0.108113 -0.378045 0.354139 0.124548 0.0547289 -0.429733 -0.469363 


-0.154159 0.340417 0.0773375 0.447741 0.475096 -0.264706 0.423231 0.0624538 0.247835 0.294264 0.0234685 -0.224419 