
-0.0509377 0.0076969 0.0286881 0.074613 0.0761753 0.0682173 0.0826095 0.00288695 0.0196862 -0.0422859 -0.0868869 -0.0543895 0.085882 0.00865058 -0.0948682 -0.0203075 0.0154546 0.0773154 0.0310332 0.0338042 0.0490635 -0.0920187 0.065918 0.040081 -0.00568497 0.0719965 -0.0578382 0.0902904 -0.0971882 -0.081351 0.0321347 -0.0452515 -0.0640152 0.0237562 0.0497907 0.0737451 -0.0159644 -0.00362685 0.0633884 0.086019 -0.00402937 0.089084 0.020692 0.0519492 -0.0726169 0.0864022 0.0877262 -0.0782141 
-0.0444644 -0.0428261 0.066241 0.0829157 -0.0679292 0.0565185 -0.0911228 0.0865855 0.0107375 0.030952 -0.0575372 0.049028 0.0765569 0.0703256 0.0496012 -0.0494906 -0.0350896 0.0216174 0.0443195 0.0554288 -0.0586692 0.0134383 -0.0848639 0.0605911 0.0177565 -0.0212242 0.00510213 0.0173823 -0.0251581 -0.0152452 0.0619966 -0.0298389 0.0355378 0.00148973 -0.0920058 -0.014239 -0.0762471 0.0119223 0.0793541 0.000672136 0.0108466 -0.0383794 0.0262596 -0.0385726 0.0954923 -0.00705142 0.0126239 -0.0154342 0.0538723 0.0222748 0.0155193 -0.0257377 0.0768327 0.000971487 -0.0550084 -0.0337246 0.00295144 -0.0603021 -0.0234365 0.0560834 0.0364055 0.098462 -0.0451072 -0.0287453 0.0971167 -0.0997259 -0.0637412 -0.0530062 -0.0634907 0.0464814 -0.0257304 0.0887124 -0.0871631 -0.0390142 0.0670803 -0.0629224 0.00930854 0.0165134 0.0975142 -0.0414559 0.0957664 0.0292074 0.0596178 0.0210751 0.0364818 0.0582597 0.0611298 -0.0129008 -0.0621814 -0.0319482 -0.0179308 0.0755839 -0.0805352 -0.0627879 0.0351076 0.0518498 -0.0325613 -0.074155 0.0949738 -0.0922635 0.0553764 0.0614039 0.023358 -0.0151876 0.00456109 -0.0714494 -0.0501464 -0.0918228 0.0449716 0.0186999 0.0408254 0.00451625 0.0351536 0.0114872 -0.0947493 -0.0860795 0.0571702 -0.0474346 -0.0555699 -0.0743638 
-0.0993222 -0.0540573 0.0105009 -0.0133071 -0.0781551 -0.0373574 -0.00898679 0.066823 0.0710712 -0.0504075 0.0902621 -0.0319597 -0.0227587 0.0670178 0.0264854 -0.038188 -0.00388546 -0.0855076 -0.0234451 0.0281998 0.030689 -0.0422303 -0.0958873 0.0745995 -0.0876511 0.092654 0.0849327 0.022692 0.0459681 0.0235124 -0.0227672 0.0741425 0.0751191 0.096899 -0.0740424 -0.0627578 0.0613769 0.0317285 0.0560039 0.0722845 0.00655924 0.0340221 0.0544741 0.0411603 -0.0391199 -0.0710232 0.0220722 -0.0482654 -0.0699458 -0.0496952 -0.0590256 -0.0855329 0.0542006 0.0297135 0.0916952 0.0114275 -0.0916964 0.0611691 0.0338144 -0.0125381 0.0146626 0.0998846 0.0709786 -0.0135045 0.0124967 0.075056 0.0986353 -0.0351326 0.075247 0.05407 0.0777093 -0.00572922 -0.0421138 0.0684678 -0.0452347 0.0140692 0.0549634 0.0588775 -0.0730468 -0.0237376 -0.0217834 -0.0852506 -0.0704324 0.0823975 -0.024043 -0.0240531 0.0206106 0.059557 -0.0344571 -0.0565343 -0.0130529 -0.0539233 -0.0626466 0.0916936 0.0581533 0.0858998 0.0935305 0.0264382 0.00926906 0.00854405 0.0188697 0.0968 -0.0501433 0.0124224 -0.0725907 -0.0293865 0.0758736 0.000799104 -0.04407 0.0983346 0.0299511 -0.0084134 -0.0668655 0.000624469 -0.0963154 0.0274134 -0.0210056 0.0952983 0.0760438 0.0301586 0.0170014 -0.00361845 -0.0216722 -0.0938393 0.0123539 0.0156133 0.0852257 -0.0621343 -0.0997177 -0.024633 -0.047316 -0.0157382 0.0645193 0.012307 0.0983879 0.0571091 -0.0116297 -0.0241449 -0.0538079 -0.0336251 0.00519808 -0.0543434 -0.0891562 0.0948952 -0.0384292 -0.00411882 0.0337598 0.00936744 0.0025292 0.0919706 0.0439546 0.072644 0.0565444 -0.0790899 0.0419216 -0.0019892 -0.0388172 0.0138126 -0.0231628 -0.0964332 0.018227 0.0277276 -0.0485335 0.0583838 -0.0642587 0.0488027 -0.0534764 -0.0382451 


0.00901999 0.0391293 0.0390745 -0.0894903 -0.0679222 0.0787724 0.0569911 0.0612852 -0.0840155 0.0855417 -0.0861493 -0.0415527 