
2.9506 -3.92911 -9.24601 -1.81657 5.614 1.20654 -4.49082 -4.0767 0.991888 -2.51682 5.17622 4.37102 -5.05141 -0.778244 -2.63541 3.34505 -2.13202 -0.510703 -3.42129 6.3054 -5.98656 1.24642 2.03934 -1.90345 -1.62032 1.54226 -0.75513 -0.72955 1.41465 -0.534621 -7.97407 7.87414 -1.30925 0.819855 -3.25018 1.35758 3.01754 -5.09526 -1.50474 5.50196 0.0940394 -5.01314 -0.0818964 -1.92402 2.75443 -0.643371 -4.4362 -0.599277 -1.2147 1.72554 -4.48846 -1.08442 0.839946 -3.15809 -1.45696 1.56731 2.75523 2.07883 -11.7794 0.799345 2.91223 0.719582 11.1079 -1.71203 0.596743 2.41545 -3.73137 -2.03254 2.39016 3.35197 -4.13129 -2.06708 -0.096285 -1.49333 -6.74291 0.0966263 -3.41642 -0.155084 -0.266412 5.15515 4.6019 -7.01261 4.34513 1.46815 -0.383911 -0.0909923 -1.53071 1.83896 1.15161 -0.471813 -5.89039 3.20725 -2.32331 -4.6577 -0.786529 -4.08208 
-0.0388117 -0.0249859 -4.53103 -0.0389979 0.52347 0.0325169 -0.156209 -0.0675315 3.10177 -2.86324 0.751284 -1.27192 0.0586742 -0.0315974 -0.882435 0.729217 0.111124 0.0664276 -3.78877 4.97644 3.29856 -0.362617 0.315153 -3.34348 -0.0375987 -0.286824 -1.37299 -0.0226942 0.975722 -0.0232627 0.271243 -0.451651 1.23865 0.296219 -0.00188335 0.411266 -0.00798654 -0.105895 0.541431 0.102666 0.0526405 0.176102 -1.45371 0.527406 -0.283341 0.861807 0.424434 -0.293346 0.0314352 0.149532 -0.0422215 0.0447027 -0.974224 -0.0498172 0.0893983 0.0792297 -0.00478882 -2.06485 0.340667 -1.41482 -0.0374121 -0.106797 0.0711036 0.481358 0.0563616 0.173736 0.0347685 1.74463 1.75238 0.399403 -0.548433 -1.22515 
0.284266 -2.14449 -4.60019 2.17863 -12.9336 -1.17153 1.8832 -2.8527 -1.16263 -3.67767 7.25734 -3.30635 -3.40397 -2.85617 -10.8475 -0.26953 -1.94498 4.29758 2.7666 5.24538 5.20651 -5.7246 -11.78 -2.39964 0.0628373 1.9638 1.17987 0.300011 0.293706 -0.397886 -3.22811 4.15845 -0.214679 5.82708 1.97469 -6.62009 -1.881 1.2791 -1.06574 4.942 1.44494 -2.5736 0.155418 -1.0669 4.32349 -0.950183 -0.0957283 -2.08731 -1.39069 2.94989 11.3572 -3.09851 3.94213 -3.04373 1.40845 4.21782 1.14977 -0.18342 -8.07663 -6.27749 -3.32285 -0.601269 -8.61865 6.72282 2.35453 -7.32695 -0.00236228 0.194298 0.570717 -7.63049 4.78368 -0.999341 -0.567805 -2.08108 4.55915 -0.546068 -2.54326 2.55955 0.311555 -4.57988 -3.62309 -11.5885 2.43669 -1.71336 3.91874 0.478508 1.24482 -8.55687 -4.07916 1.64293 4.05662 -0.319105 -2.46117 4.50864 1.8102 3.3963 
-0.450741 0.42965 0.0288035 0.241013 -0.494308 0.0321414 -0.0816018 0.0360273 0.495626 0.493176 0.0139738 -0.485732 -0.0164135 -0.353628 0.252032 -0.372752 0.268561 0.142917 -0.0596972 0.0994463 -0.0287425 0.363617 -0.126693 -0.460968 -0.36115 0.465425 -0.379159 -0.0951115 -0.0974257 0.192177 -0.130047 -0.37175 0.465701 0.369309 0.405448 -0.04257 0.28546 0.461051 -0.385983 0.418862 -0.324688 -0.324237 0.0163247 0.380282 0.364901 0.13787 0.0483654 0.397733 -0.416798 -0.067692 0.477634 -0.207831 -0.329521 -0.185386 -0.0182506 -0.498877 0.300509 -0.459556 -0.259458 -0.232314 0.341488 -0.101991 0.346942 -0.302383 0.391405 -0.399926 -0.0572 -0.38486 -0.0346155 -0.284244 -0.0836946 0.284011 -0.106365 -0.23709 -0.0151878 0.245982 -0.263667 -0.316724 0.375108 -0.407227 -0.276772 -0.113765 0.230919 -0.23424 -0.478095 -0.436581 0.0252563 0.486524 0.359333 -0.475237 -0.226883 0.439716 -0.131191 -0.222359 0.330993 0.20856 0.852204 -0.14264 -0.243927 -0.248001 -0.0965596 0.167598 -0.130261 -0.969745 0.164109 -0.00261391 0.150349 1.84348 -6.9532 -2.01973 -4.86245 0.297682 0.0883043 -0.000173447 0.0959083 0.719674 -2.08944 2.60078 -7.7925 -1.23722 -0.237118 -0.0547957 -0.265855 0.338837 0.113521 -0.0974428 0.134089 0.866366 0.614019 0.105324 0.971293 -0.489274 0.00455173 0.0214647 -0.0300747 -0.516426 0.0205005 -0.100893 0.038892 0.610241 0.00566892 -0.0546505 0.0404233 0.521714 -0.408602 0.0970013 -0.132387 -0.400861 -0.225092 -0.612588 0.344569 -0.0143373 -0.245529 -0.0299833 0.0981863 -1.60663 -0.0306141 0.0529049 -0.023522 -0.67729 -0.509322 0.440376 -0.559344 1.89882 0.258573 -0.213583 0.492226 0.379374 0.403646 0.102835 0.821563 -2.36542 0.0883043 -0.00876125 0.193715 0.89278 -0.0133393 -0.0114 0.0344553 0.344837 0.187222 -0.0766223 0.0662499 2.44565 -0.055135 -0.0223006 -0.0951507 -1.04112 0.105032 -0.0185195 0.218795 1.2951 

