
-0.256657 -0.151598 0.104698 0.22673 -0.428602 0.118165 -0.00401586 -0.365835 -0.214378 -0.629156 -0.233847 -0.036421 -0.259049 0.413051 0.286213 0.465007 0.251691 -0.31927 0.211907 0.0824699 -0.275923 -0.0359343 -0.0858744 -0.536018 -0.344514 -0.280227 0.599814 -0.227643 0.143715 0.293523 0.0691689 -0.452657 0.406132 0.155081 0.205153 0.484365 0.260027 0.499723 0.12919 -0.399381 -0.255679 -0.550391 -0.138948 -0.133733 0.402341 -0.0714735 0.271336 0.182043 
0.214971 -0.0174825 -0.0441151 0.272171 0.438741 0.00323197 0.0815867 -0.0282922 -0.273736 0.401948 0.170006 0.154757 -0.22086 0.0773414 -0.329547 0.102384 -0.280434 -0.457185 0.0726558 0.208701 -0.307315 0.0746149 0.453217 -0.215178 0.135064 0.252286 -0.117704 -0.357842 -0.0232241 0.110154 0.306057 0.0163698 0.441363 0.0207108 -0.41488 -0.103967 -0.119725 0.388209 0.23734 0.356149 -0.382582 0.447302 0.443748 -0.241539 0.223044 -0.210558 -0.0345895 0.0207755 
-0.0716525 -0.520045 -0.00340222 0.364007 -0.300537 0.29896 -0.383373 0.409696 0.167344 -0.344998 0.489952 0.322584 0.400128 0.165183 -0.0481701 -0.189042 -0.412231 0.265052 0.158164 -0.150555 -0.0793271 -0.246913 -0.285557 -0.458906 0.0746003 -0.272855 0.44632 -0.250729 -0.492391 -0.418275 -0.439451 -0.031405 0.373222 -0.217224 0.12687 0.657873 -0.706056 0.177544 0.0124394 -0.255206 -0.0891323 -0.272431 0.155078 0.11158 0.0592687 -0.2997 0.428447 0.367426 0.272027 -0.32578 -0.398757 -0.400951 -0.0958989 -0.0191189 0.465457 -0.216658 0.242419 -0.466716 -0.219374 -0.490515 0.479159 -0.00949216 0.42405 0.425635 -0.445987 0.468012 -0.129231 -0.310589 0.322887 -0.279284 0.112153 0.0817445 -0.338613 -0.419895 0.0337422 0.0501827 0.439218 0.331741 -0.357204 -0.136369 0.326586 0.359353 -0.483746 -0.437374 0.406069 0.342738 -0.223838 0.083467 0.0722592 0.108113 -0.378045 0.354139 0.124548 0.0547289 -0.429733 -0.469363 


-0.108816 0.202001 0.195417 0.527088 0.52199 -0.341142 0.478906 -0.0581565 0.268586 0.235759 -0.0514745 -0.197865 