-0.663662 -27.8261 -6.0565 -14.382 -13.6592 -14.3674 -13.2796 8.15202 -15.317 -0.97289 4.16623 -18.1001 -19.1759 -15.3442 -11.2428 -25.3337 -3.16679 -33.8154 -4.78976 -15.9979 -10.1094 -10.1914 -17.0962 2.36495 -1.94901 2.45135 -0.582379 1.01781 1.7356 1.18103 1.21977 -3.78555 1.53515 2.85096 0.39832 2.57991 2.75467 0.0358795 0.148324 2.6202 1.8401 2.79551 1.42522 1.57325 -0.743799 -0.318441 1.50125 -1.86443 1.99172 -30.5078 -8.14271 -16.5042 -18.1345 -15.275 -16.976 -1.2818 -20.8193 -2.40386 -0.690661 -23.8144 -25.4503 -21.838 -16.3178 -31.5154 4.77498 -39.6651 -8.74425 -21.1809 -14.0992 -13.6955 -20.2509 0.548898 1.28007 -15.8332 -4.72074 -10.4235 -9.18092 -5.77966 -7.81711 1.83549 -11.381 2.51292 0.71865 -13.3937 -12.6933 -10.9301 -10.3232 -16.2061 -0.22782 -19.6989 -4.52482 -11.498 -6.62665 -4.92006 -12.0639 -2.87794 
-0.0277839 -2.12505 -1.24825 -1.6972 -1.58696 -1.77375 -0.322109 5.28899 -1.03892 1.39833 -0.962087 -1.57915 -2.00945 -1.13255 -1.94128 -2.22854 -2.28585 -3.14527 -0.0611749 -1.44817 -1.19638 0.0967233 -1.44343 -0.95682 3.01926 29.2599 4.76478 13.669 12.9324 14.0847 13.779 4.71966 16.4024 0.933366 1.46433 19.0127 19.3154 15.6478 12.8908 26.0168 1.38594 36.6204 5.30292 17.275 11.5419 10.5073 16.8094 1.13281 2.07523 -29.5442 -4.9409 -13.7996 -13.6366 -13.3927 -14.1152 -3.57965 -15.7487 1.5684 3.66382 -19.0438 -20.576 -14.8028 -12.2222 -27.2783 3.94239 -35.4527 -4.79074 -17.5008 -11.3677 -10.2593 -16.0077 1.71135 -3.10732 27.5676 4.4928 11.9521 12.7376 13.486 12.4631 -4.54947 15.5617 -0.300376 -2.62846 17.9238 18.3357 15.2441 11.7427 24.9991 -5.18456 34.1471 5.21338 15.6947 11.6881 8.64244 16.0326 -6.06478 1.08879 8.77756 1.96242 5.16842 4.58127 5.35841 4.54493 1.82465 4.10224 2.80968 4.03055 6.56794 5.505 4.11868 2.92079 8.42024 2.49186 11.4312 2.27272 6.17109 2.97968 3.32138 5.8977 2.89524 0.446914 31.2788 5.26843 13.513 14.4927 15.1925 14.0803 0.107947 17.8737 0.0963214 -0.919571 20.712 20.6407 16.5501 12.2933 27.4597 -3.22882 38.3538 6.10682 17.0361 11.3911 10.3595 18.6038 0.758165 -2.95482 -11.6805 -1.91623 -4.85333 -5.41854 -5.10588 -6.02519 -23.6484 -7.54422 -2.27593 -0.861177 -8.6188 -7.19768 -6.63899 -5.12922 -9.99691 -1.3839 -13.881 -2.2475 -6.8035 -3.8917 -3.18742 -6.60179 -1.33229 4.09247 54.6559 10.1323 25.2913 24.3759 26.0006 25.2262 17.3774 31.3009 5.72632 7.13228 36.4793 36.7357 30.1183 21.7804 48.9073 3.99956 67.1764 9.43593 31.1137 20.0457 18.7859 30.8569 8.0062 6.13073 30.8267 6.46791 15.2608 14.4034 15.1308 15.4176 5.79431 17.0783 1.13903 8.39225 20.9852 22.1303 17.0059 12.2333 29.0948 7.28627 37.8062 4.61392 17.8422 13.3335 9.9946 17.9967 4.88751 -0.276684 21.3414 3.37516 9.90848 9.5473 10.6405 8.82199 -5.76102 11.5739 -0.451222 0.570735 13.0834 14.9137 10.0849 9.12407 19.0907 0.803639 26.3301 4.05007 11.6556 8.57171 6.40036 12.7014 0.423224 
0.104825 -0.66424 0.602819 1.22379 14.1934 11.7434 -3.84127 -17.481 2.1101 1.22383 0.0944346 -2.65766 13.2198 11.1228 -4.27534 -16.5624 5.48192 5.13245 -2.18365 -7.0113 19.8526 16.2152 -6.83026 -25.5228 6.68526 5.26333 -2.1863 -7.62246 4.59719 6.4049 -7.12799 -38.2946 11.2737 10.467 -3.51049 -15.5263 -0.488076 0.427175 -0.300073 1.41993 1.20992 0.124435 0.728289 0.329138 12.6521 10.2488 -4.07689 -15.7127 10.4087 9.7935 -2.68065 -13.1374 17.065 14.4927 -6.53503 -21.3979 16.239 15.066 -5.17155 -21.7663 14.7858 13.8127 -4.99456 -19.5429 0.255484 0.3006 0.866197 -0.104648 11.5744 9.88546 -3.69026 -13.8303 3.74297 3.10517 -0.690359 -3.87879 18.9796 14.4627 -6.13182 -23.7409 20.1885 16.6816 -7.11669 -25.0782 18.1522 15.5315 -5.91178 -22.9239 13.6513 11.1057 -4.64787 -16.8567 0.37367 -0.273914 0.442667 -0.814174 -0.368955 0.503443 0.70932 -0.921538 -0.394858 0.259498 0.865776 -0.530878 -0.177422 0.197182 -0.112681 -0.570135 0.215961 -0.944545 -0.163831 -0.727058 0.174222 -0.848059 0.19197 0.420416 0.627015 -0.759113 0.239537 0.0637746 0.786747 -0.164379 -0.658629 -0.270796 -0.539012 -0.886711 0.286496 0.157494 0.564564 -0.00821655 -0.947158 -0.112105 -0.347276 -0.636898 -0.876259 -0.85973 -0.856997 0.875867 0.0718705 -0.538124 -0.745557 -0.477016 -0.590957 -0.361668 0.557871 -0.78799 -0.542869 0.495482 0.749048 0.428724 -0.0449023 0.355014 -0.0740369 -0.0395249 0.770164 0.717889 0.299192 0.870912 0.671802 -0.533929 -0.910788 0.617938 -0.240077 0.75345 0.848069 -0.337583 -0.424306 -0.493088 -0.424686 -0.828804 -0.667095 0.128126 0.66854 -0.495893 -0.973007 0.0345878 -0.843411 -0.617199 -0.821087 -0.355315 0.0105527 -0.808816 0.198905 -0.865303 0.922106 -0.0901412 0.49607 0.497927 0.912689 0.705608 0.152986 0.404685 0.595544 -0.90518 -0.422727 0.123404 0.55869 0.793408 0.732808 0.73576 0.324689 0.180968 -0.443565 0.156832 -0.609905 0.158329 -0.224542 -0.474196 -0.94522 0.716556 0.472429 -0.554373 0.72189 -0.45626 -0.439563 -0.53227 -0.561265 0.955058 0.408171 0.454656 -0.41829 -0.640217 -0.0494413 0.0207834 0.537749 -0.106431 -0.746866 0.0926001 0.60372 0.407562 0.79076 0.270179 -0.825627 0.916755 -0.856455 0.00639776 0.519317 0.101498 -0.438308 -0.708131 0.643625 -0.221468 -0.149984 -0.78772 0.0645447 -0.505277 0.337545 -0.888354 0.790972 0.633569 0.226395 0.370336 0.141742 -0.780311 0.672446 -0.184325 -0.439034 -0.41133 0.101646 0.320251 0.496367 -0.576834 0.579058 0.512299 -0.761635 0.583671 0.302899 -0.339812 -0.6449 -0.975323 0.379386 -0.896779 -0.969016 -0.231284 -0.778624 -0.115182 -0.148988 -0.112895 -0.683224 0.68835 -0.0570488 -0.157235 0.587369 0.941579 -0.783814 0.376112 0.765249 0.0274047 0.0567041 -0.271578 -0.0489769 0.00487564 0.938841 -0.537142 0.259148 0.12142 0.855244 -0.0866784 0.4477 0.628397 -0.213052 0.89398 0.301163 -0.0569116 -0.861869 0.0283626 0.855909 -0.593579 0.418274 -0.749958 0.234821 -0.51361 -0.634099 -0.208406 -0.571534 -0.559343 -0.490488 -0.635051 0.16835 -0.480607 -0.415408 -0.768729 0.309177 0.6046 0.478837 -0.206134 -0.892762 0.474288 -0.96363 -0.269957 -0.892801 0.390347 0.724329 -0.477853 0.650431 0.266728 

