
0.961313 0.620164 0.67948 0.240273 -0.277463 -0.672128 -0.340002 -0.619727 -0.369207 0.486058 0.0686991 -0.430392 0.294922 -0.0112838 -0.551637 0.700091 -0.409655 0.698336 -0.130269 0.335871 -0.502659 -0.379664 -0.130484 0.698291 0.472311 -0.591527 0.812516 -0.267409 -0.956458 0.655397 -0.174764 0.0250302 -0.788137 0.0570001 -0.0343003 0.107927 0.870277 -0.193957 0.800162 -0.201045 0.790514 -0.014829 -0.336334 -0.658414 -0.749043 0.165538 -0.691027 0.292144 
-0.711364 -0.383493 0.601678 -0.573086 0.762785 -0.606422 -0.355464 0.701536 -0.428948 0.14066 -0.567196 0.515462 0.15147 -0.150195 0.509803 -0.826531 0.198499 0.69584 0.181898 -0.652565 0.313135 0.0114261 0.300062 0.916569 0.0826585 -0.261945 0.607786 0.988059 -0.670355 -0.458491 0.161844 -0.769457 -0.460484 0.647443 -0.201087 0.648718 
-0.746482 0.945162 -0.469512 -0.279483 -0.552403 0.0687965 -0.700136 -0.892425 -0.184899 0.238005 -0.749231 0.315797 0.518248 0.331989 -0.820991 -0.253939 0.755661 -0.347579 -0.407887 0.296854 0.906016 -0.92824 -0.430264 0.403048 0.158521 0.849363 -0.898474 0.408226 -0.887095 -0.840691 0.380284 -0.252505 -0.777603 -0.53179 0.994822 -0.146352 0.861304 0.707947 -0.773672 0.882362 0.0186493 -0.919777 0.0987771 -0.638907 -0.239737 0.768493 -0.0287139 0.763394 
0.158709 -0.0151338 0.598176 -0.599236 -0.0334471 0.76511 -0.327555 0.769436 -0.217956 -0.997866 0.518345 -0.123642 -0.772494 0.799967 -0.0860268 0.934229 0.618974 0.671126 -0.924507 0.457449 -0.0586473 -0.77547 -0.628007 0.893973 -0.692272 -0.43977 -0.322633 0.57527 0.918838 -0.0908693 0.234202 -0.557685 0.533466 -0.70371 0.338546 0.659084 0.688013 0.0284404 0.459411 0.577403 0.0176153 -0.322376 0.461708 -0.757718 0.641041 -0.452941 -0.0424801 0.330209 0.801934 -0.464378 0.602019 0.747616 -0.197487 0.0204699 -0.609856 -0.487011 -0.76066 -0.100895 -0.969986 -0.665109 -0.901776 0.874168 0.261103 0.337026 0.830953 -0.520119 0.967547 -0.323383 -0.083036 -0.639187 -0.727704 -0.322007 -0.354717 -0.168312 -0.408688 0.00192838 0.429129 -0.119355 0.769481 0.212239 0.589409 -0.86975 0.0748089 0.698463 -0.836371 0.708046 -0.169348 0.901033 -0.656898 -0.185126 0.867705 0.0864065 0.664903 0.587699 -0.0942381 -0.821656 

