
0.788979 -0.14769 -0.660572 -0.616322 0.384306 0.431231 0.100541 0.0896912 -0.676214 -0.412579 0.669546 -0.955227 -0.00677365 0.23904 0.974347 -0.723051 -0.767368 0.242705 0.828416 -0.667239 -0.0263025 -0.857343 0.74297 -0.251922 0.454189 -0.176666 0.689625 0.918737 -0.457735 0.625704 0.262921 -0.23249 -0.242723 -0.357795 -0.197573 0.609461 -0.453251 0.0608648 0.819911 -0.0877315 0.402568 -0.809201 0.629579 0.427598 0.216085 -0.587279 -0.669564 -0.574152 -0.858038 0.344118 -0.284941 -0.473114 -0.664642 0.123753 -0.602514 0.547663 -0.425381 0.827206 0.0988178 0.657491 0.190229 -0.475459 -0.24645 0.795739 0.250936 -0.985194 -0.560357 -0.370318 -0.612273 -0.350983 -0.604939 -0.621357 0.412792 -0.223559 0.783039 0.942709 0.776831 0.746901 -0.0345254 0.302267 0.750444 -0.447681 0.181043 -0.379345 0.800762 0.609144 -0.475061 0.348373 0.105172 -0.198073 0.509056 0.472921 0.468212 -0.67458 0.983714 -0.648016 0.443458 -0.121329 0.176096 -0.0731512 -0.946776 0.429078 -0.575543 -0.660419 0.0640386 -0.399265 -0.179948 -0.0877494 0.873189 0.325988 -0.787262 -0.882995 -0.98008 -0.0192901 -0.303106 -0.34825 -0.977614 -0.107565 -0.315078 0.368674 
0.992849 -0.259073 0.721637 0.522399 0.0700622 -0.240313 -0.217927 -0.869554 0.229264 -0.145033 -0.776359 0.612235 0.621483 -0.971782 0.258286 0.140104 0.546861 0.780824 -0.442949 -0.9818 -0.718724 -0.472679 0.880089 0.793768 -0.0347477 0.0036859 -0.516312 0.323996 -0.582957 -0.131996 0.98297 0.106722 -0.439089 0.257805 -0.133051 0.441568 0.360306 -0.74726 0.357913 0.0154039 0.00825292 0.74918 0.470817 -0.00678347 -0.936721 -0.177034 0.605038 0.735484 -0.0352519 0.819715 -0.956643 0.655592 0.277075 0.305293 -0.436421 0.703683 0.250544 0.0313681 0.588419 0.606619 0.388594 -0.990752 -0.593266 0.230068 0.881818 -0.593243 -0.766037 -0.223773 0.461149 -0.736924 -0.753955 0.352768 0.913679 0.171484 -0.961566 0.480002 -0.159692 0.0930478 -0.54904 0.466364 -0.525383 -0.776203 0.694615 -0.312169 -0.24889 0.574076 0.179114 -0.0854019 0.879346 0.699062 
-0.665632 -0.584784 -0.324915 0.415229 -0.941989 0.498184 0.834126 0.150742 0.612486 -0.447037 -0.945724 0.466404 -0.999977 -0.704214 -0.785452 0.870322 -0.589129 -0.528626 -0.754405 0.15269 0.00725478 0.234339 -0.175588 -0.467746 -0.190928 0.521566 0.499146 0.432247 -0.981896 0.134151 0.887895 0.39801 -0.272603 0.0543252 -0.75236 -0.0804719 -0.717262 0.724591 0.154952 0.326878 -0.587921 0.752383 0.376258 0.931809 -0.854269 0.255918 0.144496 0.833515 0.400307 0.630997 0.302529 -0.321319 0.276336 0.664576 0.68805 -0.901161 0.801249 -0.284426 -0.544529 0.175494 0.742418 0.0327827 -0.910927 -0.456043 0.740414 0.865695 -0.882028 0.412534 -0.705904 -0.676994 0.208426 0.635843 -0.933885 -0.97224 0.843384 -0.1496 0.510509 -0.808119 0.995154 0.236415 -0.349079 0.432952 -0.185824 -0.822459 0.906958 0.806095 0.47916 0.80455 0.742542 -0.298671 -0.191015 -0.704695 0.980378 -0.833661 -0.458301 -0.470448 0.713472 0.48511 -0.972299 0.228048 0.469504 0.524416 0.498207 -0.870088 0.36529 0.482808 -0.0361668 -0.47435 0.711999 0.152713 0.30304 0.448887 -0.305266 -0.0568753 0.280446 0.76716 -0.348163 -0.560499 0.252443 0.958563 
-0.54817 0.436724 0.844515 0.13393 0.515506 -0.881442 0.460597 -0.857018 -0.346703 0.489731 0.215611 0.78337 -0.0159159 -0.909979 0.334246 -0.650459 0.180082 0.102642 0.550617 0.477228 -0.169162 -0.330187 -0.681747 0.333988 0.927209 -0.0791408 -0.995941 -0.332205 0.989154 0.029851 -0.528523 0.481287 -0.481111 -0.341033 0.348104 0.805464 0.834167 0.439748 -0.336974 -0.984101 0.2696 -0.135982 0.911225 -0.855687 -0.959545 0.928567 -0.787878 0.716689 0.933006 0.480203 -0.408407 -0.771979 0.0756953 -0.202976 0.391428 -0.264094 0.807615 0.00426241 0.0091459 0.108117 0.432152 0.287818 0.595855 0.237167 -0.123055 -0.770824 -0.320754 -0.668239 0.286775 0.881207 0.238322 0.787362 -0.916011 -0.425407 0.477062 -0.524511 -0.690809 -0.686836 0.253839 0.808824 -0.997651 -0.809602 0.551486 0.0412011 0.888539 -0.423058 0.667461 -0.973025 -0.251307 -0.798297 0.830781 0.476284 -0.979547 -0.0609091 0.753189 -0.128018 -0.655991 -0.402605 -0.393448 0.780163 -0.508766 -0.454288 -0.571824 -0.917164 0.272896 0.430325 -0.701099 0.300158 0.478161 0.870291 -0.963123 -0.920936 0.666728 -0.976127 -0.701533 -0.880287 0.974225 0.0970532 -0.677226 0.598624 -0.598162 -0.251207 -0.655828 0.189504 0.253643 -0.484404 0.3993 -0.737448 0.741607 -0.346599 -0.772459 0.887255 -0.814792 -0.509601 -0.00242649 0.417045 0.603184 -0.299196 0.889699 0.260126 0.218835 -0.743415 -0.0716559 0.776953 0.519196 0.709234 0.254159 -0.654611 -0.729021 -0.780001 0.598933 -0.485715 -0.299878 -0.472436 0.148343 0.375886 0.32466 -0.590644 0.781723 0.493732 -0.713122 0.544659 -0.991712 -0.703992 -0.155565 -0.185558 -0.306998 0.384175 0.0413485 0.25379 -0.403835 -0.813266 -0.485101 -0.413993 0.262079 -0.107827 0.58034 0.329341 0.279009 -0.353747 -0.850535 -0.165869 0.925506 0.465743 0.752067 -0.264528 -0.903791 -0.182321 0.912102 0.081408 -0.985518 -0.257537 0.936827 -0.253768 0.00691422 0.480225 -0.772444 -0.3277 -0.157558 0.824593 0.720925 0.308964 -0.313219 0.584904 -0.0219715 -0.532842 -0.684122 -0.832994 -0.74547 0.650328 0.309599 -0.859529 0.19721 0.563494 -0.662891 -0.105497 0.85001 0.664368 0.879372 -0.495884 -0.965306 0.500339 -0.0260331 -0.980157 0.280046 0.598187 0.837448 0.86847 0.150168 -0.0555866 0.477559 -0.658436 -0.886242 -0.349493 0.91838 0.497402 0.399759 0.711945 -0.512045 0.786851 

