
0.408322 -0.844103 0.769099 -0.812618 -0.859091 -0.0456429 -0.271804 -0.104393 -0.203823 -0.364787 -0.218264 -0.931047 -0.997887 0.619102 0.421071 -0.396249 -0.169531 0.950338 0.293846 -0.081806 0.994038 -0.0102098 -0.642847 -0.817849 -0.637202 -0.434828 -0.303026 -0.471095 0.947283 -0.168965 -0.869205 -0.973911 0.846051 -0.372554 0.432596 0.407567 0.584084 -0.334618 -0.390876 -0.0643144 0.441507 -0.430484 -0.788465 0.836987 0.938369 -0.778655 0.0146524 0.852339 -0.651322 0.782503 0.152803 -0.581216 0.960806 0.348145 -0.287167 -0.651703 -0.253598 -0.20552 -0.587749 -0.903479 -0.611853 -0.45836 0.94117 -0.909167 -0.869776 -0.743154 0.396362 -0.779023 -0.605954 0.500338 -0.521317 -0.918689 0.580141 -0.457993 -0.999632 -0.379394 -0.647999 0.869994 0.701192 0.572662 0.876776 0.960438 -0.272461 -0.639168 -0.521697 0.0452098 0.221817 -0.464525 -0.863917 0.347934 -0.909883 -0.451735 -0.925628 0.112193 0.370278 0.585538 0.65307 -0.696071 -0.0479269 -0.595688 -0.0308819 -0.790137 -0.0435303 -0.652702 -0.683322 0.399928 0.465682 -0.267926 0.3628 -0.0796933 0.61314 -0.589139 -0.0390957 0.0126203 -0.686864 0.859018 0.615168 -0.477057 -0.062927 0.188188 
-0.942673 -0.760522 0.252098 0.7304 -0.921303 -0.224329 -0.60916 -0.0736853 0.338566 -0.830399 0.35779 0.506882 -0.983193 0.239565 0.0274936 -0.32556 0.543204 0.206448 -0.183025 0.364574 0.260108 0.231115 -0.37426 0.806781 0.0873748 0.51273 0.829248 -0.434165 -0.754566 0.00412679 -0.924527 0.423618 0.786416 -0.900448 0.144762 0.891163 -0.579931 -0.0569884 0.0790943 0.175615 0.232942 0.472419 -0.275483 -0.545083 -0.466385 0.309286 0.700126 -0.37356 0.965007 -0.865392 0.492398 -0.000719721 0.0160873 -0.744348 0.283145 0.957586 0.50079 -0.292762 0.524213 -0.111213 -0.850907 -0.490075 0.222757 0.787929 0.646947 -0.131236 0.663244 0.610526 -0.452401 0.895534 0.971007 0.394625 0.181041 0.280593 -0.574645 -0.683482 -0.263413 0.679599 -0.241307 0.934308 0.167249 -0.360331 0.364186 0.819103 -0.647282 0.662004 0.36213 0.98857 0.953577 -0.911815 
-0.0615653 0.380009 0.59595 0.928642 -0.587365 -0.406877 0.294062 -0.94272 0.862256 0.496269 0.956289 0.960452 0.170901 0.415146 -0.524158 0.602322 -0.790923 -0.523015 0.0154054 0.819953 -0.405851 0.386604 0.708225 0.968022 -0.445362 0.436829 -0.578606 -0.7324 -0.259051 0.806345 -0.851105 -0.420137 -0.890462 -0.100094 0.0923331 0.305493 0.0531528 0.713362 -0.083594 0.846751 0.060546 -0.921432 -0.890347 0.422689 0.88896 0.292671 -0.369766 0.954859 0.741385 -0.515504 0.963914 0.819264 -0.324649 0.924404 0.48197 -0.319991 0.783104 -0.222965 0.98708 0.589549 0.580582 -0.254647 0.812531 0.134747 0.943363 -0.192281 -0.175425 0.335824 0.101398 0.248015 -0.0561793 -0.83371 -0.38503 0.0643859 0.956847 0.528836 -0.293156 -0.202435 -0.681794 0.348944 -0.245121 -0.281496 -0.604432 -0.224875 0.882445 0.464898 0.428091 0.232202 -0.128955 0.989999 -0.894316 -0.994251 0.851602 -0.718641 -0.758116 0.300362 0.247639 -0.00428574 0.242266 0.0922188 0.884931 -0.626913 0.764024 -0.290792 -0.466878 0.464578 0.705346 -0.566725 -0.0241431 -0.00914576 -0.990705 0.862446 0.310547 -0.822901 0.0316234 -0.547766 -0.758653 -0.13825 -0.872447 0.514569 
-0.735101 -0.824589 -0.253779 0.310598 -0.614434 -0.000923156 -0.505794 0.59948 -0.174884 -0.579531 -0.440057 0.786671 -0.767079 0.000527459 0.16669 0.870542 -0.69003 0.231998 0.494733 -0.23383 0.600242 -0.269561 0.791942 0.281405 -0.58998 -0.399231 0.89713 0.662483 -0.135392 0.642018 -0.904498 -0.3367 0.0822114 0.595047 0.43396 0.376907 -0.707535 0.682981 0.492177 0.0964431 0.896231 0.934483 0.778483 -0.844524 -0.48096 0.491279 0.368442 0.15539 -0.0275264 -0.797979 -0.0165447 -0.535114 0.36113 -0.0930437 0.980504 0.138932 -0.0287251 -0.147592 -0.724601 0.135894 0.393868 0.173296 0.835864 -0.259716 0.144234 -0.699176 0.1538 -0.0252048 -0.600634 0.996642 -0.423777 -0.710307 0.635215 0.572662 0.832506 0.316507 0.411834 0.936039 -0.273538 -0.192699 0.176401 0.408476 -0.487738 0.016155 -0.132583 -0.250936 0.240982 0.828769 -0.726416 -0.196544 0.475525 -0.951717 0.917351 0.68206 0.315718 -0.50832 -0.145503 -0.333585 -0.0769576 0.144488 0.144629 0.657953 -0.85806 -0.0286746 -0.955096 -0.173311 -0.0263288 -0.36638 -0.339158 -0.288682 0.749732 -0.881841 -0.265823 -0.681205 -0.146742 -0.278943 -0.965097 0.560867 0.292466 0.486879 0.410625 -0.935081 0.964092 -0.684541 -0.968345 0.684841 -0.148967 -0.503054 0.0863585 0.364653 -0.20556 0.775427 0.197296 0.151277 0.328745 0.109899 0.902197 -0.117863 -0.99769 0.825691 0.852529 0.26685 0.676577 0.777737 -0.521299 0.00380549 -0.404405 -0.213524 0.56468 0.360837 0.00611519 -0.578714 -0.484172 -0.16847 0.0374144 -0.216148 0.855607 0.519634 0.427125 0.82389 -0.338877 0.216445 -0.474251 0.84841 -0.328695 0.492653 -0.746141 0.309601 0.0109971 -0.809062 -0.0802221 -0.92225 0.126009 -0.772558 -0.283313 -0.231812 0.810236 -0.381338 -0.518699 -0.973712 -0.853109 -0.998825 0.53844 -0.440949 0.866293 -0.625667 -0.282138 -0.693372 -0.214969 -0.515045 -0.144366 -0.25585 -0.563416 -0.213794 -0.976605 0.414685 0.1828 -0.189084 0.504068 -0.669976 0.592332 0.667756 0.66655 -0.751782 0.452739 -0.621462 0.691151 0.0812348 0.0115698 -0.736345 0.882606 -0.978825 0.640615 -0.320674 0.930205 -0.869176 0.944419 -0.980846 -0.629523 0.0114403 -0.843943 -0.791925 0.90176 -0.608349 -0.388059 -0.164617 -0.86172 -0.967416 -0.42196 -0.368906 0.20586 0.14972 -0.725784 -0.213886 -0.467146 0.597511 0.332998 0.109599 -0.0756058 -0.434562 

