
0.0643317 0.03507 0.502094 -0.482381 0.343592 0.305311 0.368983 -0.275884 0.379545 -0.0642238 -0.0228548 -0.319657 0.523425 -0.201514 0.243046 0.522516 -0.289252 0.31922 -0.46086 -0.000172632 -0.417246 -0.463501 0.0132606 -0.333603 -0.0388765 0.384285 0.398659 -0.438642 -0.186163 -0.101255 -0.191623 -0.256046 -0.0941363 -0.0505413 0.150125 -0.400576 0.367652 -0.447254 0.040331 -0.107205 0.211899 -0.187948 0.579204 0.338131 -0.39754 0.398031 0.187964 0.183316 -0.27714 0.388448 -0.185385 -0.162129 0.0947641 -0.576065 0.228736 -0.43253 
-0.255888 0.0682282 -0.143324 -0.375672 -0.109275 0.46787 -0.0373655 0.45543 0.254089 -0.547425 -0.379955 0.110375 -0.399871 -0.296857 0.562177 -0.501324 0.478221 -0.307164 -0.154418 0.406706 -0.512951 -0.489016 0.322883 0.484241 -0.371647 0.296581 -0.446743 -0.222415 -0.10967 0.0897537 -0.496986 0.0387905 0.476661 -0.0830079 -0.298723 -0.375297 0.453439 -0.334509 -0.372331 -0.273655 -0.395434 -0.102598 
0.341934 0.342984 0.136181 -0.464413 0.236739 0.554245 0.0615673 0.0706055 0.260909 0.180498 0.183199 -0.00867072 -0.465489 0.0330368 0.26831 0.218595 0.14969 -0.501185 -0.163136 0.347723 0.208334 -0.0849936 -0.0451538 0.480954 0.408166 -0.12022 0.191458 -0.260923 
0.494601 0.113613 0.201157 0.37739 0.410622 -0.110852 -0.364919 -0.594282 0.236478 0.476506 0.266406 -0.278155 0.236535 -0.415781 0.0957576 -0.108997 0.0789317 0.404154 -0.554298 -0.105134 -0.0205376 0.137415 -0.097116 -0.401649 -0.144871 0.139065 -0.267708 0.0752219 -0.384888 -0.0153481 0.124634 -0.300979 -0.470848 0.0183692 0.482346 0.335766 -0.00928378 -0.277736 0.187422 -0.385713 -0.286073 -0.207182 0.339746 0.283672 0.365891 -0.590302 -0.588501 -0.245864 0.427581 0.202044 -0.421862 -0.0634489 -0.331828 -0.072671 -0.546327 -0.523509 -0.236166 0.0669542 -0.461405 0.1586 0.00381963 0.337432 0.564991 -0.155656 -0.226324 0.164319 -0.329775 -0.540723 0.0607483 0.335347 -0.180622 -0.540815 0.173109 -0.342372 0.393041 -0.189431 0.544012 -0.241795 0.0554556 0.593395 -0.0195378 0.0248556 0.283758 -0.558122 

