
2.01494 -0.778231 5.03506 1.45883 0.20603 1.62493 -4.84264 -2.10689 0.787191 -1.19104 7.90297 -8.80769 0.586179 0.490065 -16.108 -0.509812 1.48914 -15.569 1.33225 -5.66046 2.83658 1.32074 -2.687 -9.87502 5.15138 -7.15577 -2.43959 -2.81215 -5.62275 -1.02845 -5.41507 6.09294 3.90335 -4.43125 -5.12446 -0.209897 6.6917 -1.24592 1.05521 -1.63189 3.99051 1.50763 5.3246 -5.64095 -4.10551 -6.46093 -1.7846 -0.0503726 
-4.13651 0.268258 0.000679708 -0.0651227 0.0602273 -0.718012 -0.0592724 -0.0810786 -0.040929 3.84294 0.0377601 0.0248428 0.807353 -0.0817511 -0.113749 -0.0392138 0.392873 0.198729 -0.0519391 0.0531808 0.00788768 -0.841364 -0.0018473 0.0558002 0.179046 -0.0324652 0.0198052 -0.0890996 0.20927 0.0406006 -0.0814484 0.02946 -0.0505819 -0.163832 0.0180702 0.0501835 
2.49402 -1.78565 -0.753382 -1.72311 1.64888 0.0602821 -1.16818 0.504087 0.680542 -2.37364 1.05013 -0.150568 -0.44491 0.803874 6.47483 -2.12438 8.7067 0.377904 1.56462 1.38827 -1.14355 0.176147 1.51795 -2.35923 1.94548 4.70555 3.5605 -1.1616 -0.666434 2.2025 1.44094 0.215178 -1.69495 -1.56168 -1.19983 -3.19462 -1.14063 3.1961 -4.48661 1.54612 -2.83683 -5.78646 -2.03486 -1.37268 -1.41102 -0.0695749 0.717879 3.77881 
0.535536 0.119394 1.0787 1.27131 -0.0666543 0.109473 -0.187298 -0.290936 0.350294 -0.292491 0.312164 0.418556 0.179445 0.107448 -0.22775 -0.457193 -0.0122438 0.117855 -0.08973 0.189424 0.18539 -0.233487 0.124524 0.323541 -0.185748 0.0846095 -0.242572 0.250193 0.0668588 -0.14866 0.249563 -0.285104 0.0446763 0.0713647 0.183446 -0.458503 0.654139 0.0869511 1.1644 1.24802 0.363967 -0.0665223 -0.12581 -0.389296 -0.355926 -0.209982 -0.230398 -0.089169 0.801934 -0.464378 0.602019 0.747616 -0.197487 0.0204699 -0.609856 -0.487011 -0.76066 -0.100895 -0.969986 -0.665109 -0.901776 0.874168 0.261103 0.337026 0.830953 -0.520119 0.967547 -0.323383 -0.083036 -0.639187 -0.727704 -0.322007 -0.354717 -0.168312 -0.408688 0.00192838 0.429129 -0.119355 0.769481 0.212239 0.589409 -0.86975 0.0748089 0.698463 -0.836371 0.708046 -0.169348 0.901033 -0.656898 -0.185126 0.867705 0.0864065 0.664903 0.587699 -0.0942381 -0.821656 

