
-6.47604 1.04823 0.974532 11.8578 -1.53234 4.17518 -1.07293 -6.45692 -0.656702 -0.755417 0.750182 -0.548567 -1.00998 -6.55062 10.0285 -4.48092 -3.08618 -0.112252 5.94463 -4.58584 -4.24291 -3.26376 0.63031 -5.21368 -4.91373 -3.22838 -3.70348 -2.25512 -1.45795 0.156789 1.33333 -5.59541 0.577699 -0.923703 3.92338 3.29016 1.67136 -10.3164 -0.614343 -6.97906 -7.25762 0.0994368 1.10198 0.643564 -0.854954 -0.757495 -0.810662 -9.39085 3.09011 0.89375 2.16447 3.07579 3.3582 -2.38177 3.35398 2.72155 -1.05929 -2.63251 -3.3952 3.73663 -5.34739 -5.50714 -0.222906 -4.31837 -1.71019 8.08662 -4.19328 3.5383 -1.10219 -5.63254 1.10038 -4.58194 -2.32616 -4.18515 -4.33444 -0.101081 -3.79574 -0.137228 -2.7774 -6.46111 2.54675 2.69361 4.8804 -2.84398 -3.35416 -7.39627 8.53286 2.62626 -5.03099 -2.24691 4.64192 1.69517 -6.59777 -0.240552 2.58562 1.46378 -3.5468 -0.352942 -6.02503 8.55217 0.890799 -4.41422 1.38304 4.20998 -6.68745 3.79998 -0.50545 2.80146 -6.6928 -4.83078 2.69414 3.46438 -0.919141 0.835177 -0.923302 4.17997 -1.15529 -0.909358 -0.742301 7.33659 
-0.0626079 0.126474 0.216769 0.153274 -0.0111148 -0.525321 -0.337885 0.0639782 -0.215013 -0.268561 0.187625 0.0352461 -0.12981 -0.0980232 -0.0670704 0.0873677 0.460897 0.132214 -0.121309 0.345292 0.18437 1.36259 -0.855987 0.242838 0.157546 -0.212921 -0.190313 0.199665 -0.190073 0.189451 0.467765 -0.0357684 0.12378 0.120068 -0.0907998 0.292502 -0.203313 -0.0176467 0.228881 0.075766 0.0455612 -0.263729 0.112153 -0.179871 -0.112254 0.0223047 -0.138496 0.0252552 0.0918467 -0.113192 -0.0856747 2.50461 -1.5598 0.0908034 0.235928 0.216388 0.0561316 -0.0136458 0.0712769 0.053793 0.176706 -0.0747473 0.0935008 -0.0179872 0.0228063 -0.0276956 -0.162321 -0.0346859 0.128153 -0.0246306 -0.0213713 0.42875 0.146119 -0.0909319 -0.0400366 0.031668 0.0886787 0.0826769 0.094472 0.0726578 0.113658 -2.73897 1.81572 0.193487 -0.260357 0.0846907 0.047423 0.0310757 0.0882156 0.0760658 
-4.58799 -10.6553 -4.03765 -7.95339 -9.21606 -7.38889 -6.03394 -4.57142 -5.91458 -7.75525 -11.8949 -6.12704 -9.96355 -4.68299 -6.60076 -9.46408 -3.11733 -6.80538 -6.36917 -3.77162 -8.86442 -8.69727 -8.0638 -9.86855 -4.47238 -4.58481 -11.1789 -9.13479 -9.89426 -7.85191 2.6092 4.55088 2.73158 4.20919 3.63819 5.38358 2.75788 1.98211 3.52105 6.85313 7.82668 2.48748 6.60352 1.56035 2.72392 3.78553 0.957127 6.60999 4.1295 1.62419 5.89113 4.45543 3.87984 4.9526 1.82979 3.21588 5.52091 7.02413 3.96865 7.73584 
-0.0308266 -0.0012448 -0.0281413 0.175302 0.185815 0.0856705 0.116507 0.166826 -0.0223327 0.0337688 0.0391938 -0.23278 0.0495791 -0.0146316 -0.0878774 0.145366 0.128805 0.0620278 -0.0951666 0.0740096 0.0954072 0.0570577 0.181417 0.220368 0.0173346 0.0308732 -0.0331418 -0.10693 -0.225575 -0.162778 -0.168331 -0.153245 -0.137184 -0.0721416 0.0519626 -0.118119 0.0396387 0.0358055 0.022658 -0.0534937 0.107451 -0.000959287 0.0839571 -0.212164 -0.0185941 -0.00636939 -0.0556747 -0.103496 0.0266791 -0.00773469 0.11884 0.133273 -0.0834724 -0.038715 -0.0153852 0.146468 0.016992 -0.0467988 -0.0526649 -0.163692 -0.118103 0.0913353 -0.0678779 0.117927 0.203239 0.0280638 0.240875 0.107416 0.0455696 -0.100719 -0.0809182 -0.0454729 0.0419477 -0.0464093 -0.207535 -0.166462 -0.171301 0.00952228 -0.230268 -0.0422807 0.0752884 0.00880667 0.144786 0.0946495 0.0734201 -0.0121276 0.143493 0.111393 0.0435774 0.0317001 0.114835 0.0751298 -0.0359661 0.0369548 -0.0520325 0.137349 -0.0623131 0.0465273 -0.122407 -0.120684 0.0171754 0.00300291 -0.252668 -0.20403 0.0666697 -0.0102236 0.0960073 -0.170262 0.0345672 -0.0538064 0.239942 -0.175604 0.0351714 -0.010816 0.180541 0.232714 0.08207 -0.00558736 0.0861326 -0.055144 0.362199 -0.417893 0.264165 0.204438 0.425682 -0.228915 0.343942 -0.592211 -0.570807 -0.0516204 -0.0491809 -0.199722 0.375535 -0.0413919 0.00935478 -0.276085 0.0128127 0.409633 0.447079 0.571421 0.00227384 -0.429006 0.341166 -0.188093 -0.447075 0.312587 -0.0504795 -0.27608 -0.154075 0.361427 0.324021 -0.441488 -0.518412 -0.552059 0.423201 0.443016 0.185991 0.581713 0.373732 0.233932 -0.136434 0.216748 0.385796 -0.154721 -0.102783 0.0197281 -0.222667 -0.486035 0.428083 0.222612 0.00799738 -0.152189 0.459921 0.121962 -0.288601 0.0825328 0.442239 0.15921 0.106921 -0.035799 

