
7.45502 -3.71556 -2.15165 -0.546381 -1.08961 -7.83875 -5.05825 -3.21685 0.75355 7.28955 -0.907423 2.47854 -4.63793 -4.21166 -16.2128 -6.23532 -9.93749 8.98918 1.54623 -10.0014 -2.18012 -1.11899 2.63421 9.53844 -1.5431 2.49465 8.28804 -0.491647 -4.44173 -7.97441 2.2744 -5.06278 4.84225 1.86298 -8.97772 -5.93148 1.01977 -5.66927 -0.613883 -3.94672 1.30528 -6.96879 -2.66013 9.99312 -3.75762 3.37807 -9.22697 -0.658909 -3.68437 2.97755 3.30494 -1.19971 -3.25544 -1.48138 -0.673194 -4.95932 
0.132212 -0.17479 0.215941 0.122538 0.0893019 -0.0757415 0.213066 -0.138972 8.05851 -0.0570172 -7.90222 0.0527417 -0.0654422 0.181932 -0.11288 0.0510616 -0.00167157 0.16214 -0.0187191 -0.0645896 -0.13332 -0.011671 1.49946 0.0515214 -1.50689 -0.101741 0.0403795 -0.0329448 -0.0896916 0.177766 -0.0716029 -0.000199951 -0.0955065 0.0442505 -0.10044 0.0528787 10.3772 -0.0210785 -10.1535 0.0487586 -0.00951848 0.0569673 
-2.31879 -4.13204 -5.1855 -2.74014 2.12046 3.26352 -5.34919 1.20862 2.50498 -4.12426 -2.87066 3.49463 -2.64776 -4.46178 2.4628 11.559 1.74335 3.5364 -4.37856 -1.62603 2.04273 -4.20082 -3.02531 3.78056 3.10873 5.8575 4.07591 8.42596 
-0.0266692 0.0166173 -0.178769 -0.205823 -0.0208076 0.073934 0.0287783 0.0133878 -0.10436 0.00327933 -0.0924857 -0.354922 -0.12543 0.0234375 -0.174536 0.057219 -0.0102368 0.101023 -0.064711 -0.196281 -0.328533 -0.0536192 -0.255562 -0.232172 0.130926 -0.0356296 0.209866 0.333488 -0.0549835 0.122419 -0.281348 -0.291082 0.624548 0.038319 0.948795 0.667848 0.111702 0.0330326 -0.103838 -0.18552 0.638293 0.0335854 0.968263 0.660989 -0.00169549 -0.0200988 -0.231057 -0.214932 0.00648652 -0.0642585 0.199157 -0.238935 0.13969 0.0633483 0.0569366 0.0853856 -0.236166 0.0669542 -0.461405 0.1586 0.00381963 0.337432 0.564991 -0.155656 -0.226324 0.164319 -0.329775 -0.540723 0.0607483 0.335347 -0.180622 -0.540815 0.173109 -0.342372 0.393041 -0.189431 0.544012 -0.241795 0.0554556 0.593395 -0.0195378 0.0248556 0.283758 -0.558122 

