
0.72469 -0.488265 0.324896 0.585701 -1.34368 -3.39097 -2.60676 9.45768 4.83854 -1.73407 -2.16516 0.579623 0.795379 2.30192 2.24533 6.58625 -4.04471 3.47277 2.91135 -1.3078 -7.21436 -1.34301 -1.42368 5.05428 -2.91754 -2.27093 -0.390597 1.75347 -1.10901 2.69794 0.608661 -2.03579 -3.03145 -1.08654 3.15873 0.577288 -3.23348 7.83589 -2.46967 -4.61524 0.376144 -0.87168 0.463471 -0.256629 3.96446 3.23973 0.804277 -5.96108 -2.83296 -0.105757 -5.19431 -2.93527 1.49261 -2.2054 2.61617 10.2781 -0.259702 2.36283 -0.458351 -0.618887 1.25302 -0.373052 0.307651 0.423615 -0.75531 -4.5569 -2.99467 -2.98911 -6.41079 1.18534 -0.747959 -3.46537 2.02529 -3.6478 -0.390898 0.72739 -0.451077 1.08381 -0.150657 -0.111707 3.62594 -0.319143 0.643109 -1.23165 1.7165 3.16538 -1.89182 6.14733 -2.16389 -3.72557 -0.437684 2.122 -1.88818 -1.19022 3.85118 -2.1032 1.46893 -2.14924 6.48099 3.93967 0.533229 0.656243 -5.67429 0.230183 3.44024 4.7773 0.451206 0.716698 2.97313 -1.54454 0.447508 -3.18025 -1.4562 0.904668 -3.43167 1.15392 -3.10046 -1.91675 -3.08707 4.2044 
0.459973 0.16052 -0.421632 -5.85582 1.86472 0.0351937 -0.272726 0.0715235 0.0586335 2.2501 -0.186368 0.0418547 -0.0731091 -1.66821 2.81492 -0.0441009 2.1924 -0.100999 2.53001 -2.16654 -0.0143279 -3.05808 -0.417676 -0.326638 -2.43444 0.0630747 -0.358894 -0.0270552 -0.415545 -0.0891839 0.075337 -0.0939378 -2.13863 -0.470943 0.120292 0.101382 -0.186296 0.00624842 0.0552251 0.0856359 -0.0258942 -0.141321 -0.429762 -2.0465 -5.67123 0.0628148 -2.37528 0.0740213 -4.98587 -2.49895 0.0267718 4.15447 -1.75559 0.038826 3.23779 0.0158822 -6.67224 -0.0332246 -0.613933 0.111958 0.690358 0.0820023 1.17995 -1.56402 0.481734 0.0522376 -0.0904096 -0.0546074 0.0334994 0.566208 0.0307185 0.246239 -1.30611 2.03584 1.72897 0.0637744 1.80287 0.0503493 1.62323 2.59419 0.0352447 -3.43356 0.96033 0.227229 -2.63836 0.0139695 2.80786 0.0290755 -0.0108098 0.237268 
-0.516155 0.55985 -1.66407 -0.106495 -0.85902 -2.2222 -0.097595 -0.584113 -3.37805 0.267253 -4.1973 -0.644687 0.448479 -0.680051 0.266946 -2.38406 -1.87877 -0.443879 -0.0509763 -1.54122 -0.617598 -1.63175 0.799164 -1.7528 -1.66731 -0.699777 0.500982 -1.60607 -2.9249 -0.629294 8.03171 7.36657 7.61664 6.27468 3.56969 8.01616 5.45462 7.54154 5.73462 6.14055 5.53321 3.16859 5.58377 6.7564 6.95899 6.71864 5.4925 12.052 6.10064 7.88767 4.21647 8.17877 8.07529 8.40568 7.38073 6.80208 8.09222 12.0222 4.32256 8.13667 -4.27929 -5.90673 -6.30324 -5.47336 -3.61171 -4.27885 -8.48445 -6.58328 -4.35252 -6.93018 -5.77104 -2.53762 -5.11396 -3.72784 -4.86537 -5.40644 -4.2397 -8.0117 -5.55888 -6.54869 -3.49834 -7.22084 -2.42153 -7.28841 -5.60981 -3.73692 -5.47966 -4.56161 -4.36342 -11.5516 0.0507899 -1.02335 -0.737493 0.117374 0.732298 1.26353 -0.260584 -1.20705 2.84498 1.82245 2.18535 1.14521 -1.30138 -2.24193 0.075928 0.695716 -0.879886 -2.24406 0.0895553 -2.43901 0.522453 0.289106 -1.47649 -1.43956 -0.0078222 -0.577255 -1.59913 3.69043 1.7625 2.3867 
0.0330397 -0.00265899 0.0591079 -0.087402 0.00503834 -0.146527 0.0881021 0.1287 -0.0625932 0.110638 -0.114592 -0.401959 0.123388 -0.010441 0.197219 0.111437 0.400997 -0.087652 0.605259 0.117255 -0.359584 0.00792187 -0.744551 -0.772204 0.140639 -0.0155285 0.0831538 0.337127 0.226482 0.0899286 -0.256332 -0.488212 0.102722 -0.0808976 0.0347454 0.540109 -0.299783 0.0947814 -0.428639 -0.0402017 -0.12727 0.0733385 -0.0637677 -0.547492 -0.00726349 0.100189 -0.236855 -0.223308 -0.0102772 0.015461 -0.00133595 -0.0987331 -0.0218677 0.110754 -0.330569 -0.501957 0.373292 -0.353084 0.366609 0.687536 0.368293 0.0147924 0.47539 0.56609 -0.0111402 -0.0362896 0.0410256 0.123156 0.0477928 -0.141175 0.0770993 0.350008 -0.364538 0.409646 -0.359278 -0.759879 0.0424026 -0.100032 0.28455 0.455606 -0.457689 -0.165265 -0.0896413 -0.0410768 -0.155766 0.299956 -0.374549 -0.84899 0.0733524 -0.115729 0.114555 0.405015 -0.0079856 0.0232384 -0.111028 -0.272352 0.203898 -0.277951 0.509433 0.972573 -0.22719 0.28563 0.0860603 0.247469 0.00238404 -0.0114002 0.0216866 0.0501167 0.340254 -0.0870369 0.620522 -0.139465 -0.0226476 0.00777774 -0.077464 0.136755 0.0638637 0.00889182 0.0998464 0.542714 -0.598162 -0.251207 -0.655828 0.189504 0.253643 -0.484404 0.3993 -0.737448 0.741607 -0.346599 -0.772459 0.887255 -0.814792 -0.509601 -0.00242649 0.417045 0.603184 -0.299196 0.889699 0.260126 0.218835 -0.743415 -0.0716559 0.776953 0.519196 0.709234 0.254159 -0.654611 -0.729021 -0.780001 0.598933 -0.485715 -0.299878 -0.472436 0.148343 0.375886 0.32466 -0.590644 0.781723 0.493732 -0.713122 0.544659 -0.991712 -0.703992 -0.155565 -0.185558 -0.306998 0.384175 0.0413485 0.25379 -0.403835 -0.813266 -0.485101 -0.413993 0.262079 -0.107827 0.58034 0.329341 0.279009 -0.353747 -0.850535 -0.165869 0.925506 0.465743 0.752067 -0.264528 -0.903791 -0.182321 0.912102 0.081408 -0.985518 -0.257537 0.936827 -0.253768 0.00691422 0.480225 -0.772444 -0.3277 -0.157558 0.824593 0.720925 0.308964 -0.313219 0.584904 -0.0219715 -0.532842 -0.684122 -0.832994 -0.74547 0.650328 0.309599 -0.859529 0.19721 0.563494 -0.662891 -0.105497 0.85001 0.664368 0.879372 -0.495884 -0.965306 0.500339 -0.0260331 -0.980157 0.280046 0.598187 0.837448 0.86847 0.150168 -0.0555866 0.477559 -0.658436 -0.886242 -0.349493 0.91838 0.497402 0.399759 0.711945 -0.512045 0.786851 

