
0.621121 -0.934091 3.17905 -1.09809 -0.40252 0.113641 -0.340704 0.00739628 -0.0838221 -0.403001 0.236556 -1.96732 -0.710878 0.922792 1.34938 -0.0517469 0.0103147 0.683685 0.771895 -0.0557572 0.59558 -0.0667446 -0.7217 -0.42147 -0.802936 0.339721 -0.256473 -0.0876019 1.00042 0.0419312 -0.946921 -1.08766 0.734201 -0.525494 0.605436 0.75767 0.622852 -0.317052 -0.305296 -0.0306266 0.709698 -0.539155 -0.919107 1.13183 1.10596 -0.689446 0.000356459 1.05113 -0.301357 0.891488 0.206151 -0.63631 0.885092 0.458091 -0.337539 -0.479913 -0.280604 -0.346953 -0.661701 -0.758234 -0.26541 -0.425639 4.02594 -1.0591 0.298461 -0.401693 1.00755 -0.876932 -0.329245 0.667512 -0.197745 -2.07769 1.22299 0.128945 -1.0687 -0.0620172 -0.395337 0.55679 1.42404 0.539149 0.308676 0.83691 -0.475396 -0.476294 -1.37738 0.0971689 0.307484 0.171669 -0.907604 1.10102 -0.639483 -0.384545 -1.38956 0.271015 1.27186 0.220375 5.22419 -1.37947 0.3287 -0.45278 -0.554227 -1.01629 0.823018 -0.565924 -0.521731 0.44636 0.666204 -0.479575 1.04591 -0.00125462 4.11521 -0.530049 -0.574615 -0.312712 -3.17284 1.1296 0.548439 -0.329361 -0.342426 0.646461 
-1.03916 -0.690163 -0.0225294 0.586612 -0.604567 -0.502371 0.0854079 -0.881749 0.372424 -0.671758 0.160049 -0.890532 -0.897199 0.358725 -0.222999 -0.621089 0.512825 0.445652 -0.321995 0.497611 -0.111792 0.425884 -0.308378 0.735737 0.00818492 0.24966 0.930979 0.325012 -0.579686 0.756939 -1.26608 0.873433 -0.0131438 -0.431993 0.135588 1.36966 0.037374 -0.564369 0.113981 0.671039 -0.0131164 0.32303 -0.733316 -0.963403 -0.492359 -0.0710864 0.811837 -0.395214 0.557912 -0.986846 -0.0352374 -0.362822 0.714339 -0.487146 -0.0382089 0.581737 1.03624 -0.457759 0.442723 -0.156132 -0.462834 -0.888498 0.00899243 0.943188 0.581541 -0.330521 0.13752 0.546897 -0.753067 0.910832 0.0972503 0.432154 0.584721 0.190795 -0.235151 -0.0231244 -0.527886 0.442827 -0.26057 0.730645 0.134199 0.406827 -0.465606 1.29447 -0.0388228 0.265895 0.157687 0.33875 0.738273 -0.76353 
-0.0842779 0.229294 0.696638 0.726371 -0.895755 -0.431407 0.109201 -0.892132 0.737516 0.3314 1.04887 0.650473 0.172729 0.408832 -0.447163 0.519727 -0.751866 -0.598578 0.0145221 0.520698 -0.482819 0.377639 0.814878 1.05065 -0.274435 0.323979 -0.605605 -0.448261 -0.243733 0.498968 -0.907535 0.208076 0.505881 0.615949 0.362288 0.974321 1.18562 0.556387 0.572283 1.37968 0.389259 0.511104 -0.0622228 0.915407 0.481065 1.03903 0.209885 1.42279 0.725013 0.48393 3.34907 1.05825 0.534222 1.59366 -0.602118 0.123494 1.41094 -0.025537 1.80844 0.0813571 0.534746 -0.471024 0.747579 -0.0775188 0.582582 -0.227493 -0.41049 0.350348 -0.0475351 0.0687702 -0.0727048 -0.959157 -0.50259 0.304034 0.922846 0.560979 -0.35121 -0.392981 -0.505355 -0.00463172 -0.53212 -0.234588 -0.644112 -0.239992 1.0169 0.381691 0.266234 0.543313 -0.213596 0.794891 -0.908928 -0.158106 1.78164 0.209744 -0.614632 0.62569 1.2285 -6.38773e-05 0.792804 0.464665 1.07037 0.547239 1.25631 -0.436319 -0.541578 0.843932 1.07547 -0.0894296 -0.394521 0.855647 0.902839 0.937451 0.920493 -0.566469 -0.617615 -0.118588 -0.230524 -0.191389 -0.189079 0.0690618 
0.140757 -0.112487 0.17204 0.345034 -0.302971 -0.00804328 -0.196803 0.0352088 0.557665 -0.0326427 0.612177 -0.113088 -0.43417 0.0161657 -0.419392 0.130423 0.0195982 0.023384 0.325276 0.344722 0.0203676 -0.0355982 0.0885756 0.293864 -0.0292986 -0.0247088 0.0398109 0.463009 -0.0579958 0.165339 -0.169567 -0.231994 0.025886 0.0205711 0.0540086 -0.000309864 0.0786678 -0.000656407 0.0889783 0.275022 0.171011 0.173609 0.070122 -0.172309 -0.00857549 -0.000610232 -0.0377412 -0.322271 0.0537714 -0.116055 0.141309 0.227916 0.0295827 -0.0414134 0.128428 -0.0460877 0.351236 0.112266 -0.237698 -0.127612 0.0462132 -0.0202711 0.0802564 0.23337 0.00989795 0.00413392 0.0216928 0.145075 -0.0535336 0.349987 -0.0453101 0.356649 0.138491 0.0626108 0.27215 -0.114728 0.14804 0.0920963 0.0300798 0.212717 0.0594489 -0.220018 0.0904866 0.698379 0.112642 -0.400566 0.130435 -0.221827 -0.054465 0.0214972 -0.0136963 -0.208745 0.362458 -0.0401548 0.289666 -0.120598 -0.0941549 0.00668727 -0.248766 -0.327235 0.274294 0.0873054 -0.189646 -0.0686645 0.148635 -0.111568 0.205023 0.238426 -0.345485 -0.0653615 -0.0123301 -0.292141 -0.161324 -0.00657685 -0.066387 -0.248556 -0.0595879 0.0132048 0.291897 0.220177 0.410625 -0.935081 0.964092 -0.684541 -0.968345 0.684841 -0.148967 -0.503054 0.0863585 0.364653 -0.20556 0.775427 0.197296 0.151277 0.328745 0.109899 0.902197 -0.117863 -0.99769 0.825691 0.852529 0.26685 0.676577 0.777737 -0.521299 0.00380549 -0.404405 -0.213524 0.56468 0.360837 0.00611519 -0.578714 -0.484172 -0.16847 0.0374144 -0.216148 0.855607 0.519634 0.427125 0.82389 -0.338877 0.216445 -0.474251 0.84841 -0.328695 0.492653 -0.746141 0.309601 0.0109971 -0.809062 -0.0802221 -0.92225 0.126009 -0.772558 -0.283313 -0.231812 0.810236 -0.381338 -0.518699 -0.973712 -0.853109 -0.998825 0.53844 -0.440949 0.866293 -0.625667 -0.282138 -0.693372 -0.214969 -0.515045 -0.144366 -0.25585 -0.563416 -0.213794 -0.976605 0.414685 0.1828 -0.189084 0.504068 -0.669976 0.592332 0.667756 0.66655 -0.751782 0.452739 -0.621462 0.691151 0.0812348 0.0115698 -0.736345 0.882606 -0.978825 0.640615 -0.320674 0.930205 -0.869176 0.944419 -0.980846 -0.629523 0.0114403 -0.843943 -0.791925 0.90176 -0.608349 -0.388059 -0.164617 -0.86172 -0.967416 -0.42196 -0.368906 0.20586 0.14972 -0.725784 -0.213886 -0.467146 0.597511 0.332998 0.109599 -0.0756058 -0.434562 

