0.470322 0.362897 0.315573 -0.319524 -0.148606 -0.145002 -0.434156 -0.447808 -0.13069 -0.0173949 -0.443898 0.438263 
-0.363769 0.183457 -0.0864898 0.168502 -0.300084 0.341824 -0.311409 -0.495837 -0.140839 0.228471 0.166734 0.397487 -0.207359 -0.387238 -0.335045 -0.27975 -0.337495 0.00835322 -0.0213251 0.159151 0.224995 -0.2924 -0.156169 -0.472712 -0.269247 -0.343327 0.450786 0.168806 0.493203 0.114103 -0.0230006 0.328393 0.380585 0.436688 -0.270671 -0.157909 
-0.44584 -0.3907 0.389801 -0.218942 -0.156206 -0.239025 -0.0962767 0.495648 -0.219507 -0.290515 -0.104539 -0.31032 -0.0592015 0.227296 0.166955 -0.160369 0.0359804 -0.0329643 -0.401839 0.339695 -0.017811 0.228505 0.35005 -0.12573 0.00704612 0.173752 -0.34896 0.376829 0.0864505 -0.068573 0.312407 0.475143 -0.445246 0.19901 -0.00255921 -0.0654246 -0.495054 -0.190784 -0.101845 0.258057 0.202956 -0.0314245 0.133052 -0.450192 -0.110207 -0.400714 0.176518 0.0334744 0.323826 0.49174 0.429005 -0.164925 
-0.0119384 0.482169 -0.337349 -0.163862 0.167857 0.366228 -0.398712 -0.473003 0.139802 0.46219 -0.265596 0.166375 0.391785 -0.308346 -0.427098 0.128041 0.266018 0.0947334 -0.377686 0.026977 -0.0477918 0.161199 -0.0291663 -0.0221505 0.024837 -0.20906 -0.255872 -0.299563 0.261666 0.490194 0.110375 0.00914587 -0.208097 0.011249 -0.361309 -0.155923 -2.01047e-05 0.288381 0.383929 -0.337373 0.311474 0.166712 0.00216007 0.2008 0.0723963 0.200929 0.404709 0.438811 
0 0 0.410251 0 0 0 -0.478974 0 0 0 -0.26357 0 0 0 -0.328774 0 
