1.59358 0.410888 0.373607 -0.252035 -0.0797474 -0.191845 -0.386039 -0.74088 -0.214527 -0.0786022 -0.384089 0.406892 
-0.0954327 0.22919 -0.0198401 0.237317 -0.230004 0.00460028 -0.316629 -0.77105 -0.426307 0.0768623 0.320293 0.338471 -0.00397024 -0.386499 -0.406459 -0.322122 -0.432542 0.0387126 -0.145089 0.0615317 0.0657649 -0.217245 -0.0392508 -0.434193 -0.193717 -0.37145 0.465923 0.189343 0.515705 0.0688463 0.159299 0.104652 -0.0203324 0.381453 -0.607478 -0.14444 
-0.996765 -0.372389 0.390959 -0.219155 -0.156209 -0.234236 -0.0974142 0.607564 -0.140758 -0.297938 -0.128484 -0.319216 -0.419939 0.230608 0.182198 -0.144889 0.0536871 -0.155853 -0.429741 0.253725 0.0462851 0.202152 0.17121 -0.131043 0.14623 0.177164 -0.334602 0.396508 0.105521 0.100738 0.355685 0.374056 -0.59044 0.201045 0.215343 -0.0690915 -0.529061 -0.191996 -0.101705 0.258178 0.203235 -0.0380841 0.130677 -0.45184 -0.106132 -0.401313 0.161836 0.0340047 0.327929 0.604613 1.16908 -0.19195 
-0.332633 0.839842 -1.45941 -0.211747 0.188428 0.361495 -0.360739 -0.47243 0.156625 0.448473 -0.176209 0.165856 0.407751 -0.335136 -0.282089 0.128394 0.278145 0.0624988 -0.183571 0.0253191 -0.185117 0.0739191 0.708981 -0.0362526 0.0474562 -0.326741 0.275632 -0.300754 -0.479129 0.748315 0.384585 -0.0983536 -0.575435 0.150277 -0.466256 -0.181957 0.037775 0.25203 0.501859 -0.332875 0.567753 -0.0522793 0.452785 0.243754 0.0888951 0.202042 0.415706 0.438977 
-1.04014 0 0.410251 0 0 0.744258 -0.478974 0 0 0 -1.38349 0 0 0 -0.328774 -0.275136 
