-0.375354 0.42532 -0.370381 0.271702 -0.117858 0.0975353 0.307853 0.292729 -0.0841495 -0.154936 0.238513 -0.13999 0.216792 0.0818168 0.106366 0.440285 0.291119 -0.116708 -0.219718 -0.260239 -0.210643 -0.0310001 0.404931 0.132641 -0.359965 0.319416 0.208377 0.411904 -0.473792 -0.136253 -0.30768 -0.115161 0.204326 -0.499513 -0.485401 0.427212 -0.458859 -0.276469 0.460225 -0.465813 -0.140477 0.202193 0.154605 0.0652257 0.216754 0.330895 -0.150896 0.42076 0.0375676 0.134753 0.403774 -0.311824 0.301746 0.290931 0.398656 -0.329191 -0.222848 -0.377566 -0.324429 -0.16672 0.170232 -0.498447 -0.363932 0.275492 0.151872 -0.456105 0.299458 -0.210007 -0.467365 -0.276546 0.426701 -0.497267 0.0213304 0.417296 0.0409018 -0.18353 0.197305 0.110866 0.13202 -0.117556 -0.22912 -0.239156 -0.0255387 -0.298649 0.0599432 0.145132 0.23999 0.404691 -0.427564 0.0705739 -0.38474 0.382284 -0.0479815 -0.00748295 0.279179 0.102969 -0.348768 0.417375 -0.15883 -0.0253171 0.0102155 0.242152 -0.185673 -0.11033 -0.100905 -0.143865 -0.363817 -0.378195 0.140292 0.456553 0.371174 -0.424634 0.345215 -0.0762401 0.023327 -0.400302 0.448138 -0.298738 -0.00479225 -0.231322 
-0.364974 0.267667 -0.308574 0.25137 0.422179 0.130556 0.0786936 -0.0166158 0.158955 -0.477297 -0.208619 -0.094726 0.220518 0.434418 0.467733 -0.399254 0.473749 0.469185 0.49083 0.00768167 0.0951076 0.227569 0.195996 0.140426 -0.415817 0.172401 0.182231 -0.474423 0.403701 -0.110963 -0.454965 0.335966 0.476002 -0.000671352 -0.35554 -0.0783882 -0.166484 0.0347775 0.107213 0.440493 -0.424481 0.343186 -0.465388 0.285982 0.208161 -0.161283 0.41741 -0.0992056 -0.44025 -0.417548 -0.126167 0.279107 -0.000375291 -0.0659577 -0.0982248 0.00252119 -0.02373 -0.0545447 -0.0637151 0.443967 -0.386107 -0.184756 -0.2861 -0.466685 -0.366987 0.373003 0.495436 -0.478356 0.0168521 -0.412574 -0.367539 0.468427 0.444429 -0.0562422 0.088218 -0.49017 -0.156654 0.378123 -0.0146635 -0.0741705 0.00134847 -0.155466 -0.120854 -0.334872 0.373288 -0.287995 -0.370585 0.0302094 0.089959 0.172411 
0.314867 0.103065 -0.360415 -0.287689 -0.308078 -0.0745074 0.203249 0.138796 -0.0276363 0.163417 -0.184658 -0.0602941 0.460012 -0.234267 -0.456968 0.108525 -0.298912 0.147558 0.374972 0.476685 0.312619 0.256343 0.301023 -0.228367 0.0277361 -0.489404 0.332628 0.398563 0.31881 -0.137337 0.0390743 0.259018 -0.080269 -0.324938 -0.163287 -0.368407 0.387453 0.334593 0.382052 -0.0831687 -0.129779 -0.458612 0.153418 -0.152406 0.347602 0.0200962 0.164792 -0.373562 0.346292 0.354267 -0.489869 -0.421486 0.2229 -0.0947195 0.0925115 0.037163 -0.225702 -0.453072 0.143851 0.405909 -0.453756 -0.294977 -0.432542 0.00436576 -0.3321 -0.314698 0.499368 -0.451014 -0.241009 -0.144497 0.130694 0.275886 0.304735 0.418672 -0.130931 0.113226 -0.277714 -0.0291533 -0.335069 -0.0185227 -0.156978 -0.115329 -0.0707382 0.1979 -0.31491 -0.474255 0.341089 0.183867 -0.391241 -0.430865 -0.183785 0.187248 0.0850399 -0.241445 -0.103056 -0.00704925 -0.292385 0.306696 0.157666 0.162785 -0.135672 0.198697 -0.184485 0.396427 0.318919 -0.0867404 -0.380241 -0.483372 -0.0118023 -0.301029 -0.216535 0.421274 -0.2175 0.114655 0.412407 -0.0601418 0.0305285 -0.416347 0.344556 -0.296249 -0.233357 -0.339207 0.44994 -0.00872258 -0.476038 0.216633 -0.353992 -0.268463 -0.124998 0.124446 -0.323083 0.199053 -0.183798 0.211922 0.0462996 0.335611 0.0612188 0.445357 -0.240448 0.474026 -0.473241 0.0667122 0.421871 0.188746 0.0137855 0.319663 0.388953 0.459335 -0.416291 -0.0635622 0.325351 -0.421689 0.471159 0.271009 -0.171306 -0.364757 -0.00935504 -0.427053 0.475624 0.00151079 0.362231 -0.349111 -0.0708189 -0.404411 -0.431877 0.429428 0.434208 -0.482854 -0.499458 -0.457304 -0.211622 0.144223 -0.0967122 0.224659 0.251803 0.447616 0.0298343 -0.302347 0.428422 0.458089 0.160749 -0.14035 -0.478675 -0.416094 -0.0247447 -0.0358906 0.478624 -0.36461 0.292908 -0.34657 -0.0627244 0.174322 0.317026 0.258658 0.469807 0.342441 -0.284652 -0.41525 -0.0823745 -0.366822 -0.199389 0.421816 -0.174804 0.403033 0.05663 0.343146 -0.244812 0.335456 0.292172 0.233586 0.462639 0.163315 0.0398994 -0.347974 -0.116388 0.237958 -0.270086 0.206793 0.339112 0.10307 -0.187693 -0.0080383 -0.0303683 -0.350802 -0.279379 0.152637 -0.180123 0.415164 -0.398007 -0.310626 -0.388491 0.484338 -0.444951 0.489357 -0.0643986 -0.355141 0.291987 0.0159649 0.426855 0.191625 -0.175024 -0.209684 -0.139804 0.233648 0.492008 0.175142 0.142671 -0.0434409 0.213582 0.231425 0.0690238 0.490001 -0.467749 -0.0921037 0.0600842 -0.10094 -0.416594 -0.262233 0.153179 -0.137427 -0.296458 0.246215 0.092662 0.336168 0.23614 -0.497335 0.0191915 0.133254 -0.426719 0.250075 -0.460105 -0.458119 0.465292 -0.0911179 0.265571 0.324305 0.212272 -0.372602 -0.0319497 0.296101 0.393835 -0.112096 0.0484506 -0.172318 0.459808 0.374692 0.123244 0.144834 0.316685 -0.283416 0.0383789 0.074995 0.187769 -0.393424 -0.197155 -0.0641919 -0.408644 0.0715958 0.294837 -0.247223 
-0.360658 -0.00413812 0.212521 0.0183021 0.338804 0.300517 0.429001 0.322756 -0.347851 -0.0806429 0.0938149 0.390697 0.391099 -0.413056 0.0478089 -0.133631 -0.129611 -0.340201 0.311184 0.359228 0.441606 -0.0674892 -0.146424 -0.349595 0.434565 -0.0403648 0.0176656 0.266528 -0.440201 0.22136 -0.251899 -0.0625326 -0.354969 0.371878 0.489209 0.235082 -0.111363 -0.159578 0.418677 -0.0208434 -0.0616293 -0.361202 -0.171434 -0.268024 -0.0803132 -0.144422 -0.394529 0.0484356 -0.348395 0.277905 -0.474686 0.370881 -0.00762617 -0.0210281 -0.33346 0.379322 0.373244 0.371999 0.108235 0.372966 -0.323477 -0.0372183 -0.484087 -0.135748 -0.0318187 0.401623 -0.232041 -0.286334 0.290676 -0.412608 -0.269457 -0.184679 0.291348 -0.252112 0.283939 0.32376 -0.492906 0.316394 -0.134729 0.068581 0.452169 -0.398576 0.307695 -0.22968 -0.0855711 0.163261 0.197004 0.379093 -0.0753709 -0.261763 -0.250196 -0.0850491 -0.382663 -0.328053 0.238501 -0.183948 0.431219 0.410669 0.169769 0.0120207 -0.47462 0.0651251 -0.293701 -0.134775 0.455885 0.062261 -0.176855 0.247613 -0.22406 -0.26165 -0.185168 -0.373196 -0.12718 -0.0233811 0.279654 0.119146 -0.240735 -0.297762 -0.327758 0.0141769 -0.344287 0.229783 -0.25586 0.0447666 -0.28488 -0.404294 0.050365 -0.330066 0.372007 0.184263 -0.405485 0.220839 0.436082 0.109366 0.000651813 0.277381 -0.081149 -0.202022 -0.0541261 -0.389643 0.0185834 -0.278682 -0.406341 -0.0872993 -0.11098 -0.380202 -0.463354 0.121089 -0.0297795 0.460051 0.0921513 -0.251634 -0.0345412 0.138425 0.127821 -0.0152742 0.170163 -0.293421 -0.0069044 -0.345516 -0.447397 -0.18701 -0.315552 -0.425175 -0.360923 -0.0947978 0.403577 0.468141 0.152453 0.103452 -0.247831 -0.226078 -0.0933515 0.0971488 -0.0361554 -0.241125 -0.0581521 0.0246656 -0.0616386 0.112504 -0.216223 0.00053547 0.23938 -0.454926 -0.27503 0.44857 0.429037 0.148427 -0.482239 0.092845 0.302679 0.0967665 0.184984 0.314205 -0.315849 0.130172 0.352147 0.397178 -0.199119 0.121214 0.00494651 -0.4234 -0.496585 -0.217868 -0.22195 -0.0569747 -0.42798 -0.123187 -0.16446 0.413385 -0.433242 -0.494518 0.315981 -0.451511 0.00710217 -0.27338 -0.127937 0.220447 -0.105426 0.428385 -0.0486833 0.163524 0.190466 0.130186 -0.267361 -0.362726 -0.421233 -0.230759 -0.478672 -0.484212 0.304651 0.0279171 0.166939 0.472598 0.408236 0.175665 -0.290706 -0.04442 0.104781 0.434712 0.0336059 0.310133 -0.156102 0.215428 -0.0202999 -0.365144 -0.452273 0.429741 0.350154 0.0331654 -0.316392 -0.30287 0.00059898 0.474084 0.448067 0.116974 -0.286377 -0.183032 0.451069 0.365942 -0.436309 0.211525 0.364069 -0.0268031 0.382319 0.123732 0.326268 0.169203 0.421749 0.385781 -0.301893 0.373825 -0.444577 0.0794975 0.452897 -0.482825 0.171459 0.25601 0.0193567 -0.0450858 0.251354 -0.104763 -0.125576 -0.470493 0.0275648 0.0698712 -0.269202 0.488428 0.207079 -0.114702 0.338696 -0.0371208 -0.240693 0.347621 0.411826 -0.348703 -0.103861 0.4 0.410176 0.0928599 -0.134909 0.111123 0.179039 0.109483 0.304655 0.0963709 -0.032375 -0.24864 -0.0479125 -0.0563716 -0.0666404 0.249742 -0.413549 -0.436789 -0.377333 -0.457158 -0.216188 0.182822 0.0308358 -0.125973 -0.270008 0.22744 -0.383819 -0.219422 0.459416 -0.206797 0.350108 -0.340976 -0.128796 0.142238 0.324039 -0.275865 0.298573 -0.401356 0.25842 -0.395383 -0.302347 -0.408224 0.448751 0.417443 0.383224 0.339891 0.415815 -0.327114 -0.463077 0.481868 0.0983109 -0.479568 0.21183 -0.3713 0.430619 0.0157539 0.0674873 0.0517213 -0.455485 -0.396494 -0.35272 0.0493553 -0.349968 -0.435053 0.171881 -0.22402 -0.0200253 0.165786 0.221971 -0.276398 -0.179506 0.0834803 0.250732 -0.228674 -0.126366 -0.114559 -0.215615 -0.473288 0.251301 -0.46058 -0.185184 0.00798687 -0.152794 -0.165219 -0.128054 0.086142 0.381621 0.232648 -0.30223 -0.101342 -0.162557 0.421041 -0.256799 0.205756 0.245864 0.172224 -0.112267 0.329343 0.0873774 -0.0214884 -0.367518 0.286391 -0.333215 0.00841862 0.276366 0.338238 0.032255 0.339009 -0.246325 0.105709 -0.0743843 -0.489233 -0.481737 -0.459934 0.272494 0.434034 -0.26872 0.356502 0.0723209 0.111503 0.138973 0.336989 -0.217883 0.0830875 
0 0 0.282981 0 0 0 0 0 0 0 0 0 0.148638 0 0 0 0 0 0 0 0 0 -0.200295 0 0 0 0 0 0 0 0 0 -0.0331518 0 0 0 0 0 0 0 0 0 0.232291 0 0 0 0 0 0 0 0 0 -0.24096 0 0 0 0 0 0 0 0 0 0.164501 0 0 0 0 0 0 0 0 0 0.0677466 0 0 0 0 0 0 0 0 0 0.275005 0 0 0 0 0 0 0 0 0 -0.202245 0 0 0 0 0 0 0 
