-0.645634 0.36881 -0.36306 0.34118 -0.124856 -0.25078 0.716188 0.305974 0.426599 -0.271551 0.830396 -0.161963 0.0303547 0.159073 0.2035 0.441331 0.171225 -0.0451761 -0.429239 0.0545967 -0.5332 -0.530052 -0.0725168 -0.00797859 -0.416939 2.1126 0.259198 -0.0788256 -0.577243 -0.14948 -0.348963 0.0018573 0.155227 -0.631908 -0.442229 0.439803 -0.381805 -0.246719 0.37976 -0.503619 -0.114313 0.177378 0.151662 0.0598699 0.159355 0.343739 -0.142704 0.409842 -0.176708 0.328103 0.298522 -0.3029 0.48464 0.343609 0.343639 0.025399 -0.264451 -0.603464 -0.340459 -0.0833053 0.3115 -0.94256 -0.341792 0.369912 0.163081 -1.45455 0.763245 0.0289358 -0.47538 0.0988465 0.739185 -0.174471 0.17767 0.418469 0.089856 -0.28176 0.108708 0.160237 0.342612 -0.931949 0.573213 -0.281619 0.00229088 -0.439288 -0.115527 -0.243602 0.26115 1.73535 -0.373371 -0.137918 -0.992999 0.205618 0.00831171 0.262739 0.261705 -0.0354922 0.0181324 0.531857 -0.801561 -0.00496279 -0.0649717 0.1943 -0.195655 0.0193111 -0.242997 0.258488 -0.446967 -0.306693 0.245798 1.74369 1.02397 -0.422219 1.28724 -0.353141 -0.0755294 -0.477837 0.517815 0.719152 -0.125119 -0.0364297 
-0.640323 0.288911 -0.260252 0.268033 1.23564 -0.138953 -0.359846 0.116229 0.00744418 -0.197304 -0.0401009 -0.021758 0.324679 0.860237 0.211667 -0.165035 0.415345 0.438538 0.245101 0.0209056 0.249062 0.368585 0.0369177 -0.168064 -0.812866 0.0500185 0.226192 -0.037647 0.787366 -0.504488 -0.438301 0.310924 0.498022 0.0188741 -0.308903 -0.00814517 -0.159124 -0.0232047 0.102573 0.1463 -0.0411917 0.488056 -0.520793 0.319887 0.441569 -0.0650639 0.358681 0.0883266 -0.116857 -0.0447794 0.0245704 0.24899 0.0166831 -0.0419613 -0.330092 0.0215279 -0.11574 -0.000215819 0.131091 0.152467 -0.134591 -0.0794515 -0.580402 -0.793262 -0.681709 0.144792 0.337587 -0.833977 -0.0360979 -0.0648514 -0.02498 0.217486 0.481557 -0.523619 0.323773 -0.597455 -0.320616 0.638272 0.0319935 -0.0662514 0.0822786 -0.080261 -0.0293562 -0.709265 0.636187 -0.00127671 -0.613196 -0.0308799 0.842297 0.38512 
0.315803 0.0547863 -0.342434 -0.194789 -0.239569 -0.110693 0.171562 0.049966 -0.111116 0.211024 -0.184677 -0.0728958 0.454416 -0.314304 -0.446336 0.174865 -0.347917 0.125366 0.385142 0.587746 0.139865 0.233492 0.344678 -0.255265 -0.0213358 -0.505504 0.358078 0.404262 0.341017 -0.0986565 0.0608625 0.275944 -0.0543035 -0.334997 -0.15376 -0.418212 0.416157 0.391353 0.360036 -0.028252 -0.137589 -0.471328 0.205395 -0.0928435 0.329383 0.0438338 0.175981 -0.362493 0.349548 0.198567 -0.436927 -0.359886 0.307711 -0.110518 0.0713936 -0.141215 -0.221437 -0.329652 0.161754 0.405125 -0.28407 -0.444643 -0.452582 -0.103285 -0.243188 -0.442417 0.29519 -0.560948 -0.0618275 -0.177847 0.140509 0.346992 0.272963 0.232798 -0.112107 0.0181723 -0.234385 -0.124385 -0.416535 0.299499 0.0729184 -0.13321 -0.0991786 0.335528 -0.126781 0.47383 0.092297 0.198802 -0.264441 -0.430771 -0.208094 0.251064 0.0836629 -0.244738 -0.0459622 -0.112594 -0.1604 0.338015 0.140622 0.197671 -0.0861906 0.227315 -0.0859142 0.497969 0.279272 -0.0226658 -0.37633 -0.39956 0.0169226 -0.394382 -0.184107 0.456449 -0.0983492 0.0989889 0.297166 -0.0607165 0.0240761 -0.309671 0.312555 -0.376638 -0.320007 -0.0710077 0.455084 -0.0331443 -0.559963 0.405489 -0.298588 -0.216622 0.234067 0.143837 -0.201997 -0.0601638 -0.17737 0.142962 -0.0250986 0.344442 0.0731395 0.272856 -0.159709 -0.0587957 -0.502765 0.178084 0.143316 0.249607 -0.165012 0.431878 0.339509 0.0875223 -0.414857 0.0552911 0.20243 -0.493167 0.470183 0.227136 -0.512986 0.221281 -0.151279 -0.294123 0.540627 -0.148006 0.317385 -0.278609 -0.171523 -0.378184 -0.321163 0.37197 0.417197 -0.470108 -0.287711 -0.633311 -0.419777 0.0325125 -0.270364 0.192631 0.372768 -0.457354 0.391542 -0.736747 0.355715 0.313243 0.175489 -0.136289 -0.481012 -0.438469 -0.0360135 -0.0255421 0.441332 -0.370564 0.316233 -0.345863 -0.0805109 0.164603 0.315764 0.248407 0.479692 0.333821 -0.274788 -0.419476 -0.0924774 -0.374656 -0.202675 0.439144 -0.181334 0.425248 0.069535 0.304725 -0.252479 0.312535 0.299841 0.238941 0.140981 -0.0477984 0.0384355 0.0122636 0.243026 0.118577 0.0603864 -0.0879773 0.00193786 0.0589391 -0.090449 0.251048 0.121489 -0.0171426 -0.412077 0.248909 -0.394923 0.80546 -0.087542 0.378212 -0.391991 0.078999 -0.0820845 0.182408 -0.390231 0.382674 0.0869401 0.146199 0.138442 -0.257007 -0.152717 -0.316535 -0.168731 0.273195 0.595176 0.118343 0.0822011 -0.172076 0.18918 0.121604 0.126109 0.526101 -0.550816 -0.11826 0.107314 -0.149508 -0.425858 -0.258338 0.0951611 0.196804 -0.405697 0.0406635 0.0551433 0.317812 0.332747 0.268211 -0.0700645 0.00965995 -0.414519 0.244651 -0.465769 -0.47975 0.486538 0.00139935 0.280249 0.341754 0.273503 -0.375342 -0.117474 0.334373 0.377089 -0.101565 0.101399 -0.149631 0.438169 0.407545 0.0887421 0.159196 0.362799 -0.467209 0.0464321 0.0632821 0.234688 -0.453873 -0.260423 -0.440409 -0.329767 0.216374 0.286315 -0.29039 
-0.316588 0.0301241 -0.13238 -0.362727 0.998729 0.754978 0.33373 1.02165 -0.155056 0.120857 -0.0293227 0.300016 0.416929 -0.458657 -0.189524 0.163978 -0.0773404 -0.0809944 0.166327 0.195048 0.395472 -0.0535153 -0.253323 -0.557487 0.136571 0.107646 -0.0204483 0.244579 -0.354012 0.209141 -0.235251 -0.0499822 -0.179198 0.484934 0.410694 -0.011677 -0.1007 -0.831244 0.400783 -0.0756952 0.038989 -0.346052 0.468061 0.377179 -1.36995 -0.893462 -0.347005 -1.0781 -0.373502 -0.0536309 -0.324346 0.337884 -0.227348 -0.171365 -0.364452 0.469522 0.246709 0.791465 0.158999 0.452084 -0.188902 -0.00712954 -0.597289 -0.432367 0.102305 0.77806 -0.348914 0.258367 0.522846 -0.395989 -0.254965 -0.170246 0.597063 -0.107106 -0.0601747 -0.296489 -0.497181 -0.387854 -0.0926886 -0.028773 0.416131 -0.39198 0.272619 -0.286177 -0.261468 0.233497 0.178657 0.463694 -0.0596331 -0.293643 -0.39918 -0.10964 -0.476027 -0.478139 -0.0806833 -0.0587304 0.413628 0.37907 0.236959 -0.00513715 -0.378442 0.0777256 -0.319195 -0.176435 0.250616 0.135179 -0.232653 0.376826 -0.101935 -0.334397 -0.41323 -0.488336 -0.167564 -0.0701078 -0.0208358 0.29122 -0.237676 -0.272116 -0.400956 -0.209197 -0.277163 0.227943 -0.218005 0.123428 -0.0214163 -0.418368 0.0259255 -0.126181 0.321143 0.148607 -0.550416 0.120715 0.602255 0.333847 -0.556352 0.184671 -0.00192533 -0.713479 -0.475914 -0.614159 -0.110947 -0.387681 -0.4226 -0.158302 -0.267496 -0.157149 -0.442846 0.204149 -0.162998 0.295283 0.0323967 -0.256698 0.260904 0.237712 -0.587303 -0.384977 0.164639 -0.783642 0.052133 -0.537326 -0.583765 -0.276487 -0.273358 -0.528209 -0.59176 0.446216 0.441185 0.86826 -0.0479217 -0.0637709 -0.104565 -0.205995 -0.339222 -0.0751164 0.625226 -0.0256931 -0.0826375 0.26502 -0.145596 0.263645 -0.16329 -0.0136263 0.254682 -0.420528 -0.209236 0.761562 0.434679 0.315376 -0.615947 -0.0168038 0.385201 0.0706528 0.173087 0.283704 -0.63173 0.240232 0.280321 0.52277 -0.144383 0.053527 -0.0371834 -0.329795 -0.217539 -0.12281 -0.443657 -0.30052 -0.400964 -0.200465 -0.192812 0.384699 -0.535866 -0.575573 0.396645 -0.420095 -0.310804 -0.0940666 -0.0792864 0.412909 -0.279142 0.249759 -0.206522 0.159424 0.0103674 -0.0995091 0.106597 0.0391105 -0.403805 0.0020394 -0.541158 -0.461354 0.250473 -0.0142254 0.475228 0.675683 -0.448779 0.144475 -0.260104 -0.685471 -0.0218875 0.146205 0.163354 0.351737 -0.404363 -0.158361 0.121809 0.26646 -0.604246 1.08872 0.714753 0.0416805 -0.266844 -0.255582 -0.146791 0.325897 0.778661 0.521823 -0.260654 -0.0358965 0.394132 0.445739 -0.46332 0.322901 0.591707 -0.0822942 0.259257 -0.0455703 0.377361 0.0121779 0.440975 0.454532 -0.45955 0.316307 -0.765211 -0.263231 0.83983 0.00716236 0.120198 0.624012 0.0693381 -0.0120917 0.369498 -0.0902983 -0.406862 -0.699438 0.770751 0.312745 -0.305007 0.942819 0.150004 0.0851892 0.249627 -0.0763224 -0.481998 0.23954 0.902746 -0.37858 -0.139673 0.167528 0.244724 0.0925776 -0.00501193 0.00581847 0.112482 0.00078552 0.851812 0.0524449 0.129689 0.0130512 0.0324115 -0.17124 0.177784 0.104842 -0.659497 -0.179775 -0.391282 -0.307223 0.165711 0.024972 0.1114 0.130122 -0.673699 0.0437334 -0.554867 -0.133723 0.763809 0.0696744 0.44786 0.389426 0.191005 0.259242 0.188384 -0.028431 0.10678 -0.209398 0.0854295 -0.477194 0.116612 -0.0609057 0.789417 0.682028 0.609097 0.126065 0.148005 -0.523309 -0.53538 0.0485669 -0.247842 -0.220171 0.206999 -0.149828 0.336869 0.314735 -0.293961 -0.0278932 -0.234626 -0.108234 -0.294815 0.0366661 -0.1692 -0.377182 0.291447 -0.080279 0.020529 0.28347 0.0702569 0.00614422 0.0132115 -0.119664 0.310631 0.0935149 0.242504 -0.249514 -0.456819 -0.165635 0.397754 -0.0343348 0.295964 0.0526245 -0.497736 0.920929 -0.00547317 -0.09783 0.221475 0.286253 -0.0582872 -0.0199574 0.209787 0.708872 -0.252451 0.340342 -0.285389 0.883482 0.339329 -0.00461728 0.189903 0.300833 -0.487111 -0.107951 -0.3298 -0.214446 1.09416 0.114037 -0.0732715 0.183723 -0.43094 -0.0300406 -0.225461 -0.444247 -0.0614442 -0.282735 0.975386 0.469626 -0.127645 -0.0856283 -0.155379 0.279116 0.238949 0.0092823 0.0748173 0.309161 
0.200317 0 0.282981 0 0 0 0 0 0 0 0 -0.210958 0.148638 0 0 0 0 0 0 0 0 0 1.41691 0 0 0 0 0 0 0 0 0 -0.0331518 -1.00887 0 0 0 0 0 0 0 0 0.232291 0 -2.57241 0 0 0 0 0 0 0 -0.24096 0 0 1.66622 0 0 0 0 0 0 0.164501 0 0 0 0.0645811 0 0 0 0 0 0.0677466 0 0 0 0 2.08612 0 0 0 0 0.275005 0 0 0 0 0 0.785679 0 0 0 -0.202245 0 0 0 0 0 0 0.607324 
